{"learner":{"attributes":{"scikit_learn":"{\"_estimator_type\": \"regressor\"}"},"feature_names":[],"feature_types":[],"gradient_booster":{"model":{"cats":{"enc":[],"feature_segments":[],"sorted_idx":[]},"gbtree_model_param":{"num_parallel_tree":"1","num_trees":"200"},"iteration_indptr":[0,1,2,3,4,5,6,7,8,9,10,11,12,13,14,15,16,17,18,19,20,21,22,23,24,25,26,27,28,29,30,31,32,33,34,35,36,37,38,39,40,41,42,43,44,45,46,47,48,49,50,51,52,53,54,55,56,57,58,59,60,61,62,63,64,65,66,67,68,69,70,71,72,73,74,75,76,77,78,79,80,81,82,83,84,85,86,87,88,89,90,91,92,93,94,95,96,97,98,99,100,101,102,103,104,105,106,107,108,109,110,111,112,113,114,115,116,117,118,119,120,121,122,123,124,125,126,127,128,129,130,131,132,133,134,135,136,137,138,139,140,141,142,143,144,145,146,147,148,149,150,151,152,153,154,155,156,157,158,159,160,161,162,163,164,165,166,167,168,169,170,171,172,173,174,175,176,177,178,179,180,181,182,183,184,185,186,187,188,189,190,191,192,193,194,195,196,197,198,199,200],"tree_info":[0,0,0,0,0,0,0,0,0,0,0,0,0,0,0,0,0,0,0,0,0,0,0,0,0,0,0,0,0,0,0,0,0,0,0,0,0,0,0,0,0,0,0,0,0,0,0,0,0,0,0,0,0,0,0,0,0,0,0,0,0,0,0,0,0,0,0,0,0,0,0,0,0,0,0,0,0,0,0,0,0,0,0,0,0,0,0,0,0,0,0,0,0,0,0,0,0,0,0,0,0,0,0,0,0,0,0,0,0,0,0,0,0,0,0,0,0,0,0,0,0,0,0,0,0,0,0,0,0,0,0,0,0,0,0,0,0,0,0,0,0,0,0,0,0,0,0,0,0,0,0,0,0,0,0,0,0,0,0,0,0,0,0,0,0,0,0,0,0,0,0,0,0,0,0,0,0,0,0,0,0,0,0,0,0,0,0,0,0,0,0,0,0,0,0,0,0,0,0,0],"trees":[{"base_weights":[-3.837192E-3,-6.212735E-2,3.3254538E0,1.3318263E-1,-4.1479897E-1,5.472853E0,4.1862333E-1,-1.17265545E-1,5.1618713E-1,-7.5783205E-1,-1.7476521E-1,1.3917073E0,7.049643E0,1.6385583E0,-1.8127342E-1,2.5579682E-1,-2.6209828E-1,4.5719466E-1,3.1871476E0,-1.06289074E-1,-9.044478E-1,-3.1389526E-1,2.981495E0,2.2757319E-1,2.7573172E-2,9.418052E0,8.395183E-1,3.9815854E-2,2.1923983E-1,-3.945741E-1,2.4075262E-1,3.5522017E0,5.3076178E-2,-5.7053834E-1,-2.0016468E-1,8.8112146E-1,2.509619E-1,4.8261642E-1,6.1385584E0,-3.2054085E-1,2.095735E-1,-3.8384876E-1,-1.006567E0,-5.9257877E-1,-1.0077827E-1,5.5013847E0,-4.713275E-1,3.0231586E-1,1.0495486E0,2.6481587E-1,-7.752975E-2,1.0906505E-2,-7.229817E-2,5.2315857E-2,-1.01841455E-2,6.486638E-1,2.807097E-3,7.976019E-2,-4.8083696E-3,-2.286019E-2,-7.42556E-2,-8.0182785E-3,-3.802596E-2,2.4033049E-1,8.1098475E-2,9.131998E-2,1.9285792E-2,-8.7529756E-2,1.3836098E-1,7.192399E-1,3.0231586E-1,-1.4489389E-2,-6.9305964E-2,-7.0665837E-3,4.793342E-2,-5.3674698E-2,2.2731586E-1,-4.697932E-2,-1.0847354E-1,2.3274623E-2,-7.043118E-2,2.1247025E-1,-1.2869378E-2,5.2470244E-2,6.885815E-1,-9.725528E-2,3.5906505E-2],"categories":[],"categories_nodes":[],"categories_segments":[],"categories_sizes":[],"default_left":[0,0,0,0,0,0,0,0,0,0,0,0,0,0,0,0,0,0,0,0,0,0,0,0,0,0,0,0,0,0,0,0,0,0,0,0,0,0,0,0,0,0,0,0,0,0,0,0,0,0,0,0,0,0,0,0,0,0,0,0,0,0,0,0,0,0,0,0,0,0,0,0,0,0,0,0,0,0,0,0,0,0,0,0,0,0,0],"id":0,"left_children":[1,3,5,7,9,11,13,15,17,19,21,23,25,27,29,31,33,35,37,39,41,43,45,-1,-1,47,49,-1,-1,51,53,55,57,59,61,63,65,67,69,71,73,75,77,79,81,83,85,-1,-1,-1,-1,-1,-1,-1,-1,-1,-1,-1,-1,-1,-1,-1,-1,-1,-1,-1,-1,-1,-1,-1,-1,-1,-1,-1,-1,-1,-1,-1,-1,-1,-1,-1,-1,-1,-1,-1,-1],"loss_changes":[6.879726E2,2.4003415E2,3.7847858E2,2.152153E2,1.0213324E2,2.1541772E2,2.005657E1,7.3387985E1,1.3830434E2,4.8717896E1,3.223795E2,1.0224556E1,3.5979614E2,5.309925E0,1.8053452E0,2.5374619E2,1.8568352E1,7.575345E1,1.486989E2,6.4962177E0,2.1782654E1,4.16336E1,2.7231567E2,0E0,0E0,9.229199E1,2.5418077E1,0E0,0E0,2.229038E0,7.305334E-1,2.2732736E2,2.707684E1,9.417763E0,1.7601742E1,2.8371063E1,2.2372372E1,1.4669256E1,7.8044434E0,3.6291924E0,2.982177E0,2.9657728E1,1.4092041E1,2.8197601E1,2.5061481E1,1.2040466E2,6.1762023E0,0E0,0E0,0E0,0E0,0E0,0E0,0E0,0E0,0E0,0E0,0E0,0E0,0E0,0E0,0E0,0E0,0E0,0E0,0E0,0E0,0E0,0E0,0E0,0E0,0E0,0E0,0E0,0E0,0E0,0E0,0E0,0E0,0E0,0E0,0E0,0E0,0E0,0E0,0E0,0E0],"parents":[2147483647,0,0,1,1,2,2,3,3,4,4,5,5,6,6,7,7,8,8,9,9,10,10,11,11,12,12,13,13,14,14,15,15,16,16,17,17,18,18,19,19,20,20,21,21,22,22,25,25,26,26,29,29,30,30,31,31,32,32,33,33,34,34,35,35,36,36,37,37,38,38,39,39,40,40,41,41,42,42,43,43,44,44,45,45,46,46],"right_children":[2,4,6,8,10,12,14,16,18,20,22,24,26,28,30,32,34,36,38,40,42,44,46,-1,-1,48,50,-1,-1,52,54,56,58,60,62,64,66,68,70,72,74,76,78,80,82,84,86,-1,-1,-1,-1,-1,-1,-1,-1,-1,-1,-1,-1,-1,-1,-1,-1,-1,-1,-1,-1,-1,-1,-1,-1,-1,-1,-1,-1,-1,-1,-1,-1,-1,-1,-1,-1,-1,-1,-1,-1],"split_conditions":[1.5E0,5.4E1,1.0148E3,1.08E1,1.26E1,3.19E3,2.11E3,-8.1653804E-1,4E-1,-5E-1,8.7E1,1E0,1.94E1,1.0211E3,6E1,1.0082E3,1.02E3,2.66E2,9.8E0,-6.354323E-1,1.0091E3,1.87E1,1.0131E3,2.2757319E-1,2.7573172E-2,9.5E1,7.1E1,3.9815854E-2,2.1923983E-1,2.5E0,9E1,-1.8369701E-16,1.0132E3,1E0,3.4E0,1.0004E3,4.9E1,1E-1,6E1,1.0186E3,6.9E1,7.516E2,6.6E1,7.3E1,1.07E2,3.27E3,7E1,3.0231586E-1,1.0495486E0,2.6481587E-1,-7.752975E-2,1.0906505E-2,-7.229817E-2,5.2315857E-2,-1.01841455E-2,6.486638E-1,2.807097E-3,7.976019E-2,-4.8083696E-3,-2.286019E-2,-7.42556E-2,-8.0182785E-3,-3.802596E-2,2.4033049E-1,8.1098475E-2,9.131998E-2,1.9285792E-2,-8.7529756E-2,1.3836098E-1,7.192399E-1,3.0231586E-1,-1.4489389E-2,-6.9305964E-2,-7.0665837E-3,4.793342E-2,-5.3674698E-2,2.2731586E-1,-4.697932E-2,-1.0847354E-1,2.3274623E-2,-7.043118E-2,2.1247025E-1,-1.2869378E-2,5.2470244E-2,6.885815E-1,-9.725528E-2,3.5906505E-2],"split_indices":[4,22,9,19,19,28,28,34,5,30,1,22,3,9,26,9,28,18,2,34,9,19,9,0,0,13,1,0,0,17,1,33,9,8,2,9,1,16,26,9,1,23,22,22,24,28,14,0,0,0,0,0,0,0,0,0,0,0,0,0,0,0,0,0,0,0,0,0,0,0,0,0,0,0,0,0,0,0,0,0,0,0,0,0,0,0,0],"split_type":[0,0,0,0,0,0,0,0,0,0,0,0,0,0,0,0,0,0,0,0,0,0,0,0,0,0,0,0,0,0,0,0,0,0,0,0,0,0,0,0,0,0,0,0,0,0,0,0,0,0,0,0,0,0,0,0,0,0,0,0,0,0,0,0,0,0,0,0,0,0,0,0,0,0,0,0,0,0,0,0,0,0,0,0,0,0,0],"sum_hessian":[3.543E3,3.483E3,6E1,2.242E3,1.241E3,3.4E1,2.6E1,1.356E3,8.86E2,5.1E2,7.31E2,1E1,2.4E1,8E0,1.8E1,3.79E2,9.77E2,8.68E2,1.8E1,9.4E1,4.16E2,7.01E2,3E1,5E0,5E0,1.7E1,7E0,3E0,5E0,1.2E1,6E0,2.1E1,3.58E2,1.62E2,8.15E2,2.83E2,5.85E2,1E1,8E0,5.6E1,3.8E1,6.9E1,3.47E2,3.03E2,3.98E2,1.7E1,1.3E1,3E0,1.4E1,3E0,4E0,5E0,7E0,3E0,3E0,1.1E1,1E1,4.2E1,3.16E2,5.5E1,1.07E2,4.9E2,3.25E2,1.1E1,2.72E2,4.6E1,5.39E2,4E0,6E0,5E0,3E0,3.9E1,1.7E1,1.9E1,1.9E1,6.6E1,3E0,4.5E1,3.02E2,3.6E1,2.67E2,4E0,3.94E2,4E0,1.3E1,8E0,5E0],"tree_param":{"num_deleted":"0","num_feature":"36","num_nodes":"87","size_leaf_vector":"1"}},{"base_weights":[2.1697992E-2,-3.533427E-2,3.3862338E0,1.3302006E-1,-4.173785E-1,6.0287843E0,6.308089E-1,-7.343771E-2,4.8859143E-1,-4.99196E-1,1.0941652E0,5.527541E-2,7.1018806E0,2.3558669E-1,1.9156261E-1,3.3423713E-1,-2.1464305E-1,3.729023E-1,1.3385534E0,-7.3561853E-1,-9.965356E-2,7.1081215E-1,2.1269864E-1,8.76111E0,1.5837014E0,1.7337288E-1,-9.7538635E-2,5.610477E0,8.143461E-2,-4.991442E-1,-1.20666444E-1,8.0845547E-1,1.433843E-1,6.8213487E-1,3.4380646E0,-5.524784E-2,-8.435328E-1,-2.4945317E-1,3.6048132E-1,-5.1687574E-1,4.6639843E0,9.869532E-1,5.4510266E-1,-6.686942E-2,3.4401718E-1,-2.4462873E-1,6.25524E-2,2.870513E-1,7.093135E-1,1.7071717E-3,1.5325552E-1,-3.1451855E-2,-6.26265E-2,-2.489826E-2,1.0658015E-3,7.277432E-2,1.570326E-1,1.8836944E-1,1.2948091E-2,4.5823384E-2,1.511272E-1,4.776689E-1,5.2754402E-2,5.1235225E-2,-4.5805465E-2,-9.129886E-2,-1.48776965E-2,1.9547263E-1,-2.8778572E-2,1.0741643E-1,2.2040887E-2,-8.596944E-2,7.003953E-2,7.1317226E-1,1.03025E-1,-4.774476E-2,2.226961E-2],"categories":[],"categories_nodes":[],"categories_segments":[],"categories_sizes":[],"default_left":[0,0,0,0,0,0,0,0,0,0,0,0,0,0,0,0,0,0,0,0,0,0,0,0,0,0,0,0,0,0,0,0,0,0,0,0,0,0,0,0,0,0,0,0,0,0,0,0,0,0,0,0,0,0,0,0,0,0,0,0,0,0,0,0,0,0,0,0,0,0,0,0,0,0,0,0,0],"id":1,"left_children":[1,3,5,7,9,11,13,15,17,19,21,-1,23,-1,25,27,29,31,33,35,37,-1,39,41,43,-1,45,47,49,51,53,55,57,59,61,63,65,67,69,71,73,-1,-1,-1,-1,75,-1,-1,-1,-1,-1,-1,-1,-1,-1,-1,-1,-1,-1,-1,-1,-1,-1,-1,-1,-1,-1,-1,-1,-1,-1,-1,-1,-1,-1,-1,-1],"loss_changes":[6.7920807E2,2.2394925E2,4.2579663E2,1.7746898E2,1.3225555E2,1.7236365E2,2.2280464E1,8.8147514E1,8.681908E1,9.5426605E1,2.9004868E2,0E0,2.150232E2,0E0,1.1315159E1,5.2507874E2,3.0339115E1,7.815847E1,1.4373956E2,4.6576202E1,2.607579E1,0E0,1.6154034E2,1.5911377E1,3.1570961E1,0E0,2.4928389E0,5.2762817E1,3.5185E1,6.421501E0,1.4427155E1,1.5460114E1,1.2192934E1,1.4530342E1,9.488245E1,2.0354404E1,2.630783E1,2.4642702E1,9.060206E0,1.8546162E1,5.5422287E1,0E0,0E0,0E0,0E0,2.1735644E0,0E0,0E0,0E0,0E0,0E0,0E0,0E0,0E0,0E0,0E0,0E0,0E0,0E0,0E0,0E0,0E0,0E0,0E0,0E0,0E0,0E0,0E0,0E0,0E0,0E0,0E0,0E0,0E0,0E0,0E0,0E0],"parents":[2147483647,0,0,1,1,2,2,3,3,4,4,5,5,6,6,7,7,8,8,9,9,10,10,12,12,14,14,15,15,16,16,17,17,18,18,19,19,20,20,22,22,23,23,24,24,26,26,27,27,28,28,29,29,30,30,31,31,32,32,33,33,34,34,35,35,36,36,37,37,38,38,39,39,40,40,45,45],"right_children":[2,4,6,8,10,12,14,16,18,20,22,-1,24,-1,26,28,30,32,34,36,38,-1,40,42,44,-1,46,48,50,52,54,56,58,60,62,64,66,68,70,72,74,-1,-1,-1,-1,76,-1,-1,-1,-1,-1,-1,-1,-1,-1,-1,-1,-1,-1,-1,-1,-1,-1,-1,-1,-1,-1,-1,-1,-1,-1,-1,-1,-1,-1,-1,-1],"split_conditions":[1.4E0,7.3E1,9.481E2,1.12E1,8.9E1,1.22E1,9.491E2,-8.311706E-1,9.8E1,1.87E1,-9.8734945E-1,5.527541E-2,1.84E1,2.3558669E-1,4.5E0,-5.049611E-1,1.18E2,5.7E1,1.1E1,-5E-1,7.37E2,7.1081215E-1,1.69E1,4E0,4.5E0,1.7337288E-1,7.0710677E-1,1E1,2E2,7.9E1,-3.4561232E-1,1.18E1,9.3E2,7.2E0,1.73E1,9.486E2,6.29E2,1.06E2,-7.8029585E-1,5E-1,1.76E1,9.869532E-1,5.4510266E-1,-6.686942E-2,3.4401718E-1,6E1,6.25524E-2,2.870513E-1,7.093135E-1,1.7071717E-3,1.5325552E-1,-3.1451855E-2,-6.26265E-2,-2.489826E-2,1.0658015E-3,7.277432E-2,1.570326E-1,1.8836944E-1,1.2948091E-2,4.5823384E-2,1.511272E-1,4.776689E-1,5.2754402E-2,5.1235225E-2,-4.5805465E-2,-9.129886E-2,-1.48776965E-2,1.9547263E-1,-2.8778572E-2,1.0741643E-1,2.2040887E-2,-8.596944E-2,7.003953E-2,7.1317226E-1,1.03025E-1,-4.774476E-2,2.226961E-2],"split_indices":[5,22,10,19,1,0,10,34,13,19,34,0,0,0,0,35,18,1,2,30,24,0,0,17,17,0,30,26,26,1,34,17,10,17,0,10,20,20,34,4,0,0,0,0,0,26,0,0,0,0,0,0,0,0,0,0,0,0,0,0,0,0,0,0,0,0,0,0,0,0,0,0,0,0,0,0,0],"split_type":[0,0,0,0,0,0,0,0,0,0,0,0,0,0,0,0,0,0,0,0,0,0,0,0,0,0,0,0,0,0,0,0,0,0,0,0,0,0,0,0,0,0,0,0,0,0,0,0,0,0,0,0,0,0,0,0,0,0,0,0,0,0,0,0,0,0,0,0,0,0,0,0,0,0,0,0,0],"sum_hessian":[3.538E3,3.48E3,5.8E1,2.416E3,1.064E3,2.9E1,2.9E1,1.529E3,8.87E2,1.01E3,5.4E1,5E0,2.4E1,5E0,2.4E1,3.93E2,1.136E3,7.82E2,1.05E2,6.34E2,3.76E2,6E0,4.8E1,1.8E1,6E0,3E0,2.1E1,1.7E1,3.76E2,2.81E2,8.55E2,2.69E2,5.13E2,8.1E1,2.4E1,8.7E1,5.47E2,2.84E2,9.2E1,4.2E1,6E0,1.2E1,6E0,3E0,3E0,1.8E1,3E0,7E0,1E1,3.61E2,1.5E1,1.16E2,1.65E2,4.32E2,4.23E2,2.45E2,2.4E1,3E0,5.1E2,6.5E1,1.6E1,1.6E1,8E0,3.6E1,5.1E1,4.97E2,5E1,4E0,2.8E2,1.4E1,7.8E1,3.3E1,9E0,3E0,3E0,1.2E1,6E0],"tree_param":{"num_deleted":"0","num_feature":"36","num_nodes":"77","size_leaf_vector":"1"}},{"base_weights":[-2.627009E-3,-4.7852542E-2,2.4326344E0,-3.4265107E-1,1.2248525E-1,4.2468467E0,3.0585805E-1,-3.575079E-2,-5.3122985E-1,7.0302004E-1,3.1012883E-2,5.3883305E0,3.5052422E-1,5.6628607E-2,1.5905254E-1,-2.4203381E-1,2.3506439E0,-6.403564E-1,1.6785501E-1,1.5855396E-1,3.3175964E0,-7.9655066E-2,4.8810104E-1,1.5413651E0,7.2261815E0,9.110221E-2,-8.156177E-3,-1.5714046E-1,8.310104E-2,-3.1116718E-1,3.7340498E-1,1.5666126E-1,7.27405E-1,-3.8855562E-1,-8.322538E-1,3.1020382E-1,-4.3664744E-1,-4.176305E-2,9.6466357E-1,5.3437033E0,1.0859625E0,1.8445152E-1,-1.2884788E-1,4.3382257E-1,2.4204555E0,3.2835937E-1,-1.6738614E-2,8.099122E0,2.1461086E-1,6.950436E-2,-3.2827708E-1,-4.4522904E-2,3.193908E-3,7.085005E-2,-5.9256405E-3,9.2353486E-2,-3.2068714E-2,-5.1489133E-2,4.8186104E-3,-1.02616765E-1,-6.0836077E-2,-1.14574665E-2,4.6227276E-2,-6.0891576E-2,-8.059705E-3,1.329328E-1,-1.3535473E-2,2.0573668E-1,8.249205E-2,2.7949557E-1,6.4628017E-1,2.9414702E-2,5.367412E-1,1.06821634E-1,-2.1799165E-3,-4.0475857E-2,-6.4894194E-3,9.357181E-2,2.4610166E-2,4.2711326E-1,4.748153E-2,9.829407E-1,5.8534425E-1,-8.9165695E-2,-1.669148E-2],"categories":[],"categories_nodes":[],"categories_segments":[],"categories_sizes":[],"default_left":[0,0,0,0,0,0,0,0,0,0,0,0,0,0,0,0,0,0,0,0,0,0,0,0,0,0,0,0,0,0,0,0,0,0,0,0,0,0,0,0,0,0,0,0,0,0,0,0,0,0,0,0,0,0,0,0,0,0,0,0,0,0,0,0,0,0,0,0,0,0,0,0,0,0,0,0,0,0,0,0,0,0,0,0,0],"id":2,"left_children":[1,3,5,7,9,11,13,15,17,19,21,23,25,27,-1,29,31,33,35,37,39,41,43,45,47,-1,-1,49,-1,51,53,55,-1,57,59,61,63,65,67,69,71,73,75,77,79,-1,-1,81,-1,-1,83,-1,-1,-1,-1,-1,-1,-1,-1,-1,-1,-1,-1,-1,-1,-1,-1,-1,-1,-1,-1,-1,-1,-1,-1,-1,-1,-1,-1,-1,-1,-1,-1,-1,-1],"loss_changes":[3.9264108E2,1.7579561E2,2.4949857E2,7.4176636E1,1.1781352E2,1.5377692E2,9.835414E0,2.4129028E2,6.0680725E1,4.2938556E2,9.7060936E1,1.797558E2,2.2539542E0,4.600135E0,0E0,1.930505E1,4.2013324E2,3.2872406E1,9.428873E0,4.057113E1,2.293164E2,2.0096634E1,3.817704E1,3.0319979E1,6.2441223E1,0E0,0E0,3.4366446E0,0E0,1.8689186E1,6.7111974E0,1.0546011E1,0E0,1.6522457E1,1.6264526E1,5.737378E0,1.2389827E0,2.610112E1,5.937725E0,5.8948853E1,8.6564255E1,4.431662E1,2.296583E1,3.415866E1,3.397952E1,0E0,0E0,7.4920654E-1,0E0,0E0,1.5784264E0,0E0,0E0,0E0,0E0,0E0,0E0,0E0,0E0,0E0,0E0,0E0,0E0,0E0,0E0,0E0,0E0,0E0,0E0,0E0,0E0,0E0,0E0,0E0,0E0,0E0,0E0,0E0,0E0,0E0,0E0,0E0,0E0,0E0,0E0],"parents":[2147483647,0,0,1,1,2,2,3,3,4,4,5,5,6,6,7,7,8,8,9,9,10,10,11,11,12,12,13,13,15,15,16,16,17,17,18,18,19,19,20,20,21,21,22,22,23,23,24,24,27,27,29,29,30,30,31,31,33,33,34,34,35,35,36,36,37,37,38,38,39,39,40,40,41,41,42,42,43,43,44,44,47,47,50,50],"right_children":[2,4,6,8,10,12,14,16,18,20,22,24,26,28,-1,30,32,34,36,38,40,42,44,46,48,-1,-1,50,-1,52,54,56,-1,58,60,62,64,66,68,70,72,74,76,78,80,-1,-1,82,-1,-1,84,-1,-1,-1,-1,-1,-1,-1,-1,-1,-1,-1,-1,-1,-1,-1,-1,-1,-1,-1,-1,-1,-1,-1,-1,-1,-1,-1,-1,-1,-1,-1,-1,-1,-1],"split_conditions":[1.1E0,-2.5881904E-1,1.0148E3,1.0139E3,1.0085E3,8.4E1,9.7E1,8.9E1,6.38E2,1.19E1,1.4E1,8.6E1,-8.717063E-1,7.0710677E-1,1.5905254E-1,8.128E2,1.39E1,0E0,5E-1,3.5E-1,-8.311706E-1,-8.660254E-1,2E-1,1.6E1,1E2,9.110221E-2,-8.156177E-3,-8.660254E-1,8.310104E-2,1.44E2,2.62E1,1.0018E3,7.27405E-1,1.48E2,1.03E2,2.29E1,2.2E1,9.964E2,-9.242907E-1,-8.498171E-1,7.1E1,1.015E3,1.42E2,1E-1,-5E-1,3.2835937E-1,-1.6738614E-2,1.8E1,2.1461086E-1,6.950436E-2,8.6E1,-4.4522904E-2,3.193908E-3,7.085005E-2,-5.9256405E-3,9.2353486E-2,-3.2068714E-2,-5.1489133E-2,4.8186104E-3,-1.02616765E-1,-6.0836077E-2,-1.14574665E-2,4.6227276E-2,-6.0891576E-2,-8.059705E-3,1.329328E-1,-1.3535473E-2,2.0573668E-1,8.249205E-2,2.7949557E-1,6.4628017E-1,2.9414702E-2,5.367412E-1,1.06821634E-1,-2.1799165E-3,-4.0475857E-2,-6.4894194E-3,9.357181E-2,2.4610166E-2,4.2711326E-1,4.748153E-2,9.829407E-1,5.8534425E-1,-8.9165695E-2,-1.669148E-2],"split_indices":[5,31,9,9,9,12,12,1,20,0,19,1,34,30,0,23,2,30,30,16,34,32,4,27,26,0,0,30,0,18,0,9,0,18,18,0,19,9,34,34,12,9,18,2,32,0,0,27,0,0,1,0,0,0,0,0,0,0,0,0,0,0,0,0,0,0,0,0,0,0,0,0,0,0,0,0,0,0,0,0,0,0,0,0,0],"split_type":[0,0,0,0,0,0,0,0,0,0,0,0,0,0,0,0,0,0,0,0,0,0,0,0,0,0,0,0,0,0,0,0,0,0,0,0,0,0,0,0,0,0,0,0,0,0,0,0,0,0,0,0,0,0,0,0,0,0,0,0,0,0,0,0,0,0,0,0,0,0,0,0,0,0,0,0,0,0,0,0,0,0,0,0,0],"sum_hessian":[3.563E3,3.499E3,6.4E1,1.281E3,2.218E3,3.4E1,3E1,4.88E2,7.93E2,3.01E2,1.917E3,2.6E1,8E0,2.6E1,4E0,4.5E2,3.8E1,6.86E2,1.07E2,2.5E2,5.1E1,1.544E3,3.73E2,9E0,1.7E1,3E0,5E0,2.1E1,5E0,4.05E2,4.5E1,2.7E1,1.1E1,2.98E2,3.88E2,8.7E1,2E1,2.01E2,4.9E1,2.6E1,2.5E1,2.42E2,1.302E3,3.64E2,9E0,4E0,5E0,1.4E1,3E0,3E0,1.8E1,2.91E2,1.14E2,2.5E1,2E1,1E1,1.7E1,2.31E2,6.7E1,2.06E2,1.82E2,2.3E1,6.4E1,1.3E1,7E0,1.2E1,1.89E2,4E0,4.5E1,9E0,1.7E1,2.2E1,3E0,4.5E1,1.97E2,2.44E2,1.058E3,9.8E1,2.66E2,4E0,5E0,6E0,8E0,3E0,1.5E1],"tree_param":{"num_deleted":"0","num_feature":"36","num_nodes":"85","size_leaf_vector":"1"}},{"base_weights":[1.8223971E-2,-2.4916671E-2,2.6346128E0,1.5711941E-1,-2.7833948E-1,4.855182E0,5.4394966E-1,2.7142007E-2,5.283973E-1,3.1701193E-4,-4.316156E-1,5.935207E0,7.672227E-1,9.8224676E-1,-4.7469896E-1,4.019446E-1,-1.3366432E-1,4.7202635E-1,3.1502948E0,-8.073536E-2,3.780276E0,-2.0094718E-1,-6.575304E-1,3.1732466E-2,6.8055396E0,2.1449208E-1,-8.022811E-2,1.768703E-1,5.767817E-1,2.5928188E-2,-8.263025E-2,3.7603412E0,1.6505037E-1,8.844071E-1,-1.5105593E-1,7.909941E-1,2.7244383E-1,4.2850533E-1,9.320378E-3,3.2824734E-1,-2.0374347E-1,2.4831442E-2,6.682192E-1,-2.7660602E-1,4.71559E-1,-7.3684096E-1,1.6377781E-1,2.1652627E-1,7.540262E0,1.5992057E-1,2.1782187E-1,5.592377E-1,-4.6296876E-2,8.218113E-2,-4.8958743E-3,1.4586583E-1,2.7914042E-2,-2.7374675E-2,-1.3931899E-3,8.8756315E-2,1.9096417E-2,4.7496047E-2,7.198309E-3,-2.043374E-2,5.617098E-2,-5.104166E-2,5.0165425E-3,5.087543E-3,-4.6168182E-2,1.8505082E-2,7.503567E-2,-8.527052E-2,-5.0483108E-2,1.8351452E-1,-7.453388E-4,8.827438E-1,5.149658E-1,1.09778695E-1,-1.5594634E-2],"categories":[],"categories_nodes":[],"categories_segments":[],"categories_sizes":[],"default_left":[0,0,0,0,0,0,0,0,0,0,0,0,0,0,0,0,0,0,0,0,0,0,0,0,0,0,0,0,0,0,0,0,0,0,0,0,0,0,0,0,0,0,0,0,0,0,0,0,0,0,0,0,0,0,0,0,0,0,0,0,0,0,0,0,0,0,0,0,0,0,0,0,0,0,0,0,0,0,0],"id":3,"left_children":[1,3,5,7,9,11,13,15,17,19,21,23,25,27,29,31,33,35,37,39,41,43,45,-1,47,-1,-1,-1,49,-1,-1,51,53,55,57,59,61,-1,-1,63,65,-1,-1,67,69,71,73,-1,75,-1,77,-1,-1,-1,-1,-1,-1,-1,-1,-1,-1,-1,-1,-1,-1,-1,-1,-1,-1,-1,-1,-1,-1,-1,-1,-1,-1,-1,-1],"loss_changes":[4.0358554E2,1.6233644E2,2.6662183E2,9.8817505E1,6.2828568E1,1.1906909E2,1.4306867E1,9.154455E1,7.699419E1,1.6053917E2,4.932161E1,1.0540784E2,1.6856947E1,5.9952145E0,2.7949479E0,3.6216602E2,1.8954967E1,3.2951546E1,3.776027E1,2.5874979E1,1.1108472E2,2.4095404E1,3.1321991E1,0E0,4.845038E1,0E0,0E0,0E0,5.5238047E0,0E0,0E0,2.3470673E2,6.0056286E1,5.84918E0,1.7593946E1,1.1419388E1,1.3037926E1,0E0,0E0,1.4911067E1,3.0783083E1,0E0,0E0,2.5721653E1,3.695282E0,1.1316818E1,1.2319859E1,0E0,3.7756958E0,0E0,4.4469347E0,0E0,0E0,0E0,0E0,0E0,0E0,0E0,0E0,0E0,0E0,0E0,0E0,0E0,0E0,0E0,0E0,0E0,0E0,0E0,0E0,0E0,0E0,0E0,0E0,0E0,0E0,0E0,0E0],"parents":[2147483647,0,0,1,1,2,2,3,3,4,4,5,5,6,6,7,7,8,8,9,9,10,10,11,11,12,12,13,13,14,14,15,15,16,16,17,17,18,18,19,19,20,20,21,21,22,22,24,24,28,28,31,31,32,32,33,33,34,34,35,35,36,36,39,39,40,40,43,43,44,44,45,45,46,46,48,48,50,50],"right_children":[2,4,6,8,10,12,14,16,18,20,22,24,26,28,30,32,34,36,38,40,42,44,46,-1,48,-1,-1,-1,50,-1,-1,52,54,56,58,60,62,-1,-1,64,66,-1,-1,68,70,72,74,-1,76,-1,78,-1,-1,-1,-1,-1,-1,-1,-1,-1,-1,-1,-1,-1,-1,-1,-1,-1,-1,-1,-1,-1,-1,-1,-1,-1,-1,-1,-1],"split_conditions":[1.4E0,1.19E1,1.0137E3,6E0,1.0138E3,1.92E1,4.961E2,-8.311706E-1,4E-1,9.1E1,2.5881904E-1,1.12E1,7.1E1,6.123234E-17,-8.660254E-1,-1.8369701E-16,9.964E2,5.8E1,7E-1,7E1,1.45E1,5.26E2,8.8E0,3.1732466E-2,9.5E1,2.1449208E-1,-8.022811E-2,1.768703E-1,1.0151E3,2.5928188E-2,-8.263025E-2,1.011E3,1.0148E3,5.3E1,3.2E0,9.7E-1,1.0169E3,4.2850533E-1,9.320378E-3,2.7E-1,3.11E3,2.4831442E-2,6.682192E-1,3.743E2,1.0169E3,5.1E0,1.05E1,2.1652627E-1,1E1,1.5992057E-1,1.8E0,5.592377E-1,-4.6296876E-2,8.218113E-2,-4.8958743E-3,1.4586583E-1,2.7914042E-2,-2.7374675E-2,-1.3931899E-3,8.8756315E-2,1.9096417E-2,4.7496047E-2,7.198309E-3,-2.043374E-2,5.617098E-2,-5.104166E-2,5.0165425E-3,5.087543E-3,-4.6168182E-2,1.8505082E-2,7.503567E-2,-8.527052E-2,-5.0483108E-2,1.8351452E-1,-7.453388E-4,8.827438E-1,5.149658E-1,1.09778695E-1,-1.5594634E-2],"split_indices":[5,23,9,17,9,3,25,34,5,1,30,0,1,31,31,33,9,1,5,22,2,21,17,0,13,0,0,0,9,0,0,9,9,8,17,16,9,0,0,16,28,0,0,25,9,17,0,0,26,0,5,0,0,0,0,0,0,0,0,0,0,0,0,0,0,0,0,0,0,0,0,0,0,0,0,0,0,0,0],"split_type":[0,0,0,0,0,0,0,0,0,0,0,0,0,0,0,0,0,0,0,0,0,0,0,0,0,0,0,0,0,0,0,0,0,0,0,0,0,0,0,0,0,0,0,0,0,0,0,0,0,0,0,0,0,0,0,0,0,0,0,0,0,0,0,0,0,0,0,0,0,0,0,0,0,0,0,0,0,0,0],"sum_hessian":[3.574E3,3.517E3,5.7E1,2.047E3,1.47E3,2.7E1,3E1,1.517E3,5.3E2,5.22E2,9.48E2,2.1E1,6E0,2.1E1,9E0,4.55E2,1.062E3,5.2E2,1E1,5.12E2,1E1,4.7E2,4.78E2,3E0,1.8E1,3E0,3E0,6E0,1.5E1,3E0,6E0,2.9E1,4.26E2,1.7E1,1.045E3,1.99E2,3.21E2,7E0,3E0,1.18E2,3.94E2,5E0,5E0,4.23E2,4.7E1,4.36E2,4.2E1,3E0,1.5E1,3E0,1.2E1,2E1,9E0,1.04E2,3.22E2,8E0,9E0,5.51E2,4.94E2,1.71E2,2.8E1,1.59E2,1.62E2,3.6E1,8.2E1,1.78E2,2.16E2,1.53E2,2.7E2,2.4E1,2.3E1,2.89E2,1.47E2,3E0,3.9E1,8E0,7E0,3E0,9E0],"tree_param":{"num_deleted":"0","num_feature":"36","num_nodes":"79","size_leaf_vector":"1"}},{"base_weights":[4.235307E-3,-4.3532282E-2,3.0058408E0,2.064606E-1,-1.6861673E-1,9.56513E-1,4.4051747E0,1.5269542E-1,2.4015388E0,-4.972736E-1,-4.6352323E-2,1.8085022E-1,4.9931148E-1,6.3656E0,-9.436627E-2,5.173176E-1,-4.778221E-2,1.20958805E-1,3.1559725E0,-5.66338E-1,-5.4943733E-2,2.6403362E-2,-2.1076117E-1,7.0292604E-1,-1.2994871E-2,7.954709E-1,4.5313077E0,4.1773506E-2,-4.4667202E-1,1.7025551E0,8.351088E-2,3.710292E-1,-2.3701441E-1,5.382455E-2,-4.3088924E-2,1.4545903E0,5.2628607E-1,-2.7592432E-1,-7.4489963E-1,-1.4287978E-1,5.0656325E-1,-4.4846136E-2,3.4330982E-1,-3.4976248E-2,-4.3607235E-1,9.262853E-1,1.6029416E-2,3.673635E-2,5.743755E-1,-1.7018694E-2,-6.114891E-2,3.47477E-1,7.8098655E-2,8.5755095E-2,-7.5362823E-3,4.587672E-2,-4.0482618E-2,1.09687224E-1,-3.0500239E-2,3.9310715E-1,3.185389E-2,-1.4818574E-2,-5.1537275E-2,-9.342179E-2,-6.575127E-2,-2.4714414E-2,3.365155E-2,6.638732E-2,2.5975108E-3,3.2912318E-3,-1.9998465E-2,7.245475E-2,3.7380594E-3,-9.845048E-3,5.1080193E-2,-1.3741984E-2,-5.975048E-2,4.0707566E-2,1.260238E-1],"categories":[],"categories_nodes":[],"categories_segments":[],"categories_sizes":[],"default_left":[0,0,0,0,0,0,0,0,0,0,0,0,0,0,0,0,0,0,0,0,0,0,0,0,0,0,0,0,0,0,0,0,0,0,0,0,0,0,0,0,0,0,0,0,0,0,0,0,0,0,0,0,0,0,0,0,0,0,0,0,0,0,0,0,0,0,0,0,0,0,0,0,0,0,0,0,0,0,0],"id":4,"left_children":[1,3,5,7,9,11,13,15,17,19,21,-1,23,25,27,29,31,33,35,37,39,41,43,45,-1,-1,47,-1,49,51,53,55,57,-1,-1,59,-1,61,63,65,67,69,71,73,75,77,-1,-1,-1,-1,-1,-1,-1,-1,-1,-1,-1,-1,-1,-1,-1,-1,-1,-1,-1,-1,-1,-1,-1,-1,-1,-1,-1,-1,-1,-1,-1,-1,-1],"loss_changes":[5.1256903E2,1.1007471E2,1.5637732E2,1.3818733E2,9.424635E1,8.445734E0,2.916941E2,8.38688E1,4.7793533E1,1.9398193E1,2.0471996E1,0E0,2.269496E0,3.0997192E1,2.1711693E0,2.0912253E2,5.881412E1,2.0741549E0,6.7621765E1,2.8315674E1,4.368151E0,2.6817175E1,2.0778059E1,1.427146E0,0E0,0E0,6.352124E1,0E0,2.1491885E-1,1.7530698E2,3.6834034E1,1.5910345E1,4.6676254E1,0E0,0E0,3.532213E1,0E0,6.377445E0,5.010681E0,3.8819394E0,8.89971E-1,1.1708013E1,2.539864E1,1.0304572E1,1.1006699E1,1.0475106E0,0E0,0E0,0E0,0E0,0E0,0E0,0E0,0E0,0E0,0E0,0E0,0E0,0E0,0E0,0E0,0E0,0E0,0E0,0E0,0E0,0E0,0E0,0E0,0E0,0E0,0E0,0E0,0E0,0E0,0E0,0E0,0E0,0E0],"parents":[2147483647,0,0,1,1,2,2,3,3,4,4,5,5,6,6,7,7,8,8,9,9,10,10,12,12,13,13,14,14,15,15,16,16,17,17,18,18,19,19,20,20,21,21,22,22,23,23,26,26,28,28,29,29,30,30,31,31,32,32,35,35,37,37,38,38,39,39,40,40,41,41,42,42,43,43,44,44,45,45],"right_children":[2,4,6,8,10,12,14,16,18,20,22,-1,24,26,28,30,32,34,36,38,40,42,44,46,-1,-1,48,-1,50,52,54,56,58,-1,-1,60,-1,62,64,66,68,70,72,74,76,78,-1,-1,-1,-1,-1,-1,-1,-1,-1,-1,-1,-1,-1,-1,-1,-1,-1,-1,-1,-1,-1,-1,-1,-1,-1,-1,-1,-1,-1,-1,-1,-1,-1],"split_conditions":[1.4E0,1.0133E3,3.1E3,4E-1,1.15E2,5.3E0,1.89E1,5E-1,8.7E0,4.2E2,9.8E0,1.8085022E-1,-5E-1,1E1,9.8E1,1.67E1,5.3E1,-7.0710677E-1,0E0,3.141E2,1.0214E3,2E-2,2.5881904E-1,7.8E0,-1.2994871E-2,7.954709E-1,1.68E1,4.1773506E-2,8.096E2,1.93E2,1.0086E3,8.7E0,9.964E2,5.382455E-2,-4.3088924E-2,1.0076E3,5.2628607E-1,5E-1,9.2E0,7.84E2,1.0272E3,2.85E2,1.11E1,5.2E-1,1E0,5E-1,1.6029416E-2,3.673635E-2,5.743755E-1,-1.7018694E-2,-6.114891E-2,3.47477E-1,7.8098655E-2,8.5755095E-2,-7.5362823E-3,4.587672E-2,-4.0482618E-2,1.09687224E-1,-3.0500239E-2,3.9310715E-1,3.185389E-2,-1.4818574E-2,-5.1537275E-2,-9.342179E-2,-6.575127E-2,-2.4714414E-2,3.365155E-2,6.638732E-2,2.5975108E-3,3.2912318E-3,-1.9998465E-2,7.245475E-2,3.7380594E-3,-9.845048E-3,5.1080193E-2,-1.3741984E-2,-5.975048E-2,4.0707566E-2,1.260238E-1],"split_indices":[4,9,28,5,18,0,0,33,0,21,23,0,32,26,13,0,1,30,30,25,9,15,30,2,0,0,0,0,25,18,9,3,9,0,0,9,0,30,0,24,9,18,0,15,11,30,0,0,0,0,0,0,0,0,0,0,0,0,0,0,0,0,0,0,0,0,0,0,0,0,0,0,0,0,0,0,0,0,0],"split_type":[0,0,0,0,0,0,0,0,0,0,0,0,0,0,0,0,0,0,0,0,0,0,0,0,0,0,0,0,0,0,0,0,0,0,0,0,0,0,0,0,0,0,0,0,0,0,0,0,0,0,0,0,0,0,0,0,0,0,0,0,0,0,0,0,0,0,0,0,0,0,0,0,0,0,0,0,0,0,0],"sum_hessian":[3.573E3,3.518E3,5.5E1,1.173E3,2.345E3,2.3E1,3.2E1,1.146E3,2.7E1,6.35E2,1.71E3,7E0,1.6E1,2.2E1,1E1,4.06E2,7.4E2,7E0,2E1,5.49E2,8.6E1,1.186E3,5.24E2,1.2E1,4E0,1E1,1.2E1,4E0,6E0,1.08E2,2.98E2,2.3E2,5.1E2,4E0,3E0,1.2E1,8E0,2.1E2,3.39E2,7.5E1,1.1E1,9.69E2,2.17E2,2.95E2,2.29E2,8E0,4E0,3E0,9E0,3E0,3E0,3.6E1,7.2E1,5E1,2.48E2,2.07E2,2.3E1,2.4E1,4.86E2,3E0,9E0,1.38E2,7.2E1,1.04E2,2.35E2,6.2E1,1.3E1,8E0,3E0,6.46E2,3.23E2,9.6E1,1.21E2,2.65E2,3E1,8.1E1,1.48E2,4E0,4E0],"tree_param":{"num_deleted":"0","num_feature":"36","num_nodes":"79","size_leaf_vector":"1"}},{"base_weights":[-2.9257924E-4,-4.255852E-2,2.0302136E0,3.5713345E-1,-1.1399453E-1,4.462654E0,8.220379E-1,2.137882E0,3.25691E-2,1.8159254E-2,-3.1318685E-1,5.56994E0,9.778244E-1,3.1938902E-1,6.0268795E-1,3.5072896E0,-1.7624334E-3,8.822301E-1,-5.6839198E-2,-6.3344434E-2,4.579232E-1,-5.621978E-1,-1.576374E-1,8.099035E-2,6.467954E0,2.0254138E-1,-3.142211E-2,3.591017E-1,1.4680468E-1,4.1943564E0,3.3958796E-1,-2.2060388E-1,1.6399892E-1,3.0778855E-1,1.7426827E0,-3.9798683E-1,1.4227329E-1,3.8226223E-1,-1.0240966E-1,7.19383E-1,2.6020214E-1,2.0157382E-1,-6.222594E-1,8.215062E-1,-2.1094649E-1,7.4788423E0,2.9504088E-1,-2.738586E-1,6.617703E-1,1.1680738E-1,4.783059E-1,-2.4042178E-2,1.269708E-1,-6.317665E-2,1.7864875E-2,1.3279942E-2,8.981173E-2,1.2383366E-1,2.0533974E-1,-4.4386886E-2,6.0928162E-2,-8.781472E-3,4.9160864E-2,2.2351718E-1,1.785039E-2,-1.9892473E-2,5.2676126E-3,4.606242E-2,1.0489017E-1,1.0254751E-2,7.044486E-2,5.21472E-2,-7.842323E-3,6.555604E-2,-6.422173E-2,4.0708986E-1,-4.843803E-2,-2.9701278E-2,2.9233122E-2,3.4423766E-1,8.56222E-1,-6.583638E-3,-5.9352692E-2,1.321143E-1,2.349763E-2],"categories":[],"categories_nodes":[],"categories_segments":[],"categories_sizes":[],"default_left":[0,0,0,0,0,0,0,0,0,0,0,0,0,0,0,0,0,0,0,0,0,0,0,0,0,0,0,0,0,0,0,0,0,0,0,0,0,0,0,0,0,0,0,0,0,0,0,0,0,0,0,0,0,0,0,0,0,0,0,0,0,0,0,0,0,0,0,0,0,0,0,0,0,0,0,0,0,0,0,0,0,0,0,0,0],"id":5,"left_children":[1,3,5,7,9,11,13,15,17,19,21,23,25,-1,27,29,31,33,35,37,39,41,43,-1,45,-1,-1,47,-1,49,51,53,-1,55,57,59,61,63,65,67,69,71,73,75,77,79,-1,81,83,-1,-1,-1,-1,-1,-1,-1,-1,-1,-1,-1,-1,-1,-1,-1,-1,-1,-1,-1,-1,-1,-1,-1,-1,-1,-1,-1,-1,-1,-1,-1,-1,-1,-1,-1,-1],"loss_changes":[3.072407E2,1.0017398E2,2.1086502E2,3.0740906E2,7.834596E1,8.7162506E1,2.408836E1,2.4026996E2,3.4311146E1,6.4186874E1,4.5888054E1,7.170398E1,1.011116E1,0E0,9.379929E0,1.0739673E2,1.2218137E1,2.0717648E1,2.7838665E1,2.6342222E1,1.4287724E1,2.104367E1,3.8381687E1,0E0,3.1272034E1,0E0,0E0,7.461165E0,0E0,6.7457886E1,5.700052E0,5.037596E0,0E0,2.6698606E0,1.2123871E-1,7.2489815E0,2.0861038E1,4.5661602E1,2.0816154E1,9.748749E0,1.1203799E1,3.0862935E0,1.1208664E1,1.6321869E2,3.0190922E1,1.8628784E1,0E0,8.2539976E-1,7.0063868E0,0E0,0E0,0E0,0E0,0E0,0E0,0E0,0E0,0E0,0E0,0E0,0E0,0E0,0E0,0E0,0E0,0E0,0E0,0E0,0E0,0E0,0E0,0E0,0E0,0E0,0E0,0E0,0E0,0E0,0E0,0E0,0E0,0E0,0E0,0E0,0E0],"parents":[2147483647,0,0,1,1,2,2,3,3,4,4,5,5,6,6,7,7,8,8,9,9,10,10,11,11,12,12,14,14,15,15,16,16,17,17,18,18,19,19,20,20,21,21,22,22,24,24,27,27,29,29,30,30,31,31,33,33,34,34,35,35,36,36,37,37,38,38,39,39,40,40,41,41,42,42,43,43,44,44,45,45,47,47,48,48],"right_children":[2,4,6,8,10,12,14,16,18,20,22,24,26,-1,28,30,32,34,36,38,40,42,44,-1,46,-1,-1,48,-1,50,52,54,-1,56,58,60,62,64,66,68,70,72,74,76,78,80,-1,82,84,-1,-1,-1,-1,-1,-1,-1,-1,-1,-1,-1,-1,-1,-1,-1,-1,-1,-1,-1,-1,-1,-1,-1,-1,-1,-1,-1,-1,-1,-1,-1,-1,-1,-1,-1,-1],"split_conditions":[1.1E0,1.0086E3,9.469E2,-1.8369701E-16,1.796E2,8.4E1,3.7E1,2.6E1,9.98E2,1.48E1,1.19E1,1.007E3,9E1,3.1938902E-1,9.7E1,2E-1,4.3E1,1.12E1,1.28E2,-9.8734945E-1,2.66E2,-8.660254E-1,2E-1,8.099035E-2,9.3E1,2.0254138E-1,-3.142211E-2,9.9E1,1.4680468E-1,5.6E1,-5E-1,1.0074E3,1.6399892E-1,5E-1,2.6E-1,9.659258E-1,2.8E-1,1.015E3,4.4E0,0E0,7.498264E-1,9.1E-1,9.411E2,-9.8734945E-1,7.45E2,2.2E0,2.9504088E-1,7.824E2,1.0153E3,1.1680738E-1,4.783059E-1,-2.4042178E-2,1.269708E-1,-6.317665E-2,1.7864875E-2,1.3279942E-2,8.981173E-2,1.2383366E-1,2.0533974E-1,-4.4386886E-2,6.0928162E-2,-8.781472E-3,4.9160864E-2,2.2351718E-1,1.785039E-2,-1.9892473E-2,5.2676126E-3,4.606242E-2,1.0489017E-1,1.0254751E-2,7.044486E-2,5.21472E-2,-7.842323E-3,6.555604E-2,-6.422173E-2,4.0708986E-1,-4.843803E-2,-2.9701278E-2,2.9233122E-2,3.4423766E-1,8.56222E-1,-6.583638E-3,-5.9352692E-2,1.321143E-1,2.349763E-2],"split_indices":[5,9,10,33,25,12,18,27,9,19,19,9,12,0,12,15,12,19,18,34,18,30,16,0,20,0,0,18,0,11,32,9,0,30,16,30,16,9,17,30,35,16,10,34,24,17,0,25,9,0,0,0,0,0,0,0,0,0,0,0,0,0,0,0,0,0,0,0,0,0,0,0,0,0,0,0,0,0,0,0,0,0,0,0,0],"split_type":[0,0,0,0,0,0,0,0,0,0,0,0,0,0,0,0,0,0,0,0,0,0,0,0,0,0,0,0,0,0,0,0,0,0,0,0,0,0,0,0,0,0,0,0,0,0,0,0,0,0,0,0,0,0,0,0,0,0,0,0,0,0,0,0,0,0,0,0,0,0,0,0,0,0,0,0,0,0,0,0,0,0,0,0,0],"sum_hessian":[3.578E3,3.506E3,7.2E1,5.31E2,2.975E3,2.3E1,4.9E1,8.1E1,4.5E2,1.789E3,1.186E3,1.7E1,6E0,3E0,4.6E1,4.9E1,3.2E1,4.2E1,4.08E2,1.51E3,2.79E2,4.55E2,7.31E2,3E0,1.4E1,3E0,3E0,3.7E1,9E0,4E1,9E0,2.9E1,3E0,2.6E1,1.6E1,1.5E2,2.58E2,1.21E2,1.389E3,1.19E2,1.6E2,3.3E1,4.22E2,3.7E1,6.94E2,1E1,4E0,1.2E1,2.5E1,7E0,3.3E1,6E0,3E0,1.4E1,1.5E1,2.1E1,5E0,8E0,8E0,1.44E2,6E0,1.56E2,1.02E2,1.1E1,1.1E2,8.56E2,5.33E2,6.8E1,5.1E1,1.19E2,4.1E1,1.5E1,1.8E1,6E0,4.16E2,1E1,2.7E1,5.93E2,1.01E2,3E0,7E0,8E0,4E0,9E0,1.6E1],"tree_param":{"num_deleted":"0","num_feature":"36","num_nodes":"85","size_leaf_vector":"1"}},{"base_weights":[7.9340563E-4,-3.858431E-2,2.4646993E0,8.340199E-2,-3.1503546E-1,4.212106E0,5.668596E-1,-1.06347464E-1,2.4280308E-1,-3.7461695E-1,8.162261E-1,5.6188097E0,2.0485632E0,1.1382391E0,-4.1965774E-1,-3.3122534E-1,-8.84061E-3,7.658514E-1,1.6858158E-1,-5.6098056E-1,-1.500929E-1,5.578822E-1,1.0467618E-1,1.9742997E-1,6.2587547E0,-3.5586253E-1,4.1603374E0,2.6910865E-1,5.0234795E-1,1.7396383E-2,-7.8372204E-1,-3.9218697E-1,7.675516E-1,6.8432236E-1,-7.853711E-2,4.130583E-1,4.0033712E0,9.458665E-2,6.4022696E-1,-2.161904E-1,-6.183538E-1,-2.4223287E-1,1.9206184E-1,-3.607645E-1,5.3147143E-1,4.0464815E-1,7.4121493E-1,5.6376506E-2,-1.1865244E-1,5.102115E-1,2.1784751E-1,2.9551005E-2,1.3474722E-1,-9.6581005E-2,-4.0570356E-2,7.759184E-2,-4.0573206E-2,1.9631083E-1,-6.461283E-2,2.2151334E-2,3.1885976E-1,-9.126301E-3,9.171531E-2,7.882542E-3,7.69407E-2,1.460112E-1,4.477961E-1,8.123266E-3,2.300037E-1,7.2515994E-2,-1.5356761E-2,-6.400213E-2,-1.1807617E-2,-9.274738E-4,-6.5487795E-2,2.4867876E-2,-2.8363584E-2,-4.2033862E-2,2.7338848E-2,-7.181422E-2,8.186434E-3,-1.681802E-2,3.6819287E-2],"categories":[],"categories_nodes":[],"categories_segments":[],"categories_sizes":[],"default_left":[0,0,0,0,0,0,0,0,0,0,0,0,0,0,0,0,0,0,0,0,0,0,0,0,0,0,0,0,0,0,0,0,0,0,0,0,0,0,0,0,0,0,0,0,0,0,0,0,0,0,0,0,0,0,0,0,0,0,0,0,0,0,0,0,0,0,0,0,0,0,0,0,0,0,0,0,0,0,0,0,0,0,0],"id":6,"left_children":[1,3,5,7,9,11,13,15,17,19,21,23,25,27,29,31,33,35,37,39,41,-1,43,-1,45,47,49,-1,51,-1,53,55,57,59,61,63,65,67,69,71,73,75,77,79,-1,-1,-1,-1,-1,-1,-1,81,-1,-1,-1,-1,-1,-1,-1,-1,-1,-1,-1,-1,-1,-1,-1,-1,-1,-1,-1,-1,-1,-1,-1,-1,-1,-1,-1,-1,-1,-1,-1],"loss_changes":[3.453999E2,1.1819256E2,1.8332507E2,7.358475E1,7.262835E1,7.675E1,1.6260593E1,2.4358118E1,5.1192825E1,4.259578E1,1.8241257E2,2.7292175E1,6.7489365E1,1.6422094E1,2.51362E0,2.2807392E1,3.7543106E1,1.8566306E2,4.0387806E1,1.0884735E1,1.4674646E1,0E0,1.1831563E2,0E0,5.729553E0,6.016218E0,1.9504852E0,0E0,5.5541916E0,0E0,8.999586E-2,5.3620453E0,3.1690838E1,8.1582756E1,9.029463E0,1.7685766E1,1.2773743E1,2.9353094E1,1.06961975E1,3.2927196E0,1.0605301E1,7.5095577E0,5.045558E0,7.1771445E0,0E0,0E0,0E0,0E0,0E0,0E0,0E0,7.3152333E-1,0E0,0E0,0E0,0E0,0E0,0E0,0E0,0E0,0E0,0E0,0E0,0E0,0E0,0E0,0E0,0E0,0E0,0E0,0E0,0E0,0E0,0E0,0E0,0E0,0E0,0E0,0E0,0E0,0E0,0E0,0E0],"parents":[2147483647,0,0,1,1,2,2,3,3,4,4,5,5,6,6,7,7,8,8,9,9,10,10,11,11,12,12,13,13,14,14,15,15,16,16,17,17,18,18,19,19,20,20,22,22,24,24,25,25,26,26,28,28,30,30,31,31,32,32,33,33,34,34,35,35,36,36,37,37,38,38,39,39,40,40,41,41,42,42,43,43,51,51],"right_children":[2,4,6,8,10,12,14,16,18,20,22,24,26,28,30,32,34,36,38,40,42,-1,44,-1,46,48,50,-1,52,-1,54,56,58,60,62,64,66,68,70,72,74,76,78,80,-1,-1,-1,-1,-1,-1,-1,82,-1,-1,-1,-1,-1,-1,-1,-1,-1,-1,-1,-1,-1,-1,-1,-1,-1,-1,-1,-1,-1,-1,-1,-1,-1,-1,-1,-1,-1,-1,-1],"split_conditions":[1.4E0,7.3E1,1.0137E3,8.3E0,8.9E1,-8.311706E-1,4.961E2,1.4E-1,1.0076E3,1.66E1,-9.8734945E-1,1.48E1,1.62E1,1.0148E3,-8.660254E-1,1.37E1,1.0083E3,1.17E1,1.73E1,3.971E2,7.959E2,5.578822E-1,1.53E2,1.9742997E-1,2.4E0,1.87E1,1.57E2,2.6910865E-1,1E0,1.7396383E-2,8.6E1,1.4E1,8.3E1,8.2E1,4E-1,2.6E-1,7E0,1.1E0,2E1,2.3E-1,-9.383774E-1,9E1,1.34E1,5.682E2,5.3147143E-1,4.0464815E-1,7.4121493E-1,5.6376506E-2,-1.1865244E-1,5.102115E-1,2.1784751E-1,7.0710677E-1,1.3474722E-1,-9.6581005E-2,-4.0570356E-2,7.759184E-2,-4.0573206E-2,1.9631083E-1,-6.461283E-2,2.2151334E-2,3.1885976E-1,-9.126301E-3,9.171531E-2,7.882542E-3,7.69407E-2,1.460112E-1,4.477961E-1,8.123266E-3,2.300037E-1,7.2515994E-2,-1.5356761E-2,-6.400213E-2,-1.1807617E-2,-9.274738E-4,-6.5487795E-2,2.4867876E-2,-2.8363584E-2,-4.2033862E-2,2.7338848E-2,-7.181422E-2,8.186434E-3,-1.681802E-2,3.6819287E-2],"split_indices":[5,22,9,19,1,34,25,16,9,19,34,3,19,9,31,2,9,3,19,25,23,0,22,0,4,3,22,0,20,0,1,18,13,1,4,16,13,4,3,16,35,22,3,25,0,0,0,0,0,0,0,30,0,0,0,0,0,0,0,0,0,0,0,0,0,0,0,0,0,0,0,0,0,0,0,0,0,0,0,0,0,0,0],"split_type":[0,0,0,0,0,0,0,0,0,0,0,0,0,0,0,0,0,0,0,0,0,0,0,0,0,0,0,0,0,0,0,0,0,0,0,0,0,0,0,0,0,0,0,0,0,0,0,0,0,0,0,0,0,0,0,0,0,0,0,0,0,0,0,0,0,0,0,0,0,0,0,0,0,0,0,0,0,0,0,0,0,0,0],"sum_hessian":[3.558E3,3.503E3,5.5E1,2.431E3,1.072E3,2.8E1,2.7E1,1.11E3,1.321E3,1.019E3,5.3E1,1.6E1,1.2E1,1.7E1,1E1,3.35E2,7.75E2,1.63E2,1.158E3,5.56E2,4.63E2,6E0,4.7E1,3E0,1.3E1,6E0,6E0,4E0,1.3E1,4E0,6E0,3.18E2,1.7E1,7E1,7.05E2,1.48E2,1.5E1,1.002E3,1.56E2,8E1,4.76E2,3.65E2,9.8E1,4.4E1,3E0,6E0,7E0,3E0,3E0,3E0,3E0,9E0,4E0,3E0,3E0,3E0,3.15E2,9E0,8E0,6E1,1E1,6.97E2,8E0,7.7E1,7.1E1,3E0,1.2E1,9.97E2,5E0,1.41E2,1.5E1,1.4E1,6.6E1,2.7E1,4.49E2,2.8E1,3.37E2,1.1E1,8.7E1,2.4E1,2E1,6E0,3E0],"tree_param":{"num_deleted":"0","num_feature":"36","num_nodes":"83","size_leaf_vector":"1"}},{"base_weights":[-8.4459427E-4,-3.1840537E-2,1.8294799E0,6.477512E-2,-2.5670287E-1,3.0293376E0,5.286443E-1,-3.358789E-2,3.5912627E-1,-9.010616E-2,-4.6187845E-1,3.7332222E0,-5.257191E-2,9.167618E-1,-3.3926684E-1,2.4535127E-1,-1.4267659E-1,6.235648E-1,1.8632372E-1,4.6270964E-1,-1.22151725E-1,2.788651E-1,-5.052004E-1,4.837639E0,6.435803E-1,2.3705867E-1,5.427584E-1,2.4756456E-2,-6.2613237E-1,3.2394233E0,1.0114511E-1,-4.472079E-1,-1.0381652E-1,5.526518E-1,2.421654E0,1.2656642E-1,8.2662684E-1,1.1096243E0,-1.6763784E-1,-1.9117102E-1,1.4190972E0,-5.5639905E-1,-7.3807195E-2,5.630705E0,2.1808787E-1,1.393943E-1,-4.5526814E-2,1.0580472E0,-9.009118E-2,-1.6467398E-2,-9.310577E-2,4.3122005E-1,-6.976091E-2,4.4055786E-2,-3.2072496E-3,-6.810906E-2,-2.0112567E-2,2.7375324E-2,-1.5953088E-2,5.943486E-2,-5.6970526E-2,-1.7086167E-2,3.746389E-1,2.5519123E-2,-2.4554892E-3,8.369748E-3,9.611065E-2,2.4853614E-1,-1.2929198E-2,-2.291776E-4,-4.2961407E-2,2.4586326E-2,-6.527916E-2,6.0617883E-2,1.7856126E-1,-5.869038E-2,2.6444283E-3,-2.6063172E-2,4.636016E-2,2.272439E-1,6.34001E-1,1.8403744E-2,1.4063318E-1,-4.052463E-2,1.3502746E-2],"categories":[],"categories_nodes":[],"categories_segments":[],"categories_sizes":[],"default_left":[0,0,0,0,0,0,0,0,0,0,0,0,0,0,0,0,0,0,0,0,0,0,0,0,0,0,0,0,0,0,0,0,0,0,0,0,0,0,0,0,0,0,0,0,0,0,0,0,0,0,0,0,0,0,0,0,0,0,0,0,0,0,0,0,0,0,0,0,0,0,0,0,0,0,0,0,0,0,0,0,0,0,0,0,0],"id":7,"left_children":[1,3,5,7,9,11,13,15,17,19,21,23,-1,25,27,29,31,33,35,-1,37,39,41,43,45,-1,47,-1,49,51,53,55,57,59,61,63,65,67,69,71,73,75,77,79,-1,-1,-1,81,83,-1,-1,-1,-1,-1,-1,-1,-1,-1,-1,-1,-1,-1,-1,-1,-1,-1,-1,-1,-1,-1,-1,-1,-1,-1,-1,-1,-1,-1,-1,-1,-1,-1,-1,-1,-1],"loss_changes":[2.0440921E2,7.698908E1,9.204759E1,7.17872E1,3.6361763E1,7.953549E1,1.0416572E1,5.660272E1,2.826081E1,8.960164E1,1.5448029E1,8.560516E1,0E0,1.0131788E1,1.8384253E0,2.2548471E2,1.5775774E1,2.9901085E1,1.4320447E1,0E0,3.3018837E1,1.4741946E1,9.920067E0,2.7752808E1,7.2308974E0,0E0,5.965126E0,0E0,8.3165145E-1,1.0437364E2,2.2622004E1,8.55372E0,2.501347E1,1.1429886E1,3.1549667E1,6.731798E0,3.116642E0,3.611422E1,2.4516289E1,4.195378E0,1.3011761E0,7.1806335E0,5.0404854E0,1.8941254E1,0E0,0E0,0E0,2.785223E0,6.9324505E-1,0E0,0E0,0E0,0E0,0E0,0E0,0E0,0E0,0E0,0E0,0E0,0E0,0E0,0E0,0E0,0E0,0E0,0E0,0E0,0E0,0E0,0E0,0E0,0E0,0E0,0E0,0E0,0E0,0E0,0E0,0E0,0E0,0E0,0E0,0E0,0E0],"parents":[2147483647,0,0,1,1,2,2,3,3,4,4,5,5,6,6,7,7,8,8,9,9,10,10,11,11,13,13,14,14,15,15,16,16,17,17,18,18,20,20,21,21,22,22,23,23,24,24,26,26,28,28,29,29,30,30,31,31,32,32,33,33,34,34,35,35,36,36,37,37,38,38,39,39,40,40,41,41,42,42,43,43,47,47,48,48],"right_children":[2,4,6,8,10,12,14,16,18,20,22,24,-1,26,28,30,32,34,36,-1,38,40,42,44,46,-1,48,-1,50,52,54,56,58,60,62,64,66,68,70,72,74,76,78,80,-1,-1,-1,82,84,-1,-1,-1,-1,-1,-1,-1,-1,-1,-1,-1,-1,-1,-1,-1,-1,-1,-1,-1,-1,-1,-1,-1,-1,-1,-1,-1,-1,-1,-1,-1,-1,-1,-1,-1,-1],"split_conditions":[1.4E0,7.3E1,9.481E2,6E0,-8.1676394E-2,1.1E2,4.8E1,-8.311706E-1,2.7E2,1E-1,1.0009E3,9E1,-5.257191E-2,9.491E2,2.2E0,-5.049611E-1,9.6E2,2E-1,9.976303E-1,4.6270964E-1,3.06E1,1.53E2,5.1E2,5.2E1,8.4E0,2.3705867E-1,2.11E3,2.4756456E-2,2.3E0,1.011E3,1.0148E3,9.946708E-1,1.0082E3,7.4E1,9.4E0,9.508E2,-7E-1,1.0131E3,5E-1,2.158E2,8.4E1,1E0,-9.8292655E-1,9E-2,2.1808787E-1,1.393943E-1,-4.5526814E-2,1.0211E3,9.1E0,-1.6467398E-2,-9.310577E-2,4.3122005E-1,-6.976091E-2,4.4055786E-2,-3.2072496E-3,-6.810906E-2,-2.0112567E-2,2.7375324E-2,-1.5953088E-2,5.943486E-2,-5.6970526E-2,-1.7086167E-2,3.746389E-1,2.5519123E-2,-2.4554892E-3,8.369748E-3,9.611065E-2,2.4853614E-1,-1.2929198E-2,-2.291776E-4,-4.2961407E-2,2.4586326E-2,-6.527916E-2,6.0617883E-2,1.7856126E-1,-5.869038E-2,2.6444283E-3,-2.6063172E-2,4.636016E-2,2.272439E-1,6.34001E-1,1.8403744E-2,1.4063318E-1,-4.052463E-2,1.3502746E-2],"split_indices":[4,22,10,17,35,26,20,34,18,16,9,12,0,10,17,35,28,4,35,0,23,18,20,27,0,0,28,0,4,9,9,35,9,12,0,10,0,9,30,23,22,27,34,16,0,0,0,9,0,0,0,0,0,0,0,0,0,0,0,0,0,0,0,0,0,0,0,0,0,0,0,0,0,0,0,0,0,0,0,0,0,0,0,0,0],"split_type":[0,0,0,0,0,0,0,0,0,0,0,0,0,0,0,0,0,0,0,0,0,0,0,0,0,0,0,0,0,0,0,0,0,0,0,0,0,0,0,0,0,0,0,0,0,0,0,0,0,0,0,0,0,0,0,0,0,0,0,0,0,0,0,0,0,0,0,0,0,0,0,0,0,0,0,0,0,0,0,0,0,0,0,0,0],"sum_hessian":[3.601E3,3.542E3,5.9E1,2.478E3,1.064E3,3E1,2.9E1,1.858E3,6.2E2,5.88E2,4.76E2,2.5E1,5E0,2E1,9E0,5.22E2,1.336E3,2.44E2,3.76E2,3E0,5.85E2,2.6E1,4.5E2,1.8E1,7E0,3E0,1.7E1,3E0,6E0,2.3E1,4.99E2,1.5E2,1.186E3,2.36E2,8E0,3.45E2,3.1E1,2E1,5.65E2,1.9E1,7E0,4.02E2,4.8E1,1.3E1,5E0,4E0,3E0,9E0,8E0,3E0,3E0,1.8E1,5E0,1.4E2,3.59E2,7.6E1,7.4E1,1.52E2,1.034E3,2.28E2,8E0,3E0,5E0,1.86E2,1.59E2,5E0,2.6E1,9E0,1.1E1,3.47E2,2.18E2,1E1,9E0,3E0,4E0,3.82E2,2E1,3.6E1,1.2E1,3E0,1E1,3E0,6E0,3E0,5E0],"tree_param":{"num_deleted":"0","num_feature":"36","num_nodes":"85","size_leaf_vector":"1"}},{"base_weights":[4.481937E-3,-1.4250392E-2,3.1780603E0,1.6531003E-1,-1.0184769E-1,4.8240614E0,-9.969959E-2,6.850134E-1,-1.2893349E-2,2.9033188E-2,-2.7672473E-1,7.5606905E-2,5.8647805E-1,-5.6408256E-2,2.917467E-2,3.5768673E-1,3.708917E0,-1.2935828E-1,2.1572283E-1,-1.2022501E-3,6.558377E-1,-3.4208623E-1,1.5994555E-1,1.9299926E0,1.6047981E-1,4.0568857E0,5.198912E-2,9.0933755E-2,-2.7883205E-1,1.5246046E-1,2.458295E0,3.8293952E-1,-4.7614235E-2,8.219646E-1,6.943388E-2,-4.5821065E-1,-1.3037127E-1,2.5332454E-1,-4.5590368E-1,7.313516E-3,5.130643E-1,4.496373E-2,-2.3797631E-2,4.3948618E-1,1.0993006E-1,-1.3557932E-2,2.7318714E-2,-9.691902E-3,-4.3649055E-2,3.1963482E-2,-2.2921378E-2,3.8813514E-1,6.4900997E-3,2.7054235E-1,1.656107E-2,-1.2716874E-2,6.9379397E-3,6.607662E-2,1.1777631E-1,-2.4730265E-2,3.774912E-2,-5.0449718E-2,-2.159945E-2,-3.1356357E-2,2.988067E-3,7.4415104E-3,5.0008833E-2,-9.200105E-2,-1.4718272E-2],"categories":[],"categories_nodes":[],"categories_segments":[],"categories_sizes":[],"default_left":[0,0,0,0,0,0,0,0,0,0,0,0,0,0,0,0,0,0,0,0,0,0,0,0,0,0,0,0,0,0,0,0,0,0,0,0,0,0,0,0,0,0,0,0,0,0,0,0,0,0,0,0,0,0,0,0,0,0,0,0,0,0,0,0,0,0,0,0,0],"id":8,"left_children":[1,3,5,7,9,11,13,15,17,19,21,-1,-1,-1,-1,23,25,27,29,31,33,35,37,39,41,43,-1,45,47,49,51,53,55,57,59,61,63,65,67,-1,-1,-1,-1,-1,-1,-1,-1,-1,-1,-1,-1,-1,-1,-1,-1,-1,-1,-1,-1,-1,-1,-1,-1,-1,-1,-1,-1,-1,-1],"loss_changes":[2.1275206E2,5.5980644E1,1.13780106E2,1.0808808E2,5.475628E1,5.483673E1,1.6188172E0,2.9363507E2,2.3192322E1,2.5945677E1,2.928112E1,0E0,0E0,0E0,0E0,8.340906E1,3.0071625E1,1.9024744E1,4.1335114E1,2.3320452E1,6.080229E0,2.1845764E1,7.82148E0,1.779193E2,2.7874197E1,2.1158173E1,0E0,9.697207E0,9.823662E0,1.838563E1,2.6995571E1,7.072067E1,1.08705225E1,2.0321274E0,1.5569495E0,6.3375397E0,9.315513E0,5.128146E0,2.4436212E0,0E0,0E0,0E0,0E0,0E0,0E0,0E0,0E0,0E0,0E0,0E0,0E0,0E0,0E0,0E0,0E0,0E0,0E0,0E0,0E0,0E0,0E0,0E0,0E0,0E0,0E0,0E0,0E0,0E0,0E0],"parents":[2147483647,0,0,1,1,2,2,3,3,4,4,5,5,6,6,7,7,8,8,9,9,10,10,15,15,16,16,17,17,18,18,19,19,20,20,21,21,22,22,23,23,24,24,25,25,27,27,28,28,29,29,30,30,31,31,32,32,33,33,34,34,35,35,36,36,37,37,38,38],"right_children":[2,4,6,8,10,12,14,16,18,20,22,-1,-1,-1,-1,24,26,28,30,32,34,36,38,40,42,44,-1,46,48,50,52,54,56,58,60,62,64,66,68,-1,-1,-1,-1,-1,-1,-1,-1,-1,-1,-1,-1,-1,-1,-1,-1,-1,-1,-1,-1,-1,-1,-1,-1,-1,-1,-1,-1,-1,-1],"split_conditions":[2.9E0,1.0133E3,1.0148E3,-8.311706E-1,3E0,1.0103E3,7.2E1,-8.4524906E-1,5.9E0,8E0,6.3E2,7.5606905E-2,5.8647805E-1,-5.6408256E-2,2.917467E-2,-9.8734945E-1,1.0104E3,7E1,4E-1,-9.8734945E-1,3.67E3,1.38E2,-2.3867276E-1,1.07E1,2.28E1,1.9E-1,5.198912E-2,2.5E0,1.0079E3,3.44E2,-5E-1,1.015E3,4.5E0,2.27E1,-6.994583E-1,2.12E1,2.8E0,7.53E2,-2.2192152E-1,7.313516E-3,5.130643E-1,4.496373E-2,-2.3797631E-2,4.3948618E-1,1.0993006E-1,-1.3557932E-2,2.7318714E-2,-9.691902E-3,-4.3649055E-2,3.1963482E-2,-2.2921378E-2,3.8813514E-1,6.4900997E-3,2.7054235E-1,1.656107E-2,-1.2716874E-2,6.9379397E-3,6.607662E-2,1.1777631E-1,-2.4730265E-2,3.774912E-2,-5.0449718E-2,-2.159945E-2,-3.1356357E-2,2.988067E-3,7.4415104E-3,5.0008833E-2,-9.200105E-2,-1.4718272E-2],"split_indices":[4,9,9,34,23,9,18,34,17,17,24,0,0,0,0,34,9,11,4,34,28,18,34,2,23,15,0,0,9,24,33,9,17,19,34,19,17,24,34,0,0,0,0,0,0,0,0,0,0,0,0,0,0,0,0,0,0,0,0,0,0,0,0,0,0,0,0,0,0],"split_type":[0,0,0,0,0,0,0,0,0,0,0,0,0,0,0,0,0,0,0,0,0,0,0,0,0,0,0,0,0,0,0,0,0,0,0,0,0,0,0,0,0,0,0,0,0,0,0,0,0,0,0,0,0,0,0,0,0,0,0,0,0,0,0,0,0,0,0,0,0],"sum_hessian":[3.577E3,3.557E3,2E1,1.166E3,2.391E3,1.3E1,7E0,2.97E2,8.69E2,1.368E3,1.023E3,3E0,1E1,3E0,4E0,2.69E2,2.8E1,5.76E2,2.93E2,1.306E3,6.2E1,8.9E2,1.33E2,2.9E1,2.4E2,2.5E1,3E0,2.33E2,3.43E2,2.86E2,7E0,1.4E2,1.166E3,4.8E1,1.4E1,5.74E2,3.16E2,1.16E2,1.7E1,1.9E1,1E1,1.39E2,1.01E2,2.2E1,3E0,1.04E2,1.29E2,1.6E2,1.83E2,1.99E2,8.7E1,4E0,3E0,1.1E1,1.29E2,6.94E2,4.72E2,3.5E1,1.3E1,7E0,7E0,4.81E2,9.3E1,1.47E2,1.69E2,6.8E1,4.8E1,6E0,1.1E1],"tree_param":{"num_deleted":"0","num_feature":"36","num_nodes":"69","size_leaf_vector":"1"}},{"base_weights":[5.44622E-3,-1.8246135E-2,1.4899288E0,1.4206313E-1,-9.455052E-2,2.2729685E0,1.7645988E-1,3.0834E0,4.817528E-2,-1.5422143E-1,1.380659E-1,2.9116259E0,3.8516268E-1,1.0702062E-1,-8.160629E-2,3.4530022E0,1.751856E-2,1.7112835E-1,-3.0316496E-1,-8.901484E-2,-4.2511037E-1,3.6030105E-1,-1.0280401E-1,4.0573077E0,2.9674804E-1,1.2566666E-1,-4.052843E-2,-7.5437896E-2,1.0324016E-1,3.8354568E0,-8.743E-3,4.784331E-1,1.857162E-2,-5.360655E-1,-2.1352217E-2,-2.6256758E-1,-2.486364E-2,-5.201142E-2,-5.191626E-1,4.6603936E-1,1.0313495E-1,-3.2427147E-1,1.8698005E-1,1.2211319E-1,5.054211E0,-1.01903334E-1,2.1962333E-1,3.4698087E-1,-4.5363743E-2,2.4388655E-1,4.1054878E-1,1.9516875E-1,2.6506146E-2,2.0282133E-2,-1.698413E-2,-3.894202E-2,-7.0174314E-2,-4.183138E-2,1.8660853E-2,-5.708445E-2,-1.1356519E-2,-3.5280068E-3,8.616441E-2,5.7066496E-2,-3.562251E-2,3.704115E-2,-5.4543283E-2,2.0584935E-2,6.1985083E-2,-5.7735983E-3,8.081966E-2,-3.70241E-2,5.5607166E-2,4.1981865E-2,-1.1727813E-2,6.528384E-1,2.8580087E-1,5.5310227E-2,1.5018262E-2],"categories":[],"categories_nodes":[],"categories_segments":[],"categories_sizes":[],"default_left":[0,0,0,0,0,0,0,0,0,0,0,0,0,0,0,0,0,0,0,0,0,0,0,0,0,0,0,0,0,0,0,0,0,0,0,0,0,0,0,0,0,0,0,0,0,0,0,0,0,0,0,0,0,0,0,0,0,0,0,0,0,0,0,0,0,0,0,0,0,0,0,0,0,0,0,0,0,0,0],"id":9,"left_children":[1,3,5,7,9,11,13,15,17,19,21,23,25,-1,27,29,-1,31,33,35,37,39,41,43,45,-1,-1,-1,47,49,-1,51,53,55,57,59,61,63,65,67,69,71,73,-1,75,-1,-1,77,-1,-1,-1,-1,-1,-1,-1,-1,-1,-1,-1,-1,-1,-1,-1,-1,-1,-1,-1,-1,-1,-1,-1,-1,-1,-1,-1,-1,-1,-1,-1],"loss_changes":[1.2537623E2,4.2936577E1,5.7194824E1,3.124598E2,3.302896E1,4.1076675E1,5.16154E0,3.701599E1,4.748368E1,3.3399624E1,2.6052507E1,7.668727E1,7.398083E0,0E0,2.3163557E0,4.2311005E1,0E0,3.815258E1,1.8694345E1,1.6994503E1,1.2851318E1,6.8315887E0,1.5078224E1,4.4721252E1,2.47318E1,0E0,0E0,0E0,2.1934097E0,5.466919E-1,0E0,8.4357376E1,1.8954132E1,3.5168762E0,1.0809876E1,1.8859982E1,1.03358135E1,1.4410285E1,7.0492325E0,7.0360146E0,8.553457E0,5.588253E0,7.2752275E0,0E0,2.343039E1,0E0,0E0,3.6314118E-1,0E0,0E0,0E0,0E0,0E0,0E0,0E0,0E0,0E0,0E0,0E0,0E0,0E0,0E0,0E0,0E0,0E0,0E0,0E0,0E0,0E0,0E0,0E0,0E0,0E0,0E0,0E0,0E0,0E0,0E0,0E0],"parents":[2147483647,0,0,1,1,2,2,3,3,4,4,5,5,6,6,7,7,8,8,9,9,10,10,11,11,12,12,14,14,15,15,17,17,18,18,19,19,20,20,21,21,22,22,23,23,24,24,28,28,29,29,31,31,32,32,33,33,34,34,35,35,36,36,37,37,38,38,39,39,40,40,41,41,42,42,44,44,47,47],"right_children":[2,4,6,8,10,12,14,16,18,20,22,24,26,-1,28,30,-1,32,34,36,38,40,42,44,46,-1,-1,-1,48,50,-1,52,54,56,58,60,62,64,66,68,70,72,74,-1,76,-1,-1,78,-1,-1,-1,-1,-1,-1,-1,-1,-1,-1,-1,-1,-1,-1,-1,-1,-1,-1,-1,-1,-1,-1,-1,-1,-1,-1,-1,-1,-1,-1,-1],"split_conditions":[1.5E0,-8.311706E-1,1.0148E3,-5.197438E-1,6.8E0,8.1E1,2.2E0,2E-1,2.42E2,8E1,9.7E1,1.94E1,7.2E0,1.0702062E-1,1.8E1,8.7E1,1.751856E-2,1.015E3,6.9E0,1.4E-1,-8.82048E-1,6.7E1,7.544E2,3.4E3,6.5E1,1.2566666E-1,-4.052843E-2,-7.5437896E-2,1.0212E3,3.15E3,-8.743E-3,-9.8734945E-1,2.4E1,-9.53681E-1,3.1E3,8.860706E-1,4E-1,1.0115E3,9.964E2,-6.839194E-1,1.8E1,1.7E1,-8.660254E-1,1.2211319E-1,4E0,-1.01903334E-1,2.1962333E-1,8.8E1,-4.5363743E-2,2.4388655E-1,4.1054878E-1,1.9516875E-1,2.6506146E-2,2.0282133E-2,-1.698413E-2,-3.894202E-2,-7.0174314E-2,-4.183138E-2,1.8660853E-2,-5.708445E-2,-1.1356519E-2,-3.5280068E-3,8.616441E-2,5.7066496E-2,-3.562251E-2,3.704115E-2,-5.4543283E-2,2.0584935E-2,6.1985083E-2,-5.7735983E-3,8.081966E-2,-3.70241E-2,5.5607166E-2,4.1981865E-2,-1.1727813E-2,6.528384E-1,2.8580087E-1,5.5310227E-2,1.5018262E-2],"split_indices":[4,34,9,35,17,12,2,15,24,22,22,3,2,0,12,12,0,9,17,16,35,1,23,28,22,0,0,0,9,28,0,34,12,34,28,35,4,9,9,35,19,2,31,0,17,0,0,1,0,0,0,0,0,0,0,0,0,0,0,0,0,0,0,0,0,0,0,0,0,0,0,0,0,0,0,0,0,0,0],"split_type":[0,0,0,0,0,0,0,0,0,0,0,0,0,0,0,0,0,0,0,0,0,0,0,0,0,0,0,0,0,0,0,0,0,0,0,0,0,0,0,0,0,0,0,0,0,0,0,0,0,0,0,0,0,0,0,0,0,0,0,0,0,0,0,0,0,0,0,0,0,0,0,0,0,0,0,0,0,0,0],"sum_hessian":[3.563E3,3.508E3,5.5E1,1.131E3,2.377E3,3.4E1,2.1E1,3.4E1,1.097E3,1.892E3,4.85E2,2.5E1,9E0,4E0,1.7E1,3E1,4E0,8.13E2,2.84E2,1.526E3,3.66E2,2.52E2,2.33E2,1.7E1,8E0,4E0,5E0,3E0,1.4E1,2.7E1,3E0,2.69E2,5.44E2,1.55E2,1.29E2,4.11E2,1.115E3,7.4E1,2.92E2,1.78E2,7.4E1,1.32E2,1.01E2,5E0,1.2E1,5E0,3E0,1E1,4E0,6E0,2.1E1,3.3E1,2.36E2,2.75E2,2.69E2,8.4E1,7.1E1,4.4E1,8.5E1,1.33E2,2.78E2,1.103E3,1.2E1,2.4E1,5E1,8E0,2.84E2,6.7E1,1.11E2,6.1E1,1.3E1,1.26E2,6E0,5.7E1,4.4E1,6E0,6E0,4E0,6E0],"tree_param":{"num_deleted":"0","num_feature":"36","num_nodes":"79","size_leaf_vector":"1"}},{"base_weights":[4.0012314E-3,-8.014451E-3,2.6411934E0,3.04435E-1,-6.1196882E-2,5.0769453E0,1.826144E-1,1.6461028E0,6.260432E-2,4.8833005E-2,-2.0106001E-1,2.4851249E-1,6.135013E-1,1.0317551E-1,-4.1391514E-2,2.8737285E0,4.6815443E-1,4.608637E-1,-7.9028614E-2,-1.2250585E-2,4.103575E-1,-3.880522E-2,-3.6823997E-1,3.2530324E0,3.0860296E-2,1.4286123E-1,3.4414014E-1,3.2004237E-1,1.3689483E0,3.497001E-2,-5.036848E-1,-4.0286876E-2,4.7090948E-1,3.2881543E-1,1.6278762E0,1.0681503E-1,-1.2754771E-1,-4.7587347E-1,3.5324275E-2,3.900492E-1,2.321326E-1,-1.3804758E-2,2.024469E-1,7.649798E-2,1.3638643E-2,1.6245565E-1,2.5988728E-2,-2.9020622E-2,2.2142941E-2,-6.552911E-2,-1.3317123E-2,-2.4485342E-2,-1.3983562E-3,8.5251346E-2,-7.790249E-2,1.2635413E-2,5.1490273E-2,6.7289494E-2,3.4032598E-1,-4.70533E-3,3.753497E-2,2.0737E-2,-2.0990076E-2,-5.7084024E-2,-3.3341836E-2,5.4718114E-2,-1.5069562E-2],"categories":[],"categories_nodes":[],"categories_segments":[],"categories_sizes":[],"default_left":[0,0,0,0,0,0,0,0,0,0,0,0,0,0,0,0,0,0,0,0,0,0,0,0,0,0,0,0,0,0,0,0,0,0,0,0,0,0,0,0,0,0,0,0,0,0,0,0,0,0,0,0,0,0,0,0,0,0,0,0,0,0,0,0,0,0,0],"id":10,"left_children":[1,3,5,7,9,11,13,15,17,19,21,-1,-1,-1,-1,23,25,27,29,31,33,35,37,39,-1,41,-1,43,45,47,49,51,53,55,57,59,61,63,65,-1,-1,-1,-1,-1,-1,-1,-1,-1,-1,-1,-1,-1,-1,-1,-1,-1,-1,-1,-1,-1,-1,-1,-1,-1,-1,-1,-1],"loss_changes":[1.11783554E2,5.837691E1,9.488869E1,1.6569418E2,4.620797E1,6.6923065E0,4.9858966E0,1.1144887E2,2.4516905E1,3.712691E1,3.5845947E1,0E0,0E0,0E0,0E0,3.596866E1,3.9162613E1,1.4139935E1,1.5557297E1,1.9511688E1,2.3589527E1,8.697681E0,2.829432E1,1.0852661E1,0E0,2.0364758E1,0E0,8.067208E0,3.8300743E0,1.546483E1,3.7324448E0,7.3198156E0,3.8345535E1,8.562622E0,2.3141838E1,1.0554001E1,1.1572591E1,6.763321E0,1.3222204E1,0E0,0E0,0E0,0E0,0E0,0E0,0E0,0E0,0E0,0E0,0E0,0E0,0E0,0E0,0E0,0E0,0E0,0E0,0E0,0E0,0E0,0E0,0E0,0E0,0E0,0E0,0E0,0E0],"parents":[2147483647,0,0,1,1,2,2,3,3,4,4,5,5,6,6,7,7,8,8,9,9,10,10,15,15,16,16,17,17,18,18,19,19,20,20,21,21,22,22,23,23,25,25,27,27,28,28,29,29,30,30,31,31,32,32,33,33,34,34,35,35,36,36,37,37,38,38],"right_children":[2,4,6,8,10,12,14,16,18,20,22,-1,-1,-1,-1,24,26,28,30,32,34,36,38,40,-1,42,-1,44,46,48,50,52,54,56,58,60,62,64,66,-1,-1,-1,-1,-1,-1,-1,-1,-1,-1,-1,-1,-1,-1,-1,-1,-1,-1,-1,-1,-1,-1,-1,-1,-1,-1,-1,-1],"split_conditions":[3.3E0,1.0086E3,1E1,-1.8369701E-16,3.6E0,1.23E2,6E0,-7.6941484E-1,1.0018E3,1.51E1,2.5881904E-1,2.4851249E-1,6.135013E-1,1.0317551E-1,-4.1391514E-2,2E-1,1.0085E3,9.5E0,8E1,3E-1,8E0,7E0,6.6E0,2.3E-1,3.0860296E-2,9.659258E-1,3.4414014E-1,9.964E2,2.52E3,1.8E0,4.3E-1,1.18E3,9.7110003E-1,1.73E1,8.7E1,-2.5881904E-1,-8.660254E-1,1.38E2,1.2E-1,3.900492E-1,2.321326E-1,-1.3804758E-2,2.024469E-1,7.649798E-2,1.3638643E-2,1.6245565E-1,2.5988728E-2,-2.9020622E-2,2.2142941E-2,-6.552911E-2,-1.3317123E-2,-2.4485342E-2,-1.3983562E-3,8.5251346E-2,-7.790249E-2,1.2635413E-2,5.1490273E-2,6.7289494E-2,3.4032598E-1,-4.70533E-3,3.753497E-2,2.0737E-2,-2.0990076E-2,-5.7084024E-2,-3.3341836E-2,5.4718114E-2,-1.5069562E-2],"split_indices":[5,9,26,33,23,18,5,34,9,19,30,0,0,0,0,15,9,0,22,5,22,11,17,16,0,30,0,9,28,0,16,28,35,19,1,30,30,18,15,0,0,0,0,0,0,0,0,0,0,0,0,0,0,0,0,0,0,0,0,0,0,0,0,0,0,0,0],"split_type":[0,0,0,0,0,0,0,0,0,0,0,0,0,0,0,0,0,0,0,0,0,0,0,0,0,0,0,0,0,0,0,0,0,0,0,0,0,0,0,0,0,0,0,0,0,0,0,0,0,0,0,0,0,0,0,0,0,0,0,0,0,0,0,0,0,0,0],"sum_hessian":[3.526E3,3.511E3,1.5E1,5.1E2,3.001E3,7E0,8E0,7.7E1,4.33E2,1.68E3,1.321E3,3E0,4E0,3E0,5E0,3.7E1,4E1,1.13E2,3.2E2,1.438E3,2.42E2,6.71E2,6.5E2,3.2E1,5E0,3.7E1,3E0,9.9E1,1.4E1,2.53E2,6.7E1,1.36E3,7.8E1,2.28E2,1.4E1,2.54E2,4.17E2,5.13E2,1.37E2,1.7E1,1.5E1,3.3E1,4E0,2.8E1,7.1E1,1.1E1,3E0,9.2E1,1.61E2,4.7E1,2E1,1.54E2,1.206E3,6E1,1.8E1,1.1E2,1.18E2,1E1,4E0,1.62E2,9.2E1,8.2E1,3.35E2,3.06E2,2.07E2,3.6E1,1.01E2],"tree_param":{"num_deleted":"0","num_feature":"36","num_nodes":"67","size_leaf_vector":"1"}},{"base_weights":[1.9213787E-3,-1.210945E-2,2.609339E0,-1.7268832E-1,5.2381787E-2,4.3207235E-3,3.8113227E0,-2.0636722E-1,1.2844771E0,2.8670606E-1,1.5579914E-2,6.2062975E-2,-6.1306845E-2,1.3924359E-1,4.7316685E0,-2.9828012E-1,5.9727963E-2,3.602982E0,2.542412E-1,1.339677E0,7.1411245E-2,-1.4631051E-1,7.5503156E-2,1.6839449E-1,5.974873E-1,-3.609127E-1,-9.5435634E-2,1.3506848E0,-9.2741735E-2,4.5790908E-1,1.726128E-1,-1.3207875E-1,1.5428007E-1,2.1441102E0,-1.7975812E-1,-3.3920076E-1,2.4761735E-1,-2.4896571E-2,-2.8204733E-1,4.6459187E-2,7.059234E-1,-1.0618904E-2,-4.192055E-2,7.119372E-2,-2.0420592E-2,2.330243E-3,3.6049044E-1,1.13780074E-1,-2.9114887E-2,2.6147315E-2,-3.797713E-2,2.6145145E-1,7.517982E-2,4.5028045E-3,-9.0807945E-2,-1.0149505E-2,-5.6379497E-2,4.999573E-2,-1.1411432E-2,-8.28787E-3,2.5366396E-2,-1.1191229E-2,-5.2582134E-2,2.0422677E-2,-2.2069355E-3,1.3631537E-2,1.4181298E-1],"categories":[],"categories_nodes":[],"categories_segments":[],"categories_sizes":[],"default_left":[0,0,0,0,0,0,0,0,0,0,0,0,0,0,0,0,0,0,0,0,0,0,0,0,0,0,0,0,0,0,0,0,0,0,0,0,0,0,0,0,0,0,0,0,0,0,0,0,0,0,0,0,0,0,0,0,0,0,0,0,0,0,0,0,0,0,0],"id":11,"left_children":[1,3,5,7,9,11,13,15,17,19,21,-1,-1,-1,23,25,27,29,31,33,35,37,39,-1,-1,41,43,45,47,-1,-1,49,-1,51,53,55,57,59,61,63,65,-1,-1,-1,-1,-1,-1,-1,-1,-1,-1,-1,-1,-1,-1,-1,-1,-1,-1,-1,-1,-1,-1,-1,-1,-1,-1],"loss_changes":[1.2986902E2,3.6575832E1,5.9476135E1,4.9929718E1,2.1726934E1,3.044006E0,2.2352219E1,2.4230816E1,5.4021935E1,7.743545E1,2.1149525E1,0E0,0E0,0E0,2.4039139E1,9.3162E0,5.031737E1,4.9199905E0,8.666307E0,7.12779E1,2.070441E1,9.6999E0,2.9098265E1,0E0,0E0,8.300369E0,1.5513563E1,8.07057E1,5.6241257E1,0E0,0E0,1.4640182E0,0E0,2.29225E1,3.4789362E0,4.534087E0,1.8312923E1,5.0603013E0,1.1471064E1,1.6459736E1,2.8204178E1,0E0,0E0,0E0,0E0,0E0,0E0,0E0,0E0,0E0,0E0,0E0,0E0,0E0,0E0,0E0,0E0,0E0,0E0,0E0,0E0,0E0,0E0,0E0,0E0,0E0,0E0],"parents":[2147483647,0,0,1,1,2,2,3,3,4,4,5,5,6,6,7,7,8,8,9,9,10,10,14,14,15,15,16,16,17,17,18,18,19,19,20,20,21,21,22,22,25,25,26,26,27,27,28,28,31,31,33,33,34,34,35,35,36,36,37,37,38,38,39,39,40,40],"right_children":[2,4,6,8,10,12,14,16,18,20,22,-1,-1,-1,24,26,28,30,32,34,36,38,40,-1,-1,42,44,46,48,-1,-1,50,-1,52,54,56,58,60,62,64,66,-1,-1,-1,-1,-1,-1,-1,-1,-1,-1,-1,-1,-1,-1,-1,-1,-1,-1,-1,-1,-1,-1,-1,-1,-1,-1],"split_conditions":[3.3E0,1.15E2,2.4E0,1E0,1.0085E3,1.38E2,-5E-1,1E0,1.0101E3,-1.8369701E-16,2.8E0,6.2062975E-2,-6.1306845E-2,1.3924359E-1,9E-2,6E-1,-9.8734945E-1,1.7E0,9.659258E-1,1.77E1,1.7E0,1.2246469E-16,1E-1,1.6839449E-1,5.974873E-1,4E0,7.3E1,1.13E1,1.0086E3,4.5790908E-1,1.726128E-1,-8.717063E-1,1.5428007E-1,-7.6941484E-1,2.9E2,9E0,6E-1,1.0232E3,3E0,5.6E1,1.02E3,-1.0618904E-2,-4.192055E-2,7.119372E-2,-2.0420592E-2,2.330243E-3,3.6049044E-1,1.13780074E-1,-2.9114887E-2,2.6147315E-2,-3.797713E-2,2.6145145E-1,7.517982E-2,4.5028045E-3,-9.0807945E-2,-1.0149505E-2,-5.6379497E-2,4.999573E-2,-1.1411432E-2,-8.28787E-3,2.5366396E-2,-1.1191229E-2,-5.2582134E-2,2.0422677E-2,-2.2069355E-3,1.3631537E-2,1.4181298E-1],"split_indices":[4,18,17,5,9,18,30,27,9,33,17,0,0,0,16,16,34,4,31,0,0,30,5,0,0,19,22,2,9,0,0,34,0,34,18,13,2,9,23,1,9,0,0,0,0,0,0,0,0,0,0,0,0,0,0,0,0,0,0,0,0,0,0,0,0,0,0],"split_type":[0,0,0,0,0,0,0,0,0,0,0,0,0,0,0,0,0,0,0,0,0,0,0,0,0,0,0,0,0,0,0,0,0,0,0,0,0,0,0,0,0,0,0,0,0,0,0,0,0,0,0,0,0,0,0,0,0,0,0,0,0,0,0,0,0,0,0],"sum_hessian":[3.548E3,3.53E3,1.8E1,1.011E3,2.519E3,6E0,1.2E1,9.89E2,2.2E1,3.41E2,2.178E3,3E0,3E0,4E0,8E0,7.35E2,2.54E2,6E0,1.6E1,5.7E1,2.84E2,5.88E2,1.59E3,3E0,5E0,5.61E2,1.74E2,2.6E1,2.28E2,3E0,3E0,1.3E1,3E0,3.7E1,2E1,8.5E1,1.99E2,3.11E2,2.77E2,1.521E3,6.9E1,1.05E2,4.56E2,2E1,1.54E2,1.7E1,9E0,3.1E1,1.97E2,5E0,8E0,2.7E1,1E1,1.6E1,4E0,4.2E1,4.3E1,1.17E2,8.2E1,2.58E2,5.3E1,1.64E2,1.13E2,4.6E2,1.061E3,3.9E1,3E1],"tree_param":{"num_deleted":"0","num_feature":"36","num_nodes":"67","size_leaf_vector":"1"}},{"base_weights":[6.069159E-3,-5.589786E-3,2.7696118E0,1.3938676E-1,-7.538874E-2,4.285388E0,-2.1828381E-2,1.5661758E0,9.737302E-2,1.9824257E-2,-1.914754E-1,5.611221E-1,1.8373102E-1,-1.2414688E-1,4.1762223E0,-1.2245859E-2,3.7647298E-1,-3.3433642E-3,6.338359E-1,-2.6352757E-1,9.862051E-2,5.474776E-1,-6.734884E-1,4.573636E-1,2.1386313E-1,7.729961E-2,-2.960511E-1,2.708331E-1,2.4853E0,-1.0637113E-1,7.294679E-2,8.591109E-1,3.516191E-1,-1.641084E-1,-4.2560482E-1,1.53286E-1,-3.4509024E-1,6.509756E-2,2.2948666E-2,-7.946148E-2,-2.3258204E-2,-1.7383538E-2,2.0513976E-2,1.1988706E-2,-3.6693156E-2,9.555957E-2,5.715321E-3,3.136295E-1,-8.90094E-3,-1.4701645E-2,1.3019328E-2,3.2924663E-3,5.2064586E-2,3.4183998E-2,9.972002E-2,1.870653E-2,7.010184E-2,-2.1885192E-2,3.8779303E-2,-4.744877E-2,-4.9950504E-3,1.1833738E-2,9.4668046E-2,-7.164506E-2,2.4249316E-3],"categories":[],"categories_nodes":[],"categories_segments":[],"categories_sizes":[],"default_left":[0,0,0,0,0,0,0,0,0,0,0,0,0,0,0,0,0,0,0,0,0,0,0,0,0,0,0,0,0,0,0,0,0,0,0,0,0,0,0,0,0,0,0,0,0,0,0,0,0,0,0,0,0,0,0,0,0,0,0,0,0,0,0,0,0],"id":12,"left_children":[1,3,5,7,9,11,-1,13,15,17,19,-1,-1,21,23,25,27,29,31,33,35,37,39,-1,-1,41,43,45,47,49,51,53,55,57,59,61,63,-1,-1,-1,-1,-1,-1,-1,-1,-1,-1,-1,-1,-1,-1,-1,-1,-1,-1,-1,-1,-1,-1,-1,-1,-1,-1,-1,-1],"loss_changes":[1.1504085E2,3.599442E1,6.887014E1,6.914359E1,2.654195E1,2.2147888E1,0E0,1.4610854E2,3.439297E1,1.877937E1,2.2642002E1,0E0,0E0,8.116695E0,7.456665E-1,2.0556973E1,6.994696E1,1.0013544E1,2.749588E0,1.3900635E1,5.292121E0,1.7972398E-1,4.5605183E-1,0E0,0E0,1.9780317E1,5.7634773E0,4.4280346E1,2.5417091E1,5.230598E0,1.3098738E1,1.516285E0,1.1912482E0,1.6369686E1,6.017742E0,5.2394824E0,3.3091662E0,0E0,0E0,0E0,0E0,0E0,0E0,0E0,0E0,0E0,0E0,0E0,0E0,0E0,0E0,0E0,0E0,0E0,0E0,0E0,0E0,0E0,0E0,0E0,0E0,0E0,0E0,0E0,0E0],"parents":[2147483647,0,0,1,1,2,2,3,3,4,4,5,5,7,7,8,8,9,9,10,10,13,13,14,14,15,15,16,16,17,17,18,18,19,19,20,20,21,21,22,22,25,25,26,26,27,27,28,28,29,29,30,30,31,31,32,32,33,33,34,34,35,35,36,36],"right_children":[2,4,6,8,10,12,-1,14,16,18,20,-1,-1,22,24,26,28,30,32,34,36,38,40,-1,-1,42,44,46,48,50,52,54,56,58,60,62,64,-1,-1,-1,-1,-1,-1,-1,-1,-1,-1,-1,-1,-1,-1,-1,-1,-1,-1,-1,-1,-1,-1,-1,-1,-1,-1,-1,-1],"split_conditions":[3.3E0,1.0133E3,1.0148E3,-9.8734945E-1,1E0,4E0,-2.1828381E-2,1.11E1,3.34E3,8.2E0,5.49E2,5.611221E-1,1.8373102E-1,1.04E1,1.48E1,3.971E2,8E1,6.8E0,2E-1,5.137E2,-2.3867276E-1,1E0,1.62E1,4.573636E-1,2.1386313E-1,1.6E-1,3.8E1,-7.6941484E-1,9.4E1,6.4324905E-16,1E-1,-9.5E0,8E1,6.6E0,1E-1,-4.6355027E-1,1.9E2,6.509756E-2,2.2948666E-2,-7.946148E-2,-2.3258204E-2,-1.7383538E-2,2.0513976E-2,1.1988706E-2,-3.6693156E-2,9.555957E-2,5.715321E-3,3.136295E-1,-8.90094E-3,-1.4701645E-2,1.3019328E-2,3.2924663E-3,5.2064586E-2,3.4183998E-2,9.972002E-2,1.870653E-2,7.010184E-2,-2.1885192E-2,3.8779303E-2,-4.744877E-2,-4.9950504E-3,1.1833738E-2,9.4668046E-2,-7.164506E-2,2.4249316E-3],"split_indices":[5,9,9,34,29,17,0,2,28,17,20,0,0,3,2,25,12,19,2,25,34,8,0,0,0,16,1,34,12,34,5,2,1,17,5,34,26,0,0,0,0,0,0,0,0,0,0,0,0,0,0,0,0,0,0,0,0,0,0,0,0,0,0,0,0],"split_type":[0,0,0,0,0,0,0,0,0,0,0,0,0,0,0,0,0,0,0,0,0,0,0,0,0,0,0,0,0,0,0,0,0,0,0,0,0,0,0,0,0,0,0,0,0,0,0,0,0,0,0,0,0,0,0,0,0,0,0,0,0,0,0,0,0],"sum_hessian":[3.569E3,3.555E3,1.4E1,1.155E3,2.4E3,9E0,5E0,3.2E1,1.123E3,1.319E3,1.081E3,5E0,4E0,2E1,1.2E1,8.07E2,3.16E2,1.272E3,4.7E1,8.66E2,2.15E2,9E0,1.1E1,9E0,3E0,6.14E2,1.93E2,3.02E2,1.4E1,5.41E2,7.31E2,2.5E1,2.2E1,5.38E2,3.28E2,1.92E2,2.3E1,6E0,3E0,8E0,3E0,2.07E2,4.07E2,2.8E1,1.65E2,7.1E1,2.31E2,1.1E1,3E0,4.62E2,7.9E1,6.72E2,5.9E1,6E0,1.9E1,1.6E1,6E0,4.9E2,4.8E1,2.9E2,3.8E1,1.85E2,7E0,1.1E1,1.2E1],"tree_param":{"num_deleted":"0","num_feature":"36","num_nodes":"65","size_leaf_vector":"1"}},{"base_weights":[1.6267307E-2,-2.018779E-3,1.1038587E0,2.0592088E-1,-3.727503E-2,1.9927717E0,2.366866E-1,1.3845009E0,1.4838651E-2,2.4120568E-1,-6.759798E-2,2.7790627E0,4.5347163E-1,1.451059E-1,3.036667E-3,2.1439304E0,-1.9204572E-1,3.6224622E-1,-1.1849016E-1,5.562295E-2,3.4738278E0,-2.649807E-1,3.2125774E-3,-2.3075351E-2,3.597064E0,2.0147978E-1,-1.1834331E-1,5.0007975E-1,-1.959324E-1,2.7225192E0,1.0283644E0,-4.861445E-1,3.52135E-1,2.6052877E-1,1.1283146E0,9.938797E-2,-2.4927853E-1,1.7259307E-1,-2.8468788E-1,1.6519217E-1,3.7671968E-1,2.259275E-1,-2.9517826E-1,-3.524072E-2,1.8519354E-1,4.130193E0,1.7047672E-1,7.661335E-2,1.8722085E-2,-5.762092E-1,5.3155806E-2,1.6703062E-1,3.0158845E-1,2.4031201E-1,-6.134045E-2,6.878955E-3,-8.259839E-2,-1.7453982E-2,8.0838285E-2,4.84509E-3,6.555045E-2,1.359288E-1,2.110595E-2,2.3265399E-2,-2.4453944E-2,-1.6738003E-2,-5.918649E-2,9.561943E-2,1.2423041E-2,-1.3813284E-2,-5.7204243E-2,-7.5135216E-2,3.203683E-2,-3.8604587E-2,-1.6671915E-2,-8.118517E-3,1.3463161E-2,-2.104157E-3,4.543946E-2,2.2671655E-1,5.304856E-1,-1.1184216E-2,-8.3246104E-2,-4.3390848E-2,4.1180953E-2],"categories":[],"categories_nodes":[],"categories_segments":[],"categories_sizes":[],"default_left":[0,0,0,0,0,0,0,0,0,0,0,0,0,0,0,0,0,0,0,0,0,0,0,0,0,0,0,0,0,0,0,0,0,0,0,0,0,0,0,0,0,0,0,0,0,0,0,0,0,0,0,0,0,0,0,0,0,0,0,0,0,0,0,0,0,0,0,0,0,0,0,0,0,0,0,0,0,0,0,0,0,0,0,0,0],"id":13,"left_children":[1,3,5,7,9,11,13,15,17,19,21,23,25,-1,27,29,31,33,35,37,39,41,43,-1,45,-1,-1,47,49,51,53,55,57,59,61,63,65,67,69,-1,-1,71,73,75,77,79,-1,-1,-1,81,83,-1,-1,-1,-1,-1,-1,-1,-1,-1,-1,-1,-1,-1,-1,-1,-1,-1,-1,-1,-1,-1,-1,-1,-1,-1,-1,-1,-1,-1,-1,-1,-1,-1,-1],"loss_changes":[7.096186E1,2.5740091E1,4.5007927E1,1.1460915E2,2.536626E1,3.3839577E1,8.791472E0,8.541832E1,2.0377155E1,1.7678284E2,3.7849968E1,4.7608673E1,3.049754E1,0E0,2.7681794E0,2.8182068E1,4.0122175E0,9.212591E0,9.086479E0,1.1194871E1,2.3287506E0,1.0666019E1,1.3960076E1,0E0,8.091568E0,0E0,0E0,5.224619E-1,1.925078E0,4.531708E0,4.2100643E1,3.0742347E0,2.303743E0,9.098691E0,2.6791687E0,5.5569534E0,5.484338E0,7.8016944E0,2.9531364E0,0E0,0E0,4.1171017E0,7.803097E0,1.2865255E1,1.9330069E1,1.20457E1,0E0,0E0,0E0,8.5885525E-1,2.449624E0,0E0,0E0,0E0,0E0,0E0,0E0,0E0,0E0,0E0,0E0,0E0,0E0,0E0,0E0,0E0,0E0,0E0,0E0,0E0,0E0,0E0,0E0,0E0,0E0,0E0,0E0,0E0,0E0,0E0,0E0,0E0,0E0,0E0,0E0],"parents":[2147483647,0,0,1,1,2,2,3,3,4,4,5,5,6,6,7,7,8,8,9,9,10,10,11,11,12,12,14,14,15,15,16,16,17,17,18,18,19,19,20,20,21,21,22,22,24,24,27,27,28,28,29,29,30,30,31,31,32,32,33,33,34,34,35,35,36,36,37,37,38,38,41,41,42,42,43,43,44,44,45,45,49,49,50,50],"right_children":[2,4,6,8,10,12,14,16,18,20,22,24,26,-1,28,30,32,34,36,38,40,42,44,-1,46,-1,-1,48,50,52,54,56,58,60,62,64,66,68,70,-1,-1,72,74,76,78,80,-1,-1,-1,82,84,-1,-1,-1,-1,-1,-1,-1,-1,-1,-1,-1,-1,-1,-1,-1,-1,-1,-1,-1,-1,-1,-1,-1,-1,-1,-1,-1,-1,-1,-1,-1,-1,-1,-1],"split_conditions":[1.4E0,1.0086E3,1.0137E3,-1.8369701E-16,-9.8734945E-1,1.76E1,5E0,1.87E1,1.0021E3,1.32E1,1.16E2,1.12E1,1.53E2,1.451059E-1,1.9E0,-8.311706E-1,1.0075E3,9.5E0,6.2E1,1.27E2,3.19E3,3.7E1,9.5237756E-1,-2.3075351E-2,4E1,2.0147978E-1,-1.1834331E-1,8.4E0,-2.5881904E-1,9.414E2,8E0,3.601E2,7.95E2,5E-1,6.512E2,-2.5E0,7.9E1,-9.882014E-2,7.1E1,1.6519217E-1,3.7671968E-1,2.5E1,9.531E2,1.73E1,9.4E0,2E0,1.7047672E-1,7.661335E-2,1.8722085E-2,1.12E1,2.4E0,1.6703062E-1,3.0158845E-1,2.4031201E-1,-6.134045E-2,6.878955E-3,-8.259839E-2,-1.7453982E-2,8.0838285E-2,4.84509E-3,6.555045E-2,1.359288E-1,2.110595E-2,2.3265399E-2,-2.4453944E-2,-1.6738003E-2,-5.918649E-2,9.561943E-2,1.2423041E-2,-1.3813284E-2,-5.7204243E-2,-7.5135216E-2,3.203683E-2,-3.8604587E-2,-1.6671915E-2,-8.118517E-3,1.3463161E-2,-2.104157E-3,4.543946E-2,2.2671655E-1,5.304856E-1,-1.1184216E-2,-8.3246104E-2,-4.3390848E-2,4.1180953E-2],"split_indices":[5,9,9,33,34,0,19,0,9,2,18,0,18,0,5,34,9,0,1,21,28,1,35,0,27,0,0,0,30,10,27,23,25,30,25,2,22,35,1,0,0,1,10,19,19,5,0,0,0,0,5,0,0,0,0,0,0,0,0,0,0,0,0,0,0,0,0,0,0,0,0,0,0,0,0,0,0,0,0,0,0,0,0,0,0],"split_type":[0,0,0,0,0,0,0,0,0,0,0,0,0,0,0,0,0,0,0,0,0,0,0,0,0,0,0,0,0,0,0,0,0,0,0,0,0,0,0,0,0,0,0,0,0,0,0,0,0,0,0,0,0,0,0,0,0,0,0,0,0,0,0,0,0,0,0,0,0,0,0,0,0,0,0,0,0,0,0,0,0,0,0,0,0],"sum_hessian":[3.567E3,3.509E3,5.8E1,5.08E2,3.001E3,2.8E1,3E1,7E1,4.38E2,2.94E2,2.707E3,1.8E1,1E1,4E0,2.6E1,4.7E1,2.3E1,1.21E2,3.17E2,2.79E2,1.5E1,7.14E2,1.993E3,4E0,1.4E1,5E0,5E0,7E0,1.9E1,3E1,1.7E1,1.5E1,8E0,1.08E2,1.3E1,1.19E2,1.98E2,2.08E2,7.1E1,3E0,1.2E1,4.1E1,6.73E2,1.646E3,3.47E2,1E1,4E0,3E0,4E0,7E0,1.2E1,8E0,2.2E1,9E0,8E0,6E0,9E0,4E0,4E0,7.1E1,3.7E1,1E1,3E0,8.6E1,3.3E1,1.61E2,3.7E1,1.1E1,1.97E2,4.8E1,2.3E1,3E0,3.8E1,3.93E2,2.8E2,1.296E3,3.5E2,1.97E2,1.5E2,5E0,5E0,3E0,4E0,5E0,7E0],"tree_param":{"num_deleted":"0","num_feature":"36","num_nodes":"85","size_leaf_vector":"1"}},{"base_weights":[3.8391983E-3,-5.094433E-3,2.271431E0,-2.4104264E-2,4.9981079E-1,3.389318E0,-4.1862924E-2,3.4055263E-2,-1.6503423E-1,7.101433E-1,-6.8200874E-1,8.850146E-2,4.33616E-1,-9.134636E-3,2.4896346E-1,-2.8353024E-1,8.602504E-3,5.002063E-1,1.7553656E0,-1.2505352E-2,-8.593236E-2,1.332743E-1,-7.447587E-2,4.1576397E-1,1.102179E-1,6.517608E-1,-3.0226305E-1,2.6428194E0,-3.7402786E-2,-1.0331475E-1,1.2043777E0,2.299677E-1,1.0899488E-1,1.2889928E-1,5.5615986E-3,7.782253E-2,-8.248943E-3,5.468423E-2,1.5533045E-2,3.0951211E-2,-7.963675E-3,-7.06584E-2,2.1278696E-1,-1.9421292E-2,-4.246417E-2,3.711398E-1,9.135361E-2,3.6881473E-2,-8.595418E-3,1.0691737E-2,-7.954789E-2,1.6653003E-1,-7.21919E-2],"categories":[],"categories_nodes":[],"categories_segments":[],"categories_sizes":[],"default_left":[0,0,0,0,0,0,0,0,0,0,0,0,0,0,0,0,0,0,0,0,0,0,0,0,0,0,0,0,0,0,0,0,0,0,0,0,0,0,0,0,0,0,0,0,0,0,0,0,0,0,0,0,0],"id":14,"left_children":[1,3,5,7,9,11,-1,13,15,17,19,-1,-1,21,23,25,27,29,31,-1,-1,33,35,37,39,41,43,45,47,49,51,-1,-1,-1,-1,-1,-1,-1,-1,-1,-1,-1,-1,-1,-1,-1,-1,-1,-1,-1,-1,-1,-1],"loss_changes":[7.2271255E1,3.4123917E1,4.3519432E1,2.8086555E1,3.255051E1,1.9874252E1,0E0,2.2520075E1,2.0598278E1,2.325935E1,1.8676672E0,0E0,0E0,1.8815683E1,9.350168E0,1.0621777E1,4.9422325E1,3.964778E1,4.0129623E0,0E0,0E0,5.7010044E1,9.534979E0,6.196295E0,8.462283E0,2.5564291E1,7.6397743E0,9.544628E0,7.9403944E0,7.506322E0,3.9380783E1,0E0,0E0,0E0,0E0,0E0,0E0,0E0,0E0,0E0,0E0,0E0,0E0,0E0,0E0,0E0,0E0,0E0,0E0,0E0,0E0,0E0,0E0],"parents":[2147483647,0,0,1,1,2,2,3,3,4,4,5,5,7,7,8,8,9,9,10,10,13,13,14,14,15,15,16,16,17,17,18,18,21,21,22,22,23,23,24,24,25,25,26,26,27,27,28,28,29,29,30,30],"right_children":[2,4,6,8,10,12,-1,14,16,18,20,-1,-1,22,24,26,28,30,32,-1,-1,34,36,38,40,42,44,46,48,50,52,-1,-1,-1,-1,-1,-1,-1,-1,-1,-1,-1,-1,-1,-1,-1,-1,-1,-1,-1,-1,-1,-1],"split_conditions":[3.2E0,4E-1,5E-2,4.043E2,9.7110003E-1,9E-2,-4.1862924E-2,6.6E0,7.656E2,9.574852E-1,1.0171E3,8.850146E-2,4.33616E-1,-8.1653804E-1,2E-1,3E0,2.3E-1,9.5E0,8.4E1,-1.2505352E-2,-8.593236E-2,-5.049611E-1,9.964E2,2.73E2,9.507E2,8.2E0,2.5881904E-1,7.2E1,1.0099E3,8.1E0,1.4E2,2.299677E-1,1.0899488E-1,1.2889928E-1,5.5615986E-3,7.782253E-2,-8.248943E-3,5.468423E-2,1.5533045E-2,3.0951211E-2,-7.963675E-3,-7.06584E-2,2.1278696E-1,-1.9421292E-2,-4.246417E-2,3.711398E-1,9.135361E-2,3.6881473E-2,-8.595418E-3,1.0691737E-2,-7.954789E-2,1.6653003E-1,-7.21919E-2],"split_indices":[4,5,15,25,35,16,0,17,25,35,9,0,0,34,2,23,16,2,12,0,0,35,9,18,10,2,30,12,9,2,26,0,0,0,0,0,0,0,0,0,0,0,0,0,0,0,0,0,0,0,0,0,0],"split_type":[0,0,0,0,0,0,0,0,0,0,0,0,0,0,0,0,0,0,0,0,0,0,0,0,0,0,0,0,0,0,0,0,0,0,0,0,0,0,0,0,0,0,0,0,0,0,0,0,0,0,0,0,0],"sum_hessian":[3.566E3,3.553E3,1.3E1,3.425E3,1.28E2,9E0,4E0,2.425E3,1E3,1.09E2,1.9E1,3E0,6E0,2.02E3,4.05E2,5.94E2,4.06E2,9.2E1,1.7E1,5E0,1.4E1,6.35E2,1.385E3,1.83E2,2.22E2,1.1E1,5.83E2,6E0,4E2,5E1,4.2E1,8E0,9E0,3.9E1,5.96E2,1.2E1,1.373E3,1.21E2,6.2E1,1.08E2,1.14E2,6E0,5E0,3.11E2,2.72E2,3E0,3E0,4.2E1,3.58E2,3.9E1,1.1E1,3.4E1,8E0],"tree_param":{"num_deleted":"0","num_feature":"36","num_nodes":"53","size_leaf_vector":"1"}},{"base_weights":[1.0364863E-2,-4.798035E-3,8.0275446E-1,2.0966876E-1,-3.811237E-2,1.727806E0,1.739948E-1,6.870513E-2,1.1384659E0,-7.917476E-2,1.24721035E-1,1.7697562E-1,2.3714726E0,4.393752E-1,-4.313918E-1,8.8293743E-1,6.7118183E-3,1.9772012E0,1.1586354E-1,1.9901425E-1,-1.0747633E-1,3.0815142E-1,-2.3365147E-2,7.7655934E-2,-2.5224281E-2,3.3451858E0,9.1788185E-1,1.3884825E0,1.3141318E-1,-7.209249E-1,2.655097E-3,1.0489792E0,-4.1706808E-2,1.0034911E-1,-2.9820415E-1,2.541825E0,1.2637705E-1,9.011307E-1,-2.2619684E-1,5.0392017E-2,2.8204745E-1,-2.514573E-1,-3.8079783E-2,4.6991435E-1,8.516268E-2,9.1548435E-2,-3.0286825E-1,1.1390865E-1,4.0300876E-1,2.700595E-1,-4.2357396E-2,1.7027795E-1,7.2706476E-2,9.109966E-1,-1.9732198E-1,-9.262841E-2,-2.8399473E-2,1.4312439E-1,5.5661887E-2,-1.9864809E-2,3.1483043E-2,2.4436517E-2,-4.0136646E-2,1.2534086E-1,2.9505357E-1,-4.0134374E-2,4.5712806E-2,-3.6022436E-2,1.9822596E-1,-6.2334348E-2,1.9151313E-2,1.7832132E-2,-2.3724325E-2,-1.3205077E-2,-3.2232672E-2,-5.0010374E-3,4.7254648E-2,2.8376922E-2,8.905851E-2,4.544233E-2,-1.4680803E-2,1.8710593E-2,-1.3988647E-2,6.484981E-3,-4.487972E-2,1.0128617E-2,1.4929579E-1,-3.9669536E-2,3.605132E-2],"categories":[],"categories_nodes":[],"categories_segments":[],"categories_sizes":[],"default_left":[0,0,0,0,0,0,0,0,0,0,0,0,0,0,0,0,0,0,0,0,0,0,0,0,0,0,0,0,0,0,0,0,0,0,0,0,0,0,0,0,0,0,0,0,0,0,0,0,0,0,0,0,0,0,0,0,0,0,0,0,0,0,0,0,0,0,0,0,0,0,0,0,0,0,0,0,0,0,0,0,0,0,0,0,0,0,0,0,0],"id":15,"left_children":[1,3,5,7,9,11,13,15,17,19,21,23,25,27,29,31,33,35,37,39,41,43,45,-1,-1,47,49,51,53,55,-1,57,-1,59,61,63,65,67,69,71,-1,73,75,77,79,81,83,-1,-1,-1,-1,-1,-1,85,87,-1,-1,-1,-1,-1,-1,-1,-1,-1,-1,-1,-1,-1,-1,-1,-1,-1,-1,-1,-1,-1,-1,-1,-1,-1,-1,-1,-1,-1,-1,-1,-1,-1,-1],"loss_changes":[4.2873093E1,2.5029146E1,3.866892E1,6.158822E1,2.0282822E1,2.6532196E1,6.7765102E0,2.0689623E1,5.2947884E1,1.9090248E1,1.6604103E1,2.512053E0,2.3821732E1,8.293916E0,1.7428057E0,6.697294E0,1.0936601E1,3.5209427E1,7.993488E0,8.71299E1,2.1962357E1,9.807449E0,1.0915967E1,0E0,0E0,1.2029961E1,2.2666779E1,2.1714115E-1,6.0741186E0,4.547615E-1,0E0,4.0968513E0,0E0,1.8852428E1,5.135623E0,9.993103E0,1.7543631E0,1.2987244E1,3.6031122E0,7.8800616E0,0E0,6.0079613E0,9.070357E0,1.2119598E1,1.0003E1,5.3559704E0,5.3415155E0,0E0,0E0,0E0,0E0,0E0,0E0,3.147325E0,2.0337114E0,0E0,0E0,0E0,0E0,0E0,0E0,0E0,0E0,0E0,0E0,0E0,0E0,0E0,0E0,0E0,0E0,0E0,0E0,0E0,0E0,0E0,0E0,0E0,0E0,0E0,0E0,0E0,0E0,0E0,0E0,0E0,0E0,0E0,0E0],"parents":[2147483647,0,0,1,1,2,2,3,3,4,4,5,5,6,6,7,7,8,8,9,9,10,10,11,11,12,12,13,13,14,14,15,15,16,16,17,17,18,18,19,19,20,20,21,21,22,22,25,25,26,26,27,27,28,28,29,29,31,31,33,33,34,34,35,35,36,36,37,37,38,38,39,39,41,41,42,42,43,43,44,44,45,45,46,46,53,53,54,54],"right_children":[2,4,6,8,10,12,14,16,18,20,22,24,26,28,30,32,34,36,38,40,42,44,46,-1,-1,48,50,52,54,56,-1,58,-1,60,62,64,66,68,70,72,-1,74,76,78,80,82,84,-1,-1,-1,-1,-1,-1,86,88,-1,-1,-1,-1,-1,-1,-1,-1,-1,-1,-1,-1,-1,-1,-1,-1,-1,-1,-1,-1,-1,-1,-1,-1,-1,-1,-1,-1,-1,-1,-1,-1,-1,-1],"split_conditions":[1.1E0,1.0082E3,9.471E2,1.34E1,7E0,9.444E2,4.961E2,9.964E2,1.9E1,-9.8734945E-1,1.74E2,-7.0710677E-1,2E1,-2.5881904E-1,9E1,5.709E2,7.3E1,1.56E2,-8.311706E-1,-9.8867756E-1,1.3E2,9.508E2,-7.0710677E-1,7.7655934E-2,-2.5224281E-2,1.44E1,1.8E0,1.3E0,1.0151E3,2E1,2.655097E-3,5.1E1,-4.1706808E-2,-1.2E0,1.0009E3,1.43E1,1.41E1,3.32E3,3.5E3,3.894E2,2.8204745E-1,0E0,4E-1,3.36E3,5.9E0,2.2E1,5.982E2,1.1390865E-1,4.0300876E-1,2.700595E-1,-4.2357396E-2,1.7027795E-1,7.2706476E-2,9.8E1,7.0710677E-1,-9.262841E-2,-2.8399473E-2,1.4312439E-1,5.5661887E-2,-1.9864809E-2,3.1483043E-2,2.4436517E-2,-4.0136646E-2,1.2534086E-1,2.9505357E-1,-4.0134374E-2,4.5712806E-2,-3.6022436E-2,1.9822596E-1,-6.2334348E-2,1.9151313E-2,1.7832132E-2,-2.3724325E-2,-1.3205077E-2,-3.2232672E-2,-5.0010374E-3,4.7254648E-2,2.8376922E-2,8.905851E-2,4.544233E-2,-1.4680803E-2,1.8710593E-2,-1.3988647E-2,6.484981E-3,-4.487972E-2,1.0128617E-2,1.4929579E-1,-3.9669536E-2,3.605132E-2],"split_indices":[5,9,10,3,17,10,25,9,27,34,20,30,26,31,22,25,22,21,34,34,18,10,31,0,0,0,5,5,9,3,0,8,0,3,9,3,3,28,28,25,0,30,5,28,3,13,25,0,0,0,0,0,0,13,30,0,0,0,0,0,0,0,0,0,0,0,0,0,0,0,0,0,0,0,0,0,0,0,0,0,0,0,0,0,0,0,0,0,0],"split_type":[0,0,0,0,0,0,0,0,0,0,0,0,0,0,0,0,0,0,0,0,0,0,0,0,0,0,0,0,0,0,0,0,0,0,0,0,0,0,0,0,0,0,0,0,0,0,0,0,0,0,0,0,0,0,0,0,0,0,0,0,0,0,0,0,0,0,0,0,0,0,0,0,0,0,0,0,0,0,0,0,0,0,0,0,0,0,0,0,0],"sum_hessian":[3.567E3,3.501E3,6.6E1,4.7E2,3.031E3,2.6E1,4E1,4.09E2,6.1E1,2.421E3,6.1E2,8E0,1.8E1,2.8E1,1.2E1,2.8E1,3.81E2,3.3E1,2.8E1,2.23E2,2.198E3,2.72E2,3.38E2,3E0,5E0,1E1,8E0,6E0,2.2E1,7E0,5E0,2.5E1,3E0,2.92E2,8.9E1,2.5E1,8E0,8E0,2E1,2.12E2,1.1E1,7.14E2,1.484E3,1.57E2,1.15E2,2.4E2,9.8E1,3E0,7E0,3E0,5E0,3E0,3E0,6E0,1.6E1,4E0,3E0,1.3E1,1.2E1,1.22E2,1.7E2,1.4E1,7.5E1,7E0,1.8E1,3E0,5E0,4E0,4E0,1E1,1E1,1.47E2,6.5E1,2.67E2,4.47E2,1.451E3,3.3E1,1.1E2,4.7E1,4.4E1,7.1E1,1.7E2,7E1,2.8E1,7E1,3E0,3E0,1.2E1,4E0],"tree_param":{"num_deleted":"0","num_feature":"36","num_nodes":"89","size_leaf_vector":"1"}},{"base_weights":[-1.3938146E-3,-1.6629824E-2,7.4433196E-1,-1.109987E-1,3.8451344E-2,-2.344314E-1,1.1601012E0,3.575548E-1,-1.2756199E-1,2.422199E-1,9.260918E-3,-4.8392949E-1,7.106479E-2,5.496147E-1,1.9121014E0,6.8363495E-2,1.2189138E0,-1.9206654E-1,1.9702489E-2,4.6769116E-2,1.2142081E0,1.0563812E-1,-5.858727E-2,-2.4590127E-1,-9.190024E-2,-7.1145676E-2,1.3191003E0,3.495339E-1,5.4714185E-1,6.651866E-1,-1.4085847E-1,1.3916712E-1,5.686704E-2,-3.3541515E-2,-2.7210182E-1,2.2249682E0,-4.01142E-2,-7.0580795E-2,3.959892E-1,8.2926357E-1,2.5170825E0,1.7760633E-1,-9.534781E-2,-1.2733838E-1,6.258482E-2,-6.9057405E-2,2.8461536E-2,-3.2940832E-1,8.5056E-2,1.7718355E-1,8.146613E-2,1.8484168E-1,-4.9720705E-1,1.0621341E-1,1.3520166E-2,-3.511437E-2,4.800791E-2,-2.8604245E-2,2.3531439E-2,-6.602473E-2,-2.192979E-2,3.3808655E-1,-3.5409402E-2,1.2663923E-2,-2.0133235E-2,-2.357005E-2,1.3354833E-2,2.3888908E-2,9.782989E-2,1.6362278E-1,-3.321411E-2,1.6058259E-1,3.1071737E-1,-4.3276638E-2,1.999784E-2,6.36301E-2,-1.6725395E-2,1.2386868E-2,-1.5372788E-2,-1.741317E-4,4.158957E-2,-2.907809E-2,2.3654623E-2,-4.682654E-2,1.4187599E-3,-1.4024012E-1,3.263897E-2],"categories":[],"categories_nodes":[],"categories_segments":[],"categories_sizes":[],"default_left":[0,0,0,0,0,0,0,0,0,0,0,0,0,0,0,0,0,0,0,0,0,0,0,0,0,0,0,0,0,0,0,0,0,0,0,0,0,0,0,0,0,0,0,0,0,0,0,0,0,0,0,0,0,0,0,0,0,0,0,0,0,0,0,0,0,0,0,0,0,0,0,0,0,0,0,0,0,0,0,0,0,0,0,0,0,0,0],"id":16,"left_children":[1,3,5,7,9,11,13,15,17,19,21,23,-1,25,27,29,31,33,35,37,39,41,43,45,-1,47,49,-1,51,53,55,-1,-1,57,59,61,63,65,67,69,71,73,75,77,79,-1,81,83,-1,-1,-1,-1,85,-1,-1,-1,-1,-1,-1,-1,-1,-1,-1,-1,-1,-1,-1,-1,-1,-1,-1,-1,-1,-1,-1,-1,-1,-1,-1,-1,-1,-1,-1,-1,-1,-1,-1],"loss_changes":[4.029026E1,1.8067135E1,2.9164677E1,9.987179E0,1.3053815E1,5.531404E0,2.1903389E1,1.0876963E1,1.176383E1,5.2186577E1,1.2567644E1,1.6380892E0,0E0,1.3946165E1,4.5630753E1,4.3392262E0,4.442749E-1,1.0914892E1,4.9951874E1,9.453566E0,2.0983253E1,1.1501824E1,9.405017E0,1.6056768E0,0E0,4.3268976E0,1.5254593E0,0E0,1.858585E1,1.7497835E0,3.5635002E0,0E0,0E0,1.9754354E1,1.1578697E1,3.1008457E1,9.945574E0,5.862571E0,5.0721884E0,3.52203E1,3.876686E-1,8.074898E0,1.1154532E1,4.7920847E0,9.296116E0,0E0,6.666483E-1,6.745939E-1,0E0,0E0,0E0,0E0,6.421849E0,0E0,0E0,0E0,0E0,0E0,0E0,0E0,0E0,0E0,0E0,0E0,0E0,0E0,0E0,0E0,0E0,0E0,0E0,0E0,0E0,0E0,0E0,0E0,0E0,0E0,0E0,0E0,0E0,0E0,0E0,0E0,0E0,0E0,0E0],"parents":[2147483647,0,0,1,1,2,2,3,3,4,4,5,5,6,6,7,7,8,8,9,9,10,10,11,11,13,13,14,14,15,15,16,16,17,17,18,18,19,19,20,20,21,21,22,22,23,23,25,25,26,26,28,28,29,29,30,30,33,33,34,34,35,35,36,36,37,37,38,38,39,39,40,40,41,41,42,42,43,43,44,44,46,46,47,47,52,52],"right_children":[2,4,6,8,10,12,14,16,18,20,22,24,-1,26,28,30,32,34,36,38,40,42,44,46,-1,48,50,-1,52,54,56,-1,-1,58,60,62,64,66,68,70,72,74,76,78,80,-1,82,84,-1,-1,-1,-1,86,-1,-1,-1,-1,-1,-1,-1,-1,-1,-1,-1,-1,-1,-1,-1,-1,-1,-1,-1,-1,-1,-1,-1,-1,-1,-1,-1,-1,-1,-1,-1,-1,-1,-1],"split_conditions":[1.1E0,-2.5881904E-1,9.7E1,1.0018E3,1.0082E3,2.1E2,3.34E3,1.77E2,7.885E2,1.12E1,3.9E1,1.0215E3,7.106479E-2,8.939186E-1,1E1,1.21E3,7.1E0,6E0,2.3E-1,3.2E-1,9.5E1,1.17E1,9.2E1,1.0156E3,-9.190024E-2,9E0,2.67E2,3.495339E-1,2E0,4E-2,9.3E0,1.3916712E-1,5.686704E-2,7.498264E-1,3.4E0,1.0131E3,6E1,4.171936E-1,-3E0,-8.311706E-1,1.0076E3,8E-2,9.472E2,-9.8734945E-1,1E-1,-6.9057405E-2,1.425E2,1.0191E3,8.5056E-2,1.7718355E-1,8.146613E-2,1.8484168E-1,1.0103E3,1.0621341E-1,1.3520166E-2,-3.511437E-2,4.800791E-2,-2.8604245E-2,2.3531439E-2,-6.602473E-2,-2.192979E-2,3.3808655E-1,-3.5409402E-2,1.2663923E-2,-2.0133235E-2,-2.357005E-2,1.3354833E-2,2.3888908E-2,9.782989E-2,1.6362278E-1,-3.321411E-2,1.6058259E-1,3.1071737E-1,-4.3276638E-2,1.999784E-2,6.36301E-2,-1.6725395E-2,1.2386868E-2,-1.5372788E-2,-1.741317E-4,4.158957E-2,-2.907809E-2,2.3654623E-2,-4.682654E-2,1.4187599E-3,-1.4024012E-1,3.263897E-2],"split_indices":[4,31,14,9,9,26,28,18,25,0,11,9,0,35,26,28,0,11,16,16,13,2,14,9,0,27,18,0,4,15,0,0,0,35,0,9,26,34,2,34,9,16,10,34,4,0,25,9,0,0,0,0,9,0,0,0,0,0,0,0,0,0,0,0,0,0,0,0,0,0,0,0,0,0,0,0,0,0,0,0,0,0,0,0,0,0,0],"split_type":[0,0,0,0,0,0,0,0,0,0,0,0,0,0,0,0,0,0,0,0,0,0,0,0,0,0,0,0,0,0,0,0,0,0,0,0,0,0,0,0,0,0,0,0,0,0,0,0,0,0,0,0,0,0,0,0,0,0,0,0,0,0,0,0,0,0,0,0,0,0,0,0,0,0,0,0,0,0,0,0,0,0,0,0,0,0,0],"sum_hessian":[3.544E3,3.474E3,7E1,1.28E3,2.194E3,2.1E1,4.9E1,4.3E1,1.237E3,2.74E2,1.92E3,1.7E1,4E0,2.8E1,2.1E1,3.3E1,1E1,8.6E2,3.77E2,2.29E2,4.5E1,7.93E2,1.127E3,1.2E1,5E0,1.6E1,1.2E1,9E0,1.2E1,8E0,2.5E1,7E0,3E0,2.89E2,5.71E2,9E0,3.68E2,1.72E2,5.7E1,3.6E1,9E0,5.84E2,2.09E2,7.19E2,4.08E2,4E0,8E0,1.3E1,3E0,5E0,7E0,5E0,7E0,4E0,4E0,1.9E1,6E0,1.49E2,1.4E2,6.7E1,5.04E2,6E0,3E0,1.81E2,1.87E2,9.5E1,7.7E1,4.6E1,1.1E1,2.1E1,1.5E1,5E0,4E0,2E1,5.64E2,1.8E1,1.91E2,6.8E1,6.51E2,3.46E2,6.2E1,3E0,5E0,9E0,4E0,3E0,4E0],"tree_param":{"num_deleted":"0","num_feature":"36","num_nodes":"87","size_leaf_vector":"1"}},{"base_weights":[-3.6533237E-3,-1.0591869E-2,1.348795E0,9.134647E-2,-6.086248E-2,2.1549854E0,-6.227498E-2,1.6963974E0,3.5424672E-2,-1.7906094E-1,-1.361723E-2,-1.6534328E-5,2.801547E0,2.1283355E0,-1.03398405E-1,1.2120863E-1,-2.074092E-1,-1.9286095E-1,1.3825837E-1,7.557486E-1,-2.2404434E-2,9.323521E-2,3.4694377E-1,1.5177151E0,3.442053E-1,8.530552E-2,7.755002E-1,-3.2455873E-1,1.0321129E-1,-1.7596568E-1,-8.275114E-1,3.4809712E-1,1.1700174E0,-6.619626E-2,1.4374095E-1,1.8841982E-1,5.0341386E-2,4.553615E-3,6.966394E-2,2.7975399E-2,2.1922389E-1,-2.0609282E-2,-4.444466E-2,-7.684329E-3,4.467733E-2,1.1264776E-2,-2.0822642E-2,-9.779917E-2,-2.7076071E-2,7.936563E-2,-6.300456E-2,5.077988E-2,1.5982324E-1,8.996683E-4,-1.9978583E-2,1.21205345E-1,3.5102533E-3],"categories":[],"categories_nodes":[],"categories_segments":[],"categories_sizes":[],"default_left":[0,0,0,0,0,0,0,0,0,0,0,0,0,0,0,0,0,0,0,0,0,0,0,0,0,0,0,0,0,0,0,0,0,0,0,0,0,0,0,0,0,0,0,0,0,0,0,0,0,0,0,0,0,0,0,0,0],"id":17,"left_children":[1,3,5,7,9,11,-1,13,15,17,19,-1,21,23,-1,25,27,29,-1,31,33,-1,-1,35,-1,37,39,41,43,45,47,49,51,53,55,-1,-1,-1,-1,-1,-1,-1,-1,-1,-1,-1,-1,-1,-1,-1,-1,-1,-1,-1,-1,-1,-1],"loss_changes":[3.3092976E1,1.7982315E1,2.9951939E1,1.0396866E2,1.3120706E1,1.8115162E1,0E0,4.819552E1,2.337697E1,1.4727173E1,1.1374699E1,0E0,9.249435E0,2.2050156E1,0E0,1.9407967E1,1.0695488E1,6.9956303E0,0E0,2.8013887E0,1.2101912E1,0E0,0E0,8.344566E0,0E0,1.910211E1,2.9587458E1,2.9335632E0,5.0449843E0,6.0755253E0,1.1594563E0,5.2940655E0,1.7405672E0,1.3221008E1,4.0230194E1,0E0,0E0,0E0,0E0,0E0,0E0,0E0,0E0,0E0,0E0,0E0,0E0,0E0,0E0,0E0,0E0,0E0,0E0,0E0,0E0,0E0,0E0],"parents":[2147483647,0,0,1,1,2,2,3,3,4,4,5,5,7,7,8,8,9,9,10,10,12,12,13,13,15,15,16,16,17,17,19,19,20,20,23,23,25,25,26,26,27,27,28,28,29,29,30,30,31,31,32,32,33,33,34,34],"right_children":[2,4,6,8,10,12,-1,14,16,18,20,-1,22,24,-1,26,28,30,-1,32,34,-1,-1,36,-1,38,40,42,44,46,48,50,52,54,56,-1,-1,-1,-1,-1,-1,-1,-1,-1,-1,-1,-1,-1,-1,-1,-1,-1,-1,-1,-1,-1,-1],"split_conditions":[3.3E0,-8.311706E-1,4E0,-5.197438E-1,1.16E2,-5E-1,-6.227498E-2,9.46E2,2.6E2,1.6E0,9.3E2,-1.6534328E-5,1.44E1,7.0710677E-1,-1.03398405E-1,1.6E2,4.2E2,4E-1,1.3825837E-1,5E-1,9.6684784E-1,9.323521E-2,3.4694377E-1,2.3E2,3.442053E-1,-8.543222E-1,-2.5119007E-1,-9.53681E-1,2.2E1,4.5E1,5.9E1,-2.5881904E-1,2.8E0,7E0,-2.3030567E-1,1.8841982E-1,5.0341386E-2,4.553615E-3,6.966394E-2,2.7975399E-2,2.1922389E-1,-2.0609282E-2,-4.444466E-2,-7.684329E-3,4.467733E-2,1.1264776E-2,-2.0822642E-2,-9.779917E-2,-2.7076071E-2,7.936563E-2,-6.300456E-2,5.077988E-2,1.5982324E-1,8.996683E-4,-1.9978583E-2,1.21205345E-1,3.5102533E-3],"split_indices":[4,34,21,35,18,30,0,10,20,4,10,0,0,30,0,26,21,5,0,30,35,0,0,26,0,34,35,34,3,18,20,30,0,12,34,0,0,0,0,0,0,0,0,0,0,0,0,0,0,0,0,0,0,0,0,0,0],"split_type":[0,0,0,0,0,0,0,0,0,0,0,0,0,0,0,0,0,0,0,0,0,0,0,0,0,0,0,0,0,0,0,0,0,0,0,0,0,0,0,0,0,0,0,0,0,0,0,0,0,0,0,0,0,0,0,0,0],"sum_hessian":[3.524E3,3.507E3,1.7E1,1.158E3,2.349E3,1.2E1,5E0,3.8E1,1.12E3,6.7E2,1.679E3,3E0,9E0,3.3E1,5E0,8.28E2,2.92E2,6.65E2,5E0,1.8E1,1.661E3,3E0,6E0,2.4E1,9E0,7.86E2,4.2E1,2.12E2,8E1,6.49E2,1.6E1,1E1,8E0,1.315E3,3.46E2,1.7E1,7E0,7.39E2,4.7E1,3.2E1,1E1,1.08E2,1.04E2,5.3E1,2.7E1,6.5E1,5.84E2,1.2E1,4E0,7E0,3E0,4E0,4E0,8.42E2,4.73E2,3.1E1,3.15E2],"tree_param":{"num_deleted":"0","num_feature":"36","num_nodes":"57","size_leaf_vector":"1"}},{"base_weights":[5.5163475E-3,-8.171484E-3,7.027223E-1,-7.699054E-2,4.5653135E-2,2.5897124E-1,1.9456297E0,3.3974234E-2,-1.9713591E-1,2.0010624E-2,5.580177E-1,4.942865E-1,-3.5442552E-1,8.127692E-1,2.9881825E0,4.2217502E-1,1.4911827E-3,-1.0521281E-1,-3.0762297E-1,7.010419E-2,-9.3517356E-2,4.047413E-1,1.9606569E0,1.320302E-1,2.404315E-1,7.555502E-2,-6.948819E-1,1.7771749E-1,1.4557025E-1,3.6477354E-1,1.2518078E-1,1.5814774E-1,2.1845908E0,-3.387559E-1,2.9223856E-2,-1.1991231E-1,1.4020653E-1,6.714321E-1,-3.3049473E-1,1.1618834E-1,6.332119E-2,-2.4742506E-1,1.1103569E-1,-1.4061666E-1,7.640256E-1,3.2805702E-1,2.4861244E-2,-1.2208549E-1,8.232371E-1,-1.1056683E-1,1.0135255E-2,3.978572E-2,-1.4310926E-2,6.102024E-3,1.3812684E-1,2.746246E-1,1.2983488E-1,-5.924992E-2,-8.208116E-3,2.4940696E-2,-4.387342E-4,-8.432867E-3,-5.5952467E-2,1.2957835E-1,-2.7686521E-2,-3.4760695E-2,5.0632525E-2,2.9138895E-3,2.5195036E-2,-2.7244095E-2,2.5897577E-2,-1.8641982E-2,2.111898E-2,7.9255454E-2,-2.8659213E-2,1.1038412E-1,-3.4033187E-2,-3.7701137E-2,4.6675842E-2,1.8719126E-2,1.2946355E-1],"categories":[],"categories_nodes":[],"categories_segments":[],"categories_sizes":[],"default_left":[0,0,0,0,0,0,0,0,0,0,0,0,0,0,0,0,0,0,0,0,0,0,0,0,0,0,0,0,0,0,0,0,0,0,0,0,0,0,0,0,0,0,0,0,0,0,0,0,0,0,0,0,0,0,0,0,0,0,0,0,0,0,0,0,0,0,0,0,0,0,0,0,0,0,0,0,0,0,0,0,0],"id":18,"left_children":[1,3,5,7,9,11,13,15,17,19,21,23,25,27,29,31,33,35,37,39,41,43,45,47,-1,-1,49,-1,51,-1,-1,53,55,57,59,61,-1,63,65,-1,67,69,71,73,75,-1,-1,77,79,-1,-1,-1,-1,-1,-1,-1,-1,-1,-1,-1,-1,-1,-1,-1,-1,-1,-1,-1,-1,-1,-1,-1,-1,-1,-1,-1,-1,-1,-1,-1,-1],"loss_changes":[3.419916E1,1.3023635E1,3.7552498E1,2.0577827E1,2.5910727E1,7.680952E0,1.8830505E1,1.0125156E1,7.4934616E0,1.0698155E1,1.9415644E1,2.5975513E1,6.1934934E0,6.1758013E0,5.7408066E0,2.8504715E1,7.011383E0,9.163557E0,7.745861E0,9.590658E0,1.8161272E1,1.6958153E1,1.952216E1,5.89684E0,0E0,0E0,4.03705E0,0E0,5.6674755E-1,0E0,0E0,6.4496393E0,4.1651154E-1,3.598619E0,5.0853176E0,6.256948E0,0E0,5.0953236E0,4.88723E0,0E0,8.361874E0,4.23835E0,7.4276333E0,4.994843E0,1.9890118E1,0E0,0E0,3.9287617E0,2.4561348E0,0E0,0E0,0E0,0E0,0E0,0E0,0E0,0E0,0E0,0E0,0E0,0E0,0E0,0E0,0E0,0E0,0E0,0E0,0E0,0E0,0E0,0E0,0E0,0E0,0E0,0E0,0E0,0E0,0E0,0E0,0E0,0E0],"parents":[2147483647,0,0,1,1,2,2,3,3,4,4,5,5,6,6,7,7,8,8,9,9,10,10,11,11,12,12,13,13,14,14,15,15,16,16,17,17,18,18,19,19,20,20,21,21,22,22,23,23,26,26,28,28,31,31,32,32,33,33,34,34,35,35,37,37,38,38,40,40,41,41,42,42,43,43,44,44,47,47,48,48],"right_children":[2,4,6,8,10,12,14,16,18,20,22,24,26,28,30,32,34,36,38,40,42,44,46,48,-1,-1,50,-1,52,-1,-1,54,56,58,60,62,-1,64,66,-1,68,70,72,74,76,-1,-1,78,80,-1,-1,-1,-1,-1,-1,-1,-1,-1,-1,-1,-1,-1,-1,-1,-1,-1,-1,-1,-1,-1,-1,-1,-1,-1,-1,-1,-1,-1,-1,-1,-1],"split_conditions":[1.2E0,3.9E0,7.0710677E-1,1.2246469E-16,1E-1,3.55E3,1.43E1,-9.8734945E-1,2.28E1,3.01E2,3.69E3,3.4E3,1.98E1,1.3E0,6.2E1,1.32E1,9.9E2,1.99E1,9.336E2,9.964E2,4.24E2,9.7E1,3.79E3,8.939186E-1,2.404315E-1,7.555502E-2,1.7E1,1.7771749E-1,1E0,3.6477354E-1,1.2518078E-1,3.9E1,1.51E1,9.413173E-1,1.0082E3,1.0262E3,1.4020653E-1,4.732E2,9.3E1,1.1618834E-1,1.84E1,1.38E1,9.491E2,1.0032E3,8.8E1,3.2805702E-1,2.4861244E-2,1.8E1,8.6E1,-1.1056683E-1,1.0135255E-2,3.978572E-2,-1.4310926E-2,6.102024E-3,1.3812684E-1,2.746246E-1,1.2983488E-1,-5.924992E-2,-8.208116E-3,2.4940696E-2,-4.387342E-4,-8.432867E-3,-5.5952467E-2,1.2957835E-1,-2.7686521E-2,-3.4760695E-2,5.0632525E-2,2.9138895E-3,2.5195036E-2,-2.7244095E-2,2.5897577E-2,-1.8641982E-2,2.111898E-2,7.9255454E-2,-2.8659213E-2,1.1038412E-1,-3.4033187E-2,-3.7701137E-2,4.6675842E-2,1.8719126E-2,1.2946355E-1],"split_indices":[4,17,30,30,4,28,0,34,23,20,28,28,3,4,12,2,28,23,10,9,21,14,28,35,0,0,2,0,14,0,0,27,0,35,9,9,0,25,1,0,19,17,10,9,12,0,0,27,1,0,0,0,0,0,0,0,0,0,0,0,0,0,0,0,0,0,0,0,0,0,0,0,0,0,0,0,0,0,0,0,0],"split_type":[0,0,0,0,0,0,0,0,0,0,0,0,0,0,0,0,0,0,0,0,0,0,0,0,0,0,0,0,0,0,0,0,0,0,0,0,0,0,0,0,0,0,0,0,0,0,0,0,0,0,0,0,0,0,0,0,0,0,0,0,0,0,0,0,0,0,0,0,0,0,0,0,0,0,0,0,0,0,0,0,0],"sum_hessian":[3.582E3,3.514E3,6.8E1,1.542E3,1.972E3,5.1E1,1.7E1,8.02E2,7.4E2,1.879E3,9.3E1,3.7E1,1.4E1,9E0,8E0,6.1E1,7.41E2,4.05E2,3.35E2,1.304E3,5.75E2,8.5E1,8E0,3.2E1,5E0,3E0,1.1E1,3E0,6E0,5E0,3E0,5.4E1,7E0,5.5E1,6.86E2,4.02E2,3E0,7E0,3.28E2,7E0,1.297E3,3.28E2,2.47E2,3.4E1,5.1E1,4E0,4E0,2.4E1,8E0,7E0,4E0,3E0,3E0,5.1E1,3E0,3E0,4E0,2.7E1,2.8E1,9E1,5.96E2,3.73E2,2.9E1,4E0,3E0,3.22E2,6E0,1.099E3,1.98E2,3.13E2,1.5E1,6.2E1,1.85E2,4E0,3E1,3.9E1,1.2E1,1.7E1,7E0,4E0,4E0],"tree_param":{"num_deleted":"0","num_feature":"36","num_nodes":"81","size_leaf_vector":"1"}},{"base_weights":[7.2720475E-3,-3.6662775E-3,7.1468496E-1,-3.9841935E-2,1.01705E-1,1.2612425E0,3.0228544E-2,5.7949614E-2,-8.253286E-2,1.9575943E-1,-2.2906458E-2,-5.4465055E-2,1.7421572E0,5.966052E-1,-1.8002751E-1,1.3776649E0,-4.970629E-3,-1.5826434E-1,-5.530226E-3,1.4981687E-1,6.3387823E-1,1.4979337E-1,-2.0467061E-1,2.8808547E-2,-2.7375458E-2,2.54403E0,5.255071E-1,7.6794684E-2,2.7611226E-2,2.9894186E-2,-2.8851813E-1,1.7927139E0,-5.979251E-1,5.6024536E-2,-3.3523282E-1,-3.9771393E-1,-8.258416E-2,-1.3251086E-1,7.45328E-2,1.1152109E-1,1.3466868E-1,4.676245E-1,1.9701357E-1,2.2199771E-1,-2.6195085E-1,-3.7159008E-1,-1.0250152E-1,2.909591E-1,9.941197E-2,1.23758435E-1,-1.5547514E-2,-5.298959E-1,1.9096643E-2,2.1725714E-1,2.342433E-2,-8.379358E-3,-9.6257545E-2,2.2141298E-3,6.2295377E-2,-3.856491E-2,3.6668635E-3,-4.9180806E-2,-2.3451023E-2,-9.772639E-3,6.103787E-2,1.9260809E-3,-3.1514302E-2,1.9631714E-2,-7.8871725E-3,2.2935853E-3,2.482776E-2,6.783457E-2,-1.508275E-2,-2.7914082E-3,3.0486552E-2,-3.8940143E-2,4.531824E-2,-6.1271258E-2,-1.9051237E-2,1.1544376E-2,-2.3843277E-2,-1.3664424E-2,-7.037478E-2,1.3420815E-2,-7.6811886E-3],"categories":[],"categories_nodes":[],"categories_segments":[],"categories_sizes":[],"default_left":[0,0,0,0,0,0,0,0,0,0,0,0,0,0,0,0,0,0,0,0,0,0,0,0,0,0,0,0,0,0,0,0,0,0,0,0,0,0,0,0,0,0,0,0,0,0,0,0,0,0,0,0,0,0,0,0,0,0,0,0,0,0,0,0,0,0,0,0,0,0,0,0,0,0,0,0,0,0,0,0,0,0,0,0,0],"id":19,"left_children":[1,3,5,7,9,11,13,15,17,19,21,23,25,27,29,31,33,35,37,39,41,43,45,-1,-1,47,49,-1,-1,-1,51,53,55,57,59,61,63,65,67,-1,69,71,-1,73,75,77,79,-1,-1,-1,-1,81,83,-1,-1,-1,-1,-1,-1,-1,-1,-1,-1,-1,-1,-1,-1,-1,-1,-1,-1,-1,-1,-1,-1,-1,-1,-1,-1,-1,-1,-1,-1,-1,-1],"loss_changes":[2.7441256E1,1.3318932E1,2.0162992E1,1.0863467E1,1.0470676E1,1.9077179E1,3.0845084E0,6.568896E1,1.0560013E1,1.0150337E1,1.2116054E1,7.549243E-1,2.0126251E1,1.7235708E-1,1.0735601E0,3.0590706E1,1.5247946E1,1.6512165E1,9.149519E0,6.6060905E0,9.742292E0,5.9446363E0,3.168065E0,0E0,0E0,4.473152E0,5.0415325E0,0E0,0E0,0E0,1.1981413E0,1.7250984E1,1.2316899E0,1.2261013E1,2.2266273E0,3.2477417E0,7.352286E0,9.652068E0,1.0328095E1,0E0,5.7826986E0,5.8364344E0,0E0,3.508439E0,2.9107945E0,2.9832668E0,3.523343E0,0E0,0E0,0E0,0E0,5.1914454E-1,9.8630175E-2,0E0,0E0,0E0,0E0,0E0,0E0,0E0,0E0,0E0,0E0,0E0,0E0,0E0,0E0,0E0,0E0,0E0,0E0,0E0,0E0,0E0,0E0,0E0,0E0,0E0,0E0,0E0,0E0,0E0,0E0,0E0,0E0],"parents":[2147483647,0,0,1,1,2,2,3,3,4,4,5,5,6,6,7,7,8,8,9,9,10,10,11,11,12,12,13,13,14,14,15,15,16,16,17,17,18,18,19,19,20,20,21,21,22,22,25,25,26,26,30,30,31,31,32,32,33,33,34,34,35,35,36,36,37,37,38,38,40,40,41,41,43,43,44,44,45,45,46,46,51,51,52,52],"right_children":[2,4,6,8,10,12,14,16,18,20,22,24,26,28,30,32,34,36,38,40,42,44,46,-1,-1,48,50,-1,-1,-1,52,54,56,58,60,62,64,66,68,-1,70,72,-1,74,76,78,80,-1,-1,-1,-1,82,84,-1,-1,-1,-1,-1,-1,-1,-1,-1,-1,-1,-1,-1,-1,-1,-1,-1,-1,-1,-1,-1,-1,-1,-1,-1,-1,-1,-1,-1,-1,-1,-1],"split_conditions":[1.4E0,6.5E0,1.0148E3,-8.311706E-1,2.66E2,1.43E1,2.05E3,-5.049611E-1,-3.4561232E-1,2.63E1,-8.660254E-1,8.2E0,2E1,5.3E0,1.0153E3,1.011E3,2.86E2,2E-1,1.26E3,9.98E2,1E-1,2.37E2,3.63E3,2.8808547E-2,-2.7375458E-2,4.9E0,1.55E1,7.6794684E-2,2.7611226E-2,2.9894186E-2,1.2246469E-16,2.9E-1,9.466E2,1.6E2,5.54E2,8.779601E-1,7.991E2,1.0094E3,3.2E0,1.1152109E-1,5E-1,9.505E2,1.9701357E-1,3.09E3,6.3E2,9.488E2,1.0142E3,2.909591E-1,9.941197E-2,1.23758435E-1,-1.5547514E-2,2.22E3,5E-1,2.1725714E-1,2.342433E-2,-8.379358E-3,-9.6257545E-2,2.2141298E-3,6.2295377E-2,-3.856491E-2,3.6668635E-3,-4.9180806E-2,-2.3451023E-2,-9.772639E-3,6.103787E-2,1.9260809E-3,-3.1514302E-2,1.9631714E-2,-7.8871725E-3,2.2935853E-3,2.482776E-2,6.783457E-2,-1.508275E-2,-2.7914082E-3,3.0486552E-2,-3.8940143E-2,4.531824E-2,-6.1271258E-2,-1.9051237E-2,1.1544376E-2,-2.3843277E-2,-1.3664424E-2,-7.037478E-2,1.3420815E-2,-7.6811886E-3],"split_indices":[5,17,9,34,24,0,28,35,34,19,31,2,26,0,9,9,24,16,28,9,5,22,28,0,0,17,19,0,0,0,30,16,10,26,24,35,23,9,2,0,30,10,0,28,26,10,9,0,0,0,0,28,30,0,0,0,0,0,0,0,0,0,0,0,0,0,0,0,0,0,0,0,0,0,0,0,0,0,0,0,0,0,0,0,0],"split_type":[0,0,0,0,0,0,0,0,0,0,0,0,0,0,0,0,0,0,0,0,0,0,0,0,0,0,0,0,0,0,0,0,0,0,0,0,0,0,0,0,0,0,0,0,0,0,0,0,0,0,0,0,0,0,0,0,0,0,0,0,0,0,0,0,0,0,0,0,0,0,0,0,0,0,0,0,0,0,0,0,0,0,0,0,0],"sum_hessian":[3.545E3,3.492E3,5.3E1,2.6E3,8.92E2,2.9E1,2.4E1,7.9E2,1.81E3,5.08E2,3.84E2,8E0,2.1E1,6E0,1.8E1,3.5E1,7.55E2,9.12E2,8.98E2,4.61E2,4.7E1,1.97E2,1.87E2,3E0,5E0,1.2E1,9E0,3E0,3E0,3E0,1.5E1,2.9E1,6E0,6.38E2,1.17E2,2.18E2,6.94E2,3.47E2,5.51E2,6E0,4.55E2,4.3E1,4E0,1.68E2,2.9E1,7E1,1.17E2,9E0,3E0,4E0,5E0,8E0,7E0,2.3E1,6E0,3E0,3E0,6.03E2,3.5E1,1.03E2,1.4E1,1.37E2,8.1E1,6.8E2,1.4E1,1.9E2,1.57E2,3.07E2,2.44E2,2.3E2,2.25E2,3.2E1,1.1E1,4.2E1,1.26E2,2.5E1,4E0,2.9E1,4.1E1,4.5E1,7.2E1,3E0,5E0,3E0,4E0],"tree_param":{"num_deleted":"0","num_feature":"36","num_nodes":"85","size_leaf_vector":"1"}},{"base_weights":[3.5798764E-3,-9.185755E-3,6.5945536E-1,1.2657195E-1,-3.2644156E-2,1.4807763E0,-6.869939E-2,3.0856982E-2,1.0161041E0,4.525273E-1,-3.990153E-2,7.448242E-1,2.0863328E0,2.2182514E-1,-5.095904E-1,-2.2623372E-1,1.0904701E-1,3.6709496E-1,3.0407083E0,1.0773283E0,9.220515E-2,-9.027976E-4,-1.3165435E-1,6.3040038E-3,1.9746405E-1,1.2402523E0,3.1178403E-1,9.0494476E-2,3.0381793E-2,-7.036533E-1,-1.872823E-1,1.9040858E-2,-3.6315873E-1,1.637919E-1,-2.6582682E-1,7.6620287E-1,-1.4109778E-1,8.035109E-2,3.697162E-1,1.705976E-2,1.3653554E0,-4.6496492E-2,9.707146E-2,-1.4047146E-2,3.4276462E-1,-2.0326722E-1,4.5492206E-2,7.055152E-1,-9.738525E-2,4.653123E-1,2.4800692E-1,-2.0949504E-1,5.8503073E-2,-9.3513995E-2,-1.8050998E-2,-1.0898471E-3,-3.1684555E-2,-1.5165672E-2,7.2078824E-2,-5.2566182E-2,4.1046664E-3,1.0365548E-2,7.9695344E-2,5.3065848E-2,-3.3373646E-2,4.6517323E-3,1.2608686E-1,-8.089576E-2,4.640468E-3,6.544921E-2,1.779616E-1,3.5167154E-2,-1.1372152E-2,-5.0735045E-3,1.0959373E-2,7.7630566E-3,7.2513245E-2,3.6284847E-3,-2.8804654E-2,1.6304491E-1,1.9950927E-3,8.374668E-3,1.1509049E-1,-4.593557E-2,1.11198425E-1,2.6514344E-3,-5.2859325E-2],"categories":[],"categories_nodes":[],"categories_segments":[],"categories_sizes":[],"default_left":[0,0,0,0,0,0,0,0,0,0,0,0,0,0,0,0,0,0,0,0,0,0,0,0,0,0,0,0,0,0,0,0,0,0,0,0,0,0,0,0,0,0,0,0,0,0,0,0,0,0,0,0,0,0,0,0,0,0,0,0,0,0,0,0,0,0,0,0,0,0,0,0,0,0,0,0,0,0,0,0,0,0,0,0,0,0,0],"id":20,"left_children":[1,3,5,7,9,11,13,15,17,19,21,23,25,27,29,31,33,35,37,39,41,43,45,47,-1,49,-1,-1,51,53,55,57,59,61,63,65,67,-1,-1,-1,69,71,-1,73,75,77,79,81,-1,83,-1,85,-1,-1,-1,-1,-1,-1,-1,-1,-1,-1,-1,-1,-1,-1,-1,-1,-1,-1,-1,-1,-1,-1,-1,-1,-1,-1,-1,-1,-1,-1,-1,-1,-1,-1,-1],"loss_changes":[2.9821117E1,1.113133E1,4.076905E1,4.381654E1,1.0510844E1,1.2707184E1,4.852357E0,9.392169E0,6.458311E1,9.80637E0,1.0509183E1,1.451946E1,1.0969643E1,2.9804165E0,8.064387E-1,3.6675954E0,7.390568E0,8.018236E0,1.4652679E1,3.9456806E0,3.5788052E0,9.319455E0,1.112216E1,8.225769E0,0E0,9.414614E0,0E0,0E0,2.6504622E0,9.2110395E-1,1.5651691E-1,4.9007754E0,4.6195E0,1.1835201E1,2.6651952E0,7.77343E0,2.291596E0,0E0,0E0,0E0,2.369049E0,7.359308E-1,0E0,9.018838E0,7.648491E0,1.2683306E1,1.0209374E1,1.8421211E0,0E0,5.294451E0,0E0,1.0683578E0,0E0,0E0,0E0,0E0,0E0,0E0,0E0,0E0,0E0,0E0,0E0,0E0,0E0,0E0,0E0,0E0,0E0,0E0,0E0,0E0,0E0,0E0,0E0,0E0,0E0,0E0,0E0,0E0,0E0,0E0,0E0,0E0,0E0,0E0,0E0],"parents":[2147483647,0,0,1,1,2,2,3,3,4,4,5,5,6,6,7,7,8,8,9,9,10,10,11,11,12,12,13,13,14,14,15,15,16,16,17,17,18,18,19,19,20,20,21,21,22,22,23,23,25,25,28,28,29,29,30,30,31,31,32,32,33,33,34,34,35,35,36,36,40,40,41,41,43,43,44,44,45,45,46,46,47,47,49,49,51,51],"right_children":[2,4,6,8,10,12,14,16,18,20,22,24,26,28,30,32,34,36,38,40,42,44,46,48,-1,50,-1,-1,52,54,56,58,60,62,64,66,68,-1,-1,-1,70,72,-1,74,76,78,80,82,-1,84,-1,86,-1,-1,-1,-1,-1,-1,-1,-1,-1,-1,-1,-1,-1,-1,-1,-1,-1,-1,-1,-1,-1,-1,-1,-1,-1,-1,-1,-1,-1,-1,-1,-1,-1,-1,-1],"split_conditions":[1.1E0,1.0086E3,9.471E2,1.43E1,-1E0,5E-1,4.897E2,1.04E3,7.0710677E-1,-4.0148798E-1,4.043E2,5.3E0,1.202E2,-2.5881904E-1,9E1,9.353E2,1.6E-1,-8.311706E-1,1.9E1,7.5E-1,1.1E-1,2.05E1,8.8E0,3.2E-1,1.9746405E-1,1.0119E3,3.1178403E-1,9.0494476E-2,9.659258E-1,1.45E1,1.11E2,-9E-1,9.962982E-1,1.17E1,1.49E3,3.43E3,2.04E1,8.035109E-2,3.697162E-1,1.705976E-2,1.011E3,7.6E0,9.707146E-2,9.2E1,9.483E2,-9.427611E-1,9E0,-2.5881904E-1,-9.738525E-2,-8.311706E-1,2.4800692E-1,-9.922222E-1,5.8503073E-2,-9.3513995E-2,-1.8050998E-2,-1.0898471E-3,-3.1684555E-2,-1.5165672E-2,7.2078824E-2,-5.2566182E-2,4.1046664E-3,1.0365548E-2,7.9695344E-2,5.3065848E-2,-3.3373646E-2,4.6517323E-3,1.2608686E-1,-8.089576E-2,4.640468E-3,6.544921E-2,1.779616E-1,3.5167154E-2,-1.1372152E-2,-5.0735045E-3,1.0959373E-2,7.7630566E-3,7.2513245E-2,3.6284847E-3,-2.8804654E-2,1.6304491E-1,1.9950927E-3,8.374668E-3,1.1509049E-1,-4.593557E-2,1.11198425E-1,2.6514344E-3,-5.2859325E-2],"split_indices":[4,9,10,2,27,30,25,28,30,34,25,17,25,31,22,10,15,34,13,16,15,19,17,16,0,9,0,0,31,2,20,3,35,3,28,28,3,0,0,0,9,2,0,14,10,34,21,30,0,34,0,34,0,0,0,0,0,0,0,0,0,0,0,0,0,0,0,0,0,0,0,0,0,0,0,0,0,0,0,0,0,0,0,0,0,0,0],"split_type":[0,0,0,0,0,0,0,0,0,0,0,0,0,0,0,0,0,0,0,0,0,0,0,0,0,0,0,0,0,0,0,0,0,0,0,0,0,0,0,0,0,0,0,0,0,0,0,0,0,0,0,0,0,0,0,0,0,0,0,0,0,0,0,0,0,0,0,0,0,0,0,0,0,0,0,0,0,0,0,0,0,0,0,0,0,0,0],"sum_hessian":[3.56E3,3.493E3,6.7E1,5.14E2,2.979E3,3.1E1,3.6E1,4.65E2,4.9E1,4.3E1,2.936E3,1.5E1,1.6E1,2.2E1,1.4E1,1.08E2,3.57E2,3.8E1,1.1E1,1.5E1,2.8E1,2.061E3,8.75E2,1E1,5E0,1E1,6E0,4E0,1.8E1,8E0,6E0,3.9E1,6.9E1,3.12E2,4.5E1,2.1E1,1.7E1,3E0,8E0,4E0,1.1E1,2.5E1,3E0,1.986E3,7.5E1,6.23E2,2.52E2,6E0,4E0,7E0,3E0,1.3E1,5E0,5E0,3E0,3E0,3E0,3.2E1,7E0,4.9E1,2E1,2.86E2,2.6E1,3E0,4.2E1,9E0,1.2E1,3E0,1.4E1,5E0,6E0,3E0,2.2E1,1.532E3,4.54E2,4.5E1,3E1,1.63E2,4.6E2,3E0,2.49E2,3E0,3E0,3E0,4E0,8E0,5E0],"tree_param":{"num_deleted":"0","num_feature":"36","num_nodes":"87","size_leaf_vector":"1"}},{"base_weights":[1.6727556E-2,1.7833369E-3,7.566544E-1,-3.2260388E-1,1.151346E-2,1.4016179E0,2.3789133E-1,-4.2369846E-1,-1.1986277E-1,5.154159E-2,-7.306677E-2,3.2224357E-3,1.809349E0,5.299355E-1,2.1114597E-2,-4.8586938E-1,1.7860527E-1,-2.5139534E-1,9.5392875E-2,1.2248292E-2,1.4978616E-1,-8.0261745E-2,1.4927815E-1,4.2194765E-2,-5.209897E-2,3.0014326E-3,2.1637151E0,-3.651867E-2,7.478321E-1,-5.3026445E-2,1.2513372E-1,-5.8121115E-1,-1.5474048E-1,4.2384297E-2,-1.1128375E-2,1.3655126E-2,-3.1983697E-1,2.8239792E-2,-7.648945E-3,8.640529E-3,1.4802514E-1,3.5959068E-1,7.101518E-2,-1.1500909E-1,2.3613717E-1,2.83619E0,1.0266694E0,1.5007691E-1,2.9658037E-1,2.715435E-1,-2.8614799E-2,-9.559358E-3,-6.121489E-2,-3.5298344E-2,1.2224913E-2,-4.46672E-2,-1.2927893E-2,7.5322785E-3,-1.0568524E-2,-3.3935902E-3,1.2011308E-2,4.1672863E-2,-6.4511592E-3,2.4255582E-3,4.284976E-2,-3.2904763E-2,-8.157196E-3,8.259324E-3,5.2439343E-2,1.4617832E-1,3.1319052E-1,1.7450322E-1,-3.0754203E-2,-5.6824805E-3,6.613505E-2,4.0057354E-2,-9.243727E-3],"categories":[],"categories_nodes":[],"categories_segments":[],"categories_sizes":[],"default_left":[0,0,0,0,0,0,0,0,0,0,0,0,0,0,0,0,0,0,0,0,0,0,0,0,0,0,0,0,0,0,0,0,0,0,0,0,0,0,0,0,0,0,0,0,0,0,0,0,0,0,0,0,0,0,0,0,0,0,0,0,0,0,0,0,0,0,0,0,0,0,0,0,0,0,0,0,0],"id":21,"left_children":[1,3,5,7,9,11,13,15,17,19,21,23,25,27,29,31,33,35,37,39,41,43,-1,-1,-1,-1,45,-1,47,-1,49,51,53,-1,-1,-1,55,-1,57,59,-1,61,63,65,67,69,71,-1,73,75,-1,-1,-1,-1,-1,-1,-1,-1,-1,-1,-1,-1,-1,-1,-1,-1,-1,-1,-1,-1,-1,-1,-1,-1,-1,-1,-1],"loss_changes":[3.9098423E1,1.0946702E1,2.3087395E1,2.0193129E0,1.1403042E1,1.7669418E1,2.5211453E0,2.5956469E0,1.0149407E0,8.822932E0,1.230987E1,1.9758372E0,1.50679245E1,3.5888486E0,1.442849E0,1.8358603E0,5.448088E-1,6.2781155E-1,2.719308E-1,8.6412115E0,1.07662735E1,1.1878715E1,0E0,0E0,0E0,0E0,1.2380859E1,0E0,4.3115997E0,0E0,1.3422306E0,6.4760494E-1,8.6682045E-1,0E0,0E0,0E0,4.0147412E-1,0E0,8.930291E-2,7.744971E0,0E0,4.3402367E0,7.9462967E0,6.9296E0,4.692509E0,2.990265E-1,9.1627E0,0E0,1.3266976E0,7.884593E-1,0E0,0E0,0E0,0E0,0E0,0E0,0E0,0E0,0E0,0E0,0E0,0E0,0E0,0E0,0E0,0E0,0E0,0E0,0E0,0E0,0E0,0E0,0E0,0E0,0E0,0E0,0E0],"parents":[2147483647,0,0,1,1,2,2,3,3,4,4,5,5,6,6,7,7,8,8,9,9,10,10,11,11,12,12,13,13,14,14,15,15,16,16,17,17,18,18,19,19,20,20,21,21,26,26,28,28,30,30,31,31,32,32,36,36,38,38,39,39,41,41,42,42,43,43,44,44,45,45,46,46,48,48,49,49],"right_children":[2,4,6,8,10,12,14,16,18,20,22,24,26,28,30,32,34,36,38,40,42,44,-1,-1,-1,-1,46,-1,48,-1,50,52,54,-1,-1,-1,56,-1,58,60,-1,62,64,66,68,70,72,-1,74,76,-1,-1,-1,-1,-1,-1,-1,-1,-1,-1,-1,-1,-1,-1,-1,-1,-1,-1,-1,-1,-1,-1,-1,-1,-1,-1,-1],"split_conditions":[1.1E0,7.9E2,9.471E2,2.2E-1,7.1E1,9.433E2,1.8E0,9.52E2,5.3E0,5.8E0,9.7E1,1.5E1,1.43E1,1.2E0,7.1E1,7.4E2,4E-1,9.399E2,2.5E-1,2.64E2,5.1E1,7.53E2,1.4927815E-1,4.2194765E-2,-5.209897E-2,3.0014326E-3,8E1,-3.651867E-2,7E1,-5.3026445E-2,9.1E1,4.5E1,3.2E0,4.2384297E-2,-1.1128375E-2,1.3655126E-2,3.2E0,2.8239792E-2,4.8E1,9.2E1,1.4802514E-1,3.55E3,9.3E1,2.2E0,4.8E1,9E-2,2.4E0,1.5007691E-1,9.7E1,5E-1,-2.8614799E-2,-9.559358E-3,-6.121489E-2,-3.5298344E-2,1.2224913E-2,-4.46672E-2,-1.2927893E-2,7.5322785E-3,-1.0568524E-2,-3.3935902E-3,1.2011308E-2,4.1672863E-2,-6.4511592E-3,2.4255582E-3,4.284976E-2,-3.2904763E-2,-8.157196E-3,8.259324E-3,5.2439343E-2,1.4617832E-1,3.1319052E-1,1.7450322E-1,-3.0754203E-2,-5.6824805E-3,6.613505E-2,4.0057354E-2,-9.243727E-3],"split_indices":[5,28,10,16,22,10,5,10,17,17,1,27,0,5,1,28,0,10,16,21,1,24,0,0,0,0,20,0,12,0,1,18,17,0,0,0,17,0,1,14,0,28,13,17,1,16,5,0,12,31,0,0,0,0,0,0,0,0,0,0,0,0,0,0,0,0,0,0,0,0,0,0,0,0,0,0,0],"split_type":[0,0,0,0,0,0,0,0,0,0,0,0,0,0,0,0,0,0,0,0,0,0,0,0,0,0,0,0,0,0,0,0,0,0,0,0,0,0,0,0,0,0,0,0,0,0,0,0,0,0,0,0,0,0,0,0,0,0,0,0,0,0,0,0,0,0,0,0,0,0,0,0,0,0,0,0,0],"sum_hessian":[3.535E3,3.466E3,6.9E1,1E2,3.366E3,3E1,3.9E1,6.6E1,3.4E1,2.285E3,1.081E3,7E0,2.3E1,1.6E1,2.3E1,6E1,6E0,2.1E1,1.3E1,1.633E3,6.52E2,1.077E3,4E0,4E0,3E0,4E0,1.9E1,3E0,1.3E1,3E0,2E1,4.6E1,1.4E1,3E0,3E0,3E0,1.8E1,4E0,9E0,1.63E3,3E0,1.77E2,4.75E2,9.71E2,1.06E2,1.1E1,8E0,4E0,9E0,1.5E1,5E0,3E0,4.3E1,8E0,6E0,1E1,8E0,5E0,4E0,1.18E3,4.5E2,1.56E2,2.1E1,4.21E2,5.4E1,1.3E2,8.41E2,7E1,3.6E1,3E0,8E0,5E0,3E0,5E0,4E0,1.1E1,4E0],"tree_param":{"num_deleted":"0","num_feature":"36","num_nodes":"77","size_leaf_vector":"1"}},{"base_weights":[2.197193E-3,-9.6018E-3,5.6011397E-1,5.376981E-1,-1.6500419E-2,1.2002146E0,3.1249685E-2,1.1237911E0,1.4876188E-1,1.1225361E-1,-3.9286587E-2,1.6736848E0,-2.4833749E-1,2.2618873E-1,-3.6086053E-1,4.0358495E-2,1.314348E0,-2.6317228E-2,7.65925E-2,5.615779E-2,1.046537E0,8.9048296E-2,-7.185289E-2,5.751701E-2,1.919555E0,-8.997431E-2,7.908552E-2,-4.4148408E-2,4.317009E-1,-5.900714E-1,4.3099164E-3,5.7636436E-2,1.4781066E0,-2.3329298E-1,1.349193E-1,9.378385E-2,-4.7941682E-1,2.492438E0,-1.20713E-1,4.556255E-2,1.0647854E0,1.9329341E-2,-1.3344795E-1,2.457736E0,1.2557944E0,-3.9391886E-2,2.2369799E-1,9.750293E-2,1.6933896E-1,-2.4378687E-2,-7.225826E-2,8.6122625E-2,1.7458224E-1,-4.6858802E-2,9.571968E-3,4.869632E-2,-1.9390201E-3,3.9819386E-2,-1.5538491E-3,2.549482E-2,-5.934314E-2,3.0070537E-1,1.0676425E-1,6.292081E-3,-5.7401832E-2,3.3825498E-2,5.7790156E-5,1.8148689E-1,2.3279535E-2,2.370616E-2,-1.6530994E-3,-2.8187525E-5,-1.8571971E-2,2.8266808E-1,1.197649E-1,1.9398022E-2,2.4911754E-1,9.4817637E-4,4.3554377E-2,-3.0049134E-2,3.59337E-2],"categories":[],"categories_nodes":[],"categories_segments":[],"categories_sizes":[],"default_left":[0,0,0,0,0,0,0,0,0,0,0,0,0,0,0,0,0,0,0,0,0,0,0,0,0,0,0,0,0,0,0,0,0,0,0,0,0,0,0,0,0,0,0,0,0,0,0,0,0,0,0,0,0,0,0,0,0,0,0,0,0,0,0,0,0,0,0,0,0,0,0,0,0,0,0,0,0,0,0,0,0],"id":22,"left_children":[1,3,5,7,9,11,13,15,17,19,21,23,25,27,29,-1,31,33,-1,35,37,39,41,-1,43,-1,-1,45,47,49,-1,-1,51,53,55,57,59,61,63,65,67,69,71,73,75,-1,77,-1,79,-1,-1,-1,-1,-1,-1,-1,-1,-1,-1,-1,-1,-1,-1,-1,-1,-1,-1,-1,-1,-1,-1,-1,-1,-1,-1,-1,-1,-1,-1,-1,-1],"loss_changes":[2.3203363E1,1.3042294E1,2.4674921E1,9.63479E0,1.0008705E1,2.3048569E1,3.215564E0,1.8026352E0,2.937571E0,2.6827248E1,1.21182785E1,5.6482315E0,6.803989E0,1.5746707E0,1.3217187E0,0E0,7.191353E-1,7.656609E-1,0E0,9.818468E0,4.924499E1,2.4858284E1,1.2987637E1,0E0,4.058052E0,0E0,0E0,1.3060207E0,2.1156683E0,2.368226E-1,0E0,0E0,1.4793968E-1,8.1900364E-1,7.156507E-1,1.5114767E1,2.8306007E0,6.3214264E0,1.4512348E0,7.412636E0,1.5179058E1,7.2887383E0,9.605885E0,1.2636528E0,1.3945959E1,0E0,3.5891676E-1,0E0,1.1791795E0,0E0,0E0,0E0,0E0,0E0,0E0,0E0,0E0,0E0,0E0,0E0,0E0,0E0,0E0,0E0,0E0,0E0,0E0,0E0,0E0,0E0,0E0,0E0,0E0,0E0,0E0,