{"learner":{"attributes":{"scikit_learn":"{\"_estimator_type\": \"regressor\"}"},"feature_names":[],"feature_types":[],"gradient_booster":{"model":{"cats":{"enc":[],"feature_segments":[],"sorted_idx":[]},"gbtree_model_param":{"num_parallel_tree":"1","num_trees":"200"},"iteration_indptr":[0,1,2,3,4,5,6,7,8,9,10,11,12,13,14,15,16,17,18,19,20,21,22,23,24,25,26,27,28,29,30,31,32,33,34,35,36,37,38,39,40,41,42,43,44,45,46,47,48,49,50,51,52,53,54,55,56,57,58,59,60,61,62,63,64,65,66,67,68,69,70,71,72,73,74,75,76,77,78,79,80,81,82,83,84,85,86,87,88,89,90,91,92,93,94,95,96,97,98,99,100,101,102,103,104,105,106,107,108,109,110,111,112,113,114,115,116,117,118,119,120,121,122,123,124,125,126,127,128,129,130,131,132,133,134,135,136,137,138,139,140,141,142,143,144,145,146,147,148,149,150,151,152,153,154,155,156,157,158,159,160,161,162,163,164,165,166,167,168,169,170,171,172,173,174,175,176,177,178,179,180,181,182,183,184,185,186,187,188,189,190,191,192,193,194,195,196,197,198,199,200],"tree_info":[0,0,0,0,0,0,0,0,0,0,0,0,0,0,0,0,0,0,0,0,0,0,0,0,0,0,0,0,0,0,0,0,0,0,0,0,0,0,0,0,0,0,0,0,0,0,0,0,0,0,0,0,0,0,0,0,0,0,0,0,0,0,0,0,0,0,0,0,0,0,0,0,0,0,0,0,0,0,0,0,0,0,0,0,0,0,0,0,0,0,0,0,0,0,0,0,0,0,0,0,0,0,0,0,0,0,0,0,0,0,0,0,0,0,0,0,0,0,0,0,0,0,0,0,0,0,0,0,0,0,0,0,0,0,0,0,0,0,0,0,0,0,0,0,0,0,0,0,0,0,0,0,0,0,0,0,0,0,0,0,0,0,0,0,0,0,0,0,0,0,0,0,0,0,0,0,0,0,0,0,0,0,0,0,0,0,0,0,0,0,0,0,0,0,0,0,0,0,0,0],"trees":[{"base_weights":[-1.878377E-3,-2.3151653E-2,1.7165713E0,-4.2563632E-2,3.6793116E-1,3.6069617E0,5.492193E-1,5.863938E-1,-4.7675136E-2,2.7114978E-1,1.4408104E0,4.809723E0,6.0027856E-2,-3.8118176E-2,1.0288134E0,-8.385418E-3,3.0579454E-1,-6.3969225E-2,5.9254415E-2,5.0312436E-1,1.5041603E-1,2.783948E-1,4.2772508E-1,5.768668E-1,2.3134676E-1,3.0867418E-3,-6.8799155E-3,1.7140008E0,4.4630086E-1,-6.843558E-2,7.1059965E-2,4.4587955E-2,1.7017506E-1,4.2300846E-2,5.943491E-1,9.873034E-2,3.432736E-1,4.477856E-3,4.6561193E-2,6.665008E-2,2.3330007E-1,8.685007E-2,1.4128652E-1,-8.447396E-3,-5.801826E-3,1.0859167E-3,5.877009E-2,1.9197093E-2,2.7100946E-4,1.5206742E-2,-5.6221443E-3,6.8448745E-2,1.5774159E-2,2.8536756E-2,4.0677693E-3,1.2543226E-2,9.032785E-2,2.877507E-2,-4.04993E-3],"categories":[],"categories_nodes":[],"categories_segments":[],"categories_sizes":[],"default_left":[0,0,0,0,0,0,0,0,0,0,0,0,0,0,0,0,0,0,0,0,0,0,0,0,0,0,0,0,0,0,0,0,0,0,0,0,0,0,0,0,0,0,0,0,0,0,0,0,0,0,0,0,0,0,0,0,0,0,0],"id":0,"left_children":[1,3,5,7,9,11,13,15,17,19,21,23,-1,25,27,-1,-1,29,31,33,35,37,-1,-1,-1,-1,-1,39,41,43,45,47,-1,49,51,53,55,-1,-1,-1,-1,-1,57,-1,-1,-1,-1,-1,-1,-1,-1,-1,-1,-1,-1,-1,-1,-1,-1],"loss_changes":[1.3453313E2,2.761146E1,9.73228E1,1.1164434E1,1.74689E1,5.85903E1,8.20804E0,4.6639885E1,5.992143E0,4.3774614E0,4.496895E1,1.5379639E1,0E0,3.175529E-2,5.6211243E0,0E0,0E0,1.803875E0,1.0884892E1,2.244936E0,1.0227139E0,4.6025705E-1,0E0,0E0,0E0,0E0,0E0,2.9838715E0,1.1650628E0,4.7761726E-1,2.9794288E0,2.7892616E0,0E0,1.1669399E-1,1.6630077E0,9.0934867E-1,2.570529E0,0E0,0E0,0E0,0E0,0E0,1.9802949E-1,0E0,0E0,0E0,0E0,0E0,0E0,0E0,0E0,0E0,0E0,0E0,0E0,0E0,0E0,0E0,0E0],"parents":[2147483647,0,0,1,1,2,2,3,3,4,4,5,5,6,6,7,7,8,8,9,9,10,10,11,11,13,13,14,14,17,17,18,18,19,19,20,20,21,21,27,27,28,28,29,29,30,30,31,31,33,33,34,34,35,35,36,36,42,42],"right_children":[2,4,6,8,10,12,14,16,18,20,22,24,-1,26,28,-1,-1,30,32,34,36,38,-1,-1,-1,-1,-1,40,42,44,46,48,-1,50,52,54,56,-1,-1,-1,-1,-1,58,-1,-1,-1,-1,-1,-1,-1,-1,-1,-1,-1,-1,-1,-1,-1,-1],"split_conditions":[1.8E0,3E-1,9.7E1,2.9E1,9.6E1,1.015E3,8.6E1,1.46E1,8.8E1,1.13E2,1.15E1,3.7E0,6.0027856E-2,2.3E0,1.19E1,-8.385418E-3,3.0579454E-1,1E-1,1.76E1,9.6E1,3.07E2,2.5881904E-1,4.2772508E-1,5.768668E-1,2.3134676E-1,3.0867418E-3,-6.8799155E-3,7.7E0,7.7E0,8E0,2.2E1,7.6E1,1.7017506E-1,1.0048E3,8.660254E-1,2.13E2,4.9E0,4.477856E-3,4.6561193E-2,6.665008E-2,2.3330007E-1,8.685007E-2,1.0119E3,-8.447396E-3,-5.801826E-3,1.0859167E-3,5.877009E-2,1.9197093E-2,2.7100946E-4,1.5206742E-2,-5.6221443E-3,6.8448745E-2,1.5774159E-2,2.8536756E-2,4.0677693E-3,1.2543226E-2,9.032785E-2,2.877507E-2,-4.04993E-3],"split_indices":[3,3,8,1,1,5,1,7,1,8,9,7,0,3,9,0,0,3,9,10,8,13,0,0,0,0,0,2,2,10,9,8,0,5,12,8,2,0,0,0,0,0,5,0,0,0,0,0,0,0,0,0,0,0,0,0,0,0,0],"split_type":[0,0,0,0,0,0,0,0,0,0,0,0,0,0,0,0,0,0,0,0,0,0,0,0,0,0,0,0,0,0,0,0,0,0,0,0,0,0,0,0,0,0,0,0,0,0,0,0,0,0,0,0,0,0,0,0,0,0,0],"sum_hessian":[3.678E3,3.634E3,4.4E1,3.463E3,1.71E2,1.6E1,2.8E1,2.7E1,3.436E3,1.58E2,1.3E1,1.1E1,5E0,1.3E1,1.5E1,2.2E1,5E0,2.982E3,4.54E2,5.3E1,1.05E2,1E1,3E0,7E0,4E0,4E0,9E0,6E0,9E0,2.887E3,9.5E1,4.51E2,3E0,9E0,4.4E1,8.4E1,2.1E1,5E0,5E0,3E0,3E0,3E0,6E0,1.134E3,1.753E3,8.6E1,9E0,9.9E1,3.52E2,4E0,5E0,3.6E1,8E0,1.9E1,6.5E1,1.6E1,5E0,3E0,3E0],"tree_param":{"num_deleted":"0","num_feature":"16","num_nodes":"59","size_leaf_vector":"1"}},{"base_weights":[2.3567395E-3,-2.0496897E-2,1.9785961E0,-5.1735472E-2,2.4935268E-1,1.089621E0,6.2678113E0,-6.3394755E-2,2.4021404E-2,6.2665707E-1,1.627921E-1,3.6154842E-1,1.8820816E0,3.3257964E-1,7.6428735E-1,-6.8489954E-2,-2.0809662E-2,1.1540123E-2,1.09510355E-1,4.411037E-1,2.2336226E0,2.5256944E-1,-1.5738169E-2,1.425179E-1,9.001486E-2,2.4458034E0,4.409578E-2,-2.9605385E-2,-7.300791E-2,-5.1684402E-2,4.5292202E-2,9.5514104E-2,-3.048694E-2,6.1424726E-1,8.263656E-2,2.0488221E-2,3.7039572E-1,1.5716335E-1,4.9753332E-1,1.7847176E-1,-7.308755E-2,3.9227646E-2,-2.7752337E-3,1.1674714E-1,3.5295567E-1,6.602309E-3,-5.9906966E-3,-7.945509E-3,-6.012784E-3,1.0016981E-2,-6.756419E-3,3.5108984E-2,-3.869536E-3,1.9416546E-2,-1.1548245E-3,-5.30952E-3,9.609283E-3,4.337722E-2,1.3496041E-1,1.2733055E-3,3.9401904E-2,1.2631625E-2,4.9880806E-2,1.86754E-2,8.127421E-2,4.5006745E-2,-4.7672833E-3,-7.8095826E-3,4.2845565E-3,9.887906E-3,-7.02364E-3],"categories":[],"categories_nodes":[],"categories_segments":[],"categories_sizes":[],"default_left":[0,0,0,0,0,0,0,0,0,0,0,0,0,0,0,0,0,0,0,0,0,0,0,0,0,0,0,0,0,0,0,0,0,0,0,0,0,0,0,0,0,0,0,0,0,0,0,0,0,0,0,0,0,0,0,0,0,0,0,0,0,0,0,0,0,0,0,0,0,0,0],"id":1,"left_children":[1,3,5,7,9,11,13,15,17,19,21,23,25,-1,-1,27,29,31,-1,33,35,37,39,-1,41,43,-1,45,47,49,51,53,55,57,59,-1,-1,61,63,65,67,-1,69,-1,-1,-1,-1,-1,-1,-1,-1,-1,-1,-1,-1,-1,-1,-1,-1,-1,-1,-1,-1,-1,-1,-1,-1,-1,-1,-1,-1],"loss_changes":[1.6592885E2,3.0629627E1,1.5331668E2,2.8774538E0,1.2210686E1,2.0090412E1,2.8995361E0,6.108904E-1,5.80265E0,1.9887186E1,4.940591E0,5.64794E0,1.2732185E1,0E0,0E0,4.405489E-1,6.207269E-1,1.5239884E0,0E0,3.921483E0,2.0121616E1,4.7128706E0,1.1713774E0,0E0,4.7788566E-1,1.2504105E1,0E0,7.6894635E-1,1.8264294E-1,5.059302E-1,2.5048559E0,1.5231478E0,8.292855E-1,5.1212635E0,4.738509E-1,0E0,0E0,1.507266E0,5.431959E0,1.4955335E0,5.0376624E-2,0E0,1.0295294E-1,0E0,0E0,0E0,0E0,0E0,0E0,0E0,0E0,0E0,0E0,0E0,0E0,0E0,0E0,0E0,0E0,0E0,0E0,0E0,0E0,0E0,0E0,0E0,0E0,0E0,0E0,0E0,0E0],"parents":[2147483647,0,0,1,1,2,2,3,3,4,4,5,5,6,6,7,7,8,8,9,9,10,10,11,11,12,12,15,15,16,16,17,17,19,19,20,20,21,21,22,22,24,24,25,25,27,27,28,28,29,29,30,30,31,31,32,32,33,33,34,34,37,37,38,38,39,39,40,40,42,42],"right_children":[2,4,6,8,10,12,14,16,18,20,22,24,26,-1,-1,28,30,32,-1,34,36,38,40,-1,42,44,-1,46,48,50,52,54,56,58,60,-1,-1,62,64,66,68,-1,70,-1,-1,-1,-1,-1,-1,-1,-1,-1,-1,-1,-1,-1,-1,-1,-1,-1,-1,-1,-1,-1,-1,-1,-1,-1,-1,-1,-1],"split_conditions":[1.8E0,1E-1,8.660254E-1,8.7E1,-5E-1,5E-1,1.46E1,1E0,8E0,9.4E1,1E0,-9.659258E-1,-8.660254E-1,3.3257964E-1,7.6428735E-1,-5E-1,9.57E2,1.04E2,1.09510355E-1,2.1E2,4E-1,6E-1,9.459E2,1.425179E-1,9.446E2,1E1,4.409578E-2,4.8E1,8.3E1,9.446E2,5.2E0,-2.4492937E-16,2.98E2,1.42E2,3.33E2,2.0488221E-2,3.7039572E-1,1E0,8.660254E-1,0E0,1.2E2,3.9227646E-2,-8.660254E-1,1.1674714E-1,3.5295567E-1,6.602309E-3,-5.9906966E-3,-7.945509E-3,-6.012784E-3,1.0016981E-2,-6.756419E-3,3.5108984E-2,-3.869536E-3,1.9416546E-2,-1.1548245E-3,-5.30952E-3,9.609283E-3,4.337722E-2,1.3496041E-1,1.2733055E-3,3.9401904E-2,1.2631625E-2,4.9880806E-2,1.86754E-2,8.127421E-2,4.5006745E-2,-4.7672833E-3,-7.8095826E-3,4.2845565E-3,9.887906E-3,-7.02364E-3],"split_indices":[3,3,12,1,14,13,0,15,7,1,15,13,14,0,0,15,6,8,0,8,3,3,6,0,6,0,0,1,10,6,0,14,8,8,8,0,0,14,15,12,11,0,12,0,0,0,0,0,0,0,0,0,0,0,0,0,0,0,0,0,0,0,0,0,0,0,0,0,0,0,0],"split_type":[0,0,0,0,0,0,0,0,0,0,0,0,0,0,0,0,0,0,0,0,0,0,0,0,0,0,0,0,0,0,0,0,0,0,0,0,0,0,0,0,0,0,0,0,0,0,0,0,0,0,0,0,0,0,0,0,0,0,0,0,0,0,0,0,0,0,0,0,0,0,0],"sum_hessian":[3.672E3,3.631E3,4.1E1,3.255E3,3.76E2,3.5E1,6E0,2.821E3,4.34E2,6.9E1,3.07E2,1.9E1,1.6E1,3E0,3E0,2.519E3,3.02E2,4.3E2,4E0,6.3E1,6E0,2.04E2,1.03E2,3E0,1.6E1,1.1E1,5E0,2.63E2,2.256E3,2.06E2,9.6E1,1.43E2,2.87E2,4.2E1,2.1E1,3E0,3E0,1.48E2,5.6E1,2.3E1,8E1,3E0,1.3E1,6E0,5E0,6.3E1,2E2,1.5E3,7.56E2,1.9E1,1.87E2,2E1,7.6E1,7.4E1,6.9E1,2.44E2,4.3E1,3.5E1,7E0,1.8E1,3E0,1.37E2,1.1E1,2.9E1,2.7E1,1E1,1.3E1,7.7E1,3E0,5E0,8E0],"tree_param":{"num_deleted":"0","num_feature":"16","num_nodes":"71","size_leaf_vector":"1"}},{"base_weights":[1.1114132E-3,-1.289902E-2,2.4622245E0,-3.393261E-2,4.3369898E-1,3.0630956E0,-7.3181926E-3,-4.38215E-2,1.0788402E-1,9.7283435E-1,2.3731156E-1,3.9406114E0,7.975479E-2,-4.8782155E-2,2.199742E-1,3.2920755E-2,2.6865542E-1,6.5599877E-1,3.312952E-1,9.1401577E-1,1.9479668E-1,1.8182103E-1,4.4460554E0,-7.057989E-2,-4.0568728E-2,4.396453E-1,-7.1851485E-3,2.3629123E-1,-1.4629905E-2,1.1964764E-1,1.9752845E-1,1.3961233E0,2.037732E-1,2.3731915E-2,1.3622086E-1,5.2987523E-2,3.155063E-1,2.543777E-1,5.459122E-1,-7.148272E-3,-5.171928E-3,-1.4283388E-3,-5.576583E-3,6.9650434E-2,-2.864054E-3,-5.266946E-3,3.2843847E-3,1.3501345E-2,6.573287E-2,5.3213473E-2,2.603417E-1,9.289817E-3,5.5787362E-2,1.22591E-3,4.5781996E-2,5.2260082E-2,1.746635E-2],"categories":[],"categories_nodes":[],"categories_segments":[],"categories_sizes":[],"default_left":[0,0,0,0,0,0,0,0,0,0,0,0,0,0,0,0,0,0,0,0,0,0,0,0,0,0,0,0,0,0,0,0,0,0,0,0,0,0,0,0,0,0,0,0,0,0,0,0,0,0,0,0,0,0,0,0,0],"id":2,"left_children":[1,3,5,7,9,11,-1,13,15,17,19,21,-1,23,25,27,29,31,-1,33,35,-1,37,39,41,-1,-1,43,45,-1,47,49,51,-1,-1,53,55,-1,-1,-1,-1,-1,-1,-1,-1,-1,-1,-1,-1,-1,-1,-1,-1,-1,-1,-1,-1],"loss_changes":[1.2792275E2,3.4667557E1,3.2216667E1,4.946817E0,1.7345116E1,3.0654083E1,0E0,4.322565E0,2.7631032E0,3.044973E1,3.360663E0,4.7892E0,0E0,5.763116E-1,7.466292E1,1.5313803E0,4.5811563E0,1.3103636E1,0E0,1.7997556E0,1.9860563E0,0E0,3.4574432E0,1.13554E-2,9.3873525E-1,0E0,0E0,3.6777005E0,2.3468842E-1,0E0,1.8946166E0,1.426095E1,9.689578E-1,0E0,0E0,9.012377E-1,1.7462907E0,0E0,0E0,0E0,0E0,0E0,0E0,0E0,0E0,0E0,0E0,0E0,0E0,0E0,0E0,0E0,0E0,0E0,0E0,0E0,0E0],"parents":[2147483647,0,0,1,1,2,2,3,3,4,4,5,5,7,7,8,8,9,9,10,10,11,11,13,13,14,14,15,15,16,16,17,17,19,19,20,20,22,22,23,23,24,24,27,27,28,28,30,30,31,31,32,32,35,35,36,36],"right_children":[2,4,6,8,10,12,-1,14,16,18,20,22,-1,24,26,28,30,32,-1,34,36,-1,38,40,42,-1,-1,44,46,-1,48,50,52,-1,-1,54,56,-1,-1,-1,-1,-1,-1,-1,-1,-1,-1,-1,-1,-1,-1,-1,-1,-1,-1,-1,-1],"split_conditions":[3E0,4E-1,-5E-1,1E-1,-5E-1,1.015E3,-7.3181926E-3,2.83E1,6E0,2.98E2,4.9E1,1.0104E3,7.975479E-2,0E0,8.7E0,1.0037E3,6.3E0,9E1,3.312952E-1,3.9E0,5E-1,1.8182103E-1,6.2E0,1.0244E3,1.0157E3,4.396453E-1,-7.1851485E-3,5.8E0,2E-1,1.1964764E-1,2.16E1,1.11E1,7.0710677E-1,2.3731915E-2,1.3622086E-1,3.23E2,1.2E2,2.543777E-1,5.459122E-1,-7.148272E-3,-5.171928E-3,-1.4283388E-3,-5.576583E-3,6.9650434E-2,-2.864054E-3,-5.266946E-3,3.2843847E-3,1.3501345E-2,6.573287E-2,5.3213473E-2,2.603417E-1,9.289817E-3,5.5787362E-2,1.22591E-3,4.5781996E-2,5.2260082E-2,1.746635E-2],"split_indices":[4,3,14,3,14,5,0,0,2,8,8,5,0,2,2,5,2,8,0,7,14,0,3,5,5,0,0,9,3,0,9,0,13,0,0,8,8,0,0,0,0,0,0,0,0,0,0,0,0,0,0,0,0,0,0,0,0],"split_type":[0,0,0,0,0,0,0,0,0,0,0,0,0,0,0,0,0,0,0,0,0,0,0,0,0,0,0,0,0,0,0,0,0,0,0,0,0,0,0,0,0,0,0,0,0,0,0,0,0,0,0,0,0,0,0,0,0],"sum_hessian":[3.708E3,3.688E3,2E1,3.523E3,1.65E2,1.6E1,4E0,3.294E3,2.29E2,4.3E1,1.22E2,1.1E1,5E0,3.234E3,6E1,1.57E2,7.2E1,3.9E1,4E0,6E0,1.16E2,3E0,8E0,8.83E2,2.351E3,3E0,5.7E1,2.9E1,1.28E2,4E0,6.8E1,1.4E1,2.5E1,3E0,3E0,5.4E1,6.2E1,4E0,4E0,8.4E2,4.3E1,8.62E2,1.489E3,1E1,1.9E1,7.1E1,5.7E1,6.1E1,7E0,9E0,5E0,2E1,5E0,5E1,4E0,2.4E1,3.8E1],"tree_param":{"num_deleted":"0","num_feature":"16","num_nodes":"57","size_leaf_vector":"1"}},{"base_weights":[1.894282E-3,-1.7401837E-2,1.3892859E0,-3.9374E-2,1.8147887E-1,8.3898926E-1,3.8641162E0,-4.3535613E-2,4.489406E-1,9.803451E-2,3.791378E-1,2.0233886E-1,1.5610203E0,1.2477483E-1,6.82264E-1,-5.8562808E-2,-1.9321041E-2,2.7912104E-1,-5.773814E-2,4.5346256E-2,4.8238572E-1,2.4670401E-1,1.4180495E0,7.836316E-2,8.123328E-3,2.9592628E0,7.5039756E-1,-6.467393E-2,-7.983275E-3,-4.5189198E-2,1.1691211E-2,-1.1628704E-1,7.389552E-2,1.8496782E-1,-9.084808E-3,7.70109E-1,1.2414033E-1,4.6241882E-1,3.4683727E-2,3.8515073E-1,1.7895162E-1,-1.1023863E-1,4.795403E-2,1.2949876E-1,3.8837224E-1,-8.958755E-3,9.876287E-1,-4.6357624E-3,-6.6853547E-3,6.1362544E-3,-5.870121E-3,-5.468676E-3,-1.0656447E-3,7.557943E-2,-2.0350315E-5,-6.998995E-3,-2.4925506E-2,-6.5020034E-3,2.2906609E-2,3.237918E-3,3.799968E-2,-5.5684242E-3,2.6705023E-3,1.0670066E-1,1.9354004E-2,2.991184E-2,-2.5747085E-3,1.0934507E-1,3.462369E-2,-1.5442627E-2,1.0530147E-2,-1.2970946E-2,4.518224E-2,2.6455387E-3,-1.580079E-2,3.0121883E-2,1.3368317E-1],"categories":[],"categories_nodes":[],"categories_segments":[],"categories_sizes":[],"default_left":[0,0,0,0,0,0,0,0,0,0,0,0,0,0,0,0,0,0,0,0,0,0,0,0,0,0,0,0,0,0,0,0,0,0,0,0,0,0,0,0,0,0,0,0,0,0,0,0,0,0,0,0,0,0,0,0,0,0,0,0,0,0,0,0,0,0,0,0,0,0,0,0,0,0,0,0,0],"id":3,"left_children":[1,3,5,7,9,11,13,15,17,19,21,23,25,-1,-1,27,29,-1,31,33,35,37,39,-1,41,43,45,47,49,51,53,55,57,59,61,63,65,67,69,-1,71,73,-1,-1,-1,-1,75,-1,-1,-1,-1,-1,-1,-1,-1,-1,-1,-1,-1,-1,-1,-1,-1,-1,-1,-1,-1,-1,-1,-1,-1,-1,-1,-1,-1,-1,-1],"loss_changes":[9.953301E1,1.6031347E1,6.6214485E1,6.7318196E0,5.9829674E0,1.9450441E1,6.1152313E1,1.1909299E0,3.3390957E1,5.202831E0,1.4509558E1,2.70314E0,2.0448322E1,0E0,0E0,6.241698E-1,1.008129E0,0E0,1.9356123E-1,1.7344234E0,3.0997396E0,4.420346E0,3.549427E1,0E0,1.1130228E0,5.740513E0,2.8782682E0,6.888151E-2,7.738419E-1,2.240814E-1,5.062864E0,8.72072E-2,1.8733874E-1,1.8922851E0,2.7667174E-1,2.7035837E0,4.0110654E-1,3.140504E0,6.839872E-1,0E0,8.166269E-1,1.08656585E-1,0E0,0E0,0E0,0E0,2.2339811E0,0E0,0E0,0E0,0E0,0E0,0E0,0E0,0E0,0E0,0E0,0E0,0E0,0E0,0E0,0E0,0E0,0E0,0E0,0E0,0E0,0E0,0E0,0E0,0E0,0E0,0E0,0E0,0E0,0E0,0E0],"parents":[2147483647,0,0,1,1,2,2,3,3,4,4,5,5,6,6,7,7,8,8,9,9,10,10,11,11,12,12,15,15,16,16,18,18,19,19,20,20,21,21,22,22,24,24,25,25,26,26,27,27,28,28,29,29,30,30,31,31,32,32,33,33,34,34,35,35,36,36,37,37,38,38,40,40,41,41,46,46],"right_children":[2,4,6,8,10,12,14,16,18,20,22,24,26,-1,-1,28,30,-1,32,34,36,38,40,-1,42,44,46,48,50,52,54,56,58,60,62,64,66,68,70,-1,72,74,-1,-1,-1,-1,76,-1,-1,-1,-1,-1,-1,-1,-1,-1,-1,-1,-1,-1,-1,-1,-1,-1,-1,-1,-1,-1,-1,-1,-1,-1,-1,-1,-1,-1,-1],"split_conditions":[1.8E0,1E-1,8.660254E-1,8.48E2,6.1E0,5E-1,1.58E1,8.2E1,6.8E1,8E-1,3.04E2,9.451E2,0E0,1.2477483E-1,6.82264E-1,1E0,6E0,2.7912104E-1,8.8E2,9.369E2,1.07E2,1.53E1,9.481E2,7.836316E-2,1.37E1,1.49E1,-5E-1,-5E-1,5.7E0,1E0,9.405E2,6E0,2.56E1,9.324E2,2E-1,1.1E1,9.394E2,5.3E1,2.3E0,3.8515073E-1,-8.660254E-1,2.3E0,4.795403E-2,1.2949876E-1,3.8837224E-1,-8.958755E-3,2.4E0,-4.6357624E-3,-6.6853547E-3,6.1362544E-3,-5.870121E-3,-5.468676E-3,-1.0656447E-3,7.557943E-2,-2.0350315E-5,-6.998995E-3,-2.4925506E-2,-6.5020034E-3,2.2906609E-2,3.237918E-3,3.799968E-2,-5.5684242E-3,2.6705023E-3,1.0670066E-1,1.9354004E-2,2.991184E-2,-2.5747085E-3,1.0934507E-1,3.462369E-2,-1.5442627E-2,1.0530147E-2,-1.2970946E-2,4.518224E-2,2.6455387E-3,-1.580079E-2,3.0121883E-2,1.3368317E-1],"split_indices":[3,3,12,11,2,13,2,10,8,3,8,6,12,0,0,15,2,0,11,6,8,0,6,0,3,0,15,15,0,15,6,10,0,6,3,11,6,8,7,0,14,3,0,0,0,0,3,0,0,0,0,0,0,0,0,0,0,0,0,0,0,0,0,0,0,0,0,0,0,0,0,0,0,0,0,0,0],"split_type":[0,0,0,0,0,0,0,0,0,0,0,0,0,0,0,0,0,0,0,0,0,0,0,0,0,0,0,0,0,0,0,0,0,0,0,0,0,0,0,0,0,0,0,0,0,0,0,0,0,0,0,0,0,0,0,0,0,0,0,0,0,0,0,0,0,0,0,0,0,0,0,0,0,0,0,0,0],"sum_hessian":[3.716E3,3.666E3,5E1,3.302E3,3.64E2,4.2E1,8E0,3.275E3,2.7E1,2.57E2,1.07E2,2.3E1,1.9E1,5E0,3E0,2.02E3,1.255E3,4E0,2.3E1,2.27E2,3E1,9.6E1,1.1E1,5E0,1.8E1,6E0,1.3E1,1.802E3,2.18E2,6.84E2,5.71E2,1.6E1,7E0,6.3E1,1.64E2,1.6E1,1.4E1,4.7E1,4.9E1,3E0,8E0,1.5E1,3E0,3E0,3E0,3E0,1E1,1.94E2,1.608E3,9.2E1,1.26E2,5.36E2,1.48E2,8E0,5.63E2,1.3E1,3E0,4E0,3E0,3.6E1,2.7E1,7.1E1,9.3E1,1E1,6E0,6E0,8E0,6E0,4.1E1,1.3E1,3.6E1,4E0,4E0,4E0,1.1E1,4E0,6E0],"tree_param":{"num_deleted":"0","num_feature":"16","num_nodes":"77","size_leaf_vector":"1"}},{"base_weights":[-1.6779456E-3,-2.0848738E-2,1.5597138E0,-3.9334223E-2,1.468983E-1,6.568207E-1,3.0081954E0,-4.8794888E-2,2.623607E-2,8.1976525E-2,3.0002788E-1,5.7817657E-2,1.3896077E0,1.4906751E0,5.54187E-1,-5.1576547E-2,-2.208952E-2,-4.5797294E-3,1.8728249E-1,3.7027728E-2,3.4004915E-1,5.0576824E-1,9.257321E-2,-9.5642135E-2,3.5510097E-2,2.2511334E0,9.30543E-4,2.2171998E-2,2.0974376E0,-5.819254E-2,-3.848142E-2,1.4552154E-1,-5.306015E-2,7.805738E-2,-3.8744558E-2,7.7656865E-1,9.42171E-2,1.664671E-1,-1.1440535E-2,5.1263285E-1,7.5747934E-3,2.4354333E-2,6.2835425E-1,-1.0677993E-1,3.1903556E-1,3.0771855E-3,-1.6269562E-1,7.376816E-2,3.580165E-1,1.04497984E-1,2.5199163E-1,-5.7747667E-3,-2.3616359E-2,-4.9440344E-3,-1.2999399E-3,2.6375602E-3,1.3006006E-1,-5.708285E-3,1.9050442E-2,5.3224945E-3,6.793539E-2,-2.3043056E-5,-6.2908777E-3,1.4766584E-1,-7.88349E-3,-4.583081E-3,5.4764476E-2,2.5506387E-3,3.3780776E-2,-2.945579E-3,6.8207937E-3,6.1594383E-3,6.846147E-2,2.0528145E-2,-9.203602E-3,3.0917717E-2,-1.5670424E-2,1.3943599E-1,5.140368E-2,1.1046739E-2,-1.4445135E-2,4.41384E-2,-1.6235663E-2,-7.838774E-3,-1.9760279E-2],"categories":[],"categories_nodes":[],"categories_segments":[],"categories_sizes":[],"default_left":[0,0,0,0,0,0,0,0,0,0,0,0,0,0,0,0,0,0,0,0,0,0,0,0,0,0,0,0,0,0,0,0,0,0,0,0,0,0,0,0,0,0,0,0,0,0,0,0,0,0,0,0,0,0,0,0,0,0,0,0,0,0,0,0,0,0,0,0,0,0,0,0,0,0,0,0,0,0,0,0,0,0,0,0,0],"id":4,"left_children":[1,3,5,7,9,11,13,15,17,19,21,23,25,27,-1,29,31,33,35,37,39,41,43,45,-1,47,-1,-1,49,51,53,55,57,59,61,63,65,67,69,71,73,75,77,79,81,-1,83,-1,-1,-1,-1,-1,-1,-1,-1,-1,-1,-1,-1,-1,-1,-1,-1,-1,-1,-1,-1,-1,-1,-1,-1,-1,-1,-1,-1,-1,-1,-1,-1,-1,-1,-1,-1,-1,-1],"loss_changes":[1.1105445E2,1.13705225E1,5.687622E1,2.0496378E0,3.59409E0,1.2648967E1,5.710225E1,2.1324825E-1,2.0703347E0,2.9686222E0,4.5628138E0,8.095201E-1,1.5438206E1,8.774412E0,0E0,2.2414398E-1,1.430061E0,9.9399644E-1,3.6012583E0,1.3821188E0,2.1765442E0,3.1714878E0,2.5170956E0,1.0672441E-1,0E0,1.3450382E1,0E0,0E0,9.238663E-1,1.2365103E-1,2.4510205E-1,5.883484E0,2.3818511E-1,1.5018022E0,2.3172083E-1,5.5061455E0,3.771693E0,1.4405215E0,2.3302597E-1,1.8970923E0,2.9460537E-1,6.672847E-1,3.048666E0,2.6147756E-1,1.6029985E0,0E0,8.053973E-3,0E0,0E0,0E0,0E0,0E0,0E0,0E0,0E0,0E0,0E0,0E0,0E0,0E0,0E0,0E0,0E0,0E0,0E0,0E0,0E0,0E0,0E0,0E0,0E0,0E0,0E0,0E0,0E0,0E0,0E0,0E0,0E0,0E0,0E0,0E0,0E0,0E0,0E0],"parents":[2147483647,0,0,1,1,2,2,3,3,4,4,5,5,6,6,7,7,8,8,9,9,10,10,11,11,12,12,13,13,15,15,16,16,17,17,18,18,19,19,20,20,21,21,22,22,23,23,25,25,28,28,29,29,30,30,31,31,32,32,33,33,34,34,35,35,36,36,37,37,38,38,39,39,40,40,41,41,42,42,43,43,44,44,46,46],"right_children":[2,4,6,8,10,12,14,16,18,20,22,24,26,28,-1,30,32,34,36,38,40,42,44,46,-1,48,-1,-1,50,52,54,56,58,60,62,64,66,68,70,72,74,76,78,80,82,-1,84,-1,-1,-1,-1,-1,-1,-1,-1,-1,-1,-1,-1,-1,-1,-1,-1,-1,-1,-1,-1,-1,-1,-1,-1,-1,-1,-1,-1,-1,-1,-1,-1,-1,-1,-1,-1,-1,-1],"split_conditions":[1.8E0,1E-1,9.1E1,8.7E1,5.8E0,5E-1,8.660254E-1,1.0255E3,1.43E1,8E-1,1.17E1,8.7E1,-8.660254E-1,2.3E0,5.54187E-1,8.5E1,9.579E2,1.01E2,5.7E1,9.369E2,2.75E2,1.6E0,8.9E1,-8.660254E-1,3.5510097E-2,7.7E0,9.30543E-4,2.2171998E-2,8.9E0,1.91E1,9.1E0,1.0265E3,3.07E2,5.1E0,1.016E3,9.1E1,2.95E2,1.0003E3,5.1E0,2E0,1.0081E3,-5E-1,-7.0710677E-1,-8.660254E-1,8.660254E-1,3.0771855E-3,-2.5881904E-1,7.376816E-2,3.580165E-1,1.04497984E-1,2.5199163E-1,-5.7747667E-3,-2.3616359E-2,-4.9440344E-3,-1.2999399E-3,2.6375602E-3,1.3006006E-1,-5.708285E-3,1.9050442E-2,5.3224945E-3,6.793539E-2,-2.3043056E-5,-6.2908777E-3,1.4766584E-1,-7.88349E-3,-4.583081E-3,5.4764476E-2,2.5506387E-3,3.3780776E-2,-2.945579E-3,6.8207937E-3,6.1594383E-3,6.846147E-2,2.0528145E-2,-9.203602E-3,3.0917717E-2,-1.5670424E-2,1.3943599E-1,5.140368E-2,1.1046739E-2,-1.4445135E-2,4.41384E-2,-1.6235663E-2,-7.838774E-3,-1.9760279E-2],"split_indices":[3,3,1,1,2,13,12,5,2,3,2,1,14,3,0,10,6,8,8,6,8,7,1,12,0,2,0,0,2,7,2,5,8,7,5,1,8,5,7,7,5,13,12,13,12,0,12,0,0,0,0,0,0,0,0,0,0,0,0,0,0,0,0,0,0,0,0,0,0,0,0,0,0,0,0,0,0,0,0,0,0,0,0,0,0],"split_type":[0,0,0,0,0,0,0,0,0,0,0,0,0,0,0,0,0,0,0,0,0,0,0,0,0,0,0,0,0,0,0,0,0,0,0,0,0,0,0,0,0,0,0,0,0,0,0,0,0,0,0,0,0,0,0,0,0,0,0,0,0,0,0,0,0,0,0,0,0,0,0,0,0,0,0,0,0,0,0,0,0,0,0,0,0],"sum_hessian":[3.708E3,3.664E3,4.4E1,3.301E3,3.63E2,2.8E1,1.6E1,2.885E3,4.16E2,2.56E2,1.07E2,1.6E1,1.2E1,1.1E1,5E0,2.612E3,2.73E2,3.5E2,6.6E1,2.19E2,3.7E1,5.3E1,5.4E1,1.1E1,5E0,7E0,5E0,4E0,7E0,1.733E3,8.79E2,4.2E1,2.31E2,1.02E2,2.48E2,8E0,5.8E1,5.9E1,1.6E2,2.4E1,1.3E1,1.1E1,4.2E1,2.9E1,2.5E1,4E0,7E0,4E0,3E0,3E0,4E0,1.73E3,3E0,6.14E2,2.65E2,3.9E1,3E0,2.28E2,3E0,9.9E1,3E0,9.6E1,1.52E2,4E0,4E0,4.5E1,1.3E1,3.3E1,2.6E1,1.31E2,2.9E1,7E0,1.7E1,4E0,9E0,4E0,7E0,4E0,3.8E1,4E0,2.5E1,2E1,5E0,3E0,4E0],"tree_param":{"num_deleted":"0","num_feature":"16","num_nodes":"85","size_leaf_vector":"1"}},{"base_weights":[3.6282954E-3,-3.169796E-2,1.8738954E-1,-4.3572005E-2,2.835634E-2,1.2570083E-1,1.1486405E0,-4.716907E-2,-1.02799265E-2,1.03135474E-1,-2.0233182E-2,1.06447875E-1,1.301139E0,3.3307707E0,5.5272344E-2,-5.250707E-2,-3.5521735E-2,-4.2850714E-2,6.996552E-2,3.0468318E-1,-3.0429559E-2,3.559391E-2,-4.981816E-2,1.1403607E0,9.118786E-2,1.2208989E-2,2.2199602E-1,-2.9397558E-3,4.4540935E0,6.629319E-2,-5.772358E-2,-1.6205102E-1,-5.1512636E-2,-3.9218932E-2,4.2511713E-2,8.241276E-2,-5.0612617E-2,3.4936103E-1,4.694986E-3,9.735812E-1,1.8566233E-1,1.5979309E-2,-6.464421E-2,1.1624937E-1,-3.2212205E-2,-6.010207E-2,2.0205516E-2,1.8599443E-1,-4.4209035E-3,-3.2708824E-2,1.766819E-1,1.4547725E-1,5.711292E-1,3.747929E-2,-1.457416E-1,-5.4966393E-3,-4.1602097E-2,2.396861E-2,-5.221193E-3,-4.5875404E-3,3.251422E-5,-9.371346E-4,2.4397084E-2,1.7373664E-2,-6.1923205E-3,-6.0103E-3,-1.9806603E-3,9.7688725E-3,5.870778E-2,-2.705996E-3,4.6396796E-2,2.1195495E-1,1.3565329E-2,8.0525376E-2,1.1499355E-2,-1.0294837E-3,2.7027009E-2,-7.1029365E-3,-1.8591853E-3,5.1466427E-3,6.890025E-2,1.6261329E-3,-5.337375E-3,1.0404947E-2,-6.34913E-3,-3.0560368E-3,1.6961668E-2,-3.8635575E-3,3.0440306E-2,2.408371E-2,-2.9563797E-3,-3.5578486E-2,-8.412193E-3],"categories":[],"categories_nodes":[],"categories_segments":[],"categories_sizes":[],"default_left":[0,0,0,0,0,0,0,0,0,0,0,0,0,0,0,0,0,0,0,0,0,0,0,0,0,0,0,0,0,0,0,0,0,0,0,0,0,0,0,0,0,0,0,0,0,0,0,0,0,0,0,0,0,0,0,0,0,0,0,0,0,0,0,0,0,0,0,0,0,0,0,0,0,0,0,0,0,0,0,0,0,0,0,0,0,0,0,0,0,0,0,0,0],"id":5,"left_children":[1,3,5,7,9,11,13,15,17,19,21,23,25,27,29,31,33,35,37,39,41,43,45,47,49,-1,-1,-1,51,-1,53,55,57,59,61,63,65,67,69,71,73,75,77,79,81,83,85,-1,-1,87,89,-1,-1,-1,91,-1,-1,-1,-1,-1,-1,-1,-1,-1,-1,-1,-1,-1,-1,-1,-1,-1,-1,-1,-1,-1,-1,-1,-1,-1,-1,-1,-1,-1,-1,-1,-1,-1,-1,-1,-1,-1,-1],"loss_changes":[2.4115728E1,2.2232156E0,3.537531E1,3.111148E-1,1.8733301E0,1.2625189E1,8.570729E1,1.4411783E-1,6.694807E-1,5.473976E0,5.187375E-1,8.66832E0,9.478983E0,4.5425583E1,1.7548429E0,1.6681862E-1,2.154494E-1,1.8112665E-1,1.3478456E0,6.267879E0,1.9634017E-1,5.998584E-1,1.4883852E-1,6.9014025E0,5.821022E0,0E0,0E0,0E0,2.5628036E1,0E0,8.921463E-1,3.5788068E-1,3.3731222E-1,1.8637753E-1,3.576651E-1,1.5575284E-1,4.909563E-2,7.8022313E-1,9.021903E-1,1.1235343E1,2.972405E0,3.568898E-1,1.9557059E-2,1.8197712E0,6.2414423E-2,1.0619235E-1,2.0997824E-1,0E0,0E0,4.6130592E-1,4.307432E0,0E0,0E0,0E0,2.1598381E-1,0E0,0E0,0E0,0E0,0E0,0E0,0E0,0E0,0E0,0E0,0E0,0E0,0E0,0E0,0E0,0E0,0E0,0E0,0E0,0E0,0E0,0E0,0E0,0E0,0E0,0E0,0E0,0E0,0E0,0E0,0E0,0E0,0E0,0E0,0E0,0E0,0E0,0E0],"parents":[2147483647,0,0,1,1,2,2,3,3,4,4,5,5,6,6,7,7,8,8,9,9,10,10,11,11,12,12,13,13,14,14,15,15,16,16,17,17,18,18,19,19,20,20,21,21,22,22,23,23,24,24,28,28,30,30,31,31,32,32,33,33,34,34,35,35,36,36,37,37,38,38,39,39,40,40,41,41,42,42,43,43,44,44,45,45,46,46,49,49,50,50,54,54],"right_children":[2,4,6,8,10,12,14,16,18,20,22,24,26,28,30,32,34,36,38,40,42,44,46,48,50,-1,-1,-1,52,-1,54,56,58,60,62,64,66,68,70,72,74,76,78,80,82,84,86,-1,-1,88,90,-1,-1,-1,92,-1,-1,-1,-1,-1,-1,-1,-1,-1,-1,-1,-1,-1,-1,-1,-1,-1,-1,-1,-1,-1,-1,-1,-1,-1,-1,-1,-1,-1,-1,-1,-1,-1,-1,-1,-1,-1,-1],"split_conditions":[8.8E1,8.2E1,1.59E1,1E0,2.49E2,7.4E0,1.75E1,8.6E1,1.0251E3,1E0,1.0152E3,1.4E1,1.33E1,9.9E1,-7.0710677E-1,2.8E1,8.1E1,9.434E2,9.572E2,-8.660254E-1,8.3E1,3.4E0,5E-1,1.0119E3,9.9E1,1.2208989E-2,2.2199602E-1,-2.9397558E-3,9.4E1,6.629319E-2,4.9E1,8.9E0,2.9E1,7.9E0,1.0231E3,6.6E0,9.6E1,1.0254E3,3.07E2,1.0147E3,-1.8369701E-16,4.8E0,1E0,3E0,5.2E0,5E-1,5.5E0,1.8599443E-1,-4.4209035E-3,1.72E1,1E0,1.4547725E-1,5.711292E-1,3.747929E-2,-8.660254E-1,-5.4966393E-3,-4.1602097E-2,2.396861E-2,-5.221193E-3,-4.5875404E-3,3.251422E-5,-9.371346E-4,2.4397084E-2,1.7373664E-2,-6.1923205E-3,-6.0103E-3,-1.9806603E-3,9.7688725E-3,5.870778E-2,-2.705996E-3,4.6396796E-2,2.1195495E-1,1.3565329E-2,8.0525376E-2,1.1499355E-2,-1.0294837E-3,2.7027009E-2,-7.1029365E-3,-1.8591853E-3,5.1466427E-3,6.890025E-2,1.6261329E-3,-5.337375E-3,1.0404947E-2,-6.34913E-3,-3.0560368E-3,1.6961668E-2,-3.8635575E-3,3.0440306E-2,2.408371E-2,-2.9563797E-3,-3.5578486E-2,-8.412193E-3],"split_indices":[1,1,2,15,8,7,0,10,5,11,5,8,2,10,13,1,1,6,6,14,8,7,14,5,10,0,0,0,1,0,8,7,1,7,5,0,10,5,8,5,13,7,15,7,7,7,7,0,0,0,15,0,0,0,14,0,0,0,0,0,0,0,0,0,0,0,0,0,0,0,0,0,0,0,0,0,0,0,0,0,0,0,0,0,0,0,0,0,0,0,0,0,0],"split_type":[0,0,0,0,0,0,0,0,0,0,0,0,0,0,0,0,0,0,0,0,0,0,0,0,0,0,0,0,0,0,0,0,0,0,0,0,0,0,0,0,0,0,0,0,0,0,0,0,0,0,0,0,0,0,0,0,0,0,0,0,0,0,0,0,0,0,0,0,0,0,0,0,0,0,0,0,0,0,0,0,0,0,0,0,0,0,0,0,0,0,0,0,0],"sum_hessian":[3.713E3,3.115E3,5.98E2,2.601E3,5.14E2,5.63E2,3.5E1,2.347E3,2.54E2,2.02E2,3.12E2,5.55E2,8E0,1.1E1,2.4E1,1.607E3,7.4E2,1.81E2,7.3E1,8E1,1.22E2,1.08E2,2.04E2,7E0,5.48E2,4E0,4E0,3E0,8E0,3E0,2.1E1,1.3E1,1.594E3,7.07E2,3.3E1,1E1,1.71E2,1.3E1,6E1,1.1E1,6.9E1,5.2E1,7E1,4.9E1,5.9E1,1.78E2,2.6E1,4E0,3E0,2.24E2,3.24E2,3E0,5E0,3E0,1.8E1,1E1,3E0,3E0,1.591E3,6.05E2,1.02E2,2.7E1,6E0,6E0,4E0,1.3E2,4.1E1,7E0,6E0,5.7E1,3E0,4E0,7E0,6E0,6.3E1,4.8E1,4E0,6.1E1,9E0,4.5E1,4E0,1.8E1,4.1E1,3E0,1.75E2,2E1,6E0,2.21E2,3E0,2.47E2,7.7E1,3E0,1.5E1],"tree_param":{"num_deleted":"0","num_feature":"16","num_nodes":"93","size_leaf_vector":"1"}},{"base_weights":[4.0993914E-3,-1.1556442E-2,1.2749141E0,-2.2136E-2,2.601214E-1,3.9262876E-1,2.7049942E0,5.5251575E-1,-2.558054E-2,1.7595166E-1,9.8704475E-1,8.502845E-1,6.571222E-2,1.6922451E0,5.5733675E-1,-1.2576272E-1,3.46664E-1,-3.752683E-2,3.781318E-2,3.314624E-1,6.993179E-2,2.7290282E-1,1.7348614E-2,1.2670647E0,1.3379351E-3,-6.585936E-2,4.209702E-2,1.3230529E-3,2.1489553E0,-4.5181313E-3,-2.7939532E-2,-4.151788E-2,-5.799165E-3,9.255992E-2,-1.5899159E-2,1.4706266E-1,6.0070896E-1,1.5594333E-1,-9.2269005E-3,2.9489297E-2,-1.4372654E-1,6.362615E-2,1.7388026E-1,3.0129484E-3,-1.0726785E-1,1.347002E0,2.841899E-1,-4.3443562E-3,3.466683E-3,-3.028948E-3,5.98449E-3,2.6158763E-2,3.3567105E-3,4.616979E-3,-5.0983233E-3,2.0413853E-2,-1.2477659E-2,3.0111227E-2,1.1140867E-1,4.059807E-3,5.54577E-2,-7.213806E-3,1.6318781E-2,-2.6002897E-2,8.5075054E-4,-5.6054727E-3,-1.7007386E-2,4.5715883E-2,1.9000947E-1],"categories":[],"categories_nodes":[],"categories_segments":[],"categories_sizes":[],"default_left":[0,0,0,0,0,0,0,0,0,0,0,0,0,0,0,0,0,0,0,0,0,0,0,0,0,0,0,0,0,0,0,0,0,0,0,0,0,0,0,0,0,0,0,0,0,0,0,0,0,0,0,0,0,0,0,0,0,0,0,0,0,0,0,0,0,0,0,0,0],"id":6,"left_children":[1,3,5,7,9,11,13,15,17,19,21,23,25,27,-1,29,-1,31,33,35,37,-1,39,41,-1,43,-1,-1,45,-1,-1,47,49,51,53,55,57,59,61,-1,63,-1,-1,-1,65,67,-1,-1,-1,-1,-1,-1,-1,-1,-1,-1,-1,-1,-1,-1,-1,-1,-1,-1,-1,-1,-1,-1,-1],"loss_changes":[7.3569E1,1.0505325E1,5.5716187E1,6.9757185E0,8.208666E0,4.2829676E0,3.9952515E1,4.1944317E1,2.6497662E0,2.0212371E0,2.3601376E1,4.1687145E0,8.690783E-1,1.0707092E1,0E0,2.102153E-1,0E0,3.7242126E-1,1.6334908E0,2.3941078E0,5.12081E-1,0E0,4.8943895E-1,1.2742567E0,0E0,5.8878474E-2,0E0,0E0,2.284752E0,0E0,0E0,3.8499975E-1,5.323351E-1,2.7333593E0,6.142683E-1,5.06451E-1,2.7406607E0,1.6327837E0,4.456444E-1,0E0,1.2614849E-1,0E0,0E0,0E0,2.2631466E-2,2.5765162E0,0E0,0E0,0E0,0E0,0E0,0E0,0E0,0E0,0E0,0E0,0E0,0E0,0E0,0E0,0E0,0E0,0E0,0E0,0E0,0E0,0E0,0E0,0E0],"parents":[2147483647,0,0,1,1,2,2,3,3,4,4,5,5,6,6,7,7,8,8,9,9,10,10,11,11,12,12,13,13,15,15,17,17,18,18,19,19,20,20,22,22,23,23,25,25,28,28,31,31,32,32,33,33,34,34,35,35,36,36,37,37,38,38,40,40,44,44,45,45],"right_children":[2,4,6,8,10,12,14,16,18,20,22,24,26,28,-1,30,-1,32,34,36,38,-1,40,42,-1,44,-1,-1,46,-1,-1,48,50,52,54,56,58,60,62,-1,64,-1,-1,-1,66,68,-1,-1,-1,-1,-1,-1,-1,-1,-1,-1,-1,-1,-1,-1,-1,-1,-1,-1,-1,-1,-1,-1,-1],"split_conditions":[1.8E0,4E-1,9.1E1,2.8E1,9.6E1,1E0,1.56E1,9.5E2,8.7E1,1.26E2,5E-1,-8.660254E-1,8.7E1,2.3E0,5.5733675E-1,2.56E1,3.46664E-1,1E0,2.51E2,9E-1,1.0154E3,2.7290282E-1,0E0,9.3E0,1.3379351E-3,2.3E0,4.209702E-2,1.3230529E-3,3.4E0,-4.5181313E-3,-2.7939532E-2,1E-1,1.0251E3,8.9E1,1.0147E3,1.35E1,8.660254E-1,1.0114E3,5E-1,2.9489297E-2,8.660254E-1,6.362615E-2,1.7388026E-1,3.0129484E-3,8.2E1,-8.660254E-1,2.841899E-1,-4.3443562E-3,3.466683E-3,-3.028948E-3,5.98449E-3,2.6158763E-2,3.3567105E-3,4.616979E-3,-5.0983233E-3,2.0413853E-2,-1.2477659E-2,3.0111227E-2,1.1140867E-1,4.059807E-3,5.54577E-2,-7.213806E-3,1.6318781E-2,-2.6002897E-2,8.5075054E-4,-5.6054727E-3,-1.7007386E-2,4.5715883E-2,1.9000947E-1],"split_indices":[3,3,1,1,1,11,0,6,1,8,3,14,1,3,0,0,0,15,8,3,5,0,12,0,0,3,0,0,3,0,0,4,5,1,5,0,15,5,14,0,14,0,0,0,1,14,0,0,0,0,0,0,0,0,0,0,0,0,0,0,0,0,0,0,0,0,0,0,0],"split_type":[0,0,0,0,0,0,0,0,0,0,0,0,0,0,0,0,0,0,0,0,0,0,0,0,0,0,0,0,0,0,0,0,0,0,0,0,0,0,0,0,0,0,0,0,0,0,0,0,0,0,0,0,0,0,0,0,0,0,0,0,0,0,0,0,0,0,0,0,0],"sum_hessian":[3.696E3,3.652E3,4.4E1,3.516E3,1.36E2,2.8E1,1.6E1,2E1,3.496E3,1.23E2,1.3E1,1.1E1,1.7E1,1.3E1,3E0,1.7E1,3E0,2.942E3,5.54E2,4.9E1,7.4E1,4E0,9E0,7E0,4E0,1.3E1,4E0,3E0,1E1,1.2E1,5E0,2.613E3,3.29E2,2.74E2,2.8E2,3E1,1.9E1,3.5E1,3.9E1,3E0,6E0,4E0,3E0,4E0,9E0,6E0,4E0,2.549E3,6.4E1,2.4E2,8.9E1,7E1,2.04E2,1.01E2,1.79E2,2.5E1,5E0,1.3E1,6E0,2.8E1,7E0,2.9E1,1E1,3E0,3E0,6E0,3E0,3E0,3E0],"tree_param":{"num_deleted":"0","num_feature":"16","num_nodes":"69","size_leaf_vector":"1"}},{"base_weights":[7.02543E-3,-9.104721E-3,1.2228979E0,-1.2578281E-2,5.4585236E-1,2.8290355E0,5.643195E-1,-2.6365647E-2,1.0728495E-1,3.5813117E-1,-8.853211E-2,1.5527526E0,5.631555E-1,1.0794559E0,-1.0786576E-2,-3.7600636E-2,-7.987804E-3,1.6326049E-1,-3.6533806E-2,-2.2634616E-2,-5.08975E-3,1.9821508E-2,2.0359273E0,1.6445475E0,4.064186E-1,1.595909E-2,-5.5501465E-2,-4.23554E-2,2.0131995E-3,1.1311262E-2,-4.0522307E-2,2.0348476E-1,-6.9313124E-2,7.775665E-2,-7.051848E-2,2.584463E-1,1.1899134E-1,2.5945982E-2,2.2010909E-1,-4.120028E-3,6.04141E-1,2.7719128E-3,-8.828342E-2,-1.5014819E-3,-4.546753E-3,-4.6760784E-3,9.693304E-3,-1.3175661E-3,8.559304E-3,6.9214526E-4,-4.993128E-3,1.5905391E-2,3.759334E-2,5.3550894E-3,-1.1067413E-2,-6.3046264E-3,1.9289082E-2,-1.0753172E-2,-4.864967E-3,7.722348E-2,2.8501196E-2,-4.8841E-3,-1.450974E-2],"categories":[],"categories_nodes":[],"categories_segments":[],"categories_sizes":[],"default_left":[0,0,0,0,0,0,0,0,0,0,0,0,0,0,0,0,0,0,0,0,0,0,0,0,0,0,0,0,0,0,0,0,0,0,0,0,0,0,0,0,0,0,0,0,0,0,0,0,0,0,0,0,0,0,0,0,0,0,0,0,0,0,0],"id":7,"left_children":[1,3,5,7,9,11,13,15,17,-1,19,21,-1,23,25,27,29,31,33,-1,-1,-1,35,37,39,-1,41,43,45,47,49,51,53,55,57,-1,-1,-1,-1,-1,59,-1,61,-1,-1,-1,-1,-1,-1,-1,-1,-1,-1,-1,-1,-1,-1,-1,-1,-1,-1,-1,-1],"loss_changes":[7.340002E1,7.127702E0,5.0234123E1,6.07117E0,4.460697E1,4.133088E1,1.0676932E1,6.798279E-1,3.0570402E0,0E0,9.22111E-2,6.7957115E0,0E0,6.557852E0,1.4598893E-1,3.8508177E-1,7.8594303E-1,2.5680485E0,4.2108452E-1,0E0,0E0,0E0,6.3726425E-1,7.13752E0,9.099337E-1,0E0,4.3369144E-2,1.5460205E-1,1.0230486E0,1.4308085E0,2.0836669E-1,1.725462E0,2.1427965E-1,4.1744167E-1,6.1951756E-2,0E0,0E0,0E0,0E0,0E0,1.554091E-1,0E0,1.7562993E-2,0E0,0E0,0E0,0E0,0E0,0E0,0E0,0E0,0E0,0E0,0E0,0E0,0E0,0E0,0E0,0E0,0E0,0E0,0E0,0E0],"parents":[2147483647,0,0,1,1,2,2,3,3,4,4,5,5,6,6,7,7,8,8,10,10,11,11,13,13,14,14,15,15,16,16,17,17,18,18,22,22,23,23,24,24,26,26,27,27,28,28,29,29,30,30,31,31,32,32,33,33,34,34,40,40,42,42],"right_children":[2,4,6,8,10,12,14,16,18,-1,20,22,-1,24,26,28,30,32,34,-1,-1,-1,36,38,40,-1,42,44,46,48,50,52,54,56,58,-1,-1,-1,-1,-1,60,-1,62,-1,-1,-1,-1,-1,-1,-1,-1,-1,-1,-1,-1,-1,-1,-1,-1,-1,-1,-1,-1],"split_conditions":[1.8E0,8.48E2,7E1,1E-1,8.5E1,6.6E1,1E0,8.3E1,1E0,3.5813117E-1,9.6E1,1.11E1,5.631555E-1,1.0148E3,1.0099E3,1E0,9.522E2,1.67E1,1.0145E3,-2.2634616E-2,-5.08975E-3,1.9821508E-2,2.4E1,2.4E0,1.48E2,1.595909E-2,2.3E0,-5E-1,1.0255E3,1.64E1,8.2E1,6E-1,8.3E1,1.0106E3,2.62E2,2.584463E-1,1.1899134E-1,2.5945982E-2,2.2010909E-1,-4.120028E-3,9E0,2.7719128E-3,0E0,-1.5014819E-3,-4.546753E-3,-4.6760784E-3,9.693304E-3,-1.3175661E-3,8.559304E-3,6.9214526E-4,-4.993128E-3,1.5905391E-2,3.759334E-2,5.3550894E-3,-1.1067413E-2,-6.3046264E-3,1.9289082E-2,-1.0753172E-2,-4.864967E-3,7.722348E-2,2.8501196E-2,-4.8841E-3,-1.450974E-2],"split_indices":[3,11,8,3,8,8,11,10,15,0,8,0,0,5,5,15,6,0,5,0,0,0,8,4,8,0,3,15,5,0,8,4,8,5,8,0,0,0,0,0,0,0,12,0,0,0,0,0,0,0,0,0,0,0,0,0,0,0,0,0,0,0,0],"split_type":[0,0,0,0,0,0,0,0,0,0,0,0,0,0,0,0,0,0,0,0,0,0,0,0,0,0,0,0,0,0,0,0,0,0,0,0,0,0,0,0,0,0,0,0,0,0,0,0,0,0,0,0,0,0,0,0,0,0,0,0,0,0,0],"sum_hessian":[3.741E3,3.693E3,4.8E1,3.671E3,2.2E1,1.3E1,3.5E1,3.293E3,3.78E2,3E0,1.9E1,1E1,3E0,1.8E1,1.7E1,2.043E3,1.25E3,2.72E2,1.06E2,3E0,1.6E1,3E0,7E0,9E0,9E0,3E0,1.4E1,1.824E3,2.19E2,7.85E2,4.65E2,2.32E2,4E1,2.4E1,8.2E1,3E0,4E0,3E0,6E0,3E0,6E0,4E0,1E1,1.87E2,1.637E3,1.45E2,7.4E1,5.91E2,1.94E2,7.7E1,3.88E2,1.86E2,4.6E1,1E1,3E1,1.1E1,1.3E1,2.9E1,5.3E1,3E0,3E0,7E0,3E0],"tree_param":{"num_deleted":"0","num_feature":"16","num_nodes":"63","size_leaf_vector":"1"}},{"base_weights":[7.4569657E-3,-5.190561E-3,1.0418589E0,-1.2792256E-2,2.488398E-1,4.9889743E-1,3.9180932E0,5.2276325E-1,-1.6103856E-2,1.385286E-1,2.0826569E-1,1.1960119E0,1.4477205E-1,1.8943274E-1,4.962336E-1,-5.346835E-2,3.1291726E-1,-2.7340196E-2,5.1015276E-2,8.756037E-1,8.334054E-2,7.313326E-2,2.1480317E0,9.496106E-3,6.1665516E-2,2.782885E-2,-3.6529005E-2,-3.0060692E-2,4.9119987E-2,3.9257962E-2,1.5285012E-1,1.14539556E-1,3.8691092E-2,3.878352E-1,1.2907073E-2,4.323571E-2,-3.043739E-2,2.9869124E-1,7.721429E-2,-1.03319235E-1,3.2755688E-2,-3.963353E-3,2.4012437E-2,-3.360264E-3,-2.1454176E-5,6.8317796E-4,4.9943514E-2,-2.371331E-3,8.278719E-3,-1.49919065E-2,5.5218775E-2,7.647375E-3,-1.7843831E-2,-3.6198396E-2,3.462306E-3],"categories":[],"categories_nodes":[],"categories_segments":[],"categories_sizes":[],"default_left":[0,0,0,0,0,0,0,0,0,0,0,0,0,0,0,0,0,0,0,0,0,0,0,0,0,0,0,0,0,0,0,0,0,0,0,0,0,0,0,0,0,0,0,0,0,0,0,0,0,0,0,0,0,0,0],"id":8,"left_children":[1,3,5,7,9,11,13,15,17,19,-1,21,23,-1,-1,25,-1,27,29,31,33,35,37,39,-1,41,-1,43,45,47,-1,-1,-1,49,51,-1,-1,-1,-1,53,-1,-1,-1,-1,-1,-1,-1,-1,-1,-1,-1,-1,-1,-1,-1],"loss_changes":[4.8738194E1,7.1114197E0,6.832108E1,6.3488455E0,2.1356579E1,9.454622E0,5.39283E0,3.3209007E1,2.681727E0,4.076156E0,0E0,1.3739943E1,1.717674E0,0E0,0E0,4.9181998E-1,0E0,6.3486576E-1,8.79934E0,4.797511E-1,2.053869E0,1.0808651E0,5.773121E0,8.232498E-1,0E0,2.3866835E-1,0E0,3.108964E-1,1.996105E0,1.391696E0,0E0,0E0,0E0,1.6736469E0,9.7453785E-1,0E0,0E0,0E0,0E0,6.191067E-1,0E0,0E0,0E0,0E0,0E0,0E0,0E0,0E0,0E0,0E0,0E0,0E0,0E0,0E0,0E0],"parents":[2147483647,0,0,1,1,2,2,3,3,4,4,5,5,6,6,7,7,8,8,9,9,11,11,12,12,15,15,17,17,18,18,19,19,20,20,21,21,22,22,23,23,25,25,27,27,28,28,29,29,33,33,34,34,39,39],"right_children":[2,4,6,8,10,12,14,16,18,20,-1,22,24,-1,-1,26,-1,28,30,32,34,36,38,40,-1,42,-1,44,46,48,-1,-1,-1,50,52,-1,-1,-1,-1,54,-1,-1,-1,-1,-1,-1,-1,-1,-1,-1,-1,-1,-1,-1,-1],"split_conditions":[1.8E0,4E-1,8.660254E-1,2.8E1,9.6E1,9.7E1,9.3E1,8.35E2,8.8E1,4.9E1,2.0826569E-1,8.3E0,9.659258E-1,1.8943274E-1,4.962336E-1,8.2E0,3.1291726E-1,1E-1,2.02E1,1.12E1,-7.0710677E-1,8E0,1E0,1.0165E3,6.1665516E-2,8.6E0,-3.6529005E-2,1E0,2.23E1,0E0,1.5285012E-1,1.14539556E-1,3.8691092E-2,3.4E0,5E0,4.323571E-2,-3.043739E-2,2.9869124E-1,7.721429E-2,1E0,3.2755688E-2,-3.963353E-3,2.4012437E-2,-3.360264E-3,-2.1454176E-5,6.8317796E-4,4.9943514E-2,-2.371331E-3,8.278719E-3,-1.49919065E-2,5.5218775E-2,7.647375E-3,-1.7843831E-2,-3.6198396E-2,3.462306E-3],"split_indices":[4,4,12,1,1,8,1,11,1,8,0,9,13,0,0,2,0,4,9,9,13,2,11,5,0,7,0,15,9,12,0,0,0,2,11,0,0,0,0,11,0,0,0,0,0,0,0,0,0,0,0,0,0,0,0],"split_type":[0,0,0,0,0,0,0,0,0,0,0,0,0,0,0,0,0,0,0,0,0,0,0,0,0,0,0,0,0,0,0,0,0,0,0,0,0,0,0,0,0,0,0,0,0,0,0,0,0,0,0,0,0,0,0],"sum_hessian":[3.724E3,3.68E3,4.4E1,3.574E3,1.06E2,3.8E1,6E0,2.1E1,3.553E3,1.01E2,5E0,1.2E1,2.6E1,3E0,3E0,1.8E1,3E0,3.044E3,5.09E2,6E0,9.5E1,6E0,6E0,2.1E1,5E0,1.5E1,3E0,2.94E3,1.04E2,5.06E2,3E0,3E0,3E0,1.7E1,7.8E1,3E0,3E0,3E0,3E0,1.6E1,5E0,1.2E1,3E0,2.628E3,3.12E2,9.6E1,8E0,2.07E2,2.99E2,4E0,1.3E1,5.9E1,1.9E1,5E0,1.1E1],"tree_param":{"num_deleted":"0","num_feature":"16","num_nodes":"55","size_leaf_vector":"1"}},{"base_weights":[2.6390413E-3,-1.1489837E-2,1.1304348E0,-2.0567859E-2,2.048042E-1,2.4600446E0,4.718541E-1,-2.5102763E-2,4.4508696E-2,1.4772108E-1,1.0700077E0,3.419187E0,4.514664E-2,1.1355072E0,-4.1987937E-2,-2.4051169E-2,-1.5153272E-1,9.628803E-4,1.2309185E-1,2.820905E-1,3.7298065E-2,2.6522833E-1,-1.631773E-2,4.334042E-1,9.633938E-2,1.8530778E0,3.6569464E-1,-1.5662955E-1,1.769162E-1,-1.269013E-2,-3.2732174E-2,-6.245154E-2,-1.564959E-2,2.038668E-1,-5.407007E-2,3.3114332E-1,-9.863828E-3,8.624614E-2,5.96744E-1,8.370317E-3,3.8303602E-2,2.4951601E-1,7.47726E-2,6.127223E-2,9.493364E-3,-4.9801584E-2,-4.412095E-3,3.599846E-2,-5.038127E-3,-3.1459082E-3,2.0080246E-3,-2.289092E-3,-4.2204764E-3,1.4507364E-2,-4.86624E-3,5.8739122E-2,-2.4997967E-3,-4.5206477E-3,-2.4534596E-2,4.9742218E-2,-8.441232E-3,3.0574245E-2,-6.7022615E-3,-3.4511888E-3,3.129762E-2,3.522627E-2,9.650725E-2,4.309365E-3,-2.1469604E-2,1.1872668E-2,-7.414681E-3],"categories":[],"categories_nodes":[],"categories_segments":[],"categories_sizes":[],"default_left":[0,0,0,0,0,0,0,0,0,0,0,0,0,0,0,0,0,0,0,0,0,0,0,0,0,0,0,0,0,0,0,0,0,0,0,0,0,0,0,0,0,0,0,0,0,0,0,0,0,0,0,0,0,0,0,0,0,0,0,0,0,0,0,0,0,0,0,0,0,0,0],"id":9,"left_children":[1,3,5,7,9,11,13,15,17,19,21,23,-1,25,27,29,31,33,35,37,39,-1,-1,-1,-1,41,43,45,47,49,51,-1,53,55,57,59,61,63,65,67,-1,-1,-1,-1,-1,-1,69,-1,-1,-1,-1,-1,-1,-1,-1,-1,-1,-1,-1,-1,-1,-1,-1,-1,-1,-1,-1,-1,-1,-1,-1],"loss_changes":[5.9241486E1,7.2142644E0,3.911937E1,1.0414008E0,7.151437E0,2.7354034E1,1.0960091E1,4.345684E-1,7.86934E-1,2.0667253E0,1.7993938E1,1.8291565E1,0E0,7.0558662E0,5.045253E-1,3.2208908E-1,1.7255266E0,1.6748168E0,2.2715194E0,3.830789E0,7.769047E-1,0E0,0E0,0E0,0E0,3.102394E0,4.7691548E-1,6.7334706E-1,3.094134E-1,8.7279475E-1,1.7177463E-1,0E0,1.2378997E-1,2.8234909E0,1.88965E-1,2.2531276E0,9.405149E-1,1.1059802E0,1.8212271E0,5.746813E-1,0E0,0E0,0E0,0E0,0E0,0E0,9.467368E-2,0E0,0E0,0E0,0E0,0E0,0E0,0E0,0E0,0E0,0E0,0E0,0E0,0E0,0E0,0E0,0E0,0E0,0E0,0E0,0E0,0E0,0E0,0E0,0E0],"parents":[2147483647,0,0,1,1,2,2,3,3,4,4,5,5,6,6,7,7,8,8,9,9,10,10,11,11,13,13,14,14,15,15,16,16,17,17,18,18,19,19,20,20,25,25,26,26,27,27,28,28,29,29,30,30,32,32,33,33,34,34,35,35,36,36,37,37,38,38,39,39,46,46],"right_children":[2,4,6,8,10,12,14,16,18,20,22,24,-1,26,28,30,32,34,36,38,40,-1,-1,-1,-1,42,44,46,48,50,52,-1,54,56,58,60,62,64,66,68,-1,-1,-1,-1,-1,-1,70,-1,-1,-1,-1,-1,-1,-1,-1,-1,-1,-1,-1,-1,-1,-1,-1,-1,-1,-1,-1,-1,-1,-1,-1],"split_conditions":[1.8E0,4E-1,7.7E1,1E-1,1.6E1,1.015E3,-8.660254E-1,8.48E2,7.4E0,2.13E2,6E-1,3.7E0,4.514664E-2,1.0148E3,2.79E2,1.0153E3,8.5E0,1.0037E3,9.2E0,9E-1,8.5E1,2.6522833E-1,-1.631773E-2,4.334042E-1,9.633938E-2,1.37E1,9.1E0,1E0,3.11E2,7.6E0,1.03E1,-6.245154E-2,1.01E2,5.8E0,5.9E0,1.23E2,9.427E2,3.7E0,9.4E0,8.5E0,3.8303602E-2,2.4951601E-1,7.47726E-2,6.127223E-2,9.493364E-3,-4.9801584E-2,1.1E1,3.599846E-2,-5.038127E-3,-3.1459082E-3,2.0080246E-3,-2.289092E-3,-4.2204764E-3,1.4507364E-2,-4.86624E-3,5.8739122E-2,-2.4997967E-3,-4.5206477E-3,-2.4534596E-2,4.9742218E-2,-8.441232E-3,3.0574245E-2,-6.7022615E-3,-3.4511888E-3,3.129762E-2,3.522627E-2,9.650725E-2,4.309365E-3,-2.1469604E-2,1.1872668E-2,-7.414681E-3],"split_indices":[3,3,8,3,2,5,14,11,0,8,3,7,0,5,8,5,2,5,0,3,11,0,0,0,0,2,0,11,8,2,0,0,8,9,2,11,6,7,9,0,0,0,0,0,0,0,11,0,0,0,0,0,0,0,0,0,0,0,0,0,0,0,0,0,0,0,0,0,0,0,0],"split_type":[0,0,0,0,0,0,0,0,0,0,0,0,0,0,0,0,0,0,0,0,0,0,0,0,0,0,0,0,0,0,0,0,0,0,0,0,0,0,0,0,0,0,0,0,0,0,0,0,0,0,0,0,0,0,0,0,0,0,0,0,0,0,0,0,0,0,0,0,0,0,0],"sum_hessian":[3.716E3,3.671E3,4.5E1,3.524E3,1.47E2,1.4E1,3.1E1,3.295E3,2.29E2,1.39E2,8E0,9E0,5E0,1.3E1,1.8E1,3.269E3,2.6E1,1.48E2,8.1E1,6.2E1,7.7E1,3E0,5E0,6E0,3E0,6E0,7E0,1.2E1,6E0,1.417E3,1.852E3,5E0,2.1E1,3.1E1,1.17E2,3.1E1,5E1,3.9E1,2.3E1,7.2E1,5E0,3E0,3E0,3E0,4E0,3E0,9E0,3E0,3E0,9.01E2,5.16E2,9.1E2,9.42E2,3E0,1.8E1,1.1E1,2E1,1.13E2,4E0,2.2E1,9E0,7E0,4.3E1,2.6E1,1.3E1,1.5E1,8E0,6.3E1,9E0,3E0,6E0],"tree_param":{"num_deleted":"0","num_feature":"16","num_nodes":"71","size_leaf_vector":"1"}},{"base_weights":[5.295556E-3,-4.823195E-3,7.21639E-1,-1.7746618E-2,1.1015537E-1,1.2871618E0,1.2836081E-1,-2.0931507E-2,4.296017E-1,8.012973E-2,6.240912E-1,2.1166453E0,2.948593E-1,-1.0244719E-1,3.335139E-1,-2.6262695E-2,2.1836044E-2,2.793994E-1,-6.475684E-2,6.346946E-2,3.9882138E-1,1.6536335E-3,3.113428E-1,4.826484E-1,3.2818122E0,-2.4732405E-2,1.0201237E-1,1.0610469E-1,-2.9636377E-1,5.1253956E-2,9.3897554E-4,-1.6763872E-2,-3.612793E-2,6.481869E-3,1.3790601E-1,2.0343945E-3,-3.3243038E-2,-6.998579E-2,8.983385E-2,-5.261964E-3,5.913068E-1,-1.7903233E-2,5.316008E-2,1.1927642E-1,-3.481295E-2,1.16831176E-1,4.3162498E-1,1.4113386E-2,-1.15979925E-1,-9.832153E-3,2.8400471E-2,-3.6993947E-2,-1.4869711E-2,-3.548457E-3,-4.356456E-4,-3.6867715E-3,1.1699032E-2,-1.4411802E-3,1.625326E-2,1.7629568E-2,-4.7899857E-3,6.91923E-3,-1.4536291E-2,7.7044405E-3,7.676126E-2,-1.0077655E-2,8.3319865E-2,-4.7493284E-3,1.952801E-2,6.424983E-4,-2.0938985E-2],"categories":[],"categories_nodes":[],"categories_segments":[],"categories_sizes":[],"default_left":[0,0,0,0,0,0,0,0,0,0,0,0,0,0,0,0,0,0,0,0,0,0,0,0,0,0,0,0,0,0,0,0,0,0,0,0,0,0,0,0,0,0,0,0,0,0,0,0,0,0,0,0,0,0,0,0,0,0,0,0,0,0,0,0,0,0,0,0,0,0,0],"id":10,"left_children":[1,3,5,7,9,11,13,15,17,19,21,23,25,27,29,31,33,-1,35,37,39,41,-1,43,45,47,-1,49,51,-1,-1,53,55,57,-1,59,-1,61,63,-1,65,-1,67,-1,-1,-1,-1,-1,69,-1,-1,-1,-1,-1,-1,-1,-1,-1,-1,-1,-1,-1,-1,-1,-1,-1,-1,-1,-1,-1,-1],"loss_changes":[2.6540241E1,5.3675995E0,1.6945908E1,4.63517E0,5.582398E0,2.0776455E1,1.2652929E0,7.358798E-1,2.7064653E1,1.81177E0,3.0983986E1,2.507034E1,3.03848E0,5.571872E-1,8.075589E-1,2.6814926E-1,7.451443E0,0E0,3.582412E-1,1.1673807E0,1.508343E0,1.6772774E-1,0E0,4.544876E0,1.2447556E1,1.6771756E-1,0E0,2.824958E-1,2.1043777E-2,0E0,0E0,3.3966443E-1,1.635772E-1,1.1598103E0,0E0,1.5637183E-1,0E0,5.870544E-1,2.3333411E0,0E0,2.0928788E0,0E0,2.0954251E-1,0E0,0E0,0E0,0E0,0E0,8.1382155E-2,0E0,0E0,0E0,0E0,0E0,0E0,0E0,0E0,0E0,0E0,0E0,0E0,0E0,0E0,0E0,0E0,0E0,0E0,0E0,0E0,0E0,0E0],"parents":[2147483647,0,0,1,1,2,2,3,3,4,4,5,5,6,6,7,7,8,8,9,9,10,10,11,11,12,12,13,13,14,14,15,15,16,16,18,18,19,19,20,20,21,21,23,23,24,24,25,25,27,27,28,28,31,31,32,32,33,33,35,35,37,37,38,38,40,40,42,42,48,48],"right_children":[2,4,6,8,10,12,14,16,18,20,22,24,26,28,30,32,34,-1,36,38,40,42,-1,44,46,48,-1,50,52,-1,-1,54,56,58,-1,60,-1,62,64,-1,66,-1,68,-1,-1,-1,-1,-1,70,-1,-1,-1,-1,-1,-1,-1,-1,-1,-1,-1,-1,-1,-1,-1,-1,-1,-1,-1,-1,-1,-1],"split_conditions":[1.7E0,1E-1,1.014E3,8.48E2,9.6E1,4.1E0,5E-1,8.8E1,2.8E1,1E0,4E-1,3E0,9.4E1,1.0166E3,8E0,3E0,1.94E1,2.793994E-1,3.71E1,8.1E1,1.2E1,-1.8369701E-16,3.113428E-1,1.12E1,1.11E1,1.0099E3,1.0201237E-1,9.509E2,4.2E1,5.1253956E-2,9.3897554E-4,0E0,4.18E1,1.51E1,1.3790601E-1,8.7E0,-3.3243038E-2,7.2E0,2.09E1,-5.261964E-3,7.8E1,-1.7903233E-2,8.3E0,1.1927642E-1,-3.481295E-2,1.16831176E-1,4.3162498E-1,1.4113386E-2,7.2E1,-9.832153E-3,2.8400471E-2,-3.6993947E-2,-1.4869711E-2,-3.548457E-3,-4.356456E-4,-3.6867715E-3,1.1699032E-2,-1.4411802E-3,1.625326E-2,1.7629568E-2,-4.7899857E-3,6.91923E-3,-1.4536291E-2,7.7044405E-3,7.676126E-2,-1.0077655E-2,8.3319865E-2,-4.7493284E-3,1.952801E-2,6.424983E-4,-2.0938985E-2],"split_indices":[3,3,5,11,1,7,13,1,1,14,4,7,1,5,2,11,9,0,9,1,11,13,0,9,2,5,0,6,11,0,0,2,9,2,0,2,0,9,9,0,1,0,9,0,0,0,0,0,1,0,0,0,0,0,0,0,0,0,0,0,0,0,0,0,0,0,0,0,0,0,0],"split_type":[0,0,0,0,0,0,0,0,0,0,0,0,0,0,0,0,0,0,0,0,0,0,0,0,0,0,0,0,0,0,0,0,0,0,0,0,0,0,0,0,0,0,0,0,0,0,0,0,0,0,0,0,0,0,0,0,0,0,0,0,0,0,0,0,0,0,0,0,0,0,0],"sum_hessian":[3.66E3,3.61E3,5E1,3.246E3,3.64E2,2.5E1,2.5E1,3.224E3,2.2E1,3.45E2,1.9E1,1.3E1,1.2E1,1.2E1,1.3E1,2.867E3,3.57E2,3E0,1.9E1,3.29E2,1.6E1,1.6E1,3E0,6E0,7E0,9E0,3E0,6E0,6E0,8E0,5E0,1.462E3,1.405E3,3.54E2,3E0,1.6E1,3E0,5.4E1,2.75E2,5E0,1.1E1,3E0,1.3E1,3E0,3E0,3E0,4E0,3E0,6E0,3E0,3E0,3E0,3E0,5.82E2,8.8E2,1.399E3,6E0,3.13E2,4.1E1,3E0,1.3E1,1.9E1,3.5E1,2.71E2,4E0,3E0,8E0,8E0,5E0,3E0,3E0],"tree_param":{"num_deleted":"0","num_feature":"16","num_nodes":"71","size_leaf_vector":"1"}},{"base_weights":[2.1812234E-3,-6.8790936E-3,6.4932936E-1,-1.4183632E-2,1.587035E-1,2.3310465E-1,1.1078694E0,4.291613E-1,-1.6991187E-2,1.00250274E-1,1.5838414E-1,-1.6354037E-2,9.83817E-1,2.6394364E-1,6.6958416E-1,-1.2196637E-1,2.9397276E-1,-2.3843693E-2,2.0884106E-2,1.5658139E-1,-5.7166547E-2,-1.398697E-1,1.7759855E-1,-2.1491943E-2,1.9365992E-1,-3.7757527E-2,9.549725E-1,3.982085E-2,-4.7914214E-2,-2.4334991E-2,6.740066E-2,3.5322045E-3,1.2494904E-1,3.7558775E-2,3.0953646E-1,3.4901712E-2,-1.251647E-1,-3.0335123E-2,-2.1822874E-1,4.6784595E-2,-4.549947E-3,1.1617595E0,4.417171E-3,-2.952165E-3,2.205575E-2,-1.8504435E-3,-3.0796286E-3,-4.412481E-3,4.130083E-2,4.4326033E-3,-5.3512217E-3,3.299616E-2,-1.5927863E-3,-3.648613E-3,4.336454E-2,2.1523219E-2,6.942736E-2,-8.788764E-3,-2.9068926E-2,2.1347802E-3,-7.4434266E-3,-4.589096E-3,-3.1245321E-2,2.0639967E-2,1.5634306E-1],"categories":[],"categories_nodes":[],"categories_segments":[],"categories_sizes":[],"default_left":[0,0,0,0,0,0,0,0,0,0,0,0,0,0,0,0,0,0,0,0,0,0,0,0,0,0,0,0,0,0,0,0,0,0,0,0,0,0,0,0,0,0,0,0,0,0,0,0,0,0,0,0,0,0,0,0,0,0,0,0,0,0,0,0,0],"id":11,"left_children":[1,3,5,7,9,11,13,15,17,19,-1,21,23,-1,25,27,-1,29,31,33,35,37,39,-1,-1,-1,41,43,-1,45,47,49,51,53,55,-1,57,59,61,-1,-1,63,-1,-1,-1,-1,-1,-1,-1,-1,-1,-1,-1,-1,-1,-1,-1,-1,-1,-1,-1,-1,-1,-1,-1],"loss_changes":[2.1657883E1,4.408476E0,9.475391E0,4.3513474E0,1.2670023E1,5.2596974E0,1.4342995E1,3.079868E1,9.0084445E-1,1.3302035E0,0E0,5.5187666E-1,8.411156E0,0E0,6.337515E0,1.1170229E0,0E0,1.333456E-1,9.602042E-1,1.9909363E0,1.1484742E0,1.1354235E-1,6.0406935E-1,0E0,0E0,0E0,2.9621515E0,1.8196948E-1,0E0,1.0954797E-1,6.349287E-1,1.0658385E0,2.2002518E0,1.8634984E0,1.592123E0,0E0,1.9041145E-1,1.7543217E-2,1.1556876E-1,0E0,0E0,4.6659317E0,0E0,0E0,0E0,0E0,0E0,0E0,0E0,0E0,0E0,0E0,0E0,0E0,0E0,0E0,0E0,0E0,0E0,0E0,0E0,0E0,0E0,0E0,0E0],"parents":[2147483647,0,0,1,1,2,2,3,3,4,4,5,5,6,6,7,7,8,8,9,9,11,11,12,12,14,14,15,15,17,17,18,18,19,19,20,20,21,21,22,22,26,26,27,27,29,29,30,30,31,31,32,32,33,33,34,34,36,36,37,37,38,38,41,41],"right_children":[2,4,6,8,10,12,14,16,18,20,-1,22,24,-1,26,28,-1,30,32,34,36,38,40,-1,-1,-1,42,44,-1,46,48,50,52,54,56,-1,58,60,62,-1,-1,64,-1,-1,-1,-1,-1,-1,-1,-1,-1,-1,-1,-1,-1,-1,-1,-1,-1,-1,-1,-1,-1,-1,-1],"split_conditions":[1.7E0,4E-1,5E-1,2.8E1,1.58E1,9.1E1,1.9E0,9.491E2,8.7E1,1E0,1.5838414E-1,6E0,2.3E0,2.6394364E-1,-5E-1,8.06E2,2.9397276E-1,3E-1,8.660254E-1,8.660254E-1,1.0143E3,2.3E0,5.3E1,-2.1491943E-2,1.9365992E-1,-3.7757527E-2,1E0,4.65E2,-4.7914214E-2,1.3E1,1.0169E3,1.0193E3,-1.8369701E-16,9.534E2,1.1E0,3.4901712E-2,9.4E1,8.5E1,7.5E1,4.6784595E-2,-4.549947E-3,2.4E0,4.417171E-3,-2.952165E-3,2.205575E-2,-1.8504435E-3,-3.0796286E-3,-4.412481E-3,4.130083E-2,4.4326033E-3,-5.3512217E-3,3.299616E-2,-1.5927863E-3,-3.648613E-3,4.336454E-2,2.1523219E-2,6.942736E-2,-8.788764E-3,-2.9068926E-2,2.1347802E-3,-7.4434266E-3,-4.589096E-3,-3.1245321E-2,2.0639967E-2,1.5634306E-1],"split_indices":[3,3,13,1,2,1,3,6,1,15,0,3,3,0,15,11,0,4,14,15,5,3,11,0,0,0,13,11,0,11,5,5,13,6,3,0,1,1,1,0,0,3,0,0,0,0,0,0,0,0,0,0,0,0,0,0,0,0,0,0,0,0,0,0,0],"split_type":[0,0,0,0,0,0,0,0,0,0,0,0,0,0,0,0,0,0,0,0,0,0,0,0,0,0,0,0,0,0,0,0,0,0,0,0,0,0,0,0,0,0,0,0,0,0,0,0,0,0,0,0,0,0,0,0,0,0,0,0,0,0,0,0,0],"sum_hessian":[3.692E3,3.642E3,5E1,3.489E3,1.53E2,2.7E1,2.3E1,2.1E1,3.468E3,1.48E2,5E0,2.1E1,6E0,4E0,1.9E1,1.8E1,3E0,2.937E3,5.31E2,1.09E2,3.9E1,1.3E1,8E0,3E0,3E0,4E0,1.5E1,1.3E1,5E0,2.922E3,1.5E1,4.56E2,7.5E1,6.2E1,4.7E1,5E0,3.4E1,6E0,7E0,3E0,5E0,1.2E1,3E0,1E1,3E0,1.538E3,1.384E3,1.2E1,3E0,2.66E2,1.9E2,3E1,4.5E1,5.3E1,9E0,3.9E1,8E0,2.9E1,5E0,3E0,3E0,3E0,4E0,4E0,8E0],"tree_param":{"num_deleted":"0","num_feature":"16","num_nodes":"65","size_leaf_vector":"1"}},{"base_weights":[4.0877103E-3,-1.6256068E-2,1.1390199E-1,-1.8780043E-2,2.8588715E-1,5.800556E-2,7.3221225E-1,-2.5122829E-2,-6.794418E-4,-1.7756033E-1,1.8603055E-1,1.2144762E-1,-4.1706543E-2,1.6520981E-1,2.4194522E0,1.8108374E-2,-2.5650984E-2,-2.2988942E-2,1.680522E-2,-4.592523E-1,-3.4266718E-2,1.953158E-2,2.2324385E-1,-5.981913E-2,9.9649064E-2,5.4084164E-1,-1.4674021E-1,5.254387E-1,8.906532E-1,-2.724044E-2,2.3102637E-2,-3.5221223E-2,5.598046E-2,-1.37207825E-2,6.8672076E-2,-1.5033618E-2,-6.5335535E-2,-2.5556157E-3,-4.6576606E-3,-4.0436905E-2,1.4243844E-1,6.4053E-1,8.2333475E-2,-6.609829E-2,1.3852554E-2,3.762843E-1,-6.2186323E-2,-1.3618452E-2,8.3428454E-1,-2.1336177E-1,1.8974189E-2,1.8585795E-1,-2.554038E-2,-2.623059E-3,-8.962112E-3,-2.1568637E-3,3.887528E-2,-3.6087302E-3,3.9622625E-3,6.4232275E-2,-4.307612E-3,-7.6587836E-4,-1.0355174E-2,2.485124E-2,3.2472068E-3,9.383568E-3,-5.920608E-3,3.3095416E-2,1.2444967E-3,4.620218E-2,1.8333845E-1,-5.3051696E-3,1.757898E-2,-4.1498425E-3,-1.3685663E-2,-7.2314315E-3,9.5511116E-2,1.9688621E-2,-1.6495101E-2,1.9227538E-2,1.4442478E-1,-9.457445E-3,-3.2164082E-2],"categories":[],"categories_nodes":[],"categories_segments":[],"categories_sizes":[],"default_left":[0,0,0,0,0,0,0,0,0,0,0,0,0,0,0,0,0,0,0,0,0,0,0,0,0,0,0,0,0,0,0,0,0,0,0,0,0,0,0,0,0,0,0,0,0,0,0,0,0,0,0,0,0,0,0,0,0,0,0,0,0,0,0,0,0,0,0,0,0,0,0,0,0,0,0,0,0,0,0,0,0,0,0],"id":12,"left_children":[1,3,5,7,9,11,13,15,17,19,-1,21,23,25,27,-1,29,31,33,35,37,39,41,43,45,47,49,-1,51,53,55,57,59,61,63,-1,-1,-1,-1,65,67,69,71,73,-1,75,77,-1,79,81,-1,-1,-1,-1,-1,-1,-1,-1,-1,-1,-1,-1,-1,-1,-1,-1,-1,-1,-1,-1,-1,-1,-1,-1,-1,-1,-1,-1,-1,-1,-1,-1,-1],"loss_changes":[8.29013E0,2.393076E0,2.0003103E1,3.5657728E-1,1.9301483E1,3.376792E0,4.55204E1,2.551359E-1,3.151761E-1,8.319209E-1,0E0,3.3777814E0,5.385065E-1,4.4149623E0,4.7328697E1,0E0,1.7847311E-1,3.4489316E-1,7.181716E-1,3.2150805E-1,4.1807257E-4,1.214528E0,9.531652E0,2.3956239E-1,1.0978647E0,3.4909816E0,5.112399E-1,0E0,1.0458376E1,1.3768744E-1,1.200771E0,2.139461E-2,2.8155594E0,1.5494968E-1,1.0856475E0,0E0,0E0,0E0,0E0,2.8529626E-1,1.3191952E0,7.8832417E0,1.5655955E0,3.0763686E-1,0E0,2.4060166E0,4.5845276E-1,0E0,4.4215307E0,2.0110023E-1,0E0,0E0,0E0,0E0,0E0,0E0,0E0,0E0,0E0,0E0,0E0,0E0,0E0,0E0,0E0,0E0,0E0,0E0,0E0,0E0,0E0,0E0,0E0,0E0,0E0,0E0,0E0,0E0,0E0,0E0,0E0,0E0,0E0],"parents":[2147483647,0,0,1,1,2,2,3,3,4,4,5,5,6,6,7,7,8,8,9,9,11,11,12,12,13,13,14,14,16,16,17,17,18,18,19,19,20,20,21,21,22,22,23,23,24,24,25,25,26,26,28,28,29,29,30,30,31,31,32,32,33,33,34,34,39,39,40,40,41,41,42,42,43,43,45,45,46,46,48,48,49,49],"right_children":[2,4,6,8,10,12,14,16,18,20,-1,22,24,26,28,-1,30,32,34,36,38,40,42,44,46,48,50,-1,52,54,56,58,60,62,64,-1,-1,-1,-1,66,68,70,72,74,-1,76,78,-1,80,82,-1,-1,-1,-1,-1,-1,-1,-1,-1,-1,-1,-1,-1,-1,-1,-1,-1,-1,-1,-1,-1,-1,-1,-1,-1,-1,-1,-1,-1,-1,-1,-1,-1],"split_conditions":[8.8E1,8.48E2,1.37E1,7.9E1,2.83E1,9.519E2,1.64E1,1.1E0,8.3E1,6.5E0,1.8603055E-1,1.0114E3,1E0,2.5881904E-1,1.7E1,1.8108374E-2,1E0,1.0259E3,5E-1,2.52E1,8.8E2,9.4E0,1.0139E3,1.3E2,6.3E0,9.6E1,1.56E1,5.254387E-1,1.75E1,3.05E1,1.62E1,2.05E1,9.579E2,1.66E1,-8.660254E-1,-1.5033618E-2,-6.5335535E-2,-2.5556157E-3,-4.6576606E-3,2.5E0,3.1E0,9.5E1,7.8E0,5E0,1.3852554E-2,7E0,-7.0710677E-1,-1.3618452E-2,1.0131E3,1.55E1,1.8974189E-2,1.8585795E-1,-2.554038E-2,-2.623059E-3,-8.962112E-3,-2.1568637E-3,3.887528E-2,-3.6087302E-3,3.9622625E-3,6.4232275E-2,-4.307612E-3,-7.6587836E-4,-1.0355174E-2,2.485124E-2,3.2472068E-3,9.383568E-3,-5.920608E-3,3.3095416E-2,1.2444967E-3,4.620218E-2,1.8333845E-1,-5.3051696E-3,1.757898E-2,-4.1498425E-3,-1.3685663E-2,-7.2314315E-3,9.5511116E-2,1.9688621E-2,-1.6495101E-2,1.9227538E-2,1.4442478E-1,-9.457445E-3,-3.2164082E-2],"split_indices":[1,11,9,1,0,6,0,9,10,2,0,5,14,12,0,0,13,5,13,0,11,9,5,11,2,10,0,0,0,0,9,9,6,2,14,0,0,0,0,9,0,1,0,11,0,0,13,0,5,9,0,0,0,0,0,0,0,0,0,0,0,0,0,0,0,0,0,0,0,0,0,0,0,0,0,0,0,0,0,0,0,0,0],"split_type":[0,0,0,0,0,0,0,0,0,0,0,0,0,0,0,0,0,0,0,0,0,0,0,0,0,0,0,0,0,0,0,0,0,0,0,0,0,0,0,0,0,0,0,0,0,0,0,0,0,0,0,0,0,0,0,0,0,0,0,0,0,0,0,0,0,0,0,0,0,0,0,0,0,0,0,0,0,0,0,0,0,0,0],"sum_hessian":[3.709E3,3.13E3,5.79E2,3.105E3,2.5E1,5.32E2,4.7E1,2.299E3,8.06E2,2E1,5E0,3.25E2,2.07E2,3.6E1,1.1E1,5E0,2.294E3,3.54E2,4.52E2,6E0,1.4E1,1.63E2,1.62E2,1.84E2,2.3E1,1.6E1,2E1,3E0,8E0,2.222E3,7.2E1,3.07E2,4.7E1,2.85E2,1.67E2,3E0,3E0,1E1,4E0,1.1E2,5.3E1,4E1,1.22E2,1.79E2,5E0,8E0,1.5E1,5E0,1.1E1,1.7E1,3E0,4E0,4E0,2.188E3,3.4E1,6.5E1,7E0,3.04E2,3E0,6E0,4.1E1,2.68E2,1.7E1,2.7E1,1.4E2,1.3E1,9.7E1,2.1E1,3.2E1,3.6E1,4E0,5E1,7.2E1,1.34E2,4.5E1,5E0,3E0,4E0,1.1E1,6E0,5E0,9E0,8E0],"tree_param":{"num_deleted":"0","num_feature":"16","num_nodes":"83","size_leaf_vector":"1"}},{"base_weights":[1.8005223E-3,-8.109325E-3,6.85172E-1,-1.710262E-2,1.13923654E-1,1.5403869E0,3.386747E-1,-1.5606134E-2,-2.1880308E-1,8.610101E-2,7.758394E-1,5.985255E-1,3.980874E-1,5.980529E-1,-7.155981E-2,-1.762511E-2,4.403061E-2,-8.1138805E-2,-1.0111477E-1,1.2756237E-1,-3.1206599E-2,2.4906734E-1,-3.148999E-1,1.17221884E-1,2.770479E-1,-9.325884E-3,9.0232515E-1,5.895283E-3,-1.1997675E-1,-2.0757921E-2,2.884681E-2,2.9995498E-1,-2.2601873E-2,-2.012117E-1,-1.6339062E-2,1.4891116E-1,-1.5649989E-1,1.2413342E-1,-1.04636915E-1,-1.1605575E-2,-4.350191E-2,-1.6000448E-2,8.633645E-2,4.002697E-2,-6.2138777E-2,1.8330628E-1,3.1262055E-1,-2.5665008E-3,-1.8367587E-2,-1.8167163E-3,-4.708142E-3,-1.4715231E-3,2.229705E-2,1.020662E-1,9.450815E-3,2.4740584E-2,-5.2323695E-3,-2.7208572E-2,-2.6879273E-3,-6.385203E-3,1.065281E-2,9.492663E-3,2.8885037E-2,4.9146186E-3,-2.2310833E-2,4.8527792E-2,1.061248E-3,-7.297666E-3,-2.6155874E-2,-2.8925424E-2,5.7448037E-2],"categories":[],"categories_nodes":[],"categories_segments":[],"categories_sizes":[],"default_left":[0,0,0,0,0,0,0,0,0,0,0,0,0,0,0,0,0,0,0,0,0,0,0,0,0,0,0,0,0,0,0,0,0,0,0,0,0,0,0,0,0,0,0,0,0,0,0,0,0,0,0,0,0,0,0,0,0,0,0,0,0,0,0,0,0,0,0,0,0,0,0],"id":13,"left_children":[1,3,5,7,9,11,13,15,17,19,21,23,-1,25,27,29,31,-1,33,35,37,-1,39,-1,41,43,45,-1,47,49,51,53,55,57,59,61,63,65,67,-1,-1,-1,-1,-1,-1,-1,69,-1,-1,-1,-1,-1,-1,-1,-1,-1,-1,-1,-1,-1,-1,-1,-1,-1,-1,-1,-1,-1,-1,-1,-1],"loss_changes":[2.5109753E1,4.0132327E0,1.5183779E1,1.0243561E0,4.5556774E0,3.209636E1,4.1926265E0,4.0786606E-1,1.6614647E0,1.1810043E0,1.9488678E1,1.8883944E0,0E0,4.443819E0,1.0817736E-1,4.7681618E-1,1.8996487E0,0E0,1.8339975E-1,1.1088297E0,7.430156E-1,0E0,1.1670846E-1,0E0,2.4444017E0,2.5050032E0,8.208713E0,0E0,6.737684E-2,2.0817089E-1,1.7537607E0,3.3090794E0,7.2718096E-1,1.16242915E-1,8.269321E-2,1.2341905E0,1.8903586E-1,8.557967E-1,1.9951239E-1,0E0,0E0,0E0,0E0,0E0,0E0,0E0,1.899846E0,0E0,0E0,0E0,0E0,0E0,0E0,0E0,0E0,0E0,0E0,0E0,0E0,0E0,0E0,0E0,0E0,0E0,0E0,0E0,0E0,0E0,0E0,0E0,0E0],"parents":[2147483647,0,0,1,1,2,2,3,3,4,4,5,5,6,6,7,7,8,8,9,9,10,10,11,11,13,13,14,14,15,15,16,16,18,18,19,19,20,20,22,22,24,24,25,25,26,26,28,28,29,29,30,30,31,31,32,32,33,33,34,34,35,35,36,36,37,37,38,38,46,46],"right_children":[2,4,6,8,10,12,14,16,18,20,22,24,-1,26,28,30,32,-1,34,36,38,-1,40,-1,42,44,46,-1,48,50,52,54,56,58,60,62,64,66,68,-1,-1,-1,-1,-1,-1,-1,70,-1,-1,-1,-1,-1,-1,-1,-1,-1,-1,-1,-1,-1,-1,-1,-1,-1,-1,-1,-1,-1,-1,-1,-1],"split_conditions":[1.8E0,2E-1,7E1,8.48E2,1.61E1,6.6E1,2.1E1,1E-1,2.8E1,1E0,1.68E1,2.4E0,3.980874E-1,2.4E0,2.2E0,2.98E2,-5E-1,-8.1138805E-2,1.0119E3,1.7E1,1.0148E3,2.4906734E-1,6E-1,1.17221884E-1,6.123234E-17,9.1E0,1.0125E3,5.895283E-3,-5E-1,8.9E1,3.2E0,1.3E1,4.9E1,3.4E1,1.53E1,8.4E0,3E-1,4.1E0,9.3E1,-1.1605575E-2,-4.350191E-2,-1.6000448E-2,8.633645E-2,4.002697E-2,-6.2138777E-2,1.8330628E-1,5E-1,-2.5665008E-3,-1.8367587E-2,-1.8167163E-3,-4.708142E-3,-1.4715231E-3,2.229705E-2,1.020662E-1,9.450815E-3,2.4740584E-2,-5.2323695E-3,-2.7208572E-2,-2.6879273E-3,-6.385203E-3,1.065281E-2,9.492663E-3,2.8885037E-2,4.9146186E-3,-2.2310833E-2,4.8527792E-2,1.061248E-3,-7.297666E-3,-2.6155874E-2,-2.8925424E-2,5.7448037E-2],"split_indices":[3,3,8,11,2,8,11,4,1,15,2,7,0,3,3,8,14,0,5,0,5,0,3,0,15,0,5,0,15,1,7,0,8,1,7,0,3,0,1,0,0,0,0,0,0,0,13,0,0,0,0,0,0,0,0,0,0,0,0,0,0,0,0,0,0,0,0,0,0,0,0],"split_type":[0,0,0,0,0,0,0,0,0,0,0,0,0,0,0,0,0,0,0,0,0,0,0,0,0,0,0,0,0,0,0,0,0,0,0,0,0,0,0,0,0,0,0,0,0,0,0,0,0,0,0,0,0,0,0,0,0,0,0,0,0,0,0,0,0,0,0,0,0,0,0],"sum_hessian":[3.706E3,3.654E3,5.2E1,3.404E3,2.5E2,1.4E1,3.8E1,3.38E3,2.4E1,2.41E2,9E0,1.1E1,3E0,2.3E1,1.5E1,3.27E3,1.1E2,3E0,2.1E1,1.78E2,6.3E1,3E0,6E0,3E0,8E0,8E0,1.5E1,4E0,1.1E1,3.064E3,2.06E2,2.2E1,8.8E1,9E0,1.2E1,1.66E2,1.2E1,2E1,4.3E1,3E0,3E0,5E0,3E0,5E0,3E0,5E0,1E1,5E0,6E0,2.791E3,2.73E2,1.69E2,3.7E1,4E0,1.8E1,8E0,8E1,6E0,3E0,9E0,3E0,1.21E2,4.5E1,3E0,9E0,4E0,1.6E1,3.7E1,6E0,3E0,7E0],"tree_param":{"num_deleted":"0","num_feature":"16","num_nodes":"71","size_leaf_vector":"1"}},{"base_weights":[-1.3297318E-3,-4.1990834E-3,8.1587565E-1,-1.0981537E-2,1.6973521E-1,-9.654367E-2,1.8964554E-1,3.574478E-1,-1.3057026E-2,8.186399E-2,1.0151128E0,-1.7105421E-3,-1.7170558E-2,-2.1439421E-1,2.6984143E-1,-1.6317628E-2,3.9065883E-2,1.31587E-1,-1.9073345E-1,-9.770999E-3,3.323544E-1,-4.5897573E-2,-7.505339E-2,-7.964198E-3,-2.3584956E-2,1.4213322E-1,-1.6138364E-2,6.0052063E-2,3.7945712E-1,-5.8628187E-2,-3.169759E-1,3.5432383E-2,-4.4473063E-2,-2.1085409E-3,-1.0265663E-2,-1.4879663E-3,3.8660204E-3,-1.8707339E-3,-4.6898774E-3,7.349687E-3,6.906165E-2,-1.02503905E-2,2.3123287E-3,1.00606E-2,-1.9503493E-2,-6.1881635E-3,6.039941E-2,-1.1107603E-2,3.591021E-4,-1.2644115E-2,-4.822224E-2],"categories":[],"categories_nodes":[],"categories_segments":[],"categories_sizes":[],"default_left":[0,0,0,0,0,0,0,0,0,0,0,0,0,0,0,0,0,0,0,0,0,0,0,0,0,0,0,0,0,0,0,0,0,0,0,0,0,0,0,0,0,0,0,0,0,0,0,0,0,0,0],"id":14,"left_children":[1,3,5,7,9,11,-1,13,15,17,19,-1,-1,21,-1,23,25,27,29,31,-1,33,-1,35,37,39,41,43,45,47,49,-1,-1,-1,-1,-1,-1,-1,-1,-1,-1,-1,-1,-1,-1,-1,-1,-1,-1,-1,-1],"loss_changes":[8.712197E0,4.3691187E0,1.3000337E1,2.7299533E0,1.0242425E1,4.4828735E-2,0E0,2.7351784E1,6.0311764E-1,1.7465022E0,3.0788832E1,0E0,0E0,1.5012935E0,0E0,2.0239192E-1,1.1914526E0,1.892201E0,3.149621E-1,1.7412441E0,0E0,1.7551856E-2,0E0,5.016306E-1,2.019918E-1,2.6973915E0,4.669172E-1,8.989283E-1,2.415701E0,3.6294777E-2,2.5387907E-1,0E0,0E0,0E0,0E0,0E0,0E0,0E0,0E0,0E0,0E0,0E0,0E0,0E0,0E0,0E0,0E0,0E0,0E0,0E0,0E0],"parents":[2147483647,0,0,1,1,2,2,3,3,4,4,5,5,7,7,8,8,9,9,10,10,13,13,15,15,16,16,17,17,18,18,19,19,21,21,23,23,24,24,25,25,26,26,27,27,28,28,29,29,30,30],"right_children":[2,4,6,8,10,12,-1,14,16,18,20,-1,-1,22,-1,24,26,28,30,32,-1,34,-1,36,38,40,42,44,46,48,50,-1,-1,-1,-1,-1,-1,-1,-1,-1,-1,-1,-1,-1,-1,-1,-1,-1,-1,-1,-1],"split_conditions":[6E0,4E-1,9.1E1,2.8E1,9.5E1,8.2E1,1.8964554E-1,9.5E2,1E-1,1.58E1,1.58E1,-1.7105421E-3,-1.7170558E-2,8.12E2,2.6984143E-1,1.0159E3,2E0,9.1E1,8.6E1,9.7E1,3.323544E-1,8.6E0,-7.505339E-2,8.8E1,8.5E1,1.01E1,1.0088E3,1.03E1,8.4E0,8.3E0,1.53E1,3.5432383E-2,-4.4473063E-2,-2.1085409E-3,-1.0265663E-2,-1.4879663E-3,3.8660204E-3,-1.8707339E-3,-4.6898774E-3,7.349687E-3,6.906165E-2,-1.02503905E-2,2.3123287E-3,1.00606E-2,-1.9503493E-2,-6.1881635E-3,6.039941E-2,-1.1107603E-2,3.591021E-4,-1.2644115E-2,-4.822224E-2],"split_indices":[4,4,1,1,1,1,0,6,4,9,0,0,0,11,0,5,7,1,1,1,0,7,0,1,1,9,5,0,0,7,0,0,0,0,0,0,0,0,0,0,0,0,0,0,0,0,0,0,0,0,0],"split_type":[0,0,0,0,0,0,0,0,0,0,0,0,0,0,0,0,0,0,0,0,0,0,0,0,0,0,0,0,0,0,0,0,0,0,0,0,0,0,0,0,0,0,0,0,0,0,0,0,0,0,0],"sum_hessian":[3.713E3,3.701E3,1.2E1,3.563E3,1.38E2,7E0,5E0,1.9E1,3.544E3,1.26E2,1.2E1,4E0,3E0,1.6E1,3E0,3.336E3,2.08E2,1.07E2,1.9E1,9E0,3E0,1.3E1,3E0,1.553E3,1.783E3,7.2E1,1.36E2,8.4E1,2.3E1,1E1,9E0,5E0,4E0,1E1,3E0,1.353E3,2E2,1.476E3,3.07E2,6.5E1,7E0,4.2E1,9.4E1,7.3E1,1.1E1,8E0,1.5E1,5E0,5E0,5E0,4E0],"tree_param":{"num_deleted":"0","num_feature":"16","num_nodes":"51","size_leaf_vector":"1"}},{"base_weights":[1.9495537E-3,-5.399146E-3,5.620942E-1,-1.3293874E-2,6.439458E-2,2.153924E-1,4.0810725E-1,-1.5545699E-1,-1.2638486E-2,4.7623776E-2,4.603648E-1,-1.4677037E-2,5.995155E-1,3.7780985E-2,-6.9630675E-2,-1.5775442E-2,8.145884E-3,9.462348E-2,-6.0938876E-3,2.2607963E-1,-1.7814283E-1,1.669689E-2,-9.5909104E-2,-1.0899546E-1,8.10706E-1,-5.8959387E-2,2.4600158E-2,1.3813213E-1,-1.6149368E-2,-2.5515712E-3,1.1480627E-1,7.388293E-2,8.513956E-2,1.7189208E-2,-1.613903E-1,-5.5864193E-2,1.0761522E-2,-1.663693E-2,-9.46405E-4,-4.1323345E-2,1.5619404E-2,1.2956705E0,3.0068457E-1,-1.0683852E-2,-1.7213395E-3,-3.6969173E-3,2.7870039E-2,-2.8435688E-3,-1.3478835E-3,1.3505491E-2,-1.2177647E-3,9.059778E-3,-3.1143678E-2,-3.5454085E-4,2.144213E-2,6.338334E-3,-2.3122864E-2,-1.3987402E-2,1.5924478E-2,4.4997957E-2,1.6622685E-1,-8.398531E-3,7.634637E-2],"categories":[],"categories_nodes":[],"categories_segments":[],"categories_sizes":[],"default_left":[0,0,0,0,0,0,0,0,0,0,0,0,0,0,0,0,0,0,0,0,0,0,0,0,0,0,0,0,0,0,0,0,0,0,0,0,0,0,0,0,0,0,0,0,0,0,0,0,0,0,0,0,0,0,0,0,0,0,0,0,0,0,0],"id":15,"left_children":[1,3,5,7,9,-1,11,13,15,17,19,21,23,25,-1,27,29,31,33,-1,35,-1,37,39,41,43,-1,45,47,49,-1,51,-1,53,55,-1,57,-1,-1,-1,-1,59,61,-1,-1,-1,-1,-1,-1,-1,-1,-1,-1,-1,-1,-1,-1,-1,-1,-1,-1,-1,-1],"loss_changes":[1.5258172E1,2.016974E0,1.0886775E1,3.0438495E-1,2.4484303E0,0E0,3.6503978E0,1.5939976E0,2.1359211E-1,9.0442437E-1,1.7646585E1,2.3734596E-1,4.726919E0,2.5622416E-1,0E0,1.6596085E-1,5.246439E0,2.935008E0,6.102254E-1,0E0,8.685471E-1,0E0,6.5425776E-2,7.099904E-1,5.546626E0,1.6149804E-2,0E0,1.8259911E-1,9.27673E-2,5.6725323E-1,0E0,1.2326012E0,0E0,6.0192144E-1,3.60008E-1,0E0,2.2357592E-1,0E0,0E0,0E0,0E0,2.972355E0,2.378343E0,0E0,0E0,0E0,0E0,0E0,0E0,0E0,0E0,0E0,0E0,0E0,0E0,0E0,0E0,0E0,0E0,0E0,0E0,0E0,0E0],"parents":[2147483647,0,0,1,1,2,2,3,3,4,4,6,6,7,7,8,8,9,9,10,10,11,11,12,12,13,13,15,15,16,16,17,17,18,18,20,20,22,22,23,23,24,24,25,25,27,27,28,28,29,29,31,31,33,33,34,34,36,36,41,41,42,42],"right_children":[2,4,6,8,10,-1,12,14,16,18,20,22,24,26,-1,28,30,32,34,-1,36,-1,38,40,42,44,-1,46,48,50,-1,52,-1,54,56,-1,58,-1,-1,-1,-1,60,62,-1,-1,-1,-1,-1,-1,-1,-1,-1,-1,-1,-1,-1,-1,-1,-1,-1,-1,-1,-1],"split_conditions":[1.8E0,1E-1,1.9E0,2.8E1,1.61E1,2.153924E-1,8.7E1,9.489E2,8.7E1,1.0147E3,1.68E1,2E0,2.3E0,9.3E0,-6.9630675E-2,1.1E0,1.91E1,9.485E2,9.4E1,2.2607963E-1,1E0,1.669689E-2,8.3E0,9.439E2,9.476E2,7.9E1,2.4600158E-2,-1.1E0,2.2E0,4.1E1,1.1480627E-1,9.477E2,8.513956E-2,8.660254E-1,9.552E2,-5.5864193E-2,8.8E1,-1.663693E-2,-9.46405E-4,-4.1323345E-2,1.5619404E-2,1.0059E3,1.38E1,-1.0683852E-2,-1.7213395E-3,-3.6969173E-3,2.7870039E-2,-2.8435688E-3,-1.3478835E-3,1.3505491E-2,-1.2177647E-3,9.059778E-3,-3.1143678E-2,-3.5454085E-4,2.144213E-2,6.338334E-3,-2.3122864E-2,-1.3987402E-2,1.5924478E-2,4.4997957E-2,1.6622685E-1,-8.398531E-3,7.634637E-2],"split_indices":[3,3,3,1,2,0,1,6,1,5,2,11,3,7,0,9,9,6,1,0,11,0,9,6,6,8,0,2,7,8,0,6,0,14,6,0,1,0,0,0,0,5,2,0,0,0,0,0,0,0,0,0,0,0,0,0,0,0,0,0,0,0,0],"split_type":[0,0,0,0,0,0,0,0,0,0,0,0,0,0,0,0,0,0,0,0,0,0,0,0,0,0,0,0,0,0,0,0,0,0,0,0,0,0,0,0,0,0,0,0,0,0,0,0,0,0,0,0,0,0,0,0,0,0,0,0,0,0,0],"sum_hessian":[3.705E3,3.658E3,4.7E1,3.287E3,3.71E2,3E0,4.4E1,1.4E1,3.273E3,3.57E2,1.4E1,1.4E1,3E1,1.1E1,3E0,2.844E3,4.29E2,1.9E2,1.67E2,3E0,1.1E1,4E0,1E1,7E0,2.3E1,8E0,3E0,6E0,2.838E3,4.26E2,3E0,1.86E2,4E0,1.46E2,2.1E1,3E0,8E0,5E0,5E0,3E0,4E0,1.1E1,1.2E1,3E0,5E0,3E0,3E0,5.05E2,2.333E3,2.7E1,3.99E2,1.79E2,7E0,1.33E2,1.3E1,5E0,1.6E1,4E0,4E0,4E0,7E0,7E0,5E0],"tree_param":{"num_deleted":"0","num_feature":"16","num_nodes":"63","size_leaf_vector":"1"}},{"base_weights":[8.096176E-3,1.1211438E-3,5.990013E-1,-1.6127157E-3,3.8161024E-1,3.3684584E-1,1.7038257E0,-6.255977E-3,1.479662E-1,2.9193148E-1,-7.632143E-2,5.621873E-1,-5.741841E-2,4.6002164E-2,2.8326246E-1,-1.7245049E-2,2.2182815E-2,4.833533E-2,7.240497E-1,-1.493588E-1,-3.5032667E-2,3.5565516E-1,1.4543012E-1,1.328375E-2,-1.3001825E-1,-5.3996937E-3,-2.2271957E-2,1.6034016E-2,4.162766E-1,9.99528E-2,-2.809699E-1,9.711504E-2,2.5805748E-1,-2.0504052E-2,-4.2416933E-3,-6.3786814E-3,-2.3490416E-2,4.8630744E-1,-2.8853074E-2,-2.0068656E-3,5.165332E-3,-1.6669976E-2,-6.0832184E-3,-1.4433622E-3,1.3765712E-2,-2.533674E-2,-2.1215472E-3,6.158731E-3,-1.3533022E-3,2.0504217E-1,-1.6312813E-2,-7.491941E-3,1.8248131E-2,-5.059862E-2,-1.2474195E-2,2.003996E-2,-1.8537514E-2,-2.6901034E-3,-9.091268E-4,9.593948E-2,1.410421E-2],"categories":[],"categories_nodes":[],"categories_segments":[],"categories_sizes":[],"default_left":[0,0,0,0,0,0,0,0,0,0,0,0,0,0,0,0,0,0,0,0,0,0,0,0,0,0,0,0,0,0,0,0,0,0,0,0,0,0,0,0,0,0,0,0,0,0,0,0,0,0,0,0,0,0,0,0,0,0,0,0,0],"id":16,"left_children":[1,3,5,7,9,11,13,15,17,-1,19,21,23,-1,-1,25,27,29,31,33,35,37,-1,39,41,43,45,47,49,51,53,55,-1,-1,-1,-1,57,59,-1,-1,-1,-1,-1,-1,-1,-1,-1,-1,-1,-1,-1,-1,-1,-1,-1,-1,-1,-1,-1,-1,-1],"loss_changes":[1.519148E1,3.791118E0,1.1880412E1,2.514444E0,3.0437286E1,3.2306666E0,9.928965E0,1.097626E0,6.221133E0,0E0,6.412688E-2,3.7205238E0,7.358864E-2,0E0,0E0,1.5070856E-1,2.365641E0,1.6258867E0,1.8372108E1,3.894046E-2,3.8118213E-3,1.8236015E0,0E0,1.1274352E-2,7.6242313E-3,9.7901493E-1,4.2872155E-1,1.3005687E0,1.4536953E1,1.1970907E0,3.9388216E-1,4.164485E-1,0E0,0E0,0E0,0E0,3.9386563E-4,2.6414766E0,0E0,0E0,0E0,0E0,0E0,0E0,0E0,0E0,0E0,0E0,0E0,0E0,0E0,0E0,0E0,0E0,0E0,0E0,0E0,0E0,0E0,0E0,0E0],"parents":[2147483647,0,0,1,1,2,2,3,3,4,4,5,5,6,6,7,7,8,8,10,10,11,11,12,12,15,15,16,16,17,17,18,18,19,19,20,20,21,21,23,23,24,24,25,25,26,26,27,27,28,28,29,29,30,30,31,31,36,36,37,37],"right_children":[2,4,6,8,10,12,14,16,18,-1,20,22,24,-1,-1,26,28,30,32,34,36,38,-1,40,42,44,46,48,50,52,54,56,-1,-1,-1,-1,58,60,-1,-1,-1,-1,-1,-1,-1,-1,-1,-1,-1,-1,-1,-1,-1,-1,-1,-1,-1,-1,-1,-1,-1],"split_conditions":[1.8E0,8.48E2,8.660254E-1,4E-1,8.5E1,3.8E1,1.44E1,8.2E1,3.07E2,2.9193148E-1,3.4E1,1.62E1,1.0152E3,4.6002164E-2,2.8326246E-1,1.0123E3,2.02E1,1.62E1,9.9E0,2.5881904E-1,1.07E2,1.53E1,1.4543012E-1,2.62E2,7.7E1,9.475E2,2.8E1,1.8E2,-5E-1,-5E-1,1E0,1.2E0,2.5805748E-1,-2.0504052E-2,-4.2416933E-3,-6.3786814E-3,1.34E1,1.014E3,-2.8853074E-2,-2.0068656E-3,5.165332E-3,-1.6669976E-2,-6.0832184E-3,-1.4433622E-3,1.3765712E-2,-2.533674E-2,-2.1215472E-3,6.158731E-3,-1.3533022E-3,2.0504217E-1,-1.6312813E-2,-7.491941E-3,1.8248131E-2,-5.059862E-2,-1.2474195E-2,2.003996E-2,-1.8537514E-2,-2.6901034E-3,-9.091268E-4,9.593948E-2,1.410421E-2],"split_indices":[4,11,12,4,8,11,0,1,8,0,1,0,5,0,0,5,9,0,0,12,8,0,0,8,11,6,1,8,12,12,11,4,0,0,0,0,2,5,0,0,0,0,0,0,0,0,0,0,0,0,0,0,0,0,0,0,0,0,0,0,0],"split_type":[0,0,0,0,0,0,0,0,0,0,0,0,0,0,0,0,0,0,0,0,0,0,0,0,0,0,0,0,0,0,0,0,0,0,0,0,0,0,0,0,0,0,0,0,0,0,0,0,0,0,0,0,0,0,0,0,0,0,0,0,0],"sum_hessian":[3.685E3,3.643E3,4.2E1,3.618E3,2.5E1,3.5E1,7E0,3.51E3,1.08E2,3E0,2.2E1,2.2E1,1.3E1,4E0,3E0,2.532E3,9.78E2,9.3E1,1.5E1,7E0,1.5E1,1.9E1,3E0,7E0,6E0,7.55E2,1.777E3,9.64E2,1.4E1,8.1E1,1.2E1,1.2E1,3E0,4E0,3E0,3E0,1.2E1,1.6E1,3E0,4E0,3E0,3E0,3E0,7.11E2,4.4E1,7E0,1.77E3,3.79E2,5.85E2,3E0,1.1E1,2.6E1,5.5E1,4E0,8E0,9E0,3E0,9E0,3E0,6E0,1E1],"tree_param":{"num_deleted":"0","num_feature":"16","num_nodes":"61","size_leaf_vector":"1"}},{"base_weights":[4.8811375E-3,-1.9116232E-3,5.2767533E-1,3.2379067E-1,-4.08546E-3,2.9916823E-1,1.7906917E0,-1.866694E-1,2.9227585E-1,-9.824664E-3,5.4281745E-2,6.3463485E-1,-1.6474102E-1,2.5160575E-1,6.1765313E-2,-8.405712E-3,-4.7529716E-2,-2.2547083E-2,-3.0268275E-3,2.8728886E-2,3.3240637E-1,2.0418644E-1,1.4700084E0,-5.168059E-3,-5.7859715E-2,-2.5609538E-3,1.880098E-3,-1.2151704E-1,-2.1119468E-2,-2.6775071E-2,3.5654046E-3,5.7000235E-2,-1.590336E-1,1.1492183E0,-2.1567236E-1,3.8655356E-1,-4.851451E-2,1.6736459E-2,2.2181217E-1,-5.4125E-2,1.3075555E-2,-2.872981E-2,-2.004401E-3,-2.0401364E-3,-5.6195273E-3,-2.1330891E-3,-9.500056E-3,-8.293013E-4,3.9047245E-3,2.0511071E-4,1.9104876E-2,1.2022561E-2,-2.0363716E-2,1.50804045E-2,1.9560963E-1,-4.5598276E-2,-1.3160707E-2,-1.2240802E-2,7.835758E-2,-1.0274674E-2,2.477044E-3],"categories":[],"categories_nodes":[],"categories_segments":[],"categories_sizes":[],"default_left":[0,0,0,0,0,0,0,0,0,0,0,0,0,0,0,0,0,0,0,0,0,0,0,0,0,0,0,0,0,0,0,0,0,0,0,0,0,0,0,0,0,0,0,0,0,0,0,0,0,0,0,0,0,0,0,0,0,0,0,0,0],"id":17,"left_children":[1,3,5,7,9,11,13,15,-1,17,19,21,23,-1,-1,25,-1,27,29,31,33,35,37,39,-1,-1,-1,41,43,45,47,49,51,53,55,57,-1,-1,-1,59,-1,-1,-1,-1,-1,-1,-1,-1,-1,-1,-1,-1,-1,-1,-1,-1,-1,-1,-1,-1,-1],"loss_changes":[1.3012664E1,2.5629523E0,1.302887E1,3.2385647E1,1.2047912E0,6.485219E0,4.4021225E0,1.0764936E0,0E0,2.830834E-1,2.2788656E0,8.329887E0,1.1857343E0,0E0,0E0,7.034313E-3,0E0,1.5850532E-1,3.3433816E-1,1.5803213E0,1.233514E1,2.3246286E0,7.424967E0,1.002388E-1,0E0,0E0,0E0,2.633983E-1,2.7190149E-2,1.7031789E-1,7.03832E-1,1.8999972E0,5.102649E-1,8.566597E0,2.8341937E-1,2.9248827E0,0E0,0E0,0E0,4.474145E-2,0E0,0E0,0E0,0E0,0E0,0E0,0E0,0E0,0E0,0E0,0E0,0E0,0E0,0E0,0E0,0E0,0E0,0E0,0E0,0E0,0E0],"parents":[2147483647,0,0,1,1,2,2,3,3,4,4,5,5,6,6,7,7,9,9,10,10,11,11,12,12,15,15,17,17,18,18,19,19,20,20,21,21,22,22,23,23,27,27,28,28,29,29,30,30,31,31,32,32,33,33,34,34,35,35,39,39],"right_children":[2,4,6,8,10,12,14,16,-1,18,20,22,24,-1,-1,26,-1,28,30,32,34,36,38,40,-1,-1,-1,42,44,46,48,50,52,54,56,58,-1,-1,-1,60,-1,-1,-1,-1,-1,-1,-1,-1,-1,-1,-1,-1,-1,-1,-1,-1,-1,-1,-1,-1,-1],"split_conditions":[1.8E0,2.8E1,9.4E1,1.46E1,1E-1,4.1E0,1.0113E3,4.4E0,2.9227585E-1,8E0,9.5E1,3.1E0,1.5E1,2.5160575E-1,6.1765313E-2,1.0118E3,-4.7529716E-2,3.1E1,0E0,1.46E1,1.0133E3,2.6E0,1.13E1,2.79E2,-5.7859715E-2,-2.5609538E-3,1.880098E-3,6.8E1,8.7E1,8.7E1,8.660254E-1,5.8E0,-8.660254E-1,1.0107E3,1E0,8.8E1,-4.851451E-2,1.6736459E-2,2.2181217E-1,1.21E1,1.3075555E-2,-2.872981E-2,-2.004401E-3,-2.0401364E-3,-5.6195273E-3,-2.1330891E-3,-9.500056E-3,-8.293013E-4,3.9047245E-3,2.0511071E-4,1.9104876E-2,1.2022561E-2,-2.0363716E-2,1.50804045E-2,1.9560963E-1,-4.5598276E-2,-1.3160707E-2,-1.2240802E-2,7.835758E-2,-1.0274674E-2,2.477044E-3],"split_indices":[3,1,1,7,4,7,5,2,0,10,1,7,2,0,0,5,0,1,2,2,5,7,0,8,0,0,0,8,1,1,15,2,13,5,7,1,0,0,0,2,0,0,0,0,0,0,0,0,0,0,0,0,0,0,0,0,0,0,0,0,0],"split_type":[0,0,0,0,0,0,0,0,0,0,0,0,0,0,0,0,0,0,0,0,0,0,0,0,0,0,0,0,0,0,0,0,0,0,0,0,0,0,0,0,0,0,0,0,0,0,0,0,0,0,0,0,0,0,0,0,0,0,0,0,0],"sum_hessian":[3.663E3,3.617E3,4.6E1,2.3E1,3.594E3,4E1,6E0,2E1,3E0,3.273E3,3.21E2,2.3E1,1.7E1,3E0,3E0,1.3E1,7E0,1.139E3,2.134E3,2.95E2,2.6E1,1.6E1,7E0,1.3E1,4E0,8E0,5E0,1.5E1,1.124E3,4.63E2,1.671E3,2.57E2,3.8E1,1E1,1.6E1,1.3E1,3E0,3E0,4E0,1E1,3E0,5E0,1E1,1.103E3,2.1E1,4.3E2,3.3E1,1.253E3,4.18E2,1.83E2,7.4E1,5E0,3.3E1,5E0,5E0,3E0,1.3E1,6E0,7E0,6E0,4E0],"tree_param":{"num_deleted":"0","num_feature":"16","num_nodes":"61","size_leaf_vector":"1"}},{"base_weights":[1.0816031E-3,-5.1075313E-3,2.4324483E-1,3.896836E-1,-7.506729E-3,5.125307E-1,2.1066904E-2,-1.28297E-1,2.7526706E-1,-1.0137818E-2,1.4356247E-1,6.889117E-1,-2.107452E-1,9.3135186E-2,-3.8695052E-1,-2.4309041E-2,-5.1217463E-2,-1.7366633E-2,8.571129E-3,-4.023068E-2,2.2468506E-1,2.6449215E-1,1.1498529E0,-6.134328E-2,9.283736E-3,-3.554869E-2,5.470836E-1,-7.093927E-2,-5.1606656E-3,-9.01848E-3,-2.169654E-3,-1.6405804E-2,-9.293962E-2,2.5617583E-3,3.5307556E-1,-1.2172208E-2,-2.813754E-2,5.729814E-1,-2.3130324E-1,1.5364332E0,-7.910604E-4,2.8399307E-2,-8.4366195E-2,-5.766111E-2,1.468616E-1,-1.5017262E-3,7.7372586E-4,-1.5702242E-3,-8.117724E-3,-4.0528532E-2,-4.665264E-3,1.0231676E-3,-8.711989E-3,1.4761086E-1,-1.0601986E-2,1.3555779E-2,-7.405399E-3,-5.3562266E-3,8.929486E-2,-4.876248E-2,1.4692455E-2,8.59638E-2,2.0699553E-1,-2.545243E-4,-1.7692693E-2,-1.2772873E-2,2.6821785E-3],"categories":[],"categories_nodes":[],"categories_segments":[],"categories_sizes":[],"default_left":[0,0,0,0,0,0,0,0,0,0,0,0,0,0,0,0,0,0,0,0,0,0,0,0,0,0,0,0,0,0,0,0,0,0,0,0,0,0,0,0,0,0,0,0,0,0,0,0,0,0,0,0,0,0,0,0,0,0,0,0,0,0,0,0,0,0,0],"id":18,"left_children":[1,3,5,7,9,11,13,15,-1,17,19,21,23,25,27,29,-1,31,33,35,-1,37,39,-1,-1,41,43,-1,-1,-1,45,47,49,51,53,55,-1,57,59,61,-1,-1,63,65,-1,-1,-1,-1,-1,-1,-1,-1,-1,-1,-1,-1,-1,-1,-1,-1,-1,-1,-1,-1,-1,-1,-1],"loss_changes":[5.593193E0,3.4497206E0,5.5533347E0,2.728075E1,1.4395255E0,5.50321E0,1.5651046E0,7.460037E-1,0E0,4.8121005E-1,2.405773E1,6.347378E0,1.1571897E0,2.648161E0,8.284228E-1,2.313951E-2,0E0,1.8479955E-1,2.0527885E0,3.8901195E-1,0E0,3.038536E0,7.17325E0,0E0,0E0,5.855317E-1,5.6575994E0,0E0,0E0,0E0,1.7708341E-3,1.14247024E-1,4.4373363E-1,6.722337E-1,8.921345E0,4.945537E-1,0E0,2.4535089E0,8.472276E-1,2.5536118E0,0E0,0E0,2.4189867E-1,4.4862516E-2,0E0,0E0,0E0,0E0,0E0,0E0,0E0,0E0,0E0,0E0,0E0,0E0,0E0,0E0,0E0,0E0,0E0,0E0,0E0,0E0,0E0,0E0,0E0],"parents":[2147483647,0,0,1,1,2,2,3,3,4,4,5,5,6,6,7,7,9,9,10,10,11,11,12,12,13,13,14,14,15,15,17,17,18,18,19,19,21,21,22,22,25,25,26,26,30,30,31,31,32,32,33,33,34,34,35,35,37,37,38,38,39,39,42,42,43,43],"right_children":[2,4,6,8,10,12,14,16,-1,18,20,22,24,26,28,30,-1,32,34,36,-1,38,40,-1,-1,42,44,-1,-1,-1,46,48,50,52,54,56,-1,58,60,62,-1,-1,64,66,-1,-1,-1,-1,-1,-1,-1,-1,-1,-1,-1,-1,-1,-1,-1,-1,-1,-1,-1,-1,-1,-1,-1],"split_conditions":[9E-1,2.8E1,1.07E2,1.4E1,9.6E1,4.6E0,1.5E1,9.489E2,2.7526706E-1,8.2E1,1.55E1,9.4E0,5.5E0,1.24E1,1.6E1,6.6E1,-5.1217463E-2,3.78E1,2.02E1,5E-1,2.2468506E-1,2.5E0,1.0148E3,-6.134328E-2,9.283736E-3,3.6E0,8.8E1,-7.093927E-2,-5.1606656E-3,-9.01848E-3,1.0057E3,2E-1,3.1E1,9.4E1,-5E-1,9.484E2,-2.813754E-2,1.1E0,1.0156E3,1.01E3,-7.910604E-4,2.8399307E-2,2.1E0,3.1E0,1.468616E-1,-1.5017262E-3,7.7372586E-4,-1.5702242E-3,-8.117724E-3,-4.0528532E-2,-4.665264E-3,1.0231676E-3,-8.711989E-3,1.4761086E-1,-1.0601986E-2,1.3555779E-2,-7.405399E-3,-5.3562266E-3,8.929486E-2,-4.876248E-2,1.4692455E-2,8.59638E-2,2.0699553E-1,-2.545243E-4,-1.7692693E-2,-1.2772873E-2,2.6821785E-3],"split_indices":[3,1,8,7,1,7,2,6,0,1,2,9,7,2,2,8,0,9,9,3,0,7,5,0,0,9,1,0,0,0,5,4,1,1,12,6,0,3,5,5,0,0,2,3,0,0,0,0,0,0,0,0,0,0,0,0,0,0,0,0,0,0,0,0,0,0,0],"split_type":[0,0,0,0,0,0,0,0,0,0,0,0,0,0,0,0,0,0,0,0,0,0,0,0,0,0,0,0,0,0,0,0,0,0,0,0,0,0,0,0,0,0,0,0,0,0,0,0,0,0,0,0,0,0,0,0,0,0,0,0,0,0,0,0,0,0,0],"sum_hessian":[3.73E3,3.638E3,9.2E1,2.1E1,3.617E3,4.1E1,5.1E1,1.8E1,3E0,3.556E3,6.1E1,3.3E1,8E0,4.4E1,7E0,1.5E1,3E0,2.565E3,9.91E2,5.7E1,4E0,1.8E1,1.5E1,3E0,5E0,3.5E1,9E0,3E0,4E0,3E0,1.2E1,2.534E3,3.1E1,9.75E2,1.6E1,5.2E1,5E0,1.1E1,7E0,1.1E1,4E0,4E0,3.1E1,6E0,3E0,5E0,7E0,2.508E3,2.6E1,3E0,2.8E1,8.99E2,7.6E1,4E0,1.2E1,1.5E1,3.7E1,4E0,7E0,4E0,3E0,6E0,5E0,1.7E1,1.4E1,3E0,3E0],"tree_param":{"num_deleted":"0","num_feature":"16","num_nodes":"67","size_leaf_vector":"1"}},{"base_weights":[2.1854467E-3,-3.3389607E-3,4.2084396E-1,2.256529E-1,-4.730855E-3,2.1297345E-1,1.4335748E0,1.6485505E-1,-2.8981993E-1,-9.26764E-3,5.5886414E-2,9.7896926E-2,1.2673774E-1,4.0052596E-2,2.3664923E-1,-8.004932E-2,-9.51562E-2,-7.7008083E-3,-1.1974882E-1,-1.0124826E-2,9.14595E-1,2.4187215E-1,-1.7785326E-1,2.701592E-2,-3.544664E-2,-1.6144417E-2,1.176496E-2,-7.246602E-2,-3.4119424E-1,-1.6232835E-2,9.5429845E-2,2.6042825E-1,3.1390718E-1,-1.5138876E-1,3.5600644E-1,5.2026078E-2,-5.931486E-2,-1.0917959E-3,9.61297E-3,-1.3638899E-3,-1.0409423E-2,1.1381863E-2,1.356685E-4,-1.1953385E-2,4.732003E-3,-1.8612808E-2,-4.4972837E-2,-1.2708822E-3,-1.6733803E-2,3.5397273E-2,-5.8808415E-3,-7.736592E-3,6.57531E-2,-4.642556E-2,1.9932522E-2,8.764718E-2,1.0605246E-2,1.8728001E-2,-6.6582276E-3],"categories":[],"categories_nodes":[],"categories_segments":[],"categories_sizes":[],"default_left":[0,0,0,0,0,0,0,0,0,0,0,0,0,0,0,0,0,0,0,0,0,0,0,0,0,0,0,0,0,0,0,0,0,0,0,0,0,0,0,0,0,0,0,0,0,0,0,0,0,0,0,0,0,0,0,0,0,0,0],"id":19,"left_children":[1,3,5,7,9,11,13,-1,15,17,19,-1,21,-1,-1,23,-1,25,27,29,31,33,35,37,-1,39,41,43,45,47,49,51,-1,53,55,57,-1,-1,-1,-1,-1,-1,-1,-1,-1,-1,-1,-1,-1,-1,-1,-1,-1,-1,-1,-1,-1,-1,-1],"loss_changes":[8.524221E0,1.1606163E0,9.799496E0,1.6614014E1,9.952203E-1,2.5842314E0,6.7621517E0,0E0,2.2836666E0,5.8175087E-1,1.4293735E1,0E0,1.3756361E0,0E0,0E0,4.2090362E-1,0E0,5.4586947E-1,4.673913E-1,1.5306036E-1,2.537571E1,1.310663E0,1.0810052E0,2.9888831E-2,0E0,5.089337E-1,1.0673592E0,2.3117909E-1,5.0932646E-2,1.1662009E-1,5.392202E-1,2.0629554E0,0E0,8.606252E-1,2.7690802E0,1.4080751E-1,0E0,0E0,0E0,0E0,0E0,0E0,0E0,0E0,0E0,0E0,0E0,0E0,0E0,0E0,0E0,0E0,0E0,0E0,0E0,0E0,0E0,0E0,0E0],"parents":[2147483647,0,0,1,1,2,2,3,3,4,4,5,5,6,6,8,8,9,9,10,10,12,12,15,15,17,17,18,18,19,19,20,20,21,21,22,22,23,23,25,25,26,26,27,27,28,28,29,29,30,30,31,31,33,33,34,34,35,35],"right_children":[2,4,6,8,10,12,14,-1,16,18,20,-1,22,-1,-1,24,-1,26,28,30,32,34,36,38,-1,40,42,44,46,48,50,52,-1,54,56,58,-1,-1,-1,-1,-1,-1,-1,-1,-1,-1,-1,-1,-1,-1,-1,-1,-1,-1,-1,-1,-1,-1,-1],"split_conditions":[1.8E0,2.8E1,8.660254E-1,6.6E1,2.98E2,1.9E0,3.4E0,1.6485505E-1,8.12E2,9.6E1,1.12E1,9.7896926E-2,5.8E0,4.0052596E-2,2.3664923E-1,1.0143E3,-9.51562E-2,9.9E1,3E-1,1.0267E3,9.2E1,1.0119E3,-1.8369701E-16,2.16E1,-3.544664E-2,1E-1,5.7E1,1.3E2,7.2E0,1.2E0,1.0276E3,1.0106E3,3.1390718E-1,3E0,1.0148E3,2.4E0,-5.931486E-2,-1.0917959E-3,9.61297E-3,-1.3638899E-3,-1.0409423E-2,1.1381863E-2,1.356685E-4,-1.1953385E-2,4.732003E-3,-1.8612808E-2,-4.4972837E-2,-1.2708822E-3,-1.6733803E-2,3.5397273E-2,-5.8808415E-3,-7.736592E-3,6.57531E-2,-4.642556E-2,1.9932522E-2,8.764718E-2,1.0605246E-2,1.8728001E-2,-6.6582276E-3],"split_indices":[3,1,12,8,8,4,3,0,11,1,9,0,3,0,0,5,0,10,4,5,1,5,15,9,0,4,8,8,9,3,5,5,0,7,5,7,0,0,0,0,0,0,0,0,0,0,0,0,0,0,0,0,0,0,0,0,0,0,0],"split_type":[0,0,0,0,0,0,0,0,0,0,0,0,0,0,0,0,0,0,0,0,0,0,0,0,0,0,0,0,0,0,0,0,0,0,0,0,0,0,0,0,0,0,0,0,0,0,0,0,0,0,0,0,0,0,0,0,0,0,0],"sum_hessian":[3.684E3,3.637E3,4.7E1,2.1E1,3.616E3,4E1,7E0,5E0,1.6E1,3.365E3,2.51E2,3E0,3.7E1,4E0,3E0,1.3E1,3E0,3.319E3,4.6E1,2.34E2,1.7E1,2.7E1,1E1,1E1,3E0,2.315E3,1.004E3,3.9E1,7E0,2.22E2,1.2E1,1.4E1,3E0,6E0,2.1E1,7E0,3E0,7E0,3E0,2.252E3,6.3E1,9.2E1,9.12E2,2.8E1,1.1E1,4E0,3E0,2.18E2,4E0,4E0,8E0,8E0,6E0,3E0,3E0,6E0,1.5E1,3E0,4E0],"tree_param":{"num_deleted":"0","num_feature":"16","num_nodes":"59","size_leaf_vector":"1"}},{"base_weights":[1.5476979E-3,-1.4621672E-3,6.9503677E-1,-5.972642E-3,8.7488554E-2,1.8188983E-1,2.1890055E-1,-7.6334556E-3,2.2585012E-1,1.3492635E-1,-3.165923E-1,-6.773122E-2,7.6046996E-2,-1.6633597E-1,-6.7617767E-3,1.9776288E-1,-1.0292098E-1,7.4427605E-2,1.995502E-1,-5.7566907E-2,-4.3171427E-1,-2.4146767E-1,2.5324037E-2,-1.5895559E-2,-7.2651364E-2,-5.888231E-3,-9.751153E-2,-3.8427755E-2,-3.8271125E-2,1.2988837E-1,-1.6283724E-1,2.349407E-3,-1.2423616E-2,-5.782735E-1,-8.156482E-3,-3.9615072E-2,-2.6417726E-3,3.159259E-3,-1.6625814E-2,-1.193552E-3,1.0786251E-3,1.035571E-2,-1.210703E-2,3.7981436E-4,-1.5682472E-2,4.7551945E-2,8.968757E-3,-2.3924602E-2,3.9363135E-2,-3.1717833E-2,-7.23714E-2],"categories":[],"categories_nodes":[],"categories_segments":[],"categories_sizes":[],"default_left":[0,0,0,0,0,0,0,0,0,0,0,0,0,0,0,0,0,0,0,0,0,0,0,0,0,0,0,0,0,0,0,0,0,0,0,0,0,0,0,0,0,0,0,0,0,0,0,0,0,0,0],"id":20,"left_children":[1,3,5,7,9,11,-1,13,15,17,19,21,-1,23,25,-1,27,29,-1,31,33,35,-1,37,-1,39,41,-1,43,45,47,-1,-1,49,-1,-1,-1,-1,-1,-1,-1,-1,-1,-1,-1,-1,-1,-1,-1,-1,-1],"loss_changes":[7.7282333E0,1.4797835E0,1.1867848E1,1.3531246E0,3.4547467E0,1.9290426E0,0E0,4.811201E-1,1.4601893E1,1.7861475E1,5.4171824E-1,6.18794E-1,0E0,1.5896454E0,2.7434832E-1,0E0,3.8546577E-1,2.0739374E0,0E0,4.074873E-2,6.1996245E-1,2.2238666E-1,0E0,1.1949958E-1,0E0,3.4659925E-1,1.6885635E-1,0E0,9.5357426E-2,1.721972E0,1.3697473E0,0E0,0E0,1.122179E-1,0E0,0E0,0E0,0E0,0E0,0E0,0E0,0E0,0E0,0E0,0E0,0E0,0E0,0E0,0E0,0E0,0E0],"parents":[2147483647,0,0,1,1,2,2,3,3,4,4,5,5,7,7,8,8,9,9,10,10,11,11,13,13,14,14,16,16,17,17,19,19,20,20,21,21,23,23,25,25,26,26,28,28,29,29,30,30,33,33],"right_children":[2,4,6,8,10,12,-1,14,16,18,20,22,-1,24,26,-1,28,30,-1,32,34,36,-1,38,-1,40,42,-1,44,46,48,-1,-1,50,-1,-1,-1,-1,-1,-1,-1,-1,-1,-1,-1,-1,-1,-1,-1,-1,-1],"split_conditions":[6E0,4E-1,5E-1,8.48E2,1.7E1,1.37E1,2.1890055E-1,2.8E1,2.8E1,1.62E1,-7.0710677E-1,6.3E0,7.6046996E-2,3.05E1,3E-1,1.9776288E-1,9.449E2,9.4E1,1.995502E-1,1.92E1,5.5E0,7.7E1,2.5324037E-2,2.7E1,-7.2651364E-2,8.2E1,1E0,-3.8427755E-2,2.96E1,2E0,2.4E0,2.349407E-3,-1.2423616E-2,6E-1,-8.156482E-3,-3.9615072E-2,-2.6417726E-3,3.159259E-3,-1.6625814E-2,-1.193552E-3,1.0786251E-3,1.035571E-2,-1.210703E-2,3.7981436E-4,-1.5682472E-2,4.7551945E-2,8.968757E-3,-2.3924602E-2,3.9363135E-2,-3.1717833E-2,-7.23714E-2],"split_indices":[3,3,12,11,0,3,0,1,1,0,13,7,0,0,4,0,6,1,0,0,7,11,0,1,0,1,7,0,0,0,3,0,0,3,0,0,0,0,0,0,0,0,0,0,0,0,0,0,0,0,0],"split_type":[0,0,0,0,0,0,0,0,0,0,0,0,0,0,0,0,0,0,0,0,0,0,0,0,0,0,0,0,0,0,0,0,0,0,0,0,0,0,0,0,0,0,0,0,0,0,0,0,0,0,0],"sum_hessian":[3.701E3,3.686E3,1.5E1,3.509E3,1.77E2,1.2E1,3E0,3.485E3,2.4E1,1.59E2,1.8E1,9E0,3E0,1.8E1,3.467E3,3E0,2.1E1,1.55E2,4E0,6E0,1.2E1,6E0,3E0,1.5E1,3E0,3.435E3,3.2E1,3E0,1.8E1,1.26E2,2.9E1,3E0,3E0,8E0,4E0,3E0,3E0,1.2E1,3E0,2.521E3,9.14E2,3E0,2.9E1,1.4E1,4E0,1.2E1,1.14E2,2.6E1,3E0,4E0,4E0],"tree_param":{"num_deleted":"0","num_feature":"16","num_nodes":"51","size_leaf_vector":"1"}},{"base_weights":[-1.9406158E-3,-4.8483172E-3,2.3765844E-1,-3.8186172E-3,-2.9065278E-1,3.0624146E-2,5.980544E-1,3.2593718E-1,-5.7448777E-3,-8.164102E-2,-5.1284548E-2,1.8776305E-1,-4.900643E-1,1.3439192E-1,1.5912336E-1,-1.102242E-1,2.207179E-1,-1.088336E-2,2.1755246E-2,1.3295906E-3,-1.3053815E-2,-6.228819E-2,5.190585E-1,-1.5339459E-2,-7.042179E-2,2.7950162E-1,-2.2570288E-2,-1.7201958E-2,-3.4864165E-2,-1.1692901E-2,1.0026082E-1,1.5123765E-2,9.4969764E-2,-5.1003974E-4,7.427181E-4,-1.3117935E-1,5.7776E-3,8.9446686E-2,-3.5243225E-3,-1.3367238E-2,6.3677534E-2,-7.189157E-3,4.248989E-4,-1.763895E-3,-5.088173E-4,3.75649E-2,-5.3296923E-3,2.2695435E-3,-3.0696193E-2,-1.6338224E-2,-6.618163E-3,-2.5407656E-3,4.331477E-3],"categories":[],"categories_nodes":[],"categories_segments":[],"categories_sizes":[],"default_left":[0,0,0,0,0,0,0,0,0,0,0,0,0,0,0,0,0,0,0,0,0,0,0,0,0,0,0,0,0,0,0,0,0,0,0,0,0,0,0,0,0,0,0,0,0,0,0,0,0,0,0,0,0],"id":21,"left_children":[1,3,5,7,9,11,13,15,17,-1,19,21,23,25,-1,27,-1,29,31,33,-1,35,37,-1,-1,39,-1,41,-1,43,45,47,-1,-1,-1,49,51,-1,-1,-1,-1,-1,-1,-1,-1,-1,-1,-1,-1,-1,-1,-1,-1],"loss_changes":[2.5565834E0,1.065702E0,3.264716E0,2.296834E0,1.5941759E0,2.464808E0,7.15415E0,1.7474312E1,5.079597E-1,0E0,4.1872166E-2,1.9376705E0,3.966701E-1,6.901233E-1,0E0,3.9320892E-1,0E0,2.7361885E-1,3.4685934E0,3.123336E-4,0E0,6.640574E-2,2.1124191E0,0E0,0E0,1.413665E0,0E0,1.6729482E-2,0E0,1.1800122E-1,9.503565E-1,1.3799697E0,0E0,0E0,0E0,3.8388968E-3,1.0465376E-2,0E0,0E0,0E0,0E0,0E0,0E0,0E0,0E0,0E0,0E0,0E0,0E0,0E0,0E0,0E0,0E0],"parents":[2147483647,0,0,1,1,2,2,3,3,4,4,5,5,6,6,7,7,8,8,10,10,11,11,12,12,13,13,15,15,17,17,18,18,19,19,21,21,22,22,25,25,27,27,29,29,30,30,31,31,35,35,36,36],"right_children":[2,4,6,8,10,12,14,16,18,-1,20,22,24,26,-1,28,-1,30,32,34,-1,36,38,-1,-1,40,-1,42,-1,44,46,48,-1,-1,-1,50,52,-1,-1,-1,-1,-1,-1,-1,-1,-1,-1,-1,-1,-1,-1,-1,-1],"split_conditions":[1.7E0,4.18E1,9.1E1,2.8E1,4.36E1,1.46E1,1.58E1,1.02E1,8.8E1,-8.164102E-2,4.4E1,5E-1,2.8E0,1.43E1,1.5912336E-1,4.4E0,2.207179E-1,7E-1,7.7E0,-2.9E0,-1.3053815E-2,7.7E0,1.19E1,-1.5339459E-2,-7.042179E-2,9.4E0,-2.2570288E-2,7.9E1,-3.4864165E-2,6.123234E-17,1E0,1.58E1,9.4969764E-2,-5.1003974E-4,7.427181E-4,3.23E2,-5E-1,8.9446686E-2,-3.5243225E-3,-1.3367238E-2,6.3677534E-2,-7.189157E-3,4.248989E-4,-1.763895E-3,-5.088173E-4,3.75649E-2,-5.3296923E-3,2.2695435E-3,-3.0696193E-2,-1.6338224E-2,-6.618163E-3,-2.5407656E-3,4.331477E-3],"split_indices":[3,9,1,1,9,2,9,7,1,0,1,13,7,2,0,2,0,3,7,2,0,2,9,0,0,9,0,8,0,13,3,9,0,0,0,8,13,0,0,0,0,0,0,0,0,0,0,0,0,0,0,0,0],"split_type":[0,0,0,0,0,0,0,0,0,0,0,0,0,0,0,0,0,0,0,0,0,0,0,0,0,0,0,0,0,0,0,0,0,0,0,0,0,0,0,0,0,0,0,0,0,0,0,0,0,0,0,0,0],"sum_hessian":[3.667E3,3.624E3,4.3E1,3.612E3,1.2E1,2.8E1,1.5E1,2E1,3.592E3,3E0,9E0,2.2E1,6E0,1.1E1,4E0,1.7E1,3E0,3.027E3,5.65E2,6E0,3E0,1.3E1,9E0,3E0,3E0,8E0,3E0,1.3E1,4E0,3.006E3,2.1E1,5.62E2,3E0,3E0,3E0,6E0,7E0,5E0,4E0,4E0,4E0,3E0,1E1,1.581E3,1.425E3,7E0,1.4E1,5.5E2,1.2E1,3E0,3E0,4E0,3E0],"tree_param":{"num_deleted":"0","num_feature":"16","num_nodes":"53","size_leaf_vector":"1"}},{"base_weights":[-5.56314E-3,-9.008339E-3,2.7887046E-1,-8.455687E-3,-4.0809963E-2,1.460677E-1,1.5677056E-1,-1.0966708E-2,1.315089E-1,6.624951E-3,5.190703E-1,-1.0191532E-2,-1.7210554E-1,2.7778113E-1,-4.4175014E-2,-2.924759E-1,1.9518209E-1,-5.0093564E-3,8.09914E-1,-1.155062E-2,1.2271593E-1,2.0209761E-2,-4.497288E-1,-1.826466E-2,-2.1354802E-1,-9.418812E-2,-6.655045E-2,-4.599966E-2,4.1684562E-1,1.3108103E-1,-1.8685007E-3,-1.1051334E-3,-2.04711E-2,6.6740215E-2,5.2974685E-3,-2.489817E-2,1.5227926E-2,-6.784335E-2,-1.0859189E-2,9.959813E-4,-2.4905675E-3,-4.248091E-2,-1.829565E-4,-2.1766642E-2,3.8287722E-4,-2.2002703E-2,2.7004814E-2,9.118345E-2,7.4445494E-3],"categories":[],"categories_nodes":[],"categories_segments":[],"categories_sizes":[],"default_left":[0,0,0,0,0,0,0,0,0,0,0,0,0,0,0,0,0,0,0,0,0,0,0,0,0,0,0,0,0,0,0,0,0,0,0,0,0,0,0,0,0,0,0,0,0,0,0,0,0],"id":22,"left_children":[1,3,5,7,-1,-1,9,11,13,15,17,19,21,-1,23,25,27,-1,29,31,33,35,37,39,41,43,-1,45,47,-1,-1,-1,-1,-1,-1,-1,-1,-1,-1,-1,-1,-1,-1,-1,-1,-1,-1,-1,-1],"loss_changes":[3.6027758E0,7.973958E-1,6.120141E0,1.2761657E0,0E0,0E0,2.2268677E0,4.4342896E-1,2.9877127E1,1.7490141E0,2.0270245E0,6.423032E-1,9.167393E-1,0E0,2.6379898E-1,8.249215E-1,1.0349374E0,0E0,3.3448305E0,3.365387E-1,1.3321799E0,4.289865E-1,4.7246492E-1,1.0369768E-2,3.570457E-1,1.0976004E-1,0E0,6.094276E-1,1.6269604E0,0E0,0E0,0E0,0E0,0E0,0E0,0E0,0E0,0E0,0E0,0E0,0E0,0E0,0E0,0E0,0E0,0E0,0E0,0E0,0E0],"parents":[2147483647,0,0,1,1,2,2,3,3,6,6,7,7,8,8,9,9,10,10,11,11,12,12,14,14,15,15,16,16,18,18,19,19,20,20,21,21,22,22,23,23,24,24,25,25,27,27,28,28],"right_children":[2,4,6,8,-1,-1,10,12,14,16,18,20,22,-1,24,26,28,-1,30,32,34,36,38,40,42,44,-1,46,48,-1,-1,-1,-1,-1,-1,-1,-1,-1,-1,-1,-1,-1,-1,-1,-1,-1,-1,-1,-1],"split_conditions":[1.8E0,1.95E1,1.9E0,1.48E1,-4.0809963E-2,1.460677E-1,2.91E2,1.3E0,6.8E1,1.0133E3,2.4E0,8E-1,1.42E1,2.7778113E-1,9.559E2,6.123234E-17,3E0,-5.0093564E-3,1.0148E3,1.45E1,9.968E2,9.473E2,-8.660254E-1,8.7E0,1.48E1,9.6E0,-6.655045E-2,1.0212E3,1.0148E3,1.3108103E-1,-1.8685007E-3,-1.1051334E-3,-2.04711E-2,6.6740215E-2,5.2974685E-3,-2.489817E-2,1.5227926E-2,-6.784335E-2,-1.0859189E-2,9.959813E-4,-2.4905675E-3,-4.248091E-2,-1.829565E-4,-2.1766642E-2,3.8287722E-4,-2.2002703E-2,2.7004814E-2,9.118345E-2,7.4445494E-3],"split_indices":[4,7,3,7,0,0,8,4,8,5,3,3,2,0,6,13,7,0,5,7,5,6,14,2,2,2,0,5,5,0,0,0,0,0,0,0,0,0,0,0,0,0,0,0,0,0,0,0,0],"split_type":[0,0,0,0,0,0,0,0,0,0,0,0,0,0,0,0,0,0,0,0,0,0,0,0,0,0,0,0,0,0,0,0,0,0,0,0,0,0,0,0,0,0,0,0,0,0,0,0,0],"sum_hessian":[3.673E3,3.63E3,4.3E1,3.626E3,4E0,3E0,4E1,3.563E3,6.3E1,2.9E1,1.1E1,3.547E3,1.6E1,3E0,6E1,1.1E1,1.8E1,4E0,7E0,3.512E3,3.5E1,1E1,6E0,5.3E1,7E0,8E0,3E0,9E0,9E0,4E0,3E0,3.504E3,8E0,3E0,3.2E1,3E0,7E0,3E0,3E0,1E1,4.3E1,3E0,4E0,3E0,5E0,6E0,3E0,3E0,6E0],"tree_param":{"num_deleted":"0","num_feature":"16","num_nodes":"49","size_leaf_vector":"1"}},{"base_weights":[5.30369E-3,2.041637E-3,2.6060268E-1,3.1813842E-3,-5.2150005E-1,4.7931623E-1,-5.8626413E-2,4.8147634E-1,9.571033E-4,-1.0223829E-2,-9.152022E-2,1.1003449E0,1.2723184E-1,-1.8061815E-1,4.7449507E-2,-1.00284375E-1,2.3972698E-1,-4.7798227E-3,5.193563E-2,1.732338E-1,1.21884225E-2,-8.7390374E-4,6.078468E-2,-6.0263067E-2,-4.5741774E-2,-2.0723177E-2,-2.940066E-2,-6.4571276E-3,3.215431E-2,6.904457E-3,1.4569305E-1,2.0205829E-1,-1.8116097E-1,-1.4671671E-2,-5.5373637E-3,-5.94845E-3,9.923935E-4,-2.564528E-3,-2.6739706E-4,1.3864727E-3,3.8551413E-2,1.0818108E-2,-3.1319538E-3,9.442837E-3,9.597616E-2,5.237943E-2,-2.5062626E-2,3.6194853E-3,-3.622846E-2,2.2343944E-3,-4.5974986E-3],"categories":[],"categories_nodes":[],"categories_segments":[],"categories_sizes":[],"default_left":[0,0,0,0,0,0,0,0,0,0,0,0,0,0,0,0,0,0,0,0,0,0,0,0,0,0,0,0,0,0,0,0,0,0,0,0,0,0,0,0,0,0,0,0,0,0,0,0,0,0,0],"id":23,"left_children":[1,3,5,7,9,11,13,15,17,-1,-1,19,21,23,-1,25,-1,27,29,-1,-1,31,-1,33,-1,35,-1,37,39,41,43,45,47,-1,49,-1,-1,-1,-1,-1,-1,-1,-1,-1,-1,-1,-1,-1,-1,-1,-1],"loss_changes":[3.1024768E0,2.197534E0,3.309628E0,3.907106E0,1.2269454E0,5.982328E0,1.3864307E0,1.9187473E1,1.0697746E0,0E0,0E0,5.972659E0,1.1703525E0,5.387766E-1,0E0,2.0968603E-1,0E0,2.0389858E-1,1.5611365E0,0E0,0E0,6.219819E-1,0E0,6.0693655E-2,0E0,1.3657466E-2,0E0,2.2830522E-1,9.1883576E-1,9.750585E-1,4.917326E0,1.2964358E0,3.6742732E-1,0E0,1.1174347E-2,0E0,0E0,0E0,0E0,0E0,0E0,0E0,0E0,0E0,0E0,0E0,0E0,0E0,0E0,0E0,0E0],"parents":[2147483647,0,0,1,1,2,2,3,3,4,4,5,5,6,6,7,7,8,8,11,11,12,12,13,13,15,15,17,17,18,18,21,21,23,23,25,25,27,27,28,28,29,29,30,30,31,31,32,32,34,34],"right_children":[2,4,6,8,10,12,14,16,18,-1,-1,20,22,24,-1,26,-1,28,30,-1,-1,32,-1,34,-1,36,-1,38,40,42,44,46,48,-1,50,-1,-1,-1,-1,-1,-1,-1,-1,-1,-1,-1,-1,-1,-1,-1,-1],"split_conditions":[1.8E0,4.18E1,4.1E0,2.8E1,1.42E1,1.0144E3,8.660254E-1,9.3E0,1E-1,-1.0223829E-2,-9.152022E-2,1.19E1,8.3E0,1.5E1,4.7449507E-2,2.52E1,2.3972698E-1,1E0,5.8E0,1.732338E-1,1.21884225E-2,9.1E0,6.078468E-2,1.42E1,-4.5741774E-2,8.660254E-1,-2.940066E-2,5E0,2.11E1,9.369E2,9.6E1,1.0237E3,8.9E1,-1.4671671E-2,1.03E1,-5.94845E-3,9.923935E-4,-2.564528E-3,-2.6739706E-4,1.3864727E-3,3.8551413E-2,1.0818108E-2,-3.1319538E-3,9.442837E-3,9.597616E-2,5.237943E-2,-2.5062626E-2,3.6194853E-3,-3.622846E-2,2.2343944E-3,-4.5974986E-3],"split_indices":[3,9,7,1,0,5,13,7,3,0,0,9,3,2,0,0,0,13,2,0,0,0,0,0,0,15,0,9,0,6,1,5,1,0,7,0,0,0,0,0,0,0,0,0,0,0,0,0,0,0,0],"split_type":[0,0,0,0,0,0,0,0,0,0,0,0,0,0,0,0,0,0,0,0,0,0,0,0,0,0,0,0,0,0,0,0,0,0,0,0,0,0,0,0,0,0,0,0,0,0,0,0,0,0,0],"sum_hessian":[3.725E3,3.679E3,4.6E1,3.672E3,7E0,2.7E1,1.9E1,1.6E1,3.656E3,4E0,3E0,9E0,1.8E1,1.6E1,3E0,1.3E1,3E0,3.287E3,3.69E2,5E0,4E0,1.5E1,3E0,1.2E1,4E0,1E1,3E0,3.145E3,1.42E2,2.5E2,1.19E2,7E0,8E0,4E0,8E0,4E0,6E0,5.17E2,2.628E3,1.36E2,6E0,6.8E1,1.82E2,1.13E2,6E0,4E0,3E0,4E0,4E0,5E0,3E0],"tree_param":{"num_deleted":"0","num_feature":"16","num_nodes":"51","size_leaf_vector":"1"}},{"base_weights":[2.4703606E-3,-1.0970633E-3,2.731715E-1,2.5355968E-1,-2.3609144E-3,1.3110363E-1,1.7484638E-1,-2.851221E-1,2.2102264E-1,-5.661945E-3,7.580198E-2,8.875036E-2,1.0281125E-1,-3.3758942E-2,-5.675716E-2,-6.2794276E-2,-4.2991857E-3,4.4431403E-2,5.518808E-1,-1.25742825E-2,3.9232293E-1,-8.778131E-3,7.882458E-4,-2.0124385E-2,-1.309675E-1,-1.0829113E-2,5.467719E-3,1.7970963E-1,-2.6631486E-2,1.7126505E-1,-3.1394582E-2,1.21380605E-1,-2.3478457E-1,-1.3652627E-4,6.737238E-1,-2.9387132E-3,5.4244082E-3,-1.6451921E-2,-8.421106E-3,-9.7159826E-4,-1.0383445E-2,-2.815693E-3,1.5269731E-3,1.1098582E-2,9.07925E-2,8.0843375E-4,-2.58744E-2,2.5430921E-2,-3.6978931E-3,-5.662591E-2,1.9106641E-2,1.0328748E-1,1.4614177E-2],"categories":[],"categories_nodes":[],"categories_segments":[],"categories_sizes":[],"default_left":[0,0,0,0,0,0,0,0,0,0,0,0,0,0,0,0,0,0,0,0,0,0,0,0,0,0,0,0,0,0,0,0,0,0,0,0,0,0,0,0,0,0,0,0,0,0,0,0,0,0,0,0,0],"id":24,"left_children":[1,3,5,7,9,-1,11,13,-1,15,17,-1,19,21,-1,23,25,27,29,31,33,-1,-1,35,37,39,41,43,45,-1,-1,47,49,-1,51,-1,-1,-1,-1,-1,-1,-1,-1,-1,-1,-1,-1,-1,-1,-1,-1,-1,-1],"loss_changes":[3.5637538E0,1.1730915E0,4.6690836E0,1.9602556E1,9.360028E-1,0E0,2.218891E0,1.0458001E0,0E0,2.7067444E-1,2.1709049E0,0E0,1.4079624E0,2.0938035E-2,0E0,2.3298886E-1,2.169016E-1,1.3410292E0,9.582905E0,9.512491E-1,1.3303301E0,0E0,0E0,3.672575E-2,3.4777164E-2,2.0997922E-1,4.4966E-1,2.3014283E0,7.434256E-1,0E0,0E0,4.3041438E-1,1.8020979E0,0E0,1.1754255E0,0E0,0E0,0E0,0E0,0E0,0E0,0E0,0E0,0E0,0E0,0E0,0E0,0E0,0E0,0E0,0E0,0E0,0E0],"parents":[2147483647,0,0,1,1,2,2,3,3,4,4,6,6,7,7,9,9,10,10,12,12,13,13,15,15,16,16,17,17,18,18,19,19,20,20,23,23,24,24,25,25,26,26,27,27,28,28,31,31,32,32,34,34],"right_children":[2,4,6,8,10,-1,12,14,-1,16,18,-1,20,22,-1,24,26,28,30,32,34,-1,-1,36,38,40,42,44,46,-1,-1,48,50,-1,52,-1,-1,-1,-1,-1,-1,-1,-1,-1,-1,-1,-1,-1,-1,-1,-1,-1,-1],"split_conditions":[1.8E0,2.8E1,1.9E0,1.46E1,4E-1,1.3110363E-1,2.4E1,4.1E0,2.2102264E-1,3.7E1,1.6E1,8.875036E-2,2.91E2,7.9E1,-5.675716E-2,8.7E1,8.5E1,1.07E2,6E-1,1.33E1,1.13E1,-8.778131E-3,7.882458E-4,9.659258E-1,9.2E1,8.48E2,5E0,1.01E2,1.13E1,1.7126505E-1,-3.1394582E-2,2.5881904E-1,6.2E0,-1.3652627E-4,1.53E1,-2.9387132E-3,5.4244082E-3,-1.6451921E-2,-8.421106E-3,-9.7159826E-4,-1.0383445E-2,-2.815693E-3,1.5269731E-3,1.1098582E-2,9.07925E-2,8.0843375E-4,-2.58744E-2,2.5430921E-2,-3.6978931E-3,-5.662591E-2,1.9106641E-2,1.0328748E-1,1.4614177E-2],"split_indices":[3,1,3,7,3,0,8,2,0,8,2,0,8,8,0,1,10,8,3,2,0,0,0,12,1,11,9,8,2,0,0,12,3,0,0,0,0,0,0,0,0,0,0,0,0,0,0,0,0,0,0,0,0],"split_type":[0,0,0,0,0,0,0,0,0,0,0,0,0,0,0,0,0,0,0,0,0,0,0,0,0,0,0,0,0,0,0,0,0,0,0,0,0,0,0,0,0,0,0,0,0,0,0,0,0,0,0,0,0],"sum_hessian":[3.689E3,3.642E3,4.7E1,1.7E1,3.625E3,3E0,4.4E1,1.4E1,3E0,3.479E3,1.46E2,3E0,4.1E1,8E0,6E0,8E1,3.399E3,1.38E2,8E0,3E1,1.1E1,3E0,5E0,5E1,3E1,2.037E3,1.362E3,4.7E1,9.1E1,3E0,5E0,1.9E1,1.1E1,5E0,6E0,4.5E1,5E0,1.6E1,1.4E1,2.014E3,2.3E1,3.07E2,1.055E3,4.4E1,3E0,8E1,1.1E1,1E1,9E0,6E0,5E0,3E0,3E0],"tree_param":{"num_deleted":"0","num_feature":"16","num_nodes":"53","size_leaf_vector":"1"}},{"base_weights":[3.1441215E-3,1.3957293E-3,5.933381E-1,2.8135654E-1,-4.3451546E-5,1.8770576E-2,1.5941386E-1,-2.3924029E-1,2.2934048E-1,-4.1866684E-3,3.9464783E-2,-9.353908E-3,1.5446499E-2,-3.691535E-2,-8.369862E-2,-2.872296E-3,-4.4742126E-2,6.152993E-2,-1.8241997E-1,-7.150502E-2,3.272912E-3,-5.9809024E-3,2.6663732E-2,-6.994243E-2,2.6955438E-1,9.407156E-3,1.5436263E-1,-4.5363975E-1,2.9938666E-3,-9.656547E-3,-1.60381E-3,-8.940573E-4,1.8664424E-3,1.7093081E-3,6.0514074E-2,-2.2255873E-2,-6.1080474E-3,6.345332E-2,-7.6339543E-3,-4.7187773E-3,6.986966E-3,7.888275E-2,1.0593596E-2,-1.7435342E-2,-8.6562715E-2,2.4307577E-2,-9.323849E-3],"categories":[],"categories_nodes":[],"categories_segments":[],"categories_sizes":[],"default_left":[0,0,0,0,0,0,0,0,0,0,0,0,0,0,0,0,0,0,0,0,0,0,0,0,0,0,0,0,0,0,0,0,0,0,0,0,0,0,0,0,0,0,0,0,0,0,0],"id":25,"left_children":[1,3,5,7,9,11,-1,13,-1,15,17,-1,-1,19,-1,21,23,25,27,29,-1,31,33,35,37,39,41,43,45,-1,-1,-1,-1,-1,-1,-1,-1,-1,-1,-1,-1,-1,-1,-1,-1,-1,-1],"loss_changes":[3.8429642E0,1.4968386E0,6.2953787E0,2.0450527E1,6.053315E-1,1.3636684E-1,0E0,1.904125E0,0E0,1.7828326E-1,1.7296922E0,0E0,0E0,3.365702E-2,0E0,2.9791844E-1,8.504919E-1,1.5469311E0,1.6105709E0,1.09615065E-2,0E0,2.1425179E-1,1.7004044E0,1.1894894E-1,1.0583916E0,7.082024E-1,3.4498124E0,1.3448868E0,4.8473692E-1,0E0,0E0,0E0,0E0,0E0,0E0,0E0,0E0,0E0,0E0,0E0,0E0,0E0,0E0,0E0,0E0,0E0,0E0],"parents":[2147483647,0,0,1,1,2,2,3,3,4,4,5,5,7,7,9,9,10,10,13,13,15,15,16,16,17,17,18,18,19,19,21,21,22,22,23,23,24,24,25,25,26,26,27,27,28,28],"right_children":[2,4,6,8,10,12,-1,14,-1,16,18,-1,-1,20,-1,22,24,26,28,30,-1,32,34,36,38,40,42,44,46,-1,-1,-1,-1,-1,-1,-1,-1,-1,-1,-1,-1,-1,-1,-1,-1,-1,-1],"split_conditions":[7E0,2.8E1,9.1E1,2.5881904E-1,1E-1,1.37E1,1.5941386E-1,5E0,2.2934048E-1,9.4E1,1.51E1,-9.353908E-3,1.5446499E-2,1.0119E3,-8.369862E-2,8.8E1,1.19E1,6.1E0,1E0,4.2E1,3.272912E-3,1E0,1.94E1,-9.659258E-1,1.33E1,5E-1,6.5E0,1.5E0,2.1E1,-9.656547E-3,-1.60381E-3,-8.940573E-4,1.8664424E-3,1.7093081E-3,6.0514074E-2,-2.2255873E-2,-6.1080474E-3,6.345332E-2,-7.6339543E-3,-4.7187773E-3,6.986966E-3,7.888275E-2,1.0593596E-2,-1.7435342E-2,-8.6562715E-2,2.4307577E-2,-9.323849E-3],"split_indices":[4,1,1,12,4,4,0,2,0,1,2,0,0,5,0,1,9,2,11,10,0,15,9,12,9,14,2,4,11,0,0,0,0,0,0,0,0,0,0,0,0,0,0,0,0,0,0],"split_type":[0,0,0,0,0,0,0,0,0,0,0,0,0,0,0,0,0,0,0,0,0,0,0,0,0,0,0,0,0,0,0,0,0,0,0,0,0,0,0,0,0,0,0,0,0,0,0],"sum_hessian":[3.724E3,3.714E3,1E1,1.8E1,3.696E3,7E0,3E0,1.5E1,3E0,3.346E3,3.5E2,4E0,3E0,1.2E1,3E0,3.242E3,1.04E2,3.19E2,3.1E1,8E0,4E0,2.934E3,3.08E2,9.7E1,7E0,2.05E2,1.14E2,1.2E1,1.9E1,5E0,3E0,2.62E3,3.14E2,3.04E2,4E0,4E0,9.3E1,3E0,4E0,1.06E2,9.9E1,7E0,1.07E2,8E0,4E0,5E0,1.4E1],"tree_param":{"num_deleted":"0","num_feature":"16","num_nodes":"47","size_leaf_vector":"1"}},{"base_weights":[2.0369822E-3,-1.0489625E-3,2.6250076E-1,1.0717447E-3,-1.08917385E-1,1.23041615E-1,8.572543E-1,-1.4070863E-3,4.8906648E-1,-8.624516E-2,-3.768473E-2,7.3608644E-2,4.500462E-2,1.6074147E-2,1.24301374E-1,-4.0694512E-3,8.583046E-2,2.3271103E-1,-3.368298E-2,-1.9618906E-1,-8.707446E-3,1.6765268E-1,-1.5658107E-1,-8.831126E-3,9.750496E-3,2.7340157E-2,1.2501685E-1,1.4408477E-2,-1.3274759E-2,-3.7698766E-5,-3.9192572E-2,6.6123516E-3,-1.573528E-2,-1.1883731E-2,2.4205253E-1,-5.0546415E-2,-1.369733E-3,-1.0719832E-2,-8.131109E-4,2.7374085E-4,6.21018E-2,7.4450034E-3,-2.2758415E-2,3.076294E-3,-4.3473975E-4,-4.6194668E-4,-4.5576817E-3,7.7533755E-3,5.3074803E-2,1.4528306E-2,-8.497565E-3],"categories":[],"categories_nodes":[],"categories_segments":[],"categories_sizes":[],"default_left":[0,0,0,0,0,0,0,0,0,0,0,0,0,0,0,0,0,0,0,0,0,0,0,0,0,0,0,0,0,0,0,0,0,0,0,0,0,0,0,0,0,0,0,0,0,0,0,0,0,0,0],"id":26,"left_children":[1,3,5,7,9,11,13,15,17,-1,19,-1,21,-1,-1,23,25,-1,27,29,31,33,35,37,39,41,-1,43,-1,-1,-1,-1,45,-1,47,-1,49,-1,-1,-1,-1,-1,-1,-1,-1,-1,-1,-1,-1,-1,-1],"loss_changes":[2.951744E0,8.3050585E-1,3.4611058E0,4.3082747E0,3.7248352E0,1.6891189E0,1.9496875E0,8.234723E-1,1.737344E1,0E0,2.9683834E-1,0E0,8.421463E-1,0E0,0E0,2.2645906E-1,7.1165814E0,0E0,7.337511E-2,3.8312823E-1,3.049085E-2,4.7637594E-1,7.0326555E-1,1.7533752E-1,3.7793214E0,1.2298982E0,0E0,3.5079035E-3,0E0,0E0,0E0,0E0,1.7038533E-2,0E0,7.662782E-1,0E0,1.3495594E-1,0E0,0E0,0E0,0E0,0E0,0E0,0E0,0E0,0E0,0E0,0E0,0E0,0E0,0E0],"parents":[2147483647,0,0,1,1,2,2,3,3,4,4,5,5,6,6,7,7,8,8,10,10,12,12,15,15,16,16,18,18,19,19,20,20,21,21,22,22,23,23,24,24,25,25,27,27,32,32,34,34,36,36],"right_children":[2,4,6,8,10,12,14,16,18,-1,20,-1,22,-1,-1,24,26,-1,28,30,32,34,36,38,40,42,-1,44,-1,-1,-1,-1,46,-1,48,-1,50,-1,-1,-1,-1,-1,-1,-1,-1,-1,-1,-1,-1,-1,-1],"split_conditions":[1.8E0,3.49E1,8.660254E-1,8.48E2,2.8E1,2E0,9E1,4E-1,2.9E1,-8.624516E-2,9.449E2,7.3608644E-2,5.8E0,1.6074147E-2,1.24301374E-1,8.3E1,9.6E1,2.3271103E-1,2.83E1,1.1E1,3E1,9.472E2,-8.660254E-1,2.8E1,2.02E1,1.53E1,1.2501685E-1,2.56E1,-1.3274759E-2,-3.7698766E-5,-3.9192572E-2,6.6123516E-3,8.3E1,-1.1883731E-2,1.13E1,-5.0546415E-2,-8.660254E-1,-1.0719832E-2,-8.131109E-4,2.7374085E-4,6.21018E-2,7.4450034E-3,-2.2758415E-2,3.076294E-3,-4.3473975E-4,-4.6194668E-4,-4.5576817E-3,7.7533755E-3,5.3074803E-2,1.4528306E-2,-8.497565E-3],"split_indices":[4,9,12,11,1,3,1,4,1,0,6,0,3,0,0,1,1,0,0,0,1,6,14,1,9,0,0,0,0,0,0,0,10,0,0,0,13,0,0,0,0,0,0,0,0,0,0,0,0,0,0],"split_type":[0,0,0,0,0,0,0,0,0,0,0,0,0,0,0,0,0,0,0,0,0,0,0,0,0,0,0,0,0,0,0,0,0,0,0,0,0,0,0,0,0,0,0,0,0,0,0,0,0,0,0],"sum_hessian":[3.671E3,3.629E3,4.2E1,3.56E3,6.9E1,3.5E1,7E0,3.543E3,1.7E1,5E0,6.4E1,3E0,3.2E1,3E0,4E0,3.439E3,1.04E2,3E0,1.4E1,9E0,5.5E1,2E1,1.2E1,2.558E3,8.81E2,1E2,4E0,1E1,4E0,5E0,4E0,4E0,5.1E1,4E0,1.6E1,3E0,9E0,1.7E1,2.541E3,8.72E2,9E0,8.5E1,1.5E1,5E0,5E0,3.8E1,1.3E1,1.1E1,5E0,3E0,6E0],"tree_param":{"num_deleted":"0","num_feature":"16","num_nodes":"51","size_leaf_vector":"1"}},{"base_weights":[4.774189E-3,2.7602739E-3,5.8441454E-1,-1.6010437E-3,8.526265E-2,-3.7241583E-3,1.5261813E-1,-2.1997663E-1,-6.7605503E-4,2.694564E-1,9.024458E-3,-8.781114E-3,1.2333735E-2,5.158626E-3,-6.712789E-2,5.742209E-1,-2.1395336E-3,8.5204385E-2,1.2017215E0,3.5195228E-2,-2.868119E-1,-3.0412306E-3,2.9829487E-2,2.196865E-1,-6.032452E-2,-6.303186E-2,-1.0878422E-3,-9.98778E-2,3.1910986E-1,2.3661268E-1,-2.0302784E-2,1.9250082E-2,5.0873715E-2,-3.8485525E-3,-4.2321476E-1,1.3235246E-3,3.8966357E-3,-2.5339394E-3,-1.2698524E-2,9.055025E-3,-2.2890737E-4,2.2045447E-2,-1.8270126E-2,8.824545E-2,1.3464908E-2,-7.643135E-3,9.246552E-3,-2.1773493E-2,-5.2289095E-2],"categories":[],"categories_nodes":[],"categories_segments":[],"categories_sizes":[],"default_left":[0,0,0,0,0,0,0,0,0,0,0,0,0,0,0,0,0,0,0,0,0,0,0,0,0,0,0,0,0,0,0,0,0,0,0,0,0,0,0,0,0,0,0,0,0,0,0,0,0],"id":27,"left_children":[1,3,5,7,9,11,-1,13,15,17,19,-1,-1,21,-1,23,25,27,29,31,33,-1,35,-1,-1,37,39,41,43,-1,-1,45,-1,-1,47,-1,-1,-1,-1,-1,-1,-1,-1,-1,-1,-1,-1,-1,-1],"loss_changes":[4.3829403E0,1.3472991E0,7.2062464E0,7.183473E-1,2.637576E0,1.0698834E-1,0E0,1.5275238E0,2.9821296E0,9.345053E0,1.0475581E0,0E0,0E0,1.05604045E-2,0E0,1.8520721E1,2.2631261E-1,2.0665836E0,1.5201667E1,9.26493E-1,3.5630888E-1,0E0,5.456065E-4,0E0,0E0,1.414159E-1,3.828404E-1,7.566148E-1,2.063393E0,0E0,0E0,8.547156E-1,0E0,0E0,2.9518604E-2,0E0,0E0,0E0,0E0,0E0,0E0,0E0,0E0,0E0,0E0,0E0,0E0,0E0,0E0],"parents":[2147483647,0,0,1,1,2,2,3,3,4,4,5,5,7,7,8,8,9,9,10,10,13,13,15,15,16,16,17,17,18,18,19,