{"learner":{"attributes":{"scikit_learn":"{\"_estimator_type\": \"regressor\"}"},"feature_names":[],"feature_types":[],"gradient_booster":{"model":{"cats":{"enc":[],"feature_segments":[],"sorted_idx":[]},"gbtree_model_param":{"num_parallel_tree":"1","num_trees":"200"},"iteration_indptr":[0,1,2,3,4,5,6,7,8,9,10,11,12,13,14,15,16,17,18,19,20,21,22,23,24,25,26,27,28,29,30,31,32,33,34,35,36,37,38,39,40,41,42,43,44,45,46,47,48,49,50,51,52,53,54,55,56,57,58,59,60,61,62,63,64,65,66,67,68,69,70,71,72,73,74,75,76,77,78,79,80,81,82,83,84,85,86,87,88,89,90,91,92,93,94,95,96,97,98,99,100,101,102,103,104,105,106,107,108,109,110,111,112,113,114,115,116,117,118,119,120,121,122,123,124,125,126,127,128,129,130,131,132,133,134,135,136,137,138,139,140,141,142,143,144,145,146,147,148,149,150,151,152,153,154,155,156,157,158,159,160,161,162,163,164,165,166,167,168,169,170,171,172,173,174,175,176,177,178,179,180,181,182,183,184,185,186,187,188,189,190,191,192,193,194,195,196,197,198,199,200],"tree_info":[0,0,0,0,0,0,0,0,0,0,0,0,0,0,0,0,0,0,0,0,0,0,0,0,0,0,0,0,0,0,0,0,0,0,0,0,0,0,0,0,0,0,0,0,0,0,0,0,0,0,0,0,0,0,0,0,0,0,0,0,0,0,0,0,0,0,0,0,0,0,0,0,0,0,0,0,0,0,0,0,0,0,0,0,0,0,0,0,0,0,0,0,0,0,0,0,0,0,0,0,0,0,0,0,0,0,0,0,0,0,0,0,0,0,0,0,0,0,0,0,0,0,0,0,0,0,0,0,0,0,0,0,0,0,0,0,0,0,0,0,0,0,0,0,0,0,0,0,0,0,0,0,0,0,0,0,0,0,0,0,0,0,0,0,0,0,0,0,0,0,0,0,0,0,0,0,0,0,0,0,0,0,0,0,0,0,0,0,0,0,0,0,0,0,0,0,0,0,0,0],"trees":[{"base_weights":[1.1464326E-1,-3.9524002E0,6.90404E0,-8.8771266E-1,-5.6930294E0,1.3167675E1,4.692915E0,2.7146502E0,-1.983426E0,-8.333204E0,-4.228064E0,1.5768369E1,1.0424925E1,2.6332912E0,6.783607E0,5.1127176E0,-1.6011938E-1,-1.3228182E0,-4.0129056E0,-6.5786057E0,-8.952151E0,-6.6122384E0,-2.0693963E0,1.3644096E0,1.7875689E0,6.8825855E0,1.159377E0,5.1205983E0,1.7688876E0,8.471316E0,4.795122E0,3.7780492E0,1.0803888E1,6.2221956E-1,-2.5515804E0,1.8552269E0,-1.6427542E0,-3.218769E0,-5.3276973E0,-6.894197E0,-4.7275573E-1,-9.88979E-1,-7.768941E0,-2.7736075E0,-7.065405E0,1.286286E0,-3.705022E0,7.8535753E-1,4.49146E-1,2.0612319E0,5.7201557E0,1.0511082E0,3.1303544E0,7.608896E0,1.104084E0,4.146301E0,6.410841E-1,2.2766557E-1,5.1445127E-1,1.2491779E0,5.942485E-1,-1.0404787E-1,1.8609814E-1,-2.985813E-1,-7.1954586E-2,5.791389E-1,-1.03237115E-1,-2.0945428E-1,-2.701277E-2,-1.658455E-1,-3.4481093E-1,-5.493476E-1,-2.669546E-1,-5.303702E-1,-7.712451E-1,-9.023163E-1,-7.1547866E-1,1.1527606E-1,-4.1894206E-1,-7.810189E-1,-5.1363474E-1,-1.3775681E-1,2.823827E-1,-1.764478E-1,-4.594539E-1,1.17051914E-1,2.5249827E-1,4.672432E-1,6.8199414E-1,1.6338173E-1,3.324029E-2,3.3157292E-1,6.705192E-2,9.0330946E-1,6.56188E-1,4.3045354E-1,2.7877054E-1],"categories":[],"categories_nodes":[],"categories_segments":[],"categories_sizes":[],"default_left":[0,0,0,0,0,0,0,0,0,0,0,0,0,0,0,0,0,0,0,0,0,0,0,0,0,0,0,0,0,0,0,0,0,0,0,0,0,0,0,0,0,0,0,0,0,0,0,0,0,0,0,0,0,0,0,0,0,0,0,0,0,0,0,0,0,0,0,0,0,0,0,0,0,0,0,0,0,0,0,0,0,0,0,0,0,0,0,0,0,0,0,0,0,0,0,0,0],"id":0,"left_children":[1,3,5,7,9,11,13,15,17,19,21,23,25,27,29,31,33,35,37,39,41,43,45,-1,-1,47,-1,49,51,53,55,57,59,61,63,65,67,69,71,73,-1,-1,75,77,79,81,83,-1,-1,85,87,89,91,93,-1,95,-1,-1,-1,-1,-1,-1,-1,-1,-1,-1,-1,-1,-1,-1,-1,-1,-1,-1,-1,-1,-1,-1,-1,-1,-1,-1,-1,-1,-1,-1,-1,-1,-1,-1,-1,-1,-1,-1,-1,-1,-1],"loss_changes":[6.2873953E4,7.591252E3,1.1751984E4,2.0460646E3,3.4766992E3,1.4191562E3,2.7035518E3,8.349796E2,5.2694556E2,2.9188477E2,3.002247E3,2.574746E2,3.7979395E2,6.789541E2,1.00980273E3,4.605067E2,1.063599E2,3.0909564E2,8.413147E1,1.8814453E1,1.8499219E2,4.6399512E2,1.7007557E3,0E0,0E0,3.4378784E1,0E0,1.3861914E2,2.3026831E2,2.8828125E2,1.2647241E2,1.0112567E2,2.4234009E1,9.050286E1,8.988976E0,3.2422833E2,1.693518E2,1.6825562E1,7.581787E-1,5.4100098E1,0E0,0E0,1.9402344E1,1.7715855E2,3.1619336E2,4.2166013E2,3.5093164E2,0E0,0E0,3.2404861E0,4.648877E1,6.562668E1,3.516803E1,1.3308545E2,0E0,1.1002686E1,0E0,0E0,0E0,0E0,0E0,0E0,0E0,0E0,0E0,0E0,0E0,0E0,0E0,0E0,0E0,0E0,0E0,0E0,0E0,0E0,0E0,0E0,0E0,0E0,0E0,0E0,0E0,0E0,0E0,0E0,0E0,0E0,0E0,0E0,0E0,0E0,0E0,0E0,0E0,0E0,0E0],"parents":[2147483647,0,0,1,1,2,2,3,3,4,4,5,5,6,6,7,7,8,8,9,9,10,10,11,11,12,12,13,13,14,14,15,15,16,16,17,17,18,18,19,19,20,20,21,21,22,22,25,25,27,27,28,28,29,29,30,30,31,31,32,32,33,33,34,34,35,35,36,36,37,37,38,38,39,39,42,42,43,43,44,44,45,45,46,46,49,49,50,50,51,51,52,52,53,53,55,55],"right_children":[2,4,6,8,10,12,14,16,18,20,22,24,26,28,30,32,34,36,38,40,42,44,46,-1,-1,48,-1,50,52,54,56,58,60,62,64,66,68,70,72,74,-1,-1,76,78,80,82,84,-1,-1,86,88,90,92,94,-1,96,-1,-1,-1,-1,-1,-1,-1,-1,-1,-1,-1,-1,-1,-1,-1,-1,-1,-1,-1,-1,-1,-1,-1,-1,-1,-1,-1,-1,-1,-1,-1,-1,-1,-1,-1,-1,-1,-1,-1,-1,-1],"split_conditions":[8.5E0,-2.4492937E-16,6.7E1,-5E-1,8.660254E-1,5.8E1,1.31E1,5.6E1,-5E-1,-5E-1,9.429E2,2.92E1,1.22E1,7.8E1,8.4E1,6E0,7.8E1,4.4E1,6.6E1,3.4E0,1.0207E3,4.8E1,-5E-1,1.3644096E0,1.7875689E0,-5E-1,1.159377E0,9.3E0,1.14E1,1.62E1,1.55E1,6.2E0,4.8E1,5.6E0,8.1E0,-8.660254E-1,9.543E2,-2.5881904E-1,1.7E0,6.5E1,-4.7275573E-1,-9.88979E-1,-3E0,1.76E2,2.1E0,1.44E1,-7.0710677E-1,7.8535753E-1,4.49146E-1,4.6E0,5.9E0,8.5E1,-5E-1,7.5E1,1.104084E0,8E-1,6.410841E-1,2.2766557E-1,5.1445127E-1,1.2491779E0,5.942485E-1,-1.0404787E-1,1.8609814E-1,-2.985813E-1,-7.1954586E-2,5.791389E-1,-1.03237115E-1,-2.0945428E-1,-2.701277E-2,-1.658455E-1,-3.4481093E-1,-5.493476E-1,-2.669546E-1,-5.303702E-1,-7.712451E-1,-9.023163E-1,-7.1547866E-1,1.1527606E-1,-4.1894206E-1,-7.810189E-1,-5.1363474E-1,-1.3775681E-1,2.823827E-1,-1.764478E-1,-4.594539E-1,1.17051914E-1,2.5249827E-1,4.672432E-1,6.8199414E-1,1.6338173E-1,3.324029E-2,3.3157292E-1,6.705192E-2,9.0330946E-1,6.56188E-1,4.3045354E-1,2.7877054E-1],"split_indices":[2,14,1,13,14,1,2,1,14,13,6,9,2,1,1,2,1,1,1,2,5,1,13,0,0,13,0,2,2,2,2,7,1,2,2,14,6,13,2,1,0,0,2,8,2,9,12,0,0,7,7,1,14,1,0,3,0,0,0,0,0,0,0,0,0,0,0,0,0,0,0,0,0,0,0,0,0,0,0,0,0,0,0,0,0,0,0,0,0,0,0,0,0,0,0,0,0],"split_type":[0,0,0,0,0,0,0,0,0,0,0,0,0,0,0,0,0,0,0,0,0,0,0,0,0,0,0,0,0,0,0,0,0,0,0,0,0,0,0,0,0,0,0,0,0,0,0,0,0,0,0,0,0,0,0,0,0,0,0,0,0,0,0,0,0,0,0,0,0,0,0,0,0,0,0,0,0,0,0,0,0,0,0,0,0,0,0,0,0,0,0,0,0,0,0,0,0],"sum_hessian":[2.275E3,1.423E3,8.52E2,5.16E2,9.07E2,2.21E2,6.31E2,1.2E2,3.96E2,3.22E2,5.85E2,1.11E2,1.1E2,3.19E2,3.12E2,6.5E1,5.5E1,3E2,9.6E1,8.7E1,2.35E2,2.77E2,3.08E2,5.9E1,5.2E1,2.9E1,8.1E1,8.1E1,2.38E2,1.67E2,1.45E2,5.4E1,1.1E1,4.2E1,1.3E1,2.7E1,2.73E2,6.2E1,3.4E1,7.2E1,1.5E1,1.27E2,1.08E2,3E1,2.47E2,1.01E2,2.07E2,1.9E1,1E1,1.4E1,6.7E1,1.57E2,8.1E1,1.28E2,3.9E1,1.06E2,3.9E1,2.7E1,2.7E1,7E0,4E0,1.8E1,2.4E1,1E1,3E0,1.1E1,1.6E1,2.05E2,6.8E1,9E0,5.3E1,3.1E1,3E0,2.7E1,4.5E1,3.1E1,7.7E1,8E0,2.2E1,1.76E2,7.1E1,3.7E1,6.4E1,6.6E1,1.41E2,6E0,8E0,3.7E1,3E1,8.6E1,7.1E1,7.5E1,6E0,5.1E1,7.7E1,9.3E1,1.3E1],"tree_param":{"num_deleted":"0","num_feature":"16","num_nodes":"97","size_leaf_vector":"1"}},{"base_weights":[1.5566138E-2,-4.314651E0,6.295767E0,-6.983942E0,-1.815824E0,4.0578213E0,1.1922004E1,-8.748252E0,-5.6632648E0,-3.0096674E0,-3.1474572E-1,2.5891676E0,5.8311567E0,1.0316784E1,1.637349E0,-9.442288E-1,-8.016782E-1,-6.4480233E0,-5.052918E0,-3.474162E0,-2.2843332E0,-8.59693E-1,4.4221777E-1,1.775317E0,3.2666311E0,5.2846518E0,7.763821E-1,8.698234E-1,1.1166534E0,-4.3987805E-1,-6.629678E-1,-5.100449E0,-2.9119253E-1,-3.8348716E-1,-3.0933516E0,-2.340915E0,4.2270638E-2,-1.1150961E0,3.5639313E-1,1.9103354E-1,1.9945288E0,1.4389592E0,3.4785573E0,2.8593075E0,4.2998773E-1,4.4700995E-1,6.169008E-1,-4.2683682E-1,-5.2432907E-1,-3.1393275E-1,-9.867163E-2,-2.0664735E-1,-2.681695E-1,-1.4798424E-1,-7.641111E-2,-1.5294865E-1,6.0422506E-2,-1.994809E-2,8.559384E-2,1.2325026E-1,2.7929989E-1,1.14506446E-1,2.0889711E-1,2.1813343E-1,3.7453195E-1,2.2814238E-1,3.3132178E-1],"categories":[],"categories_nodes":[],"categories_segments":[],"categories_sizes":[],"default_left":[0,0,0,0,0,0,0,0,0,0,0,0,0,0,0,0,0,0,0,0,0,0,0,0,0,0,0,0,0,0,0,0,0,0,0,0,0,0,0,0,0,0,0,0,0,0,0,0,0,0,0,0,0,0,0,0,0,0,0,0,0,0,0,0,0,0,0],"id":1,"left_children":[1,3,5,7,9,11,13,15,17,19,21,23,25,27,-1,-1,-1,29,31,33,35,37,39,41,43,45,-1,-1,-1,-1,-1,47,-1,-1,49,51,-1,53,55,57,59,61,63,65,-1,-1,-1,-1,-1,-1,-1,-1,-1,-1,-1,-1,-1,-1,-1,-1,-1,-1,-1,-1,-1,-1,-1],"loss_changes":[6.170459E4,8.94526E3,1.161109E4,1.4626797E3,1.2445293E3,1.7142344E3,1.710375E3,6.441797E1,1.4655566E2,1.2244971E2,1.2784426E2,1.9544507E2,2.7583398E2,1.724414E2,0E0,0E0,0E0,3.039746E1,7.0273438E0,2.0279785E1,2.4577454E1,5.6304016E1,5.030806E1,9.1241394E1,7.103662E1,1.4314844E2,0E0,0E0,0E0,0E0,0E0,2.4604492E0,0E0,0E0,8.4279785E0,8.580505E0,0E0,1.7944275E1,1.5880348E1,2.9511755E1,7.509819E0,2.4734955E1,1.173523E0,3.0475708E1,0E0,0E0,0E0,0E0,0E0,0E0,0E0,0E0,0E0,0E0,0E0,0E0,0E0,0E0,0E0,0E0,0E0,0E0,0E0,0E0,0E0,0E0,0E0],"parents":[2147483647,0,0,1,1,2,2,3,3,4,4,5,5,6,6,7,7,8,8,9,9,10,10,11,11,12,12,13,13,17,17,18,18,19,19,20,20,21,21,22,22,23,23,24,24,25,25,31,31,34,34,35,35,37,37,38,38,39,39,40,40,41,41,42,42,43,43],"right_children":[2,4,6,8,10,12,14,16,18,20,22,24,26,28,-1,-1,-1,30,32,34,36,38,40,42,44,46,-1,-1,-1,-1,-1,48,-1,-1,50,52,-1,54,56,58,60,62,64,66,-1,-1,-1,-1,-1,-1,-1,-1,-1,-1,-1,-1,-1,-1,-1,-1,-1,-1,-1,-1,-1,-1,-1],"split_conditions":[1.22E1,6.7E0,1.99E1,3.6E0,9.8E0,1.59E1,2.57E1,2.1E0,5.1E0,8.5E0,1.12E1,1.38E1,4.08E2,2.15E1,1.637349E0,-9.442288E-1,-8.016782E-1,-2.4492937E-16,3.43E2,7.6E0,4.1E2,3.14E2,3.04E2,4.18E2,2.77E2,1.76E1,7.763821E-1,8.698234E-1,1.1166534E0,-4.3987805E-1,-6.629678E-1,-2.4492937E-16,-2.9119253E-1,-3.8348716E-1,3.5E2,3E0,4.2270638E-2,1.05E1,7.9E1,9.547E2,1.12E2,9.553E2,1.25E1,1.48E1,4.2998773E-1,4.4700995E-1,6.169008E-1,-4.2683682E-1,-5.2432907E-1,-3.1393275E-1,-9.867163E-2,-2.0664735E-1,-2.681695E-1,-1.4798424E-1,-7.641111E-2,-1.5294865E-1,6.0422506E-2,-1.994809E-2,8.559384E-2,1.2325026E-1,2.7929989E-1,1.14506446E-1,2.0889711E-1,2.1813343E-1,3.7453195E-1,2.2814238E-1,3.3132178E-1],"split_indices":[0,0,0,0,0,0,0,0,0,0,0,0,11,0,0,0,0,14,11,0,11,11,11,11,11,0,0,0,0,0,0,14,0,0,11,11,0,0,8,6,8,6,0,0,0,0,0,0,0,0,0,0,0,0,0,0,0,0,0,0,0,0,0,0,0,0,0],"split_type":[0,0,0,0,0,0,0,0,0,0,0,0,0,0,0,0,0,0,0,0,0,0,0,0,0,0,0,0,0,0,0,0,0,0,0,0,0,0,0,0,0,0,0,0,0,0,0,0,0,0,0,0,0,0,0,0,0,0,0,0,0,0,0,0,0,0,0],"sum_hessian":[2.267E3,1.342E3,9.25E2,6.48E2,6.94E2,6.63E2,2.62E2,2.75E2,3.73E2,3.86E2,3.08E2,3.64E2,2.99E2,1.95E2,6.7E1,1.35E2,1.4E2,1.59E2,2.14E2,2.33E2,1.53E2,1.79E2,1.29E2,1.67E2,1.97E2,2.36E2,6.3E1,7.1E1,1.24E2,1.5E1,1.44E2,2.08E2,6E0,1.15E2,1.18E2,1.5E2,3E0,1.48E2,3.1E1,1.12E2,1.7E1,1.41E2,2.6E1,1.44E2,5.3E1,1.26E2,1.1E2,3.5E1,1.73E2,1.15E2,3E0,8.7E1,6.3E1,7.1E1,7.7E1,3E0,2.8E1,7.1E1,4.1E1,1E1,7E0,9.9E1,4.2E1,6E0,2E1,6.6E1,7.8E1],"tree_param":{"num_deleted":"0","num_feature":"16","num_nodes":"67","size_leaf_vector":"1"}},{"base_weights":[3.0524593E-3,-3.8484757E0,5.4981174E0,-6.4262753E0,-1.817875E0,3.5790732E0,1.0414819E1,-7.704239E0,-5.1697035E0,-2.8495028E0,-3.3866197E-1,2.3581135E0,5.4085402E0,8.931867E0,1.3953675E1,-8.4184456E-1,-7.148233E-1,-5.7268925E0,-4.643272E0,-3.6341178E0,-2.3648472E0,-1.2581848E0,-2.0418295E-3,1.5619746E0,3.1583848E0,4.6304355E0,6.309142E0,7.783372E-1,9.801378E-1,1.1656586E0,1.5574273E0,-3.926309E-1,-5.8650225E-1,-4.9728614E-1,-4.1913816E-1,-4.0504408E-1,-3.3372673E-1,-2.5778143E0,-1.8282112E0,-1.620729E0,-8.5611063E-1,-4.229037E-1,4.9168113E-1,1.151298E0,2.3663971E0,4.0146732E-1,2.8615654E0,5.8342214E0,4.2719075E-1,7.0025927E-1,5.603976E-1,-2.731002E-1,-2.2761257E-1,-2.2633818E-1,-1.5278485E-1,-2.1869145E-1,-1.2595321E-1,-9.8973736E-2,3.0394917E-2,-7.063879E-2,-8.723945E-3,1.5128304E-1,2.150912E-2,3.8516104E-2,1.4309171E-1,1.7443621E-1,3.1427768E-1,2.2555761E-1,3.1195647E-1,6.3829833E-1,3.4586582E-1],"categories":[],"categories_nodes":[],"categories_segments":[],"categories_sizes":[],"default_left":[0,0,0,0,0,0,0,0,0,0,0,0,0,0,0,0,0,0,0,0,0,0,0,0,0,0,0,0,0,0,0,0,0,0,0,0,0,0,0,0,0,0,0,0,0,0,0,0,0,0,0,0,0,0,0,0,0,0,0,0,0,0,0,0,0,0,0,0,0,0,0],"id":2,"left_children":[1,3,5,7,9,11,13,15,17,19,21,23,25,27,29,-1,-1,31,33,35,37,39,41,43,45,47,49,-1,-1,-1,-1,-1,-1,-1,-1,-1,-1,51,53,55,57,59,61,63,65,-1,67,69,-1,-1,-1,-1,-1,-1,-1,-1,-1,-1,-1,-1,-1,-1,-1,-1,-1,-1,-1,-1,-1,-1,-1],"loss_changes":[4.766222E4,6.9187715E3,8.718746E3,8.963828E2,1.1313247E3,1.4815947E3,1.2398359E3,5.3791016E1,6.0524902E1,1.5758301E2,9.471358E1,2.5182886E2,1.5788916E2,1.0945703E2,9.765723E1,0E0,0E0,1.179248E1,2.6889648E0,6.8742676E0,2.6487305E1,1.0565582E1,4.6960495E1,6.466855E1,3.934424E1,3.8520508E1,1.9926758E1,0E0,0E0,0E0,0E0,0E0,0E0,0E0,0E0,0E0,0E0,2.7033691E0,7.1293335E0,5.8346863E0,6.6564445E0,1.1547342E1,2.9048325E1,2.8797913E1,2.7357422E1,0E0,1.6728027E1,1.8335571E1,0E0,0E0,0E0,0E0,0E0,0E0,0E0,0E0,0E0,0E0,0E0,0E0,0E0,0E0,0E0,0E0,0E0,0E0,0E0,0E0,0E0,0E0,0E0],"parents":[2147483647,0,0,1,1,2,2,3,3,4,4,5,5,6,6,7,7,8,8,9,9,10,10,11,11,12,12,13,13,14,14,17,17,18,18,19,19,20,20,21,21,22,22,23,23,24,24,25,25,26,26,37,37,38,38,39,39,40,40,41,41,42,42,43,43,44,44,46,46,47,47],"right_children":[2,4,6,8,10,12,14,16,18,20,22,24,26,28,30,-1,-1,32,34,36,38,40,42,44,46,48,50,-1,-1,-1,-1,-1,-1,-1,-1,-1,-1,52,54,56,58,60,62,64,66,-1,68,70,-1,-1,-1,-1,-1,-1,-1,-1,-1,-1,-1,-1,-1,-1,-1,-1,-1,-1,-1,-1,-1,-1,-1],"split_conditions":[1.2E1,6.3E0,1.98E1,3.8E0,9.8E0,1.62E1,2.47E1,2E0,5.1E0,7.6E0,1.04E1,1.39E1,1.79E1,2.15E1,2.76E1,-8.4184456E-1,-7.148233E-1,-2.4492937E-16,4.7E0,-1.8369701E-16,9.2E0,4.1E0,1.0209E3,9.554E2,-7.0710677E-1,-7.0710677E-1,-5E-1,7.783372E-1,9.801378E-1,1.1656586E0,1.5574273E0,-3.926309E-1,-5.8650225E-1,-4.9728614E-1,-4.1913816E-1,-4.0504408E-1,-3.3372673E-1,2.73E2,-1.8369701E-16,-2.5881904E-1,1E0,1.12E1,-7.0710677E-1,3E0,1.62E1,4.0146732E-1,1.47E1,1.32E1,4.2719075E-1,7.0025927E-1,5.603976E-1,-2.731002E-1,-2.2761257E-1,-2.2633818E-1,-1.5278485E-1,-2.1869145E-1,-1.2595321E-1,-9.8973736E-2,3.0394917E-2,-7.063879E-2,-8.723945E-3,1.5128304E-1,2.150912E-2,3.8516104E-2,1.4309171E-1,1.7443621E-1,3.1427768E-1,2.2555761E-1,3.1195647E-1,6.3829833E-1,3.4586582E-1],"split_indices":[0,0,0,0,0,0,0,0,0,0,0,0,0,0,0,0,0,14,7,13,0,7,5,6,13,13,13,0,0,0,0,0,0,0,0,0,0,8,13,13,14,0,13,7,9,0,0,2,0,0,0,0,0,0,0,0,0,0,0,0,0,0,0,0,0,0,0,0,0,0,0],"split_type":[0,0,0,0,0,0,0,0,0,0,0,0,0,0,0,0,0,0,0,0,0,0,0,0,0,0,0,0,0,0,0,0,0,0,0,0,0,0,0,0,0,0,0,0,0,0,0,0,0,0,0,0,0,0,0,0,0,0,0,0,0,0,0,0,0,0,0,0,0,0,0],"sum_hessian":[2.25E3,1.323E3,9.27E2,5.82E2,7.41E2,6.68E2,2.59E2,2.86E2,2.96E2,4.36E2,3.05E2,4.02E2,2.66E2,1.85E2,7.4E1,1.19E2,1.67E2,1.39E2,1.57E2,1.64E2,2.72E2,8.1E1,2.24E2,2.03E2,1.99E2,1.46E2,1.2E2,8.4E1,1.01E2,3.4E1,4E1,1.2E1,1.27E2,8.5E1,7.2E1,6.3E1,1.01E2,1.92E2,8E1,4.1E1,4E1,1.21E2,1.03E2,1.36E2,6.7E1,4.8E1,1.51E2,3E1,1.16E2,5.6E1,6.4E1,1.22E2,7E1,3E1,5E1,1.4E1,2.7E1,3.6E1,4E0,6.5E1,5.6E1,2.1E1,8.2E1,3.7E1,9.9E1,3.9E1,2.8E1,4.8E1,1.03E2,2.3E1,7E0],"tree_param":{"num_deleted":"0","num_feature":"16","num_nodes":"71","size_leaf_vector":"1"}},{"base_weights":[7.21584E-2,-3.3805704E0,5.2231784E0,-5.812719E0,-1.4855918E0,3.3706179E0,9.6352625E0,-7.128446E0,-4.69128E0,-2.4981275E0,-1.0649598E-1,2.3250806E0,5.0467234E0,8.484227E0,1.3848235E1,-7.486176E-1,-6.221658E-1,-5.404705E-1,-4.313244E0,-2.9213824E0,-1.7753131E0,-6.1876005E-1,4.9746302E-1,1.7732054E0,3.1470215E0,4.498275E0,6.672272E-1,7.5979056E0,9.87857E-1,1.09628E0,1.4898877E0,-4.590366E0,-3.8537676E0,-3.1691782E0,-2.507362E0,-1.8137228E0,2.5291657E-2,-8.356788E-1,6.333634E-1,2.722298E-1,1.7488916E0,1.3773253E0,2.9382665E0,2.9273982E0,4.2246753E-1,3.9186248E-1,5.139486E-1,6.855741E-1,9.01076E-1,-4.650134E-1,-2.858772E-1,-3.9606798E-1,-2.0355581E-1,-2.7134332E-1,-3.3714744E-1,-2.6087534E-1,-1.9534287E-1,-1.6101138E-1,-2.1712612E-1,-1.1413294E-1,-4.6659883E-2,1.1117846E-1,-2.9113103E-2,-1.3500762E-2,6.9430284E-2,3.1921413E-2,1.9473825E-1,6.998354E-2,1.6318528E-1,3.1509748E-1,1.9105001E-1,3.55787E-1,2.725162E-1],"categories":[],"categories_nodes":[],"categories_segments":[],"categories_sizes":[],"default_left":[0,0,0,0,0,0,0,0,0,0,0,0,0,0,0,0,0,0,0,0,0,0,0,0,0,0,0,0,0,0,0,0,0,0,0,0,0,0,0,0,0,0,0,0,0,0,0,0,0,0,0,0,0,0,0,0,0,0,0,0,0,0,0,0,0,0,0,0,0,0,0,0,0],"id":3,"left_children":[1,3,5,7,9,11,13,15,17,19,21,23,25,27,29,-1,-1,-1,31,33,35,37,39,41,43,45,-1,47,-1,-1,-1,49,51,53,55,57,-1,59,61,63,65,67,69,71,-1,-1,-1,-1,-1,-1,-1,-1,-1,-1,-1,-1,-1,-1,-1,-1,-1,-1,-1,-1,-1,-1,-1,-1,-1,-1,-1,-1,-1],"loss_changes":[4.099447E4,6.3516045E3,7.5281523E3,8.577656E2,1.084724E3,1.132603E3,1.2063633E3,4.295508E1,6.5418945E1,1.3187256E2,1.0240535E2,1.7767773E2,1.9286865E2,1.9311914E2,9.46582E0,0E0,0E0,0E0,1.0322754E1,2.088208E1,1.354657E1,4.9147324E1,4.2367126E1,1.0849188E2,2.5737793E1,5.0479248E1,0E0,8.187842E1,0E0,0E0,0E0,3.6767578E-1,9.238403E0,6.7093506E0,1.0820312E0,8.515747E0,0E0,1.6727318E1,1.2265712E1,2.2438648E1,5.905266E0,3.0586914E1,7.3155518E0,7.772339E0,0E0,0E0,0E0,0E0,0E0,0E0,0E0,0E0,0E0,0E0,0E0,0E0,0E0,0E0,0E0,0E0,0E0,0E0,0E0,0E0,0E0,0E0,0E0,0E0,0E0,0E0,0E0,0E0,0E0],"parents":[2147483647,0,0,1,1,2,2,3,3,4,4,5,5,6,6,7,7,8,8,9,9,10,10,11,11,12,12,13,13,14,14,18,18,19,19,20,20,21,21,22,22,23,23,24,24,25,25,27,27,31,31,32,32,33,33,34,34,35,35,37,37,38,38,39,39,40,40,41,41,42,42,43,43],"right_children":[2,4,6,8,10,12,14,16,18,20,22,24,26,28,30,-1,-1,-1,32,34,36,38,40,42,44,46,-1,48,-1,-1,-1,50,52,54,56,58,-1,60,62,64,66,68,70,72,-1,-1,-1,-1,-1,-1,-1,-1,-1,-1,-1,-1,-1,-1,-1,-1,-1,-1,-1,-1,-1,-1,-1,-1,-1,-1,-1,-1,-1],"split_conditions":[1.23E1,6.5E0,1.99E1,3.6E0,9.9E0,1.65E1,2.67E1,2.7E0,4.7E0,8.5E0,1.12E1,1.47E1,4.34E2,4.38E2,7.2E0,-7.486176E-1,-6.221658E-1,-5.404705E-1,5.8E0,7.7E0,4.1E2,3.1E2,3.04E2,3.29E2,4.15E2,1.8E1,6.672272E-1,2.3E1,9.87857E-1,1.09628E0,1.4898877E0,3.38E2,2.39E2,-2.4492937E-16,2.81E2,1.6E1,2.5291657E-2,2.6E2,5E-1,9.54E2,-2.1E0,1.29E1,7.8E0,-1.8369701E-16,4.2246753E-1,3.9186248E-1,5.139486E-1,6.855741E-1,9.01076E-1,-4.650134E-1,-2.858772E-1,-3.9606798E-1,-2.0355581E-1,-2.7134332E-1,-3.3714744E-1,-2.6087534E-1,-1.9534287E-1,-1.6101138E-1,-2.1712612E-1,-1.1413294E-1,-4.6659883E-2,1.1117846E-1,-2.9113103E-2,-1.3500762E-2,6.9430284E-2,3.1921413E-2,1.9473825E-1,6.998354E-2,1.6318528E-1,3.1509748E-1,1.9105001E-1,3.55787E-1,2.725162E-1],"split_indices":[0,0,0,0,0,0,0,0,0,0,0,0,11,11,7,0,0,0,0,0,11,11,11,11,11,0,0,0,0,0,0,11,11,14,8,11,0,8,12,6,2,0,2,15,0,0,0,0,0,0,0,0,0,0,0,0,0,0,0,0,0,0,0,0,0,0,0,0,0,0,0,0,0],"split_type":[0,0,0,0,0,0,0,0,0,0,0,0,0,0,0,0,0,0,0,0,0,0,0,0,0,0,0,0,0,0,0,0,0,0,0,0,0,0,0,0,0,0,0,0,0,0,0,0,0,0,0,0,0,0,0,0,0,0,0,0,0,0,0,0,0,0,0,0,0,0,0,0,0],"sum_hessian":[2.303E3,1.379E3,9.24E2,6.03E2,7.76E2,6.52E2,2.72E2,2.75E2,3.28E2,4.47E2,3.29E2,4.03E2,2.49E2,2.16E2,5.6E1,1.92E2,8.3E1,1.09E2,2.19E2,2.8E2,1.67E2,1.78E2,1.51E2,2.43E2,1.6E2,1.89E2,6E1,1.36E2,8E1,1.8E1,3.8E1,1.31E2,8.8E1,1.71E2,1.09E2,1.64E2,3E0,1.52E2,2.6E1,1.29E2,2.2E1,1.83E2,6E1,1.36E2,2.4E1,1.03E2,8.6E1,9.3E1,4.3E1,1.25E2,6E0,8.2E1,6E0,5.7E1,1.14E2,8.9E1,2E1,1.08E2,5.6E1,8.2E1,7E1,1.7E1,9E0,6.6E1,6.3E1,3E0,1.9E1,5.1E1,1.32E2,4.8E1,1.2E1,2.9E1,1.07E2],"tree_param":{"num_deleted":"0","num_feature":"16","num_nodes":"73","size_leaf_vector":"1"}},{"base_weights":[6.116291E-3,-2.7933764E0,4.304227E0,-9.4335735E-1,-3.742523E0,8.333809E0,2.6430857E0,2.3968596E0,-1.5490743E0,-5.572138E0,-2.7651691E0,1.0537863E1,6.395149E0,7.8372365E-1,4.121115E0,4.077829E0,5.5592376E-1,-1.1025156E0,-2.6107147E0,-4.440744E0,-6.018062E0,-4.209127E0,-1.3406148E0,1.2786941E1,9.408418E0,4.6802726E0,7.80426E-1,1.3596731E0,-7.206158E-2,5.7074094E0,3.3273232E0,4.9513235E0,1.7726468E0,1.6229637E0,-8.793113E-1,-4.6697825E-1,-1.6513574E0,-2.0893714E0,-3.4400334E0,-4.542436E0,-2.7797505E-1,-6.651305E0,-5.2384353E0,-3.6283214E0,-5.6699076E0,1.0506883E0,-2.383306E0,6.996841E-1,1.326234E0,8.558537E0,1.1910187E0,2.5307363E-1,5.251663E0,6.8212605E-1,1.8695325E0,-1.1458662E0,3.3304206E-1,4.9884615E0,7.945771E-1,2.874827E0,4.3495045E0,2.928383E-1,5.96903E-1,4.988432E-3,2.3413582E-1,8.4741645E-2,2.7773008E-1,-2.0354731E-2,-1.9716601E-1,-1.391192E-1,8.286584E-2,-2.2240166E-1,-1.1738024E-1,-1.19034044E-1,-2.352393E-1,-3.5484588E-1,-1.4686656E-1,-3.807199E-1,-4.9422637E-1,-5.5084103E-1,-6.936173E-1,-5.4761356E-1,-4.2964292E-1,-2.7274382E-1,-4.6852276E-1,-6.368038E-1,-4.71899E-1,2.1272321E-1,-1.1710197E-1,-1.1426981E-1,-2.888473E-1,7.0988315E-1,9.3663675E-1,3.6276138E-1,5.9368414E-1,1.3908413E-1,3.8075827E-2,2.7298585E-1,1.4435677E-1,-4.4148114E-2,-1.5464233E-1,1.7903615E-3,1.18176736E-1,5.09064E-1,2.6754615E-1,3.4177992E-1,2.4309635E-1,4.801111E-1,3.419008E-1],"categories":[],"categories_nodes":[],"categories_segments":[],"categories_sizes":[],"default_left":[0,0,0,0,0,0,0,0,0,0,0,0,0,0,0,0,0,0,0,0,0,0,0,0,0,0,0,0,0,0,0,0,0,0,0,0,0,0,0,0,0,0,0,0,0,0,0,0,0,0,0,0,0,0,0,0,0,0,0,0,0,0,0,0,0,0,0,0,0,0,0,0,0,0,0,0,0,0,0,0,0,0,0,0,0,0,0,0,0,0,0,0,0,0,0,0,0,0,0,0,0,0,0,0,0,0,0,0,0],"id":4,"left_children":[1,3,5,7,9,11,13,15,17,19,21,23,25,27,29,31,33,35,37,39,41,43,45,47,49,51,-1,53,55,57,59,61,63,65,67,69,71,73,75,77,-1,79,81,83,85,87,89,-1,-1,91,-1,-1,93,95,97,99,101,103,-1,105,107,-1,-1,-1,-1,-1,-1,-1,-1,-1,-1,-1,-1,-1,-1,-1,-1,-1,-1,-1,-1,-1,-1,-1,-1,-1,-1,-1,-1,-1,-1,-1,-1,-1,-1,-1,-1,-1,-1,-1,-1,-1,-1,-1,-1,-1,-1,-1,-1],"loss_changes":[2.7638713E4,2.4389814E3,6.0424688E3,9.606987E2,1.6279307E3,1.0606582E3,1.7638574E3,2.2363568E2,1.8722968E2,1.3421582E2,1.2306118E3,1.8959961E2,3.0902637E2,1.4106425E2,4.3179834E2,6.7738525E1,5.6559406E1,9.829077E1,4.3830933E1,3.2507324E0,7.673242E1,2.3225977E2,7.60495E2,1.1804199E1,7.8793945E1,6.900061E1,0E0,5.7797333E1,5.0841873E1,1.502561E2,9.896655E1,3.8106934E1,1.1640259E1,1.6446571E1,1.1409392E1,1.6041302E2,3.8957825E1,1.4934692E1,4.1933594E0,6.7591553E0,0E0,1.1865234E0,2.0703125E-1,1.928855E2,2.5050049E1,2.2492523E2,1.2956262E2,0E0,0E0,1.2516113E1,0E0,0E0,3.6326904E1,1.548922E1,3.160675E1,8.345966E0,2.271345E1,8.123535E0,0E0,3.2662354E1,1.3840698E1,0E0,0E0,0E0,0E0,0E0,0E0,0E0,0E0,0E0,0E0,0E0,0E0,0E0,0E0,0E0,0E0,0E0,0E0,0E0,0E0,0E0,0E0,0E0,0E0,0E0,0E0,0E0,0E0,0E0,0E0,0E0,0E0,0E0,0E0,0E0,0E0,0E0,0E0,0E0,0E0,0E0,0E0,0E0,0E0,0E0,0E0,0E0,0E0],"parents":[2147483647,0,0,1,1,2,2,3,3,4,4,5,5,6,6,7,7,8,8,9,9,10,10,11,11,12,12,13,13,14,14,15,15,16,16,17,17,18,18,19,19,20,20,21,21,22,22,23,23,24,24,25,25,27,27,28,28,29,29,30,30,31,31,32,32,33,33,34,34,35,35,36,36,37,37,38,38,39,39,41,41,42,42,43,43,44,44,45,45,46,46,49,49,52,52,53,53,54,54,55,55,56,56,57,57,59,59,60,60],"right_children":[2,4,6,8,10,12,14,16,18,20,22,24,26,28,30,32,34,36,38,40,42,44,46,48,50,52,-1,54,56,58,60,62,64,66,68,70,72,74,76,78,-1,80,82,84,86,88,90,-1,-1,92,-1,-1,94,96,98,100,102,104,-1,106,108,-1,-1,-1,-1,-1,-1,-1,-1,-1,-1,-1,-1,-1,-1,-1,-1,-1,-1,-1,-1,-1,-1,-1,-1,-1,-1,-1,-1,-1,-1,-1,-1,-1,-1,-1,-1,-1,-1,-1,-1,-1,-1,-1,-1,-1,-1,-1,-1],"split_conditions":[7.7E0,-2.4492937E-16,6.9E1,-7.0710677E-1,8.660254E-1,5.8E1,1.18E1,5.1E1,-5E-1,-5E-1,9.45E2,4.2E1,1.34E1,8.5E1,7.9E1,-5E-1,6.4E1,7.5E1,6.6E1,4.2E0,1.0202E3,8.4E1,-5E-1,-8.660254E-1,1.54E1,9.6E0,7.80426E-1,9.4E0,9E0,1.62E1,1.52E1,1.0093E3,1.0145E3,4.4E0,7.8E1,2E0,6.7E0,-2.5881904E-1,4.6E0,6.8E1,-2.7797505E-1,-7.0710677E-1,2.4E0,2.5881904E-1,1.7E0,5E-1,-7.0710677E-1,6.996841E-1,1.326234E0,8.3E0,1.1910187E0,2.5307363E-1,5E0,7.5E1,7.9E1,8.8E1,9.549E2,9.659258E-1,7.945771E-1,8.7E1,9.1E1,2.928383E-1,5.96903E-1,4.988432E-3,2.3413582E-1,8.4741645E-2,2.7773008E-1,-2.0354731E-2,-1.9716601E-1,-1.391192E-1,8.286584E-2,-2.2240166E-1,-1.1738024E-1,-1.19034044E-1,-2.352393E-1,-3.5484588E-1,-1.4686656E-1,-3.807199E-1,-4.9422637E-1,-5.5084103E-1,-6.936173E-1,-5.4761356E-1,-4.2964292E-1,-2.7274382E-1,-4.6852276E-1,-6.368038E-1,-4.71899E-1,2.1272321E-1,-1.1710197E-1,-1.1426981E-1,-2.888473E-1,7.0988315E-1,9.3663675E-1,3.6276138E-1,5.9368414E-1,1.3908413E-1,3.8075827E-2,2.7298585E-1,1.4435677E-1,-4.4148114E-2,-1.5464233E-1,1.7903615E-3,1.18176736E-1,5.09064E-1,2.6754615E-1,3.4177992E-1,2.4309635E-1,4.801111E-1,3.419008E-1],"split_indices":[2,14,1,13,14,1,2,1,14,13,6,1,2,1,1,14,1,1,1,2,5,1,13,14,2,2,0,2,2,2,2,5,5,2,1,2,2,13,2,1,0,12,2,12,2,12,12,0,0,7,0,0,7,1,1,1,6,12,0,1,1,0,0,0,0,0,0,0,0,0,0,0,0,0,0,0,0,0,0,0,0,0,0,0,0,0,0,0,0,0,0,0,0,0,0,0,0,0,0,0,0,0,0,0,0,0,0,0,0],"split_type":[0,0,0,0,0,0,0,0,0,0,0,0,0,0,0,0,0,0,0,0,0,0,0,0,0,0,0,0,0,0,0,0,0,0,0,0,0,0,0,0,0,0,0,0,0,0,0,0,0,0,0,0,0,0,0,0,0,0,0,0,0,0,0,0,0,0,0,0,0,0,0,0,0,0,0,0,0,0,0,0,0,0,0,0,0,0,0,0,0,0,0,0,0,0,0,0,0,0,0,0,0,0,0,0,0,0,0,0,0],"sum_hessian":[2.295E3,1.39E3,9.05E2,4.72E2,9.18E2,2.63E2,6.42E2,7.2E1,4E2,3.18E2,6E2,1.21E2,1.42E2,2.85E2,3.57E2,3.7E1,3.5E1,2.83E2,1.17E2,9.3E1,2.25E2,2.97E2,3.03E2,3.7E1,8.4E1,6.6E1,7.6E1,1.7E2,1.15E2,1.17E2,2.4E2,2.6E1,1.1E1,2E1,1.5E1,1.32E2,1.51E2,7.4E1,4.3E1,8.6E1,7E0,1.2E2,1.05E2,2.15E2,8.2E1,9.2E1,2.11E2,4E0,3.3E1,6.6E1,1.8E1,1.5E1,5.1E1,7.4E1,9.6E1,3.1E1,8.4E1,9.1E1,2.6E1,1.69E2,7.1E1,1E1,1.6E1,3E0,8E0,1.3E1,7E0,1E1,5E0,7.7E1,5.5E1,6.7E1,8.4E1,1.8E1,5.6E1,4E1,3E0,3.4E1,5.2E1,2.8E1,9.2E1,8E1,2.5E1,1.18E2,9.7E1,4.4E1,3.8E1,6.2E1,3E1,6.2E1,1.49E2,2.7E1,3.9E1,1.7E1,3.4E1,2.1E1,5.3E1,3E1,6.6E1,1.2E1,1.9E1,6.2E1,2.2E1,8.6E1,5E0,7.3E1,9.6E1,4.5E1,2.6E1],"tree_param":{"num_deleted":"0","num_feature":"16","num_nodes":"109","size_leaf_vector":"1"}},{"base_weights":[2.5379818E-2,-2.8404155E0,4.2608066E0,-4.780266E0,-1.2878643E0,2.6623585E0,7.9374337E0,-5.992592E0,-3.9722357E0,-2.1368587E0,-2.721923E-1,1.6618347E0,3.8425689E0,6.8082757E0,1.084055E1,-6.6951466E-1,-5.724194E-1,-4.5527205E0,-3.5538547E0,-2.4850488E0,-1.6971765E0,-1.0186752E0,7.563949E-2,1.3404646E0,2.6000507E0,3.4469767E0,5.0309205E0,6.0429096E0,7.976976E-1,9.440075E-1,1.2614156E0,-2.938622E-1,-4.6107764E0,-3.6001496E0,-2.0736204E-1,-2.8457034E0,-2.2698896E0,-1.913766E0,-1.3768544E0,-1.0659249E0,5.1173616E-2,-1.19539745E-1,1.216671E0,9.368895E-1,1.9465135E0,1.9581835E0,2.8201835E0,2.9301865E0,4.0043783E-1,2.711458E-1,5.127485E-1,5.3659946E-1,6.871163E-1,-4.6521106E-1,-2.5312588E-1,-3.69548E-1,-2.8451183E-1,-2.948365E-1,-1.3245657E-1,-2.3084906E-1,-1.300985E-1,-1.3804393E-1,-2.0040897E-1,-1.4929761E-1,3.0822891E-3,-1.341262E-1,-8.233009E-2,-5.363917E-2,2.5251696E-2,3.237494E-2,1.6684672E-1,4.3114997E-2,1.3310713E-1,1.5114574E-1,2.314538E-1,2.0938037E-1,9.698183E-2,1.4684969E-1,2.960417E-1,3.334417E-1,2.7124375E-1],"categories":[],"categories_nodes":[],"categories_segments":[],"categories_sizes":[],"default_left":[0,0,0,0,0,0,0,0,0,0,0,0,0,0,0,0,0,0,0,0,0,0,0,0,0,0,0,0,0,0,0,0,0,0,0,0,0,0,0,0,0,0,0,0,0,0,0,0,0,0,0,0,0,0,0,0,0,0,0,0,0,0,0,0,0,0,0,0,0,0,0,0,0,0,0,0,0,0,0,0,0],"id":5,"left_children":[1,3,5,7,9,11,13,15,17,19,21,23,25,27,29,-1,-1,31,33,35,37,39,41,43,45,47,49,51,-1,-1,-1,-1,53,55,-1,57,59,61,63,65,-1,67,69,71,73,75,77,79,-1,-1,-1,-1,-1,-1,-1,-1,-1,-1,-1,-1,-1,-1,-1,-1,-1,-1,-1,-1,-1,-1,-1,-1,-1,-1,-1,-1,-1,-1,-1,-1,-1],"loss_changes":[2.7941334E4,4.1289316E3,5.438506E3,5.73749E2,6.5821545E2,7.599717E2,8.47334E2,7.307617E0,7.343701E1,5.9468994E1,9.069507E1,1.0294946E2,1.2227881E2,1.3516504E2,7.218164E1,0E0,0E0,6.003418E-1,7.5422363E0,1.1388184E1,1.0338806E1,8.572052E0,5.3372093E1,6.29917E1,7.0528564E0,5.336792E1,2.2235107E0,3.4893555E1,0E0,0E0,0E0,0E0,6.020508E-1,4.6730957E0,0E0,8.899963E0,2.569397E0,2.484192E0,1.2959503E1,6.110504E0,0E0,3.1929422E1,1.3579487E1,3.1521988E1,1.33133545E1,1.4544983E0,7.7839355E0,1.6060791E0,0E0,0E0,0E0,0E0,0E0,0E0,0E0,0E0,0E0,0E0,0E0,0E0,0E0,0E0,0E0,0E0,0E0,0E0,0E0,0E0,0E0,0E0,0E0,0E0,0E0,0E0,0E0,0E0,0E0,0E0,0E0,0E0,0E0],"parents":[2147483647,0,0,1,1,2,2,3,3,4,4,5,5,6,6,7,7,8,8,9,9,10,10,11,11,12,12,13,13,14,14,17,17,18,18,19,19,20,20,21,21,22,22,23,23,24,24,25,25,26,26,27,27,32,32,33,33,35,35,36,36,37,37,38,38,39,39,41,41,42,42,43,43,44,44,45,45,46,46,47,47],"right_children":[2,4,6,8,10,12,14,16,18,20,22,24,26,28,30,-1,-1,32,34,36,38,40,42,44,46,48,50,52,-1,-1,-1,-1,54,56,-1,58,60,62,64,66,-1,68,70,72,74,76,78,80,-1,-1,-1,-1,-1,-1,-1,-1,-1,-1,-1,-1,-1,-1,-1,-1,-1,-1,-1,-1,-1,-1,-1,-1,-1,-1,-1,-1,-1,-1,-1,-1,-1],"split_conditions":[1.22E1,6.4E0,1.99E1,3.1E0,9.5E0,1.58E1,2.51E1,1E0,4.7E0,8.1E0,1.04E1,3.29E2,3.61E2,4.66E2,3.02E1,-6.6951466E-1,-5.724194E-1,-2.4492937E-16,3.1E2,-1.8369701E-16,4.2E0,4.38E2,3.14E2,1.41E1,1.31E1,1.76E1,1.8E0,2.24E1,7.976976E-1,9.440075E-1,1.2614156E0,-2.938622E-1,1.0284E3,1.0268E3,-2.0736204E-1,3.67E2,7E0,1.009E3,3.53E2,-1.8369701E-16,5.1173616E-2,9.529E2,3.7E0,2.67E2,1.0148E3,7.1E1,2.7E0,-1.8369701E-16,4.0043783E-1,2.711458E-1,5.127485E-1,5.3659946E-1,6.871163E-1,-4.6521106E-1,-2.5312588E-1,-3.69548E-1,-2.8451183E-1,-2.948365E-1,-1.3245657E-1,-2.3084906E-1,-1.300985E-1,-1.3804393E-1,-2.0040897E-1,-1.4929761E-1,3.0822891E-3,-1.341262E-1,-8.233009E-2,-5.363917E-2,2.5251696E-2,3.237494E-2,1.6684672E-1,4.3114997E-2,1.3310713E-1,1.5114574E-1,2.314538E-1,2.0938037E-1,9.698183E-2,1.4684969E-1,2.960417E-1,3.334417E-1,2.7124375E-1],"split_indices":[0,0,0,0,0,0,0,0,0,0,0,11,11,11,0,0,0,14,11,13,7,11,11,0,0,0,7,0,0,0,0,0,5,5,0,11,2,5,11,13,0,6,2,8,5,1,7,15,0,0,0,0,0,0,0,0,0,0,0,0,0,0,0,0,0,0,0,0,0,0,0,0,0,0,0,0,0,0,0,0,0],"split_type":[0,0,0,0,0,0,0,0,0,0,0,0,0,0,0,0,0,0,0,0,0,0,0,0,0,0,0,0,0,0,0,0,0,0,0,0,0,0,0,0,0,0,0,0,0,0,0,0,0,0,0,0,0,0,0,0,0,0,0,0,0,0,0,0,0,0,0,0,0,0,0,0,0,0,0,0,0,0,0,0,0],"sum_hessian":[2.3E3,1.372E3,9.28E2,6.09E2,7.63E2,6.48E2,2.8E2,2.41E2,3.68E2,4.15E2,3.48E2,3.52E2,2.96E2,2.04E2,7.6E1,6E1,1.81E2,1.5E2,2.18E2,2.29E2,1.86E2,1.1E2,2.38E2,2.64E2,8.8E1,2.25E2,7.1E1,1.27E2,7.7E1,4.6E1,3E1,7E0,1.43E2,2.1E2,8E0,8.1E1,1.48E2,1.08E2,7.8E1,1.07E2,3E0,2.04E2,3.4E1,1.6E2,1.04E2,2.5E1,6.3E1,1.2E2,1.05E2,4E0,6.7E1,7.4E1,5.3E1,1.39E2,4E0,1.83E2,2.7E1,7.5E1,6E0,1.41E2,7E0,1.8E1,9E1,7.2E1,6E0,4.8E1,5.9E1,9.6E1,1.08E2,1.2E1,2.2E1,7.1E1,8.9E1,5E1,5.4E1,2.1E1,4E0,7E0,5.6E1,3.7E1,8.3E1],"tree_param":{"num_deleted":"0","num_feature":"16","num_nodes":"81","size_leaf_vector":"1"}},{"base_weights":[1.01783626E-1,-2.591068E0,3.670256E0,-4.2396545E0,-1.2438318E0,2.2706988E0,7.078018E0,-5.1104827E0,-3.3808997E0,-1.9523576E0,-3.9800364E-1,1.4050678E0,3.3714232E0,5.771063E0,9.451245E0,-5.5803114E-1,-4.6856228E-1,-3.6814983E0,-2.8844051E0,-2.3602784E0,-1.6143922E0,-9.001776E-1,-4.3912597E-2,8.1455165E-1,1.7986294E0,3.0655518E0,4.6876404E-1,5.3893538E0,7.222416E-1,8.1070626E-1,1.1044532E0,-2.542095E-1,-3.7760067E0,-2.931479E-1,-1.5249643E-1,-2.137472E0,-2.6715832E0,-1.7060966E0,-8.058481E-1,-9.88226E-1,4.5208624E-1,-2.1644415E-1,9.4519603E-1,5.034456E-1,1.758892E0,1.554506E0,2.5693152E0,2.6334004E0,3.7403664E-1,4.9593925E0,6.098916E-1,-3.844677E-1,-2.672064E-1,-2.3759232E-1,-1.9032077E-1,-2.8214976E-1,-1.358654E-1,-2.1862653E-1,-1.5052727E-1,-2.527906E-2,-1.4364807E-1,-8.788449E-2,-1.816126E-1,7.8667946E-2,-1.6282512E-2,-5.4940112E-2,7.779275E-3,4.9909707E-2,1.328282E-1,1.4750535E-3,8.7152384E-2,-4.1885613E-3,1.9101204E-1,1.7477208E-1,1.0920135E-1,1.7119573E-1,2.7447468E-1,3.0238876E-1,2.439066E-1,3.9629695E-1,5.3298175E-1],"categories":[],"categories_nodes":[],"categories_segments":[],"categories_sizes":[],"default_left":[0,0,0,0,0,0,0,0,0,0,0,0,0,0,0,0,0,0,0,0,0,0,0,0,0,0,0,0,0,0,0,0,0,0,0,0,0,0,0,0,0,0,0,0,0,0,0,0,0,0,0,0,0,0,0,0,0,0,0,0,0,0,0,0,0,0,0,0,0,0,0,0,0,0,0,0,0,0,0,0,0],"id":6,"left_children":[1,3,5,7,9,11,13,15,17,19,21,23,25,27,29,-1,-1,31,33,35,37,39,41,43,45,47,-1,49,-1,-1,-1,-1,51,-1,-1,53,55,57,59,61,63,65,67,69,71,73,75,77,-1,79,-1,-1,-1,-1,-1,-1,-1,-1,-1,-1,-1,-1,-1,-1,-1,-1,-1,-1,-1,-1,-1,-1,-1,-1,-1,-1,-1,-1,-1,-1,-1],"loss_changes":[2.198613E4,2.890958E3,4.6769766E3,4.2094824E2,4.3011328E2,6.612849E2,8.3254297E2,3.154004E1,3.38562E1,5.0093872E1,5.8461697E1,8.9869934E1,1.0922583E2,6.467285E1,1.2462793E2,0E0,0E0,9.999268E0,3.0168457E0,6.4276733E0,1.4715088E1,1.6639565E1,3.331116E1,4.5827103E1,4.0219482E1,6.363867E1,0E0,1.6125488E1,0E0,0E0,0E0,0E0,2.3110352E0,0E0,0E0,1.4552002E0,9.74765E0,1.5416382E1,8.007498E0,9.995148E0,1.9797976E0,1.6305464E1,4.2929897E0,2.1752378E1,1.0700813E1,1.4265717E1,3.5735474E0,4.538452E0,0E0,1.5788086E1,0E0,0E0,0E0,0E0,0E0,0E0,0E0,0E0,0E0,0E0,0E0,0E0,0E0,0E0,0E0,0E0,0E0,0E0,0E0,0E0,0E0,0E0,0E0,0E0,0E0,0E0,0E0,0E0,0E0,0E0,0E0],"parents":[2147483647,0,0,1,1,2,2,3,3,4,4,5,5,6,6,7,7,8,8,9,9,10,10,11,11,12,12,13,13,14,14,17,17,18,18,19,19,20,20,21,21,22,22,23,23,24,24,25,25,27,27,32,32,35,35,36,36,37,37,38,38,39,39,40,40,41,41,42,42,43,43,44,44,45,45,46,46,47,47,49,49],"right_children":[2,4,6,8,10,12,14,16,18,20,22,24,26,28,30,-1,-1,32,34,36,38,40,42,44,46,48,-1,50,-1,-1,-1,-1,52,-1,-1,54,56,58,60,62,64,66,68,70,72,74,76,78,-1,80,-1,-1,-1,-1,-1,-1,-1,-1,-1,-1,-1,-1,-1,-1,-1,-1,-1,-1,-1,-1,-1,-1,-1,-1,-1,-1,-1,-1,-1,-1,-1],"split_conditions":[1.19E1,6.4E0,1.98E1,3.9E0,9.4E0,1.57E1,2.41E1,2.2E0,5.5E0,7.7E0,1.04E1,1.33E1,4.34E2,6.03E2,2.83E1,-5.5803114E-1,-4.6856228E-1,-2.4492937E-16,2.6E2,1E0,1.99E2,4.1E2,3.14E2,2.99E2,3.29E2,1.77E1,4.6876404E-1,2.24E1,7.222416E-1,8.1070626E-1,1.1044532E0,-2.542095E-1,9.585E2,-2.931479E-1,-1.5249643E-1,7E0,3.38E2,1.83E2,1.0136E3,2E-1,1E0,9.529E2,1.11E1,2.21E2,1.2E1,4.2E1,1.0117E3,-1.8369701E-16,3.7403664E-1,-7.0710677E-1,6.098916E-1,-3.844677E-1,-2.672064E-1,-2.3759232E-1,-1.9032077E-1,-2.8214976E-1,-1.358654E-1,-2.1862653E-1,-1.5052727E-1,-2.527906E-2,-1.4364807E-1,-8.788449E-2,-1.816126E-1,7.8667946E-2,-1.6282512E-2,-5.4940112E-2,7.779275E-3,4.9909707E-2,1.328282E-1,1.4750535E-3,8.7152384E-2,-4.1885613E-3,1.9101204E-1,1.7477208E-1,1.0920135E-1,1.7119573E-1,2.7447468E-1,3.0238876E-1,2.439066E-1,3.9629695E-1,5.3298175E-1],"split_indices":[0,0,0,0,0,0,0,0,0,0,0,0,11,11,0,0,0,14,11,11,11,11,11,11,11,0,0,0,0,0,0,0,6,0,0,0,11,8,5,3,10,6,0,8,0,11,5,15,0,12,0,0,0,0,0,0,0,0,0,0,0,0,0,0,0,0,0,0,0,0,0,0,0,0,0,0,0,0,0,0,0],"split_type":[0,0,0,0,0,0,0,0,0,0,0,0,0,0,0,0,0,0,0,0,0,0,0,0,0,0,0,0,0,0,0,0,0,0,0,0,0,0,0,0,0,0,0,0,0,0,0,0,0,0,0,0,0,0,0,0,0,0,0,0,0,0,0,0,0,0,0,0,0,0,0,0,0,0,0,0,0,0,0,0,0],"sum_hessian":[2.286E3,1.303E3,9.83E2,5.85E2,7.18E2,6.98E2,2.85E2,2.88E2,2.97E2,3.9E2,3.28E2,3.92E2,3.06E2,1.86E2,9.9E1,1.31E2,1.57E2,1.81E2,1.16E2,1.74E2,2.16E2,1.35E2,1.93E2,1.58E2,2.34E2,2.51E2,5.5E1,1.51E2,3.5E1,5.7E1,4.2E1,1.6E1,1.65E2,1.11E2,5E0,1.06E2,6.8E1,1.93E2,2.3E1,1.27E2,8E0,1.65E2,2.8E1,1.2E2,3.8E1,1.8E2,5.4E1,1.56E2,9.5E1,9.9E1,5.2E1,1.53E2,1.2E1,4.8E1,5.8E1,6E1,8E0,5.4E1,1.39E2,1.3E1,1E1,1.14E2,1.3E1,5E0,3E0,7.7E1,8.8E1,1.4E1,1.4E1,5.2E1,6.8E1,3E0,3.5E1,1.25E2,5.5E1,1.1E1,4.3E1,4.7E1,1.09E2,3E1,6.9E1],"tree_param":{"num_deleted":"0","num_feature":"16","num_nodes":"81","size_leaf_vector":"1"}},{"base_weights":[3.927896E-2,-2.1145353E0,3.6961777E0,-3.6666536E0,-7.766049E-1,2.431853E0,6.451635E0,-4.6258664E0,-2.8738186E0,-1.423533E0,2.1409631E-1,1.802116E0,3.4818122E0,5.7398443E0,9.440243E0,-5.280983E-1,-4.2498856E0,-3.1659262E0,-2.4834373E0,-1.7442919E0,-8.3272934E-1,1.564109E-2,1.1509563E0,1.6026658E0,2.7275798E0,3.1074843E0,4.785576E-1,5.0917535E0,6.846115E-1,4.7669426E-1,9.6371144E-1,-4.4753075E-1,-3.8235286E-1,-2.2177114E0,-3.2775536E0,-2.5309014E0,-1.2474554E-1,-2.066791E0,-1.5297375E0,-8.9071494E-1,4.3832183E-1,-4.0456852E-1,2.3059754E-1,1.2848319E0,-8.436966E-2,1.1277504E0,1.9661013E0,1.7139637E0,2.9285305E0,2.7368755E0,3.6395E0,4.453213E0,6.049871E-1,-2.3738115E-1,-1.1185493E-1,-3.3183494E-1,-1.7719565E-1,-2.0284174E-1,-2.6492232E-1,-2.3332162E-1,-1.8251891E-1,-1.5849958E-1,-2.607422E-2,-8.0003515E-2,-1.6624987E-1,8.218058E-2,-1.5061355E-2,-1.781128E-2,-9.915935E-2,-2.8572712E-2,3.7638504E-2,8.322031E-2,1.688044E-1,9.711187E-2,2.5229773E-1,2.0674603E-1,1.2549096E-1,2.0125227E-1,5.3907584E-2,1.9370122E-1,3.118487E-1,1.3576408E-1,2.7638665E-1,3.1419668E-1,4.101038E-1,2.4200527E-1,4.52042E-1],"categories":[],"categories_nodes":[],"categories_segments":[],"categories_sizes":[],"default_left":[0,0,0,0,0,0,0,0,0,0,0,0,0,0,0,0,0,0,0,0,0,0,0,0,0,0,0,0,0,0,0,0,0,0,0,0,0,0,0,0,0,0,0,0,0,0,0,0,0,0,0,0,0,0,0,0,0,0,0,0,0,0,0,0,0,0,0,0,0,0,0,0,0,0,0,0,0,0,0,0,0,0,0,0,0,0,0],"id":7,"left_children":[1,3,5,7,9,11,13,15,17,19,21,23,25,27,29,-1,31,33,35,37,39,41,43,45,47,49,-1,51,-1,-1,-1,-1,-1,53,55,57,-1,59,61,63,65,67,69,71,-1,73,75,77,79,81,83,85,-1,-1,-1,-1,-1,-1,-1,-1,-1,-1,-1,-1,-1,-1,-1,-1,-1,-1,-1,-1,-1,-1,-1,-1,-1,-1,-1,-1,-1,-1,-1,-1,-1,-1,-1],"loss_changes":[1.814689E4,3.0082612E3,2.9594688E3,4.97E2,5.0021646E2,3.8184863E2,5.159209E2,5.1941895E1,3.433008E1,8.79942E1,5.7432747E1,6.3740112E1,9.20083E1,1.2215625E2,6.25E-2,0E0,1.8220215E0,1.4747314E1,6.4052124E0,1.7942383E1,1.2772461E1,2.3216942E1,1.5503914E1,5.0598694E1,8.016541E0,2.4149536E1,0E0,5.9933594E1,0E0,0E0,0E0,0E0,0E0,1.6342468E0,5.421753E0,3.901184E0,0E0,3.4013062E0,1.2699585E1,9.937546E0,1.9305531E0,1.1388743E1,1.290407E1,7.902977E0,0E0,2.7052353E1,9.80426E0,3.4751472E0,3.753418E0,1.9366455E-1,2.7296143E0,1.2215576E0,0E0,0E0,0E0,0E0,0E0,0E0,0E0,0E0,0E0,0E0,0E0,0E0,0E0,0E0,0E0,0E0,0E0,0E0,0E0,0E0,0E0,0E0,0E0,0E0,0E0,0E0,0E0,0E0,0E0,0E0,0E0,0E0,0E0,0E0,0E0],"parents":[2147483647,0,0,1,1,2,2,3,3,4,4,5,5,6,6,7,7,8,8,9,9,10,10,11,11,12,12,13,13,14,14,16,16,17,17,18,18,19,19,20,20,21,21,22,22,23,23,24,24,25,25,27,27,33,33,34,34,35,35,37,37,38,38,39,39,40,40,41,41,42,42,43,43,45,45,46,46,47,47,48,48,49,49,50,50,51,51],"right_children":[2,4,6,8,10,12,14,16,18,20,22,24,26,28,30,-1,32,34,36,38,40,42,44,46,48,50,-1,52,-1,-1,-1,-1,-1,54,56,58,-1,60,62,64,66,68,70,72,-1,74,76,78,80,82,84,86,-1,-1,-1,-1,-1,-1,-1,-1,-1,-1,-1,-1,-1,-1,-1,-1,-1,-1,-1,-1,-1,-1,-1,-1,-1,-1,-1,-1,-1,-1,-1,-1,-1,-1,-1],"split_conditions":[1.29E1,6.9E0,1.99E1,4E0,1.04E1,1.68E1,2.76E1,1.8E0,5.8E0,9.2E0,3.14E2,4.24E2,4.46E2,4.66E2,9.7E0,-5.280983E-1,3.1E0,-2.4492937E-16,3.1E2,7.7E0,3.95E2,1.12E1,2.31E2,1.44E1,1.0093E3,1.84E1,4.785576E-1,2.3E1,6.846115E-1,4.7669426E-1,9.6371144E-1,-4.4753075E-1,-3.8235286E-1,1.0271E3,3.38E2,-2.4492937E-16,-1.2474554E-1,6.3E1,3.5E2,2E-1,1E0,2.9E1,9.491E2,2.8E1,-8.436966E-2,-2.4492937E-16,2E-1,1.49E1,1.3E1,1.0073E3,-5E-1,4.9E1,6.049871E-1,-2.3738115E-1,-1.1185493E-1,-3.3183494E-1,-1.7719565E-1,-2.0284174E-1,-2.6492232E-1,-2.3332162E-1,-1.8251891E-1,-1.5849958E-1,-2.607422E-2,-8.0003515E-2,-1.6624987E-1,8.218058E-2,-1.5061355E-2,-1.781128E-2,-9.915935E-2,-2.8572712E-2,3.7638504E-2,8.322031E-2,1.688044E-1,9.711187E-2,2.5229773E-1,2.0674603E-1,1.2549096E-1,2.0125227E-1,5.3907584E-2,1.9370122E-1,3.118487E-1,1.3576408E-1,2.7638665E-1,3.1419668E-1,4.101038E-1,2.4200527E-1,4.52042E-1],"split_indices":[0,0,0,0,0,0,0,0,0,0,11,11,11,11,9,0,0,14,11,0,11,0,8,0,5,0,0,0,0,0,0,0,0,5,11,14,0,10,11,3,10,11,6,10,0,14,3,0,9,5,12,8,0,0,0,0,0,0,0,0,0,0,0,0,0,0,0,0,0,0,0,0,0,0,0,0,0,0,0,0,0,0,0,0,0,0,0],"split_type":[0,0,0,0,0,0,0,0,0,0,0,0,0,0,0,0,0,0,0,0,0,0,0,0,0,0,0,0,0,0,0,0,0,0,0,0,0,0,0,0,0,0,0,0,0,0,0,0,0,0,0,0,0,0,0,0,0,0,0,0,0,0,0,0,0,0,0,0,0,0,0,0,0,0,0,0,0,0,0,0,0,0,0,0,0,0,0],"sum_hessian":[2.302E3,1.449E3,8.53E2,6.7E2,7.79E2,5.86E2,2.67E2,3.01E2,3.69E2,4.71E2,3.08E2,3.68E2,2.18E2,2.18E2,4.9E1,1.05E2,1.96E2,2.07E2,1.62E2,3.04E2,1.67E2,2.55E2,5.3E1,3.05E2,6.3E1,1.72E2,4.6E1,1.41E2,7.7E1,3E0,4.6E1,1.22E2,7.4E1,2.4E1,1.83E2,1.55E2,7E0,1.18E2,1.86E2,1.6E2,7E0,8.6E1,1.69E2,5E1,3E0,1.34E2,1.71E2,1.2E1,5.1E1,1.05E2,6.7E1,8.8E1,5.3E1,2E1,4E0,1.77E2,6E0,3.3E1,1.22E2,5.2E1,6.6E1,1.78E2,8E0,1.45E2,1.5E1,4E0,3E0,6.3E1,2.3E1,3.7E1,1.32E2,2.5E1,2.5E1,1.22E2,1.2E1,1.48E2,2.3E1,9E0,3E0,1E1,4.1E1,3E0,1.02E2,3.6E1,3.1E1,4E0,8.4E1],"tree_param":{"num_deleted":"0","num_feature":"16","num_nodes":"87","size_leaf_vector":"1"}},{"base_weights":[4.1757856E-2,-1.7044336E0,3.0125017E0,-2.102027E0,1.5606111E0,5.4224353E0,1.7872024E0,-3.3086007E0,-1.5267707E0,8.7644213E-1,3.1924875E0,6.8228035E0,4.042476E0,6.552408E-1,2.5387883E0,-1.7392989E0,-3.590589E0,-9.731108E-1,-2.65192E0,-1.5249549E-1,1.4501922E0,4.510134E0,1.9052591E0,5.592029E0,8.080334E0,2.763526E0,4.679809E0,1.389816E0,4.16538E-1,3.359617E0,2.0656092E0,-3.1495938E-1,-1.393691E0,-4.030063E0,-2.5685265E0,-7.444255E-1,-1.6829126E0,-2.3541725E0,-3.287874E-1,-1.1673305E0,9.714478E-1,8.808581E-1,2.4853058E0,3.0081835E-1,6.0116565E-1,6.522391E-1,2.6971233E-1,5.789558E-1,3.2387212E-1,9.055541E-1,6.655721E-1,1.7392893E0,3.2694948E0,3.1151193E-1,4.8873496E-1,1.211695E0,2.928688E-1,-7.398967E-2,7.152136E-1,2.4310355E0,3.7507489E0,1.6628102E0,2.6262324E0,-1.962159E-2,-1.7685924E-1,-3.5873625E-1,-4.6272516E-1,-2.9054153E-1,-1.1971807E-1,-2.0721021E-1,-5.711193E-2,-1.7513688E-1,1.606563E-2,-3.2318205E-1,-1.9238518E-1,-1.6363955E-1,3.5624187E-2,1.2842095E-1,2.0714624E-2,-2.8010486E-2,1.2756264E-1,2.8093E-1,6.274694E-2,1.2901159E-1,2.5177086E-2,1.04101375E-1,2.0598654E-1,1.3438146E-1,3.417269E-1,2.161806E-1,9.272337E-2,-4.230327E-2,2.6696358E-2,3.9610002E-2,1.0451203E-1,1.7062375E-1,2.6548406E-1,3.2931584E-1,4.2972857E-1,1.0966072E-1,2.0309393E-1,2.3034921E-1,3.2820258E-1],"categories":[],"categories_nodes":[],"categories_segments":[],"categories_sizes":[],"default_left":[0,0,0,0,0,0,0,0,0,0,0,0,0,0,0,0,0,0,0,0,0,0,0,0,0,0,0,0,0,0,0,0,0,0,0,0,0,0,0,0,0,0,0,0,0,0,0,0,0,0,0,0,0,0,0,0,0,0,0,0,0,0,0,0,0,0,0,0,0,0,0,0,0,0,0,0,0,0,0,0,0,0,0,0,0,0,0,0,0,0,0,0,0,0,0,0,0,0,0,0,0,0,0],"id":8,"left_children":[1,3,5,7,9,11,13,15,17,19,21,23,25,27,29,31,33,35,37,39,41,43,45,47,49,51,53,55,57,59,61,-1,63,65,67,69,71,73,-1,75,77,79,81,-1,-1,83,-1,-1,-1,-1,-1,85,87,-1,-1,89,-1,91,93,95,97,99,101,-1,-1,-1,-1,-1,-1,-1,-1,-1,-1,-1,-1,-1,-1,-1,-1,-1,-1,-1,-1,-1,-1,-1,-1,-1,-1,-1,-1,-1,-1,-1,-1,-1,-1,-1,-1,-1,-1,-1,-1],"loss_changes":[1.1868918E4,1.8739297E3,2.4914062E3,8.8685254E2,1.7248923E2,5.2316797E2,4.773181E2,1.7696045E2,5.406321E2,6.634067E1,6.942816E1,1.7149756E2,1.0607422E2,3.9049095E1,1.2433911E2,2.7292038E1,1.4685791E2,9.386743E1,4.6604248E1,4.7899303E1,4.024225E1,3.1530487E1,2.3046364E1,1.5647949E1,3.2811523E1,2.0743225E1,1.5949951E1,1.152713E1,2.525241E1,3.5191895E1,4.463568E1,0E0,2.3895477E1,4.7643555E1,4.6416748E1,1.01208694E2,1.8202301E1,6.893884E1,0E0,1.6305346E1,4.514866E0,2.2356258E1,1.3285431E1,0E0,0E0,2.4851298E0,0E0,0E0,0E0,0E0,0E0,2.1088142E0,4.798523E0,0E0,0E0,1.1779259E1,0E0,7.967419E0,1.0850739E1,1.796524E0,6.855835E0,2.4661072E1,1.1276794E1,0E0,0E0,0E0,0E0,0E0,0E0,0E0,0E0,0E0,0E0,0E0,0E0,0E0,0E0,0E0,0E0,0E0,0E0,0E0,0E0,0E0,0E0,0E0,0E0,0E0,0E0,0E0,0E0,0E0,0E0,0E0,0E0,0E0,0E0,0E0,0E0,0E0,0E0,0E0,0E0],"parents":[2147483647,0,0,1,1,2,2,3,3,4,4,5,5,6,6,7,7,8,8,9,9,10,10,11,11,12,12,13,13,14,14,15,15,16,16,17,17,18,18,19,19,20,20,21,21,22,22,23,23,24,24,25,25,26,26,27,27,28,28,29,29,30,30,32,32,33,33,34,34,35,35,36,36,37,37,39,39,40,40,41,41,42,42,45,45,51,51,52,52,55,55,57,57,58,58,59,59,60,60,61,61,62,62],"right_children":[2,4,6,8,10,12,14,16,18,20,22,24,26,28,30,32,34,36,38,40,42,44,46,48,50,52,54,56,58,60,62,-1,64,66,68,70,72,74,-1,76,78,80,82,-1,-1,84,-1,-1,-1,-1,-1,86,88,-1,-1,90,-1,92,94,96,98,100,102,-1,-1,-1,-1,-1,-1,-1,-1,-1,-1,-1,-1,-1,-1,-1,-1,-1,-1,-1,-1,-1,-1,-1,-1,-1,-1,-1,-1,-1,-1,-1,-1,-1,-1,-1,-1,-1,-1,-1,-1],"split_conditions":[8.5E0,3.43E2,7.1E1,9.415E2,5.12E2,6.1E1,1.2E1,5.9E1,8.660254E-1,1.0107E3,4.8E1,9.3E0,1.21E1,8E1,8.1E1,-4.7E0,1.6E0,1.0251E3,8E1,4.12E2,1.2E2,3.4E0,4.5E0,9.659258E-1,5E1,3.83E2,1.0131E3,4.55E2,1.76E2,1.37E1,1.47E1,-3.1495938E-1,4.5E1,8.2E1,3.7E0,-1.9E0,1.55E1,-3E0,-3.287874E-1,-8.660254E-1,4.9E1,5E-1,6.5E0,3.0081835E-1,6.0116565E-1,7.7E0,2.6971233E-1,5.789558E-1,3.2387212E-1,9.055541E-1,6.655721E-1,3.1E0,1.0136E3,3.1151193E-1,4.8873496E-1,-1.8369701E-16,2.928688E-1,1E1,1.03E1,3E0,4.2E0,9.489E2,1.39E2,-1.962159E-2,-1.7685924E-1,-3.5873625E-1,-4.6272516E-1,-2.9054153E-1,-1.1971807E-1,-2.0721021E-1,-5.711193E-2,-1.7513688E-1,1.606563E-2,-3.2318205E-1,-1.9238518E-1,-1.6363955E-1,3.5624187E-2,1.2842095E-1,2.0714624E-2,-2.8010486E-2,1.2756264E-1,2.8093E-1,6.274694E-2,1.2901159E-1,2.5177086E-2,1.04101375E-1,2.0598654E-1,1.3438146E-1,3.417269E-1,2.161806E-1,9.272337E-2,-4.230327E-2,2.6696358E-2,3.9610002E-2,1.0451203E-1,1.7062375E-1,2.6548406E-1,3.2931584E-1,4.2972857E-1,1.0966072E-1,2.0309393E-1,2.3034921E-1,3.2820258E-1],"split_indices":[2,11,1,6,11,1,2,1,15,5,1,7,2,1,1,2,2,5,1,11,8,2,2,12,1,11,5,11,8,2,2,0,1,1,2,2,9,2,0,13,1,15,2,0,0,7,0,0,0,0,0,7,5,0,0,15,0,2,2,7,7,6,11,0,0,0,0,0,0,0,0,0,0,0,0,0,0,0,0,0,0,0,0,0,0,0,0,0,0,0,0,0,0,0,0,0,0,0,0,0,0,0,0],"split_type":[0,0,0,0,0,0,0,0,0,0,0,0,0,0,0,0,0,0,0,0,0,0,0,0,0,0,0,0,0,0,0,0,0,0,0,0,0,0,0,0,0,0,0,0,0,0,0,0,0,0,0,0,0,0,0,0,0,0,0,0,0,0,0,0,0,0,0,0,0,0,0,0,0,0,0,0,0,0,0,0,0,0,0,0,0,0,0,0,0,0,0,0,0,0,0,0,0,0,0,0,0,0,0],"sum_hessian":[2.286E3,1.44E3,8.46E2,1.284E3,1.56E2,2.84E2,5.62E2,4.13E2,8.71E2,1.11E2,4.5E1,1.39E2,1.45E2,2.25E2,3.37E2,6.4E1,3.49E2,5.85E2,2.86E2,4E1,7.1E1,2.1E1,2.4E1,7.3E1,6.6E1,5E1,9.5E1,5.4E1,1.71E2,1.21E2,2.16E2,1.1E1,5.3E1,2.42E2,1.07E2,4.44E2,1.41E2,1.98E2,8.8E1,2.1E1,1.9E1,4.7E1,2.4E1,1.2E1,9E0,1E1,1.4E1,6.6E1,7E0,3.6E1,3E1,1.8E1,3.2E1,1.3E1,8.2E1,5E1,4E0,6.5E1,1.06E2,3.8E1,8.3E1,1.28E2,8.8E1,1.3E1,4E1,1.43E2,9.9E1,8.5E1,2.2E1,5E1,3.94E2,1.36E2,5E0,6.3E1,1.35E2,1.6E1,5E0,1.3E1,6E0,1.2E1,3.5E1,2E1,4E0,3E0,7E0,7E0,1.1E1,3E0,2.9E1,1E1,4E1,3.2E1,3.3E1,5.5E1,5.1E1,1.1E1,2.7E1,4.9E1,3.4E1,5.2E1,7.6E1,6.2E1,2.6E1],"tree_param":{"num_deleted":"0","num_feature":"16","num_nodes":"103","size_leaf_vector":"1"}},{"base_weights":[-4.3074977E-2,-1.9768324E0,2.6003077E0,-3.309282E0,-1.0955613E0,1.6035604E0,5.0469675E0,-3.9003668E0,-2.6870425E0,-1.551007E0,-3.0454805E-1,1.086386E0,2.439559E0,4.2698545E0,7.1315794E0,-4.3022046E0,-3.6028898E0,-3.1226692E0,-2.480923E0,-1.8514289E0,-1.1834656E0,-4.8455042E-1,2.0201115E-1,8.7234706E-1,1.7556235E0,2.1781273E0,3.401378E-1,3.6483305E0,4.9511104E0,5.8138256E0,8.165106E-1,-4.4812393E-1,-3.4888652E-1,-3.9264685E-1,-3.324561E0,-3.1789628E-1,-1.6537325E-1,-1.8064424E0,-2.5634046E0,-1.5706143E0,-1.9566009E0,-1.0623343E0,-1.8707204E0,-5.832396E-1,3.2515272E-1,-1.9980511E-1,4.627408E-1,3.2934868E-1,1.1311848E0,1.8069052E0,4.749608E-3,1.9237363E0,2.5455603E-1,2.6399678E-1,3.989206E0,4.4197373E0,5.7357574E-1,3.1089002E-1,6.054789E-1,-2.1064448E-1,-3.4000948E-1,-1.9376148E-1,-6.989699E-2,-2.7580202E-1,-2.2860865E-1,-1.6348206E-1,-5.0626736E-2,-1.4940496E-1,-2.0377448E-1,-1.233747E-1,-8.6914234E-2,-7.400378E-2,-2.001158E-1,-1.3051747E-1,-4.4149134E-2,-3.246773E-2,8.1250824E-2,-3.4065932E-2,6.007687E-2,-5.7834912E-2,6.004503E-2,-6.7684907E-3,5.808266E-2,8.9918554E-2,1.4728485E-1,2.1280123E-2,1.8545042E-1,2.0141344E-1,1.4518556E-1,1.6284633E-1,4.059126E-1,4.864691E-1,3.5310718E-1],"categories":[],"categories_nodes":[],"categories_segments":[],"categories_sizes":[],"default_left":[0,0,0,0,0,0,0,0,0,0,0,0,0,0,0,0,0,0,0,0,0,0,0,0,0,0,0,0,0,0,0,0,0,0,0,0,0,0,0,0,0,0,0,0,0,0,0,0,0,0,0,0,0,0,0,0,0,0,0,0,0,0,0,0,0,0,0,0,0,0,0,0,0,0,0,0,0,0,0,0,0,0,0,0,0,0,0,0,0,0,0,0,0],"id":9,"left_children":[1,3,5,7,9,11,13,15,17,19,21,23,25,27,29,31,33,35,37,39,41,43,45,47,49,51,-1,53,55,57,-1,-1,-1,-1,59,-1,-1,61,63,65,67,69,71,73,75,77,79,81,83,85,-1,87,-1,-1,89,91,-1,-1,-1,-1,-1,-1,-1,-1,-1,-1,-1,-1,-1,-1,-1,-1,-1,-1,-1,-1,-1,-1,-1,-1,-1,-1,-1,-1,-1,-1,-1,-1,-1,-1,-1,-1,-1],"loss_changes":[1.1639281E4,1.5405127E3,2.3379375E3,1.8187695E2,2.8521674E2,2.9351416E2,4.1990332E2,1.6296143E1,1.5419189E1,5.3348877E1,2.6631805E1,5.934674E1,5.821985E1,6.873682E1,5.3312744E1,9.2163086E-2,1.2658691E0,1.2753906E0,5.3831787E0,5.048767E0,1.7076477E1,1.7370064E1,8.159394E0,4.516516E1,8.848938E0,1.4545044E1,0E0,2.7622192E1,1.4258789E1,4.640503E0,0E0,0E0,0E0,0E0,1.3027344E0,0E0,0E0,1.9868774E0,2.22229E0,4.639374E0,4.3120728E0,5.451462E0,3.3860245E0,1.9071724E1,7.864561E0,3.7003474E0,7.0855646E0,1.0622899E1,1.603482E1,7.117279E0,0E0,2.493225E0,0E0,0E0,6.76001E0,6.942749E0,0E0,0E0,0E0,0E0,0E0,0E0,0E0,0E0,0E0,0E0,0E0,0E0,0E0,0E0,0E0,0E0,0E0,0E0,0E0,0E0,0E0,0E0,0E0,0E0,0E0,0E0,0E0,0E0,0E0,0E0,0E0,0E0,0E0,0E0,0E0,0E0,0E0],"parents":[2147483647,0,0,1,1,2,2,3,3,4,4,5,5,6,6,7,7,8,8,9,9,10,10,11,11,12,12,13,13,14,14,15,15,16,16,17,17,18,18,19,19,20,20,21,21,22,22,23,23,24,24,25,25,27,27,28,28,29,29,34,34,37,37,38,38,39,39,40,40,41,41,42,42,43,43,44,44,45,45,46,46,47,47,48,48,49,49,51,51,54,54,55,55],"right_children":[2,4,6,8,10,12,14,16,18,20,22,24,26,28,30,32,34,36,38,40,42,44,46,48,50,52,-1,54,56,58,-1,-1,-1,-1,60,-1,-1,62,64,66,68,70,72,74,76,78,80,82,84,86,-1,88,-1,-1,90,92,-1,-1,-1,-1,-1,-1,-1,-1,-1,-1,-1,-1,-1,-1,-1,-1,-1,-1,-1,-1,-1,-1,-1,-1,-1,-1,-1,-1,-1,-1,-1,-1,-1,-1,-1,-1,-1],"split_conditions":[1.18E1,5.8E0,1.94E1,3.5E0,9.5E0,1.59E1,2.47E1,1.8E0,4.3E0,7.8E0,1.12E1,3.29E2,4.18E2,2.17E1,6.07E2,5.9E0,2.9E0,9.586E2,-2.4492937E-16,-2.4492937E-16,1E-1,3.14E2,3E0,1.29E1,1.67E2,1.76E1,3.401378E-1,-7.0710677E-1,4.94E2,1.9E0,8.165106E-1,-4.4812393E-1,-3.4888652E-1,-3.9264685E-1,-2.4492937E-16,-3.1789628E-1,-1.6537325E-1,1.0271E3,2.77E2,2.4E1,1.0008E3,3.9E0,4.6E0,-5E-1,3.4E0,2.93E2,1.0151E3,1.67E2,1.47E1,1.2E1,4.749608E-3,1E-1,2.5455603E-1,2.6399678E-1,4.9E1,7E1,5.7357574E-1,3.1089002E-1,6.054789E-1,-2.1064448E-1,-3.4000948E-1,-1.9376148E-1,-6.989699E-2,-2.7580202E-1,-2.2860865E-1,-1.6348206E-1,-5.0626736E-2,-1.4940496E-1,-2.0377448E-1,-1.233747E-1,-8.6914234E-2,-7.400378E-2,-2.001158E-1,-1.3051747E-1,-4.4149134E-2,-3.246773E-2,8.1250824E-2,-3.4065932E-2,6.007687E-2,-5.7834912E-2,6.004503E-2,-6.7684907E-3,5.808266E-2,8.9918554E-2,1.4728485E-1,2.1280123E-2,1.8545042E-1,2.0141344E-1,1.4518556E-1,1.6284633E-1,4.059126E-1,4.864691E-1,3.5310718E-1],"split_indices":[0,0,0,0,0,0,0,0,0,0,0,11,11,0,11,7,7,6,14,14,3,11,7,0,8,0,0,12,11,7,0,0,0,0,14,0,0,5,8,11,5,7,2,13,2,8,5,8,0,0,0,3,0,0,8,11,0,0,0,0,0,0,0,0,0,0,0,0,0,0,0,0,0,0,0,0,0,0,0,0,0,0,0,0,0,0,0,0,0,0,0,0,0],"split_type":[0,0,0,0,0,0,0,0,0,0,0,0,0,0,0,0,0,0,0,0,0,0,0,0,0,0,0,0,0,0,0,0,0,0,0,0,0,0,0,0,0,0,0,0,0,0,0,0,0,0,0,0,0,0,0,0,0,0,0,0,0,0,0,0,0,0,0,0,0,0,0,0,0,0,0,0,0,0,0,0,0,0,0,0,0,0,0,0,0,0,0,0,0],"sum_hessian":[2.275E3,1.314E3,9.61E2,5.22E2,7.92E2,6.84E2,2.77E2,2.65E2,2.57E2,5.02E2,2.9E2,4.24E2,2.6E2,2.04E2,7.3E1,1.07E2,1.58E2,7.8E1,1.79E2,2.74E2,2.28E2,2.14E2,7.6E1,3.23E2,1.01E2,2.07E2,5.3E1,1.1E2,9.4E1,3.5E1,3.8E1,8.4E1,2.3E1,6.7E1,9.1E1,7.4E1,4E0,2.2E1,1.57E2,7.9E1,1.95E2,1.96E2,3.2E1,1.91E2,2.3E1,3E1,4.6E1,1.05E2,2.18E2,9.8E1,3E0,1.26E2,8.1E1,3E1,8E1,6E1,3.4E1,4E0,3.1E1,7E0,8.4E1,1.9E1,3E0,8.7E1,7E1,7.4E1,5E0,3.2E1,1.63E2,1.01E2,9.5E1,4E0,2.8E1,3E1,1.61E2,1E1,1.3E1,2.6E1,4E0,5E0,4.1E1,4.1E1,6.4E1,1.32E2,8.6E1,3E0,9.5E1,1.03E2,2.3E1,3E0,7.7E1,3.7E1,2.3E1],"tree_param":{"num_deleted":"0","num_feature":"16","num_nodes":"93","size_leaf_vector":"1"}},{"base_weights":[-2.3294931E-2,-1.5380819E0,2.2581375E0,-1.85252E0,9.1837275E-1,4.684447E0,1.4697444E0,-7.9647213E-1,-2.3854825E0,-5.4195166E-2,1.6213851E0,7.18637E0,4.1422863E0,5.871413E-1,2.3429163E0,-1.1919718E0,-3.9115575E-1,-3.0845368E0,-1.9378422E0,-4.1194305E-1,1.5899988E0,2.6188555E0,1.0790024E0,4.6290302E-1,7.61451E-1,3.4383855E0,5.0973244E0,1.1155185E0,2.9519206E-1,3.4377084E0,1.8521378E0,-8.421506E-1,-1.5236044E0,1.2738004E0,-5.5103713E-1,-3.4544733E0,-2.6899266E0,-2.5106592E0,-1.2381759E0,-1.9465908E0,-6.93687E-2,5.4657627E-2,1.8770757E0,1.5159718E0,3.8497874E-1,6.6795135E-1,1.711217E0,2.9449477E0,5.063271E-1,4.386738E0,5.8903086E-1,5.7511455E-1,1.5144444E0,-5.5887982E-2,7.2055775E-1,3.0457664E-1,4.457179E0,1.5888233E0,2.562527E0,-1.382219E-1,-5.3939518E-2,-1.8718554E-1,-9.42832E-2,2.3380978E-1,-3.488337E-2,-4.416958E-2,-1.5409432E-1,-3.6199045E-1,-2.3332696E-1,-3.2116795E-1,-2.4741058E-1,-2.1837805E-1,-3.1808338E-1,-1.354629E-1,1.1293417E-1,-2.422701E-1,-6.267502E-2,8.909073E-2,-5.6275733E-2,2.2310682E-1,8.768182E-2,4.9936417E-2,1.982662E-1,1.2961659E-1,2.8943313E-2,2.1348782E-1,6.49993E-2,2.0880704E-1,3.224632E-1,2.9534742E-1,4.6709067E-1,8.858757E-3,9.7470276E-2,1.3290921E-1,2.761619E-1,-3.496537E-2,4.728252E-2,1.0346343E-1,2.6219888E-2,2.569636E-1,4.769365E-1,1.9098409E-1,1.3043776E-1,3.0102006E-1,2.0347743E-1],"categories":[],"categories_nodes":[],"categories_segments":[],"categories_sizes":[],"default_left":[0,0,0,0,0,0,0,0,0,0,0,0,0,0,0,0,0,0,0,0,0,0,0,0,0,0,0,0,0,0,0,0,0,0,0,0,0,0,0,0,0,0,0,0,0,0,0,0,0,0,0,0,0,0,0,0,0,0,0,0,0,0,0,0,0,0,0,0,0,0,0,0,0,0,0,0,0,0,0,0,0,0,0,0,0,0,0,0,0,0,0,0,0,0,0,0,0,0,0,0,0,0,0,0,0],"id":10,"left_children":[1,3,5,7,9,11,13,15,17,19,21,23,25,27,29,31,33,35,37,39,41,43,45,-1,-1,47,49,51,53,55,57,59,61,63,65,67,69,71,73,75,77,-1,79,81,-1,83,85,87,-1,89,-1,91,93,95,97,-1,99,101,103,-1,-1,-1,-1,-1,-1,-1,-1,-1,-1,-1,-1,-1,-1,-1,-1,-1,-1,-1,-1,-1,-1,-1,-1,-1,-1,-1,-1,-1,-1,-1,-1,-1,-1,-1,-1,-1,-1,-1,-1,-1,-1,-1,-1,-1,-1],"loss_changes":[7.8206836E3,1.0521692E3,1.7204502E3,6.768779E2,1.0606558E2,2.7000635E2,5.2498804E2,6.461655E1,2.446753E2,3.9476646E1,4.5865204E1,6.3582764E0,1.0616797E2,5.2273132E1,1.77927E2,2.249936E1,5.4473396E1,3.6107666E1,1.9367468E2,2.878017E1,2.5685425E0,3.6248642E1,1.4449341E1,0E0,0E0,7.248279E1,1.6985352E1,2.521434E1,3.304384E1,2.8379639E1,4.0634888E1,1.5932327E1,1.9269623E1,3.1900982E1,1.9343334E1,2.0674438E1,9.5078125E0,5.1982544E1,6.3012024E1,4.765465E0,2.2295668E1,0E0,1.2305107E0,7.5498657E0,0E0,8.660889E0,8.953133E0,1.3877075E1,0E0,4.125305E0,0E0,1.0217407E1,1.228006E1,1.9114098E1,1.4124699E1,0E0,3.654602E0,1.3671082E1,8.759369E0,0E0,0E0,0E0,0E0,0E0,0E0,0E0,0E0,0E0,0E0,0E0,0E0,0E0,0E0,0E0,0E0,0E0,0E0,0E0,0E0,0E0,0E0,0E0,0E0,0E0,0E0,0E0,0E0,0E0,0E0,0E0,0E0,0E0,0E0,0E0,0E0,0E0,0E0,0E0,0E0,0E0,0E0,0E0,0E0,0E0,0E0],"parents":[2147483647,0,0,1,1,2,2,3,3,4,4,5,5,6,6,7,7,8,8,9,9,10,10,11,11,12,12,13,13,14,14,15,15,16,16,17,17,18,18,19,19,20,20,21,21,22,22,25,25,26,26,27,27,28,28,29,29,30,30,31,31,32,32,33,33,34,34,35,35,36,36,37,37,38,38,39,39,40,40,42,42,43,43,45,45,46,46,47,47,49,49,51,51,52,52,53,53,54,54,56,56,57,57,58,58],"right_children":[2,4,6,8,10,12,14,16,18,20,22,24,26,28,30,32,34,36,38,40,42,44,46,-1,-1,48,50,52,54,56,58,60,62,64,66,68,70,72,74,76,78,-1,80,82,-1,84,86,88,-1,90,-1,92,94,96,98,-1,100,102,104,-1,-1,-1,-1,-1,-1,-1,-1,-1,-1,-1,-1,-1,-1,-1,-1,-1,-1,-1,-1,-1,-1,-1,-1,-1,-1,-1,-1,-1,-1,-1,-1,-1,-1,-1,-1,-1,-1,-1,-1,-1,-1,-1,-1,-1,-1],"split_conditions":[7.7E0,3.14E2,6.7E1,-2.4492937E-16,4.18E2,4.2E1,1.24E1,9.509E2,8.660254E-1,2.05E1,4E1,4.18E2,1.43E1,8.1E1,7.7E1,6.4E1,4.4E1,1.0199E3,1.0145E3,-1.7E0,-1.8E0,1E0,5E0,4.6290302E-1,7.61451E-1,6.67E2,4.55E2,9.7E0,1.03E1,1.61E1,1.55E1,-2.6E0,6E0,-8.660254E-1,2E-1,1.37E2,7.9E1,8.4E1,1.73E1,3.67E2,5.9E1,5.4657627E-2,3.69E2,-3.5E0,3.8497874E-1,-2.4492937E-16,6.6E1,1E1,5.063271E-1,-8.660254E-1,5.8903086E-1,3.9E0,4.55E2,9.546E2,9.3E1,3.0457664E-1,1.9E0,8.7E1,8.6E1,-1.382219E-1,-5.3939518E-2,-1.8718554E-1,-9.42832E-2,2.3380978E-1,-3.488337E-2,-4.416958E-2,-1.5409432E-1,-3.6199045E-1,-2.3332696E-1,-3.2116795E-1,-2.4741058E-1,-2.1837805E-1,-3.1808338E-1,-1.354629E-1,1.1293417E-1,-2.422701E-1,-6.267502E-2,8.909073E-2,-5.6275733E-2,2.2310682E-1,8.768182E-2,4.9936417E-2,1.982662E-1,1.2961659E-1,2.8943313E-2,2.1348782E-1,6.49993E-2,2.0880704E-1,3.224632E-1,2.9534742E-1,4.6709067E-1,8.858757E-3,9.7470276E-2,1.3290921E-1,2.761619E-1,-3.496537E-2,4.728252E-2,1.0346343E-1,2.6219888E-2,2.569636E-1,4.769365E-1,1.9098409E-1,1.3043776E-1,3.0102006E-1,2.0347743E-1],"split_indices":[2,11,1,14,11,1,2,6,14,9,1,11,2,1,1,1,1,5,5,2,2,2,2,0,0,11,11,2,2,2,2,2,2,14,3,11,10,1,9,11,1,0,11,2,0,14,1,2,0,14,0,7,11,6,10,0,7,1,1,0,0,0,0,0,0,0,0,0,0,0,0,0,0,0,0,0,0,0,0,0,0,0,0,0,0,0,0,0,0,0,0,0,0,0,0,0,0,0,0,0,0,0,0,0,0],"split_type":[0,0,0,0,0,0,0,0,0,0,0,0,0,0,0,0,0,0,0,0,0,0,0,0,0,0,0,0,0,0,0,0,0,0,0,0,0,0,0,0,0,0,0,0,0,0,0,0,0,0,0,0,0,0,0,0,0,0,0,0,0,0,0,0,0,0,0,0,0,0,0,0,0,0,0,0,0,0,0,0,0,0,0,0,0,0,0,0,0,0,0,0,0,0,0,0,0,0,0,0,0,0,0,0,0],"sum_hessian":[2.261E3,1.359E3,9.02E2,1.205E3,1.54E2,2.2E2,6.82E2,4.05E2,8E2,6.5E1,8.9E1,3.7E1,1.83E2,3.4E2,3.42E2,2.04E2,2.01E2,3.1E2,4.9E2,5.4E1,1.1E1,3E1,5.9E1,7E0,3E1,1.08E2,7.5E1,1.2E2,2.2E2,1.04E2,2.38E2,1.01E2,1.03E2,1.7E1,1.84E2,1.56E2,1.54E2,2.68E2,2.22E2,9E0,4.5E1,3E0,8E0,1.7E1,1.3E1,3.7E1,2.2E1,8.5E1,2.3E1,4.3E1,3.2E1,5.2E1,6.8E1,1.21E2,9.9E1,7.8E1,2.6E1,1.76E2,6.2E1,3.5E1,6.6E1,6.3E1,4E1,1E1,7E0,1.67E2,1.7E1,1.34E2,2.2E1,4.1E1,1.13E2,1.83E2,8.5E1,2.12E2,1E1,6E0,3E0,1.5E1,3E1,5E0,3E0,6E0,1.1E1,1.3E1,2.4E1,1.5E1,7E0,2.3E1,6.2E1,9E0,3.4E1,2.4E1,2.8E1,6.1E1,7E0,7.8E1,4.3E1,5.8E1,4.1E1,5E0,2.1E1,8E1,9.6E1,3.1E1,3.1E1],"tree_param":{"num_deleted":"0","num_feature":"16","num_nodes":"105","size_leaf_vector":"1"}},{"base_weights":[1.9929286E-2,-1.4738781E0,2.3615508E0,-2.5808897E0,-6.368833E-1,1.6883351E0,4.699079E0,-3.0923698E0,-1.9504179E0,-1.0436491E0,6.980682E-2,1.0900679E0,2.3907382E0,4.19008E0,6.800666E0,-3.5833204E0,-2.8395994E0,-1.7981513E0,-2.2180036E-1,-1.3126878E0,-7.122132E-1,-7.1061745E-2,8.026364E-1,9.7396266E-1,1.7925296E0,2.1246362E0,3.1655192E-1,3.6981082E0,4.9044797E-1,4.1069123E-1,7.093224E-1,-3.7074444E-1,-2.806769E-1,-3.0283517E-1,-2.6084328E-1,-2.4078004E-1,-1.7314264E0,-1.5683312E0,-1.2100067E0,-6.1706465E-1,-1.4601367E0,-2.4163188E-1,2.1523026E-1,6.351684E-2,1.054234E0,7.3729867E-1,1.2956945E0,1.1043347E0,1.9300917E0,1.8137076E0,2.6017315E0,3.327409E0,4.264701E-1,-1.15927935E-1,-1.7812447E-1,-1.8609296E-1,-1.1078546E-1,-1.2347417E-1,1.1502648E-3,-9.481708E-3,-6.894746E-2,-8.6480886E-2,-1.5657282E-1,-1.0330043E-1,-1.9119365E-2,-2.519852E-2,3.838355E-2,9.411092E-2,-2.938718E-2,4.9033754E-2,1.327122E-1,6.4147584E-2,2.2295713E-1,1.4953813E-1,1.0405751E-1,3.7918758E-2,1.3288663E-1,2.0081349E-1,9.509462E-2,1.9114026E-1,1.3657275E-1,2.2808893E-1,3.0374616E-1,2.1798621E-1,3.428322E-1],"categories":[],"categories_nodes":[],"categories_segments":[],"categories_sizes":[],"default_left":[0,0,0,0,0,0,0,0,0,0,0,0,0,0,0,0,0,0,0,0,0,0,0,0,0,0,0,0,0,0,0,0,0,0,0,0,0,0,0,0,0,0,0,0,0,0,0,0,0,0,0,0,0,0,0,0,0,0,0,0,0,0,0,0,0,0,0,0,0,0,0,0,0,0,0,0,0,0,0,0,0,0,0,0,0],"id":11,"left_children":[1,3,5,7,9,11,13,15,17,19,21,23,25,27,29,31,33,35,-1,37,39,41,43,45,47,49,-1,51,-1,-1,-1,-1,-1,-1,-1,-1,53,55,57,59,61,63,65,67,69,71,73,75,77,79,81,83,-1,-1,-1,-1,-1,-1,-1,-1,-1,-1,-1,-1,-1,-1,-1,-1,-1,-1,-1,-1,-1,-1,-1,-1,-1,-1,-1,-1,-1,-1,-1,-1,-1],"loss_changes":[7.9752656E3,1.2881321E3,1.3894775E3,1.8713037E2,2.2831396E2,2.877694E2,1.8330664E2,3.0652832E1,7.0533447E0,4.4006287E1,3.0097738E1,2.8838959E1,5.8630493E1,3.8799805E1,2.758789E-2,4.1503906E-3,1.7874756E0,3.0718994E0,0E0,5.373535E0,1.5324356E1,1.2016059E1,8.673193E0,2.3714783E1,2.791336E0,3.0735107E1,0E0,6.8132324E0,0E0,0E0,0E0,0E0,0E0,0E0,0E0,0E0,2.6096191E0,8.178207E0,6.1174316E0,7.649063E0,2.1748352E-1,5.9494715E0,7.344019E0,4.3539057E0,4.7350845E0,2.5595634E1,5.3723145E0,1.2871141E0,1.2998352E0,3.8668213E0,5.9335327E0,5.3894043E-2,0E0,0E0,0E0,0E0,0E0,0E0,0E0,0E0,0E0,0E0,0E0,0E0,0E0,0E0,0E0,0E0,0E0,0E0,0E0,0E0,0E0,0E0,0E0,0E0,0E0,0E0,0E0,0E0,0E0,0E0,0E0,0E0,0E0],"parents":[2147483647,0,0,1,1,2,2,3,3,4,4,5,5,6,6,7,7,8,8,9,9,10,10,11,11,12,12,13,13,14,14,15,15,16,16,17,17,19,19,20,20,21,21,22,22,23,23,24,24,25,25,27,27,36,36,37,37,38,38,39,39,40,40,41,41,42,42,43,43,44,44,45,45,46,46,47,47,48,48,49,49,50,50,51,51],"right_children":[2,4,6,8,10,12,14,16,18,20,22,24,26,28,30,32,34,36,-1,38,40,42,44,46,48,50,-1,52,-1,-1,-1,-1,-1,-1,-1,-1,54,56,58,60,62,64,66,68,70,72,74,76,78,80,82,84,-1,-1,-1,-1,-1,-1,-1,-1,-1,-1,-1,-1,-1,-1,-1,-1,-1,-1,-1,-1,-1,-1,-1,-1,-1,-1,-1,-1,-1,-1,-1,-1,-1],"split_conditions":[1.26E1,6.5E0,2.12E1,4.3E0,1.03E1,1.65E1,2.83E1,1.8E0,8.1E1,8.5E0,3.14E2,4.32E2,4.25E2,5.34E2,2.77E2,1.017E3,3.1E0,-5.9E0,-2.2180036E-1,-1.1E0,2E-1,9.546E2,2.6E0,1.49E1,1.34E1,1.89E1,3.1655192E-1,2.39E1,4.9044797E-1,4.1069123E-1,7.093224E-1,-3.7074444E-1,-2.806769E-1,-3.0283517E-1,-2.6084328E-1,-2.4078004E-1,5.4E1,7.0710677E-1,3.89E2,1.0084E3,1.0155E3,-2.7E0,5.8E0,2.8E1,4E0,-2.4492937E-16,8.3E1,4.74E2,9.6E1,1E-1,6.123234E-17,9.487E2,4.264701E-1,-1.15927935E-1,-1.7812447E-1,-1.8609296E-1,-1.1078546E-1,-1.2347417E-1,1.1502648E-3,-9.481708E-3,-6.894746E-2,-8.6480886E-2,-1.5657282E-1,-1.0330043E-1,-1.9119365E-2,-2.519852E-2,3.838355E-2,9.411092E-2,-2.938718E-2,4.9033754E-2,1.327122E-1,6.4147584E-2,2.2295713E-1,1.4953813E-1,1.0405751E-1,3.7918758E-2,1.3288663E-1,2.0081349E-1,9.509462E-2,1.9114026E-1,1.3657275E-1,2.2808893E-1,3.0374616E-1,2.1798621E-1,3.428322E-1],"split_indices":[0,0,0,0,0,0,0,0,1,0,11,11,11,11,11,5,0,2,0,2,3,6,2,0,0,0,0,0,0,0,0,0,0,0,0,0,1,13,11,5,5,2,2,1,10,14,10,11,10,3,13,6,0,0,0,0,0,0,0,0,0,0,0,0,0,0,0,0,0,0,0,0,0,0,0,0,0,0,0,0,0,0,0,0,0],"split_type":[0,0,0,0,0,0,0,0,0,0,0,0,0,0,0,0,0,0,0,0,0,0,0,0,0,0,0,0,0,0,0,0,0,0,0,0,0,0,0,0,0,0,0,0,0,0,0,0,0,0,0,0,0,0,0,0,0,0,0,0,0,0,0,0,0,0,0,0,0,0,0,0,0,0,0,0,0,0,0,0,0,0,0,0,0],"sum_hessian":[2.278E3,1.391E3,8.87E2,5.98E2,7.93E2,6.9E2,1.97E2,3.28E2,2.7E2,5.03E2,2.9E2,3.74E2,3.16E2,1.61E2,3.6E1,1.07E2,2.21E2,1.77E2,9.3E1,2.76E2,2.27E2,2.44E2,4.6E1,3.23E2,5.1E1,2.38E2,7.8E1,9.9E1,6.2E1,5E0,3.1E1,8.9E1,1.8E1,1.15E2,1.06E2,1.4E1,1.63E2,7.5E1,2.01E2,2.03E2,2.4E1,1.53E2,9.1E1,1.2E1,3.4E1,1.88E2,1.35E2,1E1,4.1E1,1.47E2,9.1E1,6.4E1,3.5E1,1.5E1,1.48E2,4.4E1,3.1E1,1.97E2,4E0,2.5E1,1.78E2,5E0,1.9E1,8E0,1.45E2,2.4E1,6.7E1,3E0,9E0,1.2E1,2.2E1,1.78E2,1E1,7.3E1,6.2E1,3E0,7E0,3.7E1,4E0,1.18E2,2.9E1,5.6E1,3.5E1,7E0,5.7E1],"tree_param":{"num_deleted":"0","num_feature":"16","num_nodes":"85","size_leaf_vector":"1"}},{"base_weights":[2.8128017E-2,-1.4457909E0,1.9823177E0,-2.4677672E0,-7.845842E-1,1.3917146E0,4.284617E0,-2.9559803E0,-2.097365E0,-1.1858077E0,-2.7189708E-1,9.023469E-1,2.1808505E0,3.8023787E0,6.118511E-1,-3.131085E0,-2.4648933E0,-2.3097873E0,-1.8472018E0,-1.3153245E0,-8.763633E-1,-5.7853615E-1,-4.5884833E-2,4.760192E-1,1.1309173E0,1.8742554E0,2.6980872E0,3.3034375E0,4.3732443E0,-3.5260412E-1,-2.9356432E-1,-1.0685128E-1,-2.542773E-1,-1.4962597E-1,-2.361541E0,-1.9416995E0,-1.3095587E0,-1.5323839E0,-1.2156965E0,-7.061609E-1,-1.1231601E0,-3.4701452E-1,-8.1810045E-1,6.862096E-1,-1.1686762E-1,3.611075E-1,1.0262384E0,1.0328591E0,1.7792464E0,1.6457481E0,2.2372854E0,1.3207547E-1,2.823871E0,2.681468E0,3.687049E0,2.4038748E-1,4.4537386E-1,-1.9517586E-1,-2.4479058E-1,-1.7810422E-1,-2.2537051E-1,-6.885645E-2,-1.3993295E-1,-1.4018576E-1,-1.874363E-1,-1.4852431E-1,-1.09904826E-1,-5.10184E-3,-8.069433E-2,-3.5817202E-2,-1.1953845E-1,5.438588E-2,-4.438713E-2,-9.0420485E-2,-1.6239405E-3,1.8970745E-2,1.0644406E-1,-2.5048679E-2,6.964184E-3,1.3624722E-2,7.1840666E-2,-1.0808983E-2,1.2120545E-1,9.867563E-2,2.290935E-1,7.821967E-2,1.8683021E-1,1.343727E-1,1.8395135E-1,2.6630697E-1,1.797445E-1,2.3074925E-1,3.0584764E-1,1.3430715E-1,2.7578142E-1,3.7785324E-1,1.6217422E-1],"categories":[],"categories_nodes":[],"categories_segments":[],"categories_sizes":[],"default_left":[0,0,0,0,0,0,0,0,0,0,0,0,0,0,0,0,0,0,0,0,0,0,0,0,0,0,0,0,0,0,0,0,0,0,0,0,0,0,0,0,0,0,0,0,0,0,0,0,0,0,0,0,0,0,0,0,0,0,0,0,0,0,0,0,0,0,0,0,0,0,0,0,0,0,0,0,0,0,0,0,0,0,0,0,0,0,0,0,0,0,0,0,0,0,0,0,0],"id":12,"left_children":[1,3,5,7,9,11,13,15,17,19,21,23,25,27,-1,29,31,33,35,37,39,41,43,45,47,49,51,53,55,-1,-1,-1,-1,-1,57,59,61,63,65,67,69,71,73,75,77,79,81,83,85,87,89,-1,91,93,95,-1,-1,-1,-1,-1,-1,-1,-1,-1,-1,-1,-1,-1,-1,-1,-1,-1,-1,-1,-1,-1,-1,-1,-1,-1,-1,-1,-1,-1,-1,-1,-1,-1,-1,-1,-1,-1,-1,-1,-1,-1,-1],"loss_changes":[6.57863E3,8.778738E2,1.3293069E3,8.620703E1,1.6259372E2,3.004093E2,1.5360962E2,1.1028442E1,1.1356567E1,1.6641968E1,2.4160612E1,4.67229E1,4.235913E1,3.1410645E1,0E0,1.7677002E0,4.0254517E0,2.9924927E0,4.5700684E0,4.862549E0,4.835602E0,7.9248276E0,1.0577349E1,1.0441174E1,1.818811E1,1.2162415E1,1.5154053E1,1.1586853E1,7.0739746E-1,0E0,0E0,0E0,0E0,0E0,3.1860352E-1,1.8508301E0,3.744011E-1,1.5682831E0,5.222046E0,5.373028E0,2.5001373E0,6.8855095E0,4.9564705E0,3.1783333E0,4.6278734E0,1.1391083E1,6.243532E0,1.374762E1,2.090332E0,4.609253E0,8.509949E0,0E0,4.935974E0,1.7895508E-1,3.8861084E0,0E0,0E0,0E0,0E0,0E0,0E0,0E0,0E0,0E0,0E0,0E0,0E0,0E0,0E0,0E0,0E0,0E0,0E0,0E0,0E0,0E0,0E0,0E0,0E0,0E0,0E0,0E0,0E0,0E0,0E0,0E0,0E0,0E0,0E0,0E0,0E0,0E0,0E0,0E0,0E0,0E0,0E0],"parents":[2147483647,0,0,1,1,2,2,3,3,4,4,5,5,6,6,7,7,8,8,9,9,10,10,11,11,12,12,13,13,15,15,16,16,17,17,18,18,19,19,20,20,21,21,22,22,23,23,24,24,25,25,26,26,27,27,28,28,34,34,35,35,36,36,37,37,38,38,39,39,40,40,41,41,42,42,43,43,44,44,45,45,46,46,47,47,48,48,49,49,50,50,52,52,53,53,54,54],"right_children":[2,4,6,8,10,12,14,16,18,20,22,24,26,28,-1,30,32,34,36,38,40,42,44,46,48,50,52,54,56,-1,-1,-1,-1,-1,58,60,62,64,66,68,70,72,74,76,78,80,82,84,86,88,90,-1,92,94,96,-1,-1,-1,-1,-1,-1,-1,-1,-1,-1,-1,-1,-1,-1,-1,-1,-1,-1,-1,-1,-1,-1,-1,-1,-1,-1,-1,-1,-1,-1,-1,-1,-1,-1,-1,-1,-1,-1,-1,-1,-1,-1],"split_conditions":[1.18E1,5.8E0,2.15E1,3E0,9.2E0,1.67E1,2.83E1,1.0104E3,4.6E0,8.1E0,1.03E1,1.33E1,3.04E2,4.53E2,6.118511E-1,1.1E0,-2.4492937E-16,-2.4492937E-16,1.026E3,6.5E0,4.9E0,2.5881904E-1,-8.660254E-1,3.85E2,4.55E2,1.91E1,9.4E0,2.3E1,1.0086E3,-3.5260412E-1,-2.9356432E-1,-1.0685128E-1,-2.542773E-1,-1.4962597E-1,6.8E1,1.0187E3,-2.4492937E-16,8.660254E-1,5.4E0,-7.0710677E-1,1.0084E3,-2.4E0,1.8E1,1.0225E3,1.0209E3,9.552E2,1.2E1,-2.4492937E-16,1.0077E3,6.123234E-17,4.7E1,1.3207547E-1,1.84E1,2.17E1,1.0209E3,2.4038748E-1,4.4537386E-1,-1.9517586E-1,-2.4479058E-1,-1.7810422E-1,-2.2537051E-1,-6.885645E-2,-1.3993295E-1,-1.4018576E-1,-1.874363E-1,-1.4852431E-1,-1.09904826E-1,-5.10184E-3,-8.069433E-2,-3.5817202E-2,-1.1953845E-1,5.438588E-2,-4.438713E-2,-9.0420485E-2,-1.6239405E-3,1.8970745E-2,1.0644406E-1,-2.5048679E-2,6.964184E-3,1.3624722E-2,7.1840666E-2,-1.0808983E-2,1.2120545E-1,9.867563E-2,2.290935E-1,7.821967E-2,1.8683021E-1,1.343727E-1,1.8395135E-1,2.6630697E-1,1.797445E-1,2.3074925E-1,3.0584764E-1,1.3430715E-1,2.7578142E-1,3.7785324E-1,1.6217422E-1],"split_indices":[0,0,0,0,0,0,0,5,0,0,0,0,11,11,0,0,14,14,5,0,2,12,13,11,11,0,9,0,5,0,0,0,0,0,1,5,14,12,9,13,5,2,9,5,5,6,0,14,5,13,11,0,0,0,5,0,0,0,0,0,0,0,0,0,0,0,0,0,0,0,0,0,0,0,0,0,0,0,0,0,0,0,0,0,0,0,0,0,0,0,0,0,0,0,0,0,0],"split_type":[0,0,0,0,0,0,0,0,0,0,0,0,0,0,0,0,0,0,0,0,0,0,0,0,0,0,0,0,0,0,0,0,0,0,0,0,0,0,0,0,0,0,0,0,0,0,0,0,0,0,0,0,0,0,0,0,0,0,0,0,0,0,0,0,0,0,0,0,0,0,0,0,0,0,0,0,0,0,0,0,0,0,0,0,0,0,0,0,0,0,0,0,0,0,0,0,0],"sum_hessian":[2.282E3,1.301E3,9.81E2,5.1E2,7.91E2,7.82E2,1.99E2,2.17E2,2.93E2,4.43E2,3.48E2,4.84E2,2.98E2,1.6E2,3.9E1,1.56E2,6.1E1,1.54E2,1.39E2,3.1E2,1.33E2,1.47E2,2.01E2,1.7E2,3.14E2,1.9E2,1.08E2,8.9E1,7.1E1,4.6E1,1.1E2,4E0,5.7E1,1.1E1,1.43E2,1.16E2,2.3E1,9.3E1,2.17E2,8.1E1,5.2E1,7.6E1,7.1E1,1.7E1,1.84E2,1.42E2,2.8E1,2.75E2,3.9E1,1.2E2,7E1,1E1,9.8E1,3.7E1,5.2E1,4E0,6.7E1,2.9E1,1.14E2,8.1E1,3.5E1,4E0,1.9E1,7.1E1,2.2E1,6.2E1,1.55E2,1.1E1,7E1,5E0,4.7E1,7E0,6.9E1,6.4E1,7E0,8E0,9E0,1.07E2,7.7E1,8.8E1,5.4E1,4E0,2.4E1,2.67E2,8E0,4E0,3.5E1,5E1,7E1,3.3E1,3.7E1,3.4E1,6.4E1,3E0,3.4E1,4.9E1,3E0],"tree_param":{"num_deleted":"0","num_feature":"16","num_nodes":"97","size_leaf_vector":"1"}},{"base_weights":[2.0249737E-2,-1.3050854E0,1.7686007E0,-2.2651968E0,-7.444091E-1,1.1482724E0,3.6604722E0,-2.7054617E0,-1.9367418E0,-1.0893214E0,-2.3307323E-1,7.7741253E-1,1.8358606E0,3.24593E0,5.633794E0,-2.8720856E0,-2.1796942E0,-2.10825E0,-1.6581687E0,-1.3804892E0,-9.3593025E-1,-4.1041064E-1,4.14159E-2,5.6815183E-1,1.107204E0,1.5685949E0,2.4541502E0,2.7639716E0,3.7914503E0,3.4800112E-1,5.974866E-1,-3.3038494E-1,-2.6922408E-1,-2.2341943E0,-9.535208E-2,-2.2701387E-1,-1.8212093E0,-1.7666221E0,-1.0763748E0,-1.6112852E0,-1.1416922E0,-1.1535897E0,-8.4410226E-1,-6.498984E-1,-1.9791754E-1,-6.178495E-2,4.6453416E-1,2.2841376E-1,8.266079E-1,8.056012E-1,1.3590243E0,1.3924661E0,1.8139709E0,8.0134295E-2,2.5103269E0,2.3886497E0,3.269703E-1,4.554008E-1,3.5057876E0,-9.598406E-2,-2.2951138E-1,-2.0367408E-1,-1.4946802E-1,-1.8141751E-1,-7.826664E-2,-4.422925E-2,-1.20725214E-1,-9.7410955E-2,-1.6482845E-1,-1.17454045E-1,-3.7464295E-2,-1.6795877E-1,-8.130895E-2,-1.2037995E-1,-7.539939E-2,-3.663037E-2,-9.990465E-2,-3.6361784E-2,4.0408842E-2,1.0461368E-2,-4.2212944E-2,-3.7266012E-2,7.343255E-2,3.158568E-2,-3.0366391E-2,3.4514442E-2,1.0794115E-1,1.1458751E-1,7.0173256E-2,1.1688202E-1,1.5983866E-1,1.2657803E-1,1.8531905E-1,1.5434717E-1,2.2276746E-1,1.3549002E-1,2.5923514E-1,2.921501E-1,2.0109105E-1,3.5760665E-1,1.848835E-1],"categories":[],"categories_nodes":[],"categories_segments":[],"categories_sizes":[],"default_left":[0,0,0,0,0,0,0,0,0,0,0,0,0,0,0,0,0,0,0,0,0,0,0,0,0,0,0,0,0,0,0,0,0,0,0,0,0,0,0,0,0,0,0,0,0,0,0,0,0,0,0,0,0,0,0,0,0,0,0,0,0,0,0,0,0,0,0,0,0,0,0,0,0,0,0,0,0,0,0,0,0,0,0,0,0,0,0,0,0,0,0,0,0,0,0,0,0,0,0,0,0],"id":13,"left_children":[1,3,5,7,9,11,13,15,17,19,21,23,25,27,29,31,33,35,37,39,41,43,45,47,49,51,53,55,57,-1,-1,-1,-1,59,-1,-1,61,63,65,67,69,71,73,75,77,79,81,83,85,87,89,91,93,-1,95,97,-1,-1,99,-1,-1,-1,-1,-1,-1,-1,-1,-1,-1,-1,-1,-1,-1,-1,-1,-1,-1,-1,-1,-1,-1,-1,-1,-1,-1,-1,-1,-1,-1,-1,-1,-1,-1,-1,-1,-1,-1,-1,-1,-1,-1],"loss_changes":[5.3201704E3,7.013489E2,1.1576423E3,6.431616E1,1.454245E2,1.8905695E2,1.8131128E2,1.152356E1,9.834106E0,2.0726562E1,1.6275183E1,3.298001E1,3.928003E1,4.315576E1,9.325806E0,2.8304443E0,1.4114532E0,3.718811E0,5.1022644E0,7.419464E0,5.542053E0,1.0201942E1,5.7926354E0,2.6153404E1,1.3183716E1,5.4694214E0,5.1377563E0,1.34487915E1,4.293213E0,0E0,0E0,0E0,0E0,1.6787109E0,0E0,0E0,1.6006317E0,2.8847961E0,1.1257801E0,3.5110474E-1,1.7268448E0,1.5469971E1,6.644272E0,9.040615E0,1.1019963E1,6.4599695E0,6.146214E0,6.1908827E0,2.0319115E1,2.3061523E0,2.7300568E0,4.1914062E0,4.842743E0,0E0,3.500824E0,7.8121033E0,0E0,0E0,1.7727661E0,0E0,0E0,0E0,0E0,0E0,0E0,0E0,0E0,0E0,0E0,0E0,0E0,0E0,0E0,0E0,0E0,0E0,0E0,0E0,0E0,0E0,0E0,0E0,0E0,0E0,0E0,0E0,0E0,0E0,0E0,0E0,0E0,0E0,0E0,0E0,0E0,0E0,0E0,0E0,0E0,0E0,0E0],"parents":[2147483647,0,0,1,1,2,2,3,3,4,4,5,5,6,6,7,7,8,8,9,9,10,10,11,11,12,12,13,13,14,14,15,15,16,16,17,17,18,18,19,19,20,20,21,21,22,22,23,23,24,24,25,25,26,26,27,27,28,28,33,33,36,36,37,37,38,38,39,39,40,40,41,41,42,42,43,43,44,44,45,45,46,46,47,47,48,48,49,49,50,50,51,51,52,52,54,54,55,55,58,58],"right_children":[2,4,6,8,10,12,14,16,18,20,22,24,26,28,30,32,34,36,38,40,42,44,46,48,50,52,54,56,58,-1,-1,-1,-1,60,-1,-1,62,64,66,68,70,72,74,76,78,80,82,84,86,88,90,92,94,-1,96,98,-1,-1,100,-1,-1,-1,-1,-1,-1,-1,-1,-1,-1,-1,-1,-1,-1,-1,-1,-1,-1,-1,-1,-1,-1,-1,-1,-1,-1,-1,-1,-1,-1,-1,-1,-1,-1,-1,-1,-1,-1,-1,-1,-1,-1],"split_conditions":[1.18E1,5.5E0,2.04E1,2.8E0,9.2E0,1.65E1,2.83E1,5.7E0,4.6E0,6.8E0,1.09E1,1.45E1,3.46E2,2.3E1,2.77E2,1E0,1.0235E3,3.8E0,1.026E3,4.4E0,-2.5881904E-1,3.4E0,6.6E0,4.4E0,3.4E0,2.73E2,5.1E1,4.32E2,-8.660254E-1,3.4800112E-1,5.974866E-1,-3.3038494E-1,-2.6922408E-1,-2.4492937E-16,-9.535208E-2,-2.2701387E-1,1.0068E3,3.38E2,7.4E1,5.2E1,6.7E0,2.3E0,1.83E2,1E1,3.14E2,-5E-1,1.0115E3,8.660254E-1,1.0147E3,-1.8369701E-16,1.56E1,2.6E2,1.84E1,8.0134295E-2,2.3E0,7E0,3.269703E-1,4.554008E-1,1.0209E3,-9.598406E-2,-2.2951138E-1,-2.0367408E-1,-1.4946802E-1,-1.8141751E-1,-7.826664E-2,-4.422925E-2,-1.20725214E-1,-9.7410955E-2,-1.6482845E-1,-1.17454045E-1,-3.7464295E-2,-1.6795877E-1,-8.130895E-2,-1.2037995E-1,-7.539939E-2,-3.663037E-2,-9.990465E-2,-3.6361784E-2,4.0408842E-2,1.0461368E-2,-4.2212944E-2,-3.7266012E-2,7.343255E-2,3.158568E-2,-3.0366391E-2,3.4514442E-2,1.0794115E-1,1.1458751E-1,7.0173256E-2,1.1688202E-1,1.5983866E-1,1.2657803E-1,1.8531905E-1,1.5434717E-1,2.2276746E-1,1.3549002E-1,2.5923514E-1,2.921501E-1,2.0109105E-1,3.5760665E-1,1.848835E-1],"split_indices":[0,0,0,0,0,0,0,7,0,0,0,0,11,0,11,0,5,7,5,7,13,7,7,7,7,8,8,11,13,0,0,0,0,14,0,0,5,11,1,1,0,2,8,11,11,14,5,15,5,15,0,11,0,0,7,11,0,0,5,0,0,0,0,0,0,0,0,0,0,0,0,0,0,0,0,0,0,0,0,0,0,0,0,0,0,0,0,0,0,0,0,0,0,0,0,0,0,0,0,0,0],"split_type":[0,0,0,0,0,0,0,0,0,0,0,0,0,0,0,0,0,0,0,0,0,0,0,0,0,0,0,0,0,0,0,0,0,0,0,0,0,0,0,0,0,0,0,0,0,0,0,0,0,0,0,0,0,0,0,0,0,0,0,0,0,0,0,0,0,0,0,0,0,0,0,0,0,0,0,0,0,0,0,0,0,0,0,0,0,0,0,0,0,0,0,0,0,0,0,0,0,0,0,0,0],"sum_hessian":[2.294E3,1.305E3,9.89E2,4.8E2,8.25E2,7.46E2,2.43E2,2.02E2,2.78E2,4.92E2,3.33E2,4.86E2,2.6E2,2.03E2,4E1,1.5E2,5.2E1,1.68E2,1.1E2,1.67E2,3.25E2,2.02E2,1.31E2,2.99E2,1.87E2,1.84E2,7.6E1,1.11E2,9.2E1,7E0,3.3E1,3.9E1,1.11E2,4.9E1,3E0,1.03E2,6.5E1,9.1E1,1.9E1,8.2E1,8.5E1,9.3E1,2.32E2,9.4E1,1.08E2,1.06E2,2.5E1,1.3E2,1.69E2,8.7E1,1E2,1.11E2,7.3E1,3E0,7.3E1,6.7E1,4.4E1,2.1E1,7.1E1,3E0,4.6E1,3.6E1,2.9E1,8.6E1,5E0,4E0,1.5E1,6E0,7.6E1,8.1E1,4E0,3.5E1,5.8E1,4.4E1,1.88E2,5.3E1,4.1E1,8.5E1,2.3E1,7.3E1,3.3E1,6E0,1.9E1,1.12E2,1.8E1,5.9E1,1.1E2,1.8E1,6.9E1,5.9E1,4.1E1,9E1,2.1E1,4.7E1,2.6E1,6E0,6.7E1,2.5E1,4.2E1,6.7E1,4E0],"tree_param":{"num_deleted":"0","num_feature":"16","num_nodes":"101","size_leaf_vector":"1"}},{"base_weights":[-1.4518728E-2,-1.1620024E0,1.6275434E0,-2.0298278E0,-6.128284E-1,9.113231E-1,2.9225717E0,-2.4421294E0,-1.7308108E0,-9.6220267E-1,-1.5244085E-1,6.5102273E-1,1.3188684E0,2.3992505E0,4.200431E0,-2.5795894E0,-2.000868E0,-1.8989195E0,-1.5232843E0,-1.2137243E0,-8.357848E-1,-3.947E-1,3.0292552E-2,4.8945558E-1,1.1056937E0,1.0036014E0,1.5907966E0,2.0039723E0,2.8968837E0,3.5962388E-1,5.351278E-1,-2.7094939E0,-2.1570747E-1,-2.0433448E-1,-9.378337E-2,-2.032063E-1,-1.6510988E0,-1.3038331E0,-1.7365612E0,-1.2546434E0,-4.1051948E-1,-8.548711E-1,5.897641E-3,-2.3379509E-1,-8.1821316E-1,-9.0130545E-2,4.4849697E-1,1.24163195E-1,6.887544E-1,9.189802E-1,1.4735683E0,1.1727918E0,5.9787434E-1,1.6818244E0,9.5625174E-1,1.5785947E0,2.4508736E0,1.9435415E0,3.1435916E-1,-2.2336271E-1,-2.8501484E-1,-1.3844523E-1,-2.1184658E-1,-2.0357342E-1,-1.18427336E-1,-1.874981E-1,-1.2736155E-1,-8.515241E-2,-1.3423394E-1,-1.2003661E-3,-6.0777683E-2,-1.0955258E-1,-7.6601565E-2,3.5930272E-2,-4.373331E-2,-1.7492935E-2,-9.845418E-2,-1.2286706E-1,-4.899552E-2,-3.587402E-2,2.0406872E-2,6.8297565E-2,-8.1624035E-3,-2.753615E-3,6.5636255E-2,3.8679842E-2,8.883248E-2,8.4128045E-2,1.5687145E-1,1.6247855E-1,4.6657086E-3,3.826822E-2,1.2576233E-1,2.6273191E-2,6.722767E-2,1.901106E-1,1.4817043E-1,3.5795633E-2,1.101625E-1,4.663414E-2,1.6363147E-1,2.5680763E-1,1.4362732E-1,2.38357E-1,7.6553844E-2],"categories":[],"categories_nodes":[],"categories_segments":[],"categories_sizes":[],"default_left":[0,0,0,0,0,0,0,0,0,0,0,0,0,0,0,0,0,0,0,0,0,0,0,0,0,0,0,0,0,0,0,0,0,0,0,0,0,0,0,0,0,0,0,0,0,0,0,0,0,0,0,0,0,0,0,0,0,0,0,0,0,0,0,0,0,0,0,0,0,0,0,0,0,0,0,0,0,0,0,0,0,0,0,0,0,0,0,0,0,0,0,0,0,0,0,0,0,0,0,0,0,0,0,0,0],"id":14,"left_children":[1,3,5,7,9,11,13,15,17,19,21,23,25,27,29,31,33,35,37,39,41,43,45,47,49,51,53,55,57,-1,-1,59,-1,-1,-1,-1,61,63,65,67,69,71,73,75,77,79,81,83,85,87,89,91,93,95,97,99,101,103,-1,-1,-1,-1,-1,-1,-1,-1,-1,-1,-1,-1,-1,-1,-1,-1,-1,-1,-1,-1,-1,-1,-1,-1,-1,-1,-1,-1,-1,-1,-1,-1,-1,-1,-1,-1,-1,-1,-1,-1,-1,-1,-1,-1,-1,-1,-1],"loss_changes":[4.3149155E3,6.4119556E2,8.710657E2,6.0128174E1,1.3287427E2,6.3640564E1,2.1394702E2,8.0008545E0,7.782776E0,1.3930084E1,1.5860202E1,2.685936E1,1.8635742E1,4.1403564E1,4.7507324E1,3.046997E0,6.123352E-1,2.0891724E0,4.381958E0,4.5792694E0,5.0814514E0,1.0303087E1,1.0364525E1,2.0080727E1,5.3084793E0,6.987076E0,5.611908E0,2.2174988E1,1.835083E1,0E0,0E0,1.6657715E0,0E0,0E0,0E0,0E0,4.9182587E0,4.064583E0,2.0335846E0,4.053711E0,7.001958E-1,5.7682953E0,1.410255E0,4.8216133E0,5.0569153E0,1.2717169E1,5.7736425E0,8.010768E0,1.0443192E1,2.0627098E0,6.613159E0,4.7467575E0,6.961098E-1,1.9224243E0,1.171236E0,3.923462E0,4.0408936E0,1.0615807E1,0E0,0E0,0E0,0E0,0E0,0E0,0E0,0E0,0E0,0E0,0E0,0E0,0E0,0E0,0E0,0E0,0E0,0E0,0E0,0E0,0E0,0E0,0E0,0E0,0E0,0E0,0E0,0E0,0E0,0E0,0E0,0E0,0E0,0E0,0E0,0E0,0E0,0E0,0E0,0E0,0E0,0E0,0E0,0E0,0E0,0E0,0E0],"parents":[2147483647,0,0,1,1,2,2,3,3,4,4,5,5,6,6,7,7,8,8,9,9,10,10,11,11,12,12,13,13,14,14,15,15,16,16,17,17,18,18,19,19,20,20,21,21,22,22,23,23,24,24,25,25,26,26,27,27,28,28,31,31,36,36,37,37,38,38,39,39,40,40,41,41,42,42,43,43,44,44,45,45,46,46,47,47,48,48,49,49,50,50,51,51,52,52,53,53,54,54,55,55,56,56,57,57],"right_children":[2,4,6,8,10,12,14,16,18,20,22,24,26,28,30,32,34,36,38,40,42,44,46,48,50,52,54,56,58,-1,-1,60,-1,-1,-1,-1,62,64,66,68,70,72,74,76,78,80,82,84,86,88,90,92,94,96,98,100,102,104,-1,-1,-1,-1,-1,-1,-1,-1,-1,-1,-1,-1,-1,-1,-1,-1,-1,-1,-1,-1,-1,-1,-1,-1,-1,-1,-1,-1,-1,-1,-1,-1,-1,-1,-1,-1,-1,-1,-1,-1,-1,-1,-1,-1,-1,-1,-1],"split_conditions":[1.19E1,5.8E0,1.85E1,2.9E0,9.3E0,1.57E1,2.39E1,5.5E0,4.6E0,6.9E0,3.6E0,2.98E2,3.8E0,3.46E2,3.02E1,1.0103E3,1.0235E3,3.9E0,7.8E1,3.1E2,3.89E2,4.7E1,3.14E2,-1.8369701E-16,2.02E1,1.04E1,8.8E1,2.5881904E-1,9.489E2,3.5962388E-1,5.351278E-1,9.1E1,-2.1570747E-1,-2.0433448E-1,-9.378337E-2,-2.032063E-1,1.48E1,-6.5E0,9.567E2,-2.4E0,9.6E1,-2.5881904E-1,7.2E1,4E-1,1.03E1,1.0198E3,1.0255E3,1.0223E3,1.0159E3,7.8E1,1.0263E3,1.08E1,3E0,-7.0710677E-1,1.62E1,1.0087E3,-1.8369701E-16,1.0109E3,3.1435916E-1,-2.2336271E-1,-2.8501484E-1,-1.3844523E-1,-2.1184658E-1,-2.0357342E-1,-1.18427336E-1,-1.874981E-1,-1.2736155E-1,-8.515241E-2,-1.3423394E-1,-1.2003661E-3,-6.0777683E-2,-1.0955258E-1,-7.6601565E-2,3.5930272E-2,-4.373331E-2,-1.7492935E-2,-9.845418E-2,-1.2286706E-1,-4.899552E-2,-3.587402E-2,2.0406872E-2,6.8297565E-2,-8.1624035E-3,-2.753615E-3,6.5636255E-2,3.8679842E-2,8.883248E-2,8.4128045E-2,1.5687145E-1,1.6247855E-1,4.6657086E-3,3.826822E-2,1.2576233E-1,2.6273191E-2,6.722767E-2,1.901106E-1,1.4817043E-1,3.5795633E-2,1.101625E-1,4.663414E-2,1.6363147E-1,2.5680763E-1,1.4362732E-1,2.38357E-1,7.6553844E-2],"split_indices":[0,0,0,0,0,0,0,7,0,0,7,11,7,11,0,5,5,7,1,11,11,11,11,13,9,9,1,13,6,0,0,10,0,0,0,0,9,2,6,2,10,13,1,4,0,5,5,5,5,1,5,2,10,13,0,5,15,5,0,0,0,0,0,0,0,0,0,0,0,0,0,0,0,0,0,0,0,0,0,0,0,0,0,0,0,0,0,0,0,0,0,0,0,0,0,0,0,0,0,0,0,0,0,0,0],"split_type":[0,0,0,0,0,0,0,0,0,0,0,0,0,0,0,0,0,0,0,0,0,0,0,0,0,0,0,0,0,0,0,0,0,0,0,0,0,0,0,0,0,0,0,0,0,0,0,0,0,0,0,0,0,0,0,0,0,0,0,0,0,0,0,0,0,0,0,0,0,0,0,0,0,0,0,0,0,0,0,0,0,0,0,0,0,0,0,0,0,0,0,0,0,0,0,0,0,0,0,0,0,0,0,0,0],"sum_hessian":[2.288E3,1.347E3,9.41E2,5.21E2,8.26E2,6.07E2,3.34E2,2.16E2,3.05E2,4.69E2,3.57E2,3.72E2,2.35E2,2.39E2,9.5E1,1.61E2,5.5E1,1.64E2,1.41E2,1.54E2,3.15E2,1.53E2,2.04E2,2.76E2,9.6E1,1.11E2,1.24E2,1.36E2,1.03E2,6.5E1,3E1,1.19E2,4.2E1,5.2E1,3E0,1.02E2,6.2E1,7.3E1,6.8E1,1.46E2,8E0,3.08E2,7E0,1.12E2,4.1E1,1.59E2,4.5E1,9.8E1,1.78E2,6.6E1,3E1,7.7E1,3.4E1,1.07E2,1.7E1,7.2E1,6.4E1,2.3E1,8E1,3.1E1,8.8E1,4.2E1,2E1,8E0,6.5E1,5E1,1.8E1,2.8E1,1.18E2,3E0,5E0,8E1,2.28E2,4E0,3E0,1.05E2,7E0,1.7E1,2.4E1,8.3E1,7.6E1,3.1E1,1.4E1,7.7E1,2.1E1,7.2E1,1.06E2,6.1E1,5E0,2.7E1,3E0,8E0,6.9E1,7E0,2.7E1,4.7E1,6E1,4E0,1.3E1,4E0,6.8E1,5.6E1,8E0,1.6E1,7E0],"tree_param":{"num_deleted":"0","num_feature":"16","num_nodes":"105","size_leaf_vector":"1"}},{"base_weights":[1.4738956E-3,-8.628671E-1,1.4248002E0,-1.0692455E0,6.3418347E-1,2.5513163E0,7.7646303E-1,-4.485324E-1,-1.4096265E0,2.748278E-1,1.628155E0,2.1060538E0,3.7812603E0,2.6640004E-1,1.18133E0,-3.225284E-1,-8.094959E-1,-1.8831545E0,-1.1009928E0,-8.656078E-2,7.050611E-1,2.1915846E0,1.0203619E0,1.0234499E0,2.3931174E0,3.2955964E0,4.9049225E-1,1.9993699E-1,1.0074359E0,9.349606E-1,1.5070736E0,1.0966898E0,-3.7441686E-1,-7.0152235E-1,-1.5383393E0,-2.2025056E0,-1.6847172E0,-1.4335054E0,-7.1309346E-1,-7.224208E-1,3.6968595E-1,9.147904E-1,8.4239066E-2,9.68387E-2,2.4775624E-1,2.6017275E-1,1.4591305E0,-7.130699E-2,1.2597384E0,2.1335325E0,3.176479E0,2.5967976E-1,3.5731373E0,-1.7093264E-1,3.5962293E-1,7.273252E-1,1.9460474E-1,1.2206583E0,5.855992E-1,1.3387125E0,2.1673765E0,1.5248343E-1,4.1440647E-2,-2.271575E-2,-6.7234956E-2,-7.9808734E-2,-4.037274E-2,-2.3516968E-1,-8.251744E-2,-2.2824278E-1,-9.72076E-2,-1.732043E-1,-9.2886195E-2,6.124596E-2,-1.4832671E-1,-8.5001074E-2,8.52146E-2,5.8906615E-2,-9.4684444E-2,6.0576875E-2,-7.09387E-2,1.7881347E-2,1.0045614E-1,3.7241366E-2,-6.242277E-2,9.542786E-2,-3.616109E-2,1.6124524E-1,6.343823E-2,-5.6975126E-2,2.2370502E-2,2.0437995E-1,1.147021E-1,1.7014937E-1,2.4115895E-1,2.4253526E-1,3.4813604E-1,2.3321128E-1,3.849297E-1,-3.4510684E-3,-6.206734E-2,4.274178E-3,5.5642914E-2,1.3362132E-1,4.3718945E-2,8.6623564E-2,1.4646779E-1,5.1919468E-2,1.7506886E-1,1.4829402E-1,9.854312E-2,1.5960363E-1,2.6533255E-1],"categories":[],"categories_nodes":[],"categories_segments":[],"categories_sizes":[],"default_left":[0,0,0,0,0,0,0,0,0,0,0,0,0,0,0,0,0,0,0,0,0,0,0,0,0,0,0,0,0,0,0,0,0,0,0,0,0,0,0,0,0,0,0,0,0,0,0,0,0,0,0,0,0,0,0,0,0,0,0,0,0,0,0,0,0,0,0,0,0,0,0,0,0,0,0,0,0,0,0,0,0,0,0,0,0,0,0,0,0,0,0,0,0,0,0,0,0,0,0,0,0,0,0,0,0,0,0,0,0,0,0,0,0],"id":15,"left_children":[1,3,5,7,9,11,13,15,17,19,21,23,25,27,29,31,33,35,37,39,41,43,45,47,49,51,-1,53,55,57,59,61,63,65,67,69,71,73,75,77,79,81,83,-1,-1,85,87,89,91,93,95,-1,97,99,101,103,-1,105,107,109,111,-1,-1,-1,-1,-1,-1,-1,-1,-1,-1,-1,-1,-1,-1,-1,-1,-1,-1,-1,-1,-1,-1,-1,-1,-1,-1,-1,-1,-1,-1,-1,-1,-1,-1,-1,-1,-1,-1,-1,-1,-1,-1,-1,-1,-1,-1,-1,-1,-1,-1,-1,-1],"loss_changes":[2.8295493E3,4.427981E2,6.3270374E2,2.6515686E2,6.1703476E1,1.6564087E2,1.1388406E2,2.0069748E1,1.1659778E2,2.0118132E1,1.3516434E1,7.058313E1,2.9130371E1,1.1914452E1,2.330893E1,2.4933098E1,7.9708405E0,1.6504883E1,6.269458E1,2.0864813E1,7.605009E0,5.646332E0,7.6255035E0,1.328244E1,3.0842407E1,2.552002E0,0E0,1.3505015E1,3.8428917E0,1.7051666E1,1.1661682E1,2.8734884E0,1.3974503E1,2.610962E0,6.180252E0,9.483643E0,5.5811768E0,2.7888184E1,5.0015236E1,9.387613E0,1.1129246E1,2.7274246E0,3.4990647E0,0E0,0E0,4.660914E0,8.7386703E-1,1.5979266E0,1.3675613E0,1.2955383E1,1.6326599E0,0E0,5.074524E0,4.212042E0,9.892124E0,2.4190454E0,0E0,7.120392E0,5.4351654E0,3.990631E0,2.706253E0,0E0,0E0,0E0,0E0,0E0,0E0,0E0,0E0,0E0,0E0,0E0,0E0,0E0,0E0,0E0,0E0,0E0,0E0,0E0,0E0,0E0,0E0,0E0,0E0,0E0,0E0,0E0,0E0,0E0,0E0,0E0,0E0,0E0,0E0,0E0,0E0,0E0,0E0,0E0,0E0,0E0,0E0,0E0,0E0,0E0,0E0,0E0,0E0,0E0,0E0,0E0,0E0],"parents":[2147483647,0,0,1,1,2,2,3,3,4,4,5,5,6,6,7,7,8,8,9,9,10,10,11,11,12,12,13,13,14,14,15,15,16,16,17,17,18,18,19,19,20,20,21,21,22,22,23,23,24,24,25,25,27,27,28,28,29,29,30,30,31,31,32,32,33,33,34,34,35,35,36,36,37,37,38,38,39,39,40,40,41,41,42,42,45,45,46,46,47,47,48,48,49,49,50,50,52,52,53,53,54,54,55,55,57,57,58,58,59,59,60,60],"right_children":[2,4,6,8,10,12,14,16,18,20,22,24,26,28,30,32,34,36,38,40,42,44,46,48,50,52,-1,54,56,58,60,62,64,66,68,70,72,74,76,78,80,82,84,-1,-1,86,88,90,92,94,96,-1,98,100,102,104,-1,106,108,110,112,-1,-1,-1,-1,-1,-1,-1,-1,-1,-1,-1,-1,-1,-1,-1,-1,-1,-1,-1,-1,-1,-1,-1,-1,-1,-1,-1,-1,-1,-1,-1,-1,-1,-1,-1,-1,-1,-1,-1,-1,-1,-1,-1,-1,-1,-1,-1,-1,-1,-1,-1,-1],"split_conditions":[8.2E0,3.14E2,7.3E1,-2.4492937E-16,5.12E2,6.03E2,1.2E1,-5E-1,8.660254E-1,4.12E2,4.8E1,1.11E1,7.79E2,2.67E2,1.47E1,3.9E1,2.92E2,9.369E2,1.0145E3,1.0107E3,1.024E3,-1.1E0,4.5E0,3.8E0,1.58E1,1.19E1,4.9049225E-1,1.76E2,4.55E2,7.8E1,9.538E2,8.3E0,8.3E1,4.5E1,2.99E2,1.76E2,4.4E0,3.7E1,1.69E1,-5E-1,1.0254E3,-3.5E0,4E1,9.68387E-2,2.4775624E-1,7.7E0,2.8E1,1.0173E3,4.4E1,5.3E0,3.9E0,2.5967976E-1,1.0131E3,4.5E0,9.7E0,8.5E1,1.9460474E-1,3.3E0,3.04E2,9.1E1,3.7E0,1.5248343E-1,4.1440647E-2,-2.271575E-2,-6.7234956E-2,-7.9808734E-2,-4.037274E-2,-2.3516968E-1,-8.251744E-2,-2.2824278E-1,-9.72076E-2,-1.732043E-1,-9.2886195E-2,6.124596E-2,-1.4832671E-1,-8.5001074E-2,8.52146E-2,5.8906615E-2,-9.4684444E-2,6.0576875E-2,-7.09387E-2,1.7881347E-2,1.0045614E-1,3.7241366E-2,-6.242277E-2,9.542786E-2,-3.616109E-2,1.6124524E-1,6.343823E-2,-5.6975126E-2,2.2370502E-2,2.0437995E-1,1.147021E-1,1.7014937E-1,2.4115895E-1,2.4253526E-1,3.4813604E-1,2.3321128E-1,3.849297E-1,-3.4510684E-3,-6.206734E-2,4.274178E-3,5.5642914E-2,1.3362132E-1,4.3718945E-2,8.6623564E-2,1.4646779E-1,5.1919468E-2,1.7506886E-1,1.4829402E-1,9.854312E-2,1.5960363E-1,2.6533255E-1],"split_indices":[2,11,1,14,11,11,2,14,14,11,1,2,11,11,2,1,8,6,5,5,5,2,2,7,2,2,0,8,11,10,6,7,1,10,8,11,2,1,9,14,5,2,10,0,0,7,10,5,1,7,7,0,5,7,2,8,0,7,11,1,7,0,0,0,0,0,0,0,0,0,0,0,0,0,0,0,0,0,0,0,0,0,0,0,0,0,0,0,0,0,0,0,0,0,0,0,0,0,0,0,0,0,0,0,0,0,0,0,0,0,0,0,0],"split_type":[0,0,0,0,0,0,0,0,0,0,0,0,0,0,0,0,0,0,0,0,0,0,0,0,0,0,0,0,0,0,0,0,0,0,0,0,0,0,0,0,0,0,0,0,0,0,0,0,0,0,0,0,0,0,0,0,0,0,0,0,0,0,0,0,0,0,0,0,0,0,0,0,0,0,0,0,0,0,0,0,0,0,0,0,0,0,0,0,0,0,0,0,0,0,0,0,0,0,0,0,0,0,0,0,0,0,0,0,0,0,0,0,0],"sum_hessian":[2.298E3,1.43E3,8.68E2,1.257E3,1.73E2,3.16E2,5.52E2,4.46E2,8.11E2,1.28E2,4.5E1,2.34E2,8.2E1,2.45E2,3.07E2,3.32E2,1.14E2,3.18E2,4.93E2,7E1,5.8E1,2.2E1,2.3E1,5E1,1.84E2,6E1,2.2E1,2.26E2,1.9E1,1.77E2,1.3E2,1.1E1,3.21E2,1.01E2,1.3E1,1.18E2,2E2,2.64E2,2.29E2,2.9E1,4.1E1,4.3E1,1.5E1,5E0,1.7E1,9E0,1.4E1,9E0,4.1E1,1.41E2,4.3E1,2E1,4E1,6.8E1,1.58E2,1.6E1,3E0,9.6E1,8.1E1,1.06E2,2.4E1,6E0,5E0,2.16E2,1.05E2,7.5E1,2.6E1,5E0,8E0,1.1E2,8E0,1.87E2,1.3E1,6E0,2.58E2,2.11E2,1.8E1,4E0,2.5E1,3.4E1,7E0,5E0,3.8E1,1.1E1,4E0,4E0,5E0,1.1E1,3E0,3E0,6E0,3E0,3.8E1,5.8E1,8.3E1,1.5E1,2.8E1,9E0,3.1E1,5.3E1,1.5E1,6.1E1,9.7E1,4E0,1.2E1,4.1E1,5.5E1,7.8E1,3E0,7.3E1,3.3E1,1.3E1,1.1E1],"tree_param":{"num_deleted":"0","num_feature":"16","num_nodes":"113","size_leaf_vector":"1"}},{"base_weights":[1.9063823E-2,-9.958567E-1,1.2448711E0,-1.6351951E0,-5.412141E-1,6.815792E-1,2.3580115E0,-2.0803638E0,-1.3632922E0,-7.9937303E-1,-2.4653605E-1,4.611219E-1,1.1214336E0,1.9352591E0,3.4299626E0,-2.4474218E0,-1.9085274E0,-1.5947928E0,-1.2121899E0,-8.879351E-1,-5.932049E-1,-1.9596836E-1,-9.0417844E-1,3.6916065E-1,1.0395664E0,1.0129143E0,1.5497544E0,1.619196E0,2.3263566E0,2.9633782E0,4.3126923E-1,-1.8224634E-1,-2.5874662E-1,-2.012025E-1,-1.5886651E0,-1.621059E0,-6.454481E-2,-1.5415062E0,-1.0789169E0,-1.1828324E0,-7.934377E-1,-4.804125E-1,-1.1994059E0,-4.068377E-1,-8.5055806E-2,-1.0093736E-1,-3.0256232E-2,1.5277664E-1,5.4777163E-1,8.026831E-1,1.2985431E0,1.0704491E0,6.8188745E-1,9.653001E-1,1.6724627E-1,1.1355816E0,2.0064135E0,1.624876E0,2.4950678E0,3.0703592E-1,1.3818413E-1,-7.416668E-2,-1.6945235E-1,-1.56581E-1,-2.2892475E-1,-1.2529372E-1,-1.682889E-1,-1.3273375E-1,-8.879455E-2,-7.862117E-2,-1.3011242E-1,-1.0251284E-1,-7.2041966E-2,-6.1701186E-2,-2.6213033E-2,-8.683657E-2,-1.5955597E-1,1.7225279E-2,-4.8705053E-2,-2.2259425E-2,1.10197E-3,2.0685539E-2,-1.03577316E-1,4.8058514E-2,1.5599464E-1,9.424188E-2,2.1327306E-2,1.3757786E-1,4.911859E-2,9.0718634E-2,1.2282198E-1,3.43911E-2,9.561224E-2,1.10096864E-1,4.865551E-2,1.1161651E-2,1.2008971E-1,1.19971946E-1,2.0955388E-1,1.9672376E-1,5.123926E-2,2.5865385E-1,1.2799136E-1],"categories":[],"categories_nodes":[],"categories_segments":[],"categories_sizes":[],"default_left":[0,0,0,0,0,0,0,0,0,0,0,0,0,0,0,0,0,0,0,0,0,0,0,0,0,0,0,0,0,0,0,0,0,0,0,0,0,0,0,0,0,0,0,0,0,0,0,0,0,0,0,0,0,0,0,0,0,0,0,0,0,0,0,0,0,0,0,0,0,0,0,0,0,0,0,0,0,0,0,0,0,0,0,0,0,0,0,0,0,0,0,0,0,0,0,0,0,0,0,0,0,0,0],"id":16,"left_children":[1,3,5,7,9,11,13,15,17,19,21,23,25,27,29,31,33,35,37,39,41,43,45,47,49,51,53,55,57,59,-1,-1,-1,-1,61,63,-1,65,67,69,71,73,75,77,79,-1,-1,81,83,85,87,89,91,93,-1,95,97,99,101,-1,-1,-1,-1,-1,-1,-1,-1,-1,-1,-1,-1,-1,-1,-1,-1,-1,-1,-1,-1,-1,-1,-1,-1,-1,-1,-1,-1,-1,-1,-1,-1,-1,-1,-1,-1,-1,-1,-1,-1,-1,-1,-1,-1],"loss_changes":[2.8153872E3,3.5896484E2,6.410913E2,5.937976E1,5.4956436E1,6.5615814E1,1.4925256E2,7.5023193E0,9.330505E0,6.521118E0,1.1129662E1,2.3872902E1,8.981445E0,2.7012451E1,2.6759155E1,3.6068726E-1,1.3058777E0,2.0456848E0,7.0707397E0,6.529846E0,7.560398E0,7.379409E0,1.2134914E0,1.5182491E1,2.7612152E0,2.7744446E0,1.5411301E0,2.4125732E1,8.845703E0,6.9240723E0,0E0,0E0,0E0,0E0,2.1503754E0,8.454895E-1,0E0,1.3537598E-1,5.700363E0,1.9328079E0,2.7465057E0,2.8796158E0,9.7504425E-1,5.1469994E0,2.7641945E0,0E0,0E0,1.1783804E1,1.3939278E1,2.6816635E0,1.070221E0,2.8782806E0,2.4517288E0,1.1382389E-1,0E0,4.213211E0,3.0220337E0,8.132923E0,6.248413E0,0E0,0E0,0E0,0E0,0E0,0E0,0E0,0E0,0E0,0E0,0E0,0E0,0E0,0E0,0E0,0E0,0E0,0E0,0E0,0E0,0E0,0E0,0E0,0E0,0E0,0E0,0E0,0E0,0E0,0E0,0E0,0E0,0E0,0E0,0E0,0E0,0E0,0E0,0E0,0E0,0E0,0E0,0E0,0E0],"parents":[2147483647,0,0,1,1,2,2,3,3,4,4,5,5,6,6,7,7,8,8,9,9,10,10,11,11,12,12,13,13,14,14,15,15,16,16,17,17,18,18,19,19,20,20,21,21,22,22,23,23,24,24,25,25,26,26,27,27,28,28,29,29,34,34,35,35,37,37,38,38,39,39,40,40,41,41,42,42,43,43,44,44,47,47,48,48,49,49,50,50,51,51,52,52,53,53,55,55,56,56,57,57,58,58],"right_children":[2,4,6,8,10,12,14,16,18,20,22,24,26,28,30,32,34,36,38,40,42,44,46,48,50,52,54,56,58,60,-1,-1,-1,-1,62,64,-1,66,68,70,72,74,76,78,80,-1,-1,82,84,86,88,90,92,94,-1,96,98,100,102,-1,-1,-1,-1,-1,-1,-1,-1,-1,-1,-1,-1,-1,-1,-1,-1,-1,-1,-1,-1,-1,-1,-1,-1,-1,-1,-1,-1,-1,-1,-1,-1,-1,-1,-1,-1,-1,-1,-1,-1,-1,-1,-1,-1],"split_conditions":[1.13E1,5.8E0,1.85E1,2.8E0,8.6E0,1.56E1,2.39E1,1E0,-1.8369701E-16,7.7E0,2E-1,4.24E2,4.08E2,3.04E2,7.12E2,-4.4E0,1.0129E3,3.38E2,2.61E2,5E0,1E-1,9.5E0,1.03E1,1.29E1,5.08E2,1E-1,1.44E1,6.123234E-17,1.0126E3,9.659258E-1,4.3126923E-1,-1.8224634E-1,-2.5874662E-1,-2.012025E-1,-2.4492937E-16,3.4E0,-6.454481E-2,-2.5881904E-1,8.3E0,2.5E0,-2E0,2.73E2,2.9E1,8.6E1,5.1E0,-1.0093736E-1,-3.0256232E-2,2.63E1,-2.4492937E-16,1.5E1,1.027E3,1.36E1,5E-1,1.12E1,1.6724627E-1,1.0089E3,-8.660254E-1,9.468E2,1.35E2,3.0703592E-1,1.3818413E-1,-7.416668E-2,-1.6945235E-1,-1.56581E-1,-2.2892475E-1,-1.2529372E-1,-1.682889E-1,-1.3273375E-1,-8.879455E-2,-7.862117E-2,-1.3011242E-1,-1.0251284E-1,-7.2041966E-2,-6.1701186E-2,-2.6213033E-2,-8.683657E-2,-1.5955597E-1,1.7225279E-2,-4.8705053E-2,-2.2259425E-2,1.10197E-3,2.0685539E-2,-1.03577316E-1,4.8058514E-2,1.5599464E-1,9.424188E-2,2.1327306E-2,1.3757786E-1,4.911859E-2,9.0718634E-2,1.2282198E-1,3.43911E-2,9.561224E-2,1.10096864E-1,4.865551E-2,1.1161651E-2,1.2008971E-1,1.19971946E-1,2.0955388E-1,1.9672376E-1,5.123926E-2,2.5865385E-1,1.2799136E-1],"split_indices":[0,0,0,0,0,0,0,0,13,0,4,11,11,11,11,2,5,11,8,9,4,0,0,0,11,4,9,13,5,12,0,0,0,0,14,2,0,12,9,9,2,8,11,8,2,0,0,9,14,0,5,2,4,9,0,5,14,6,8,0,0,0,0,0,0,0,0,0,0,0,0,0,0,0,0,0,0,0,0,0,0,0,0,0,0,0,0,0,0,0,0,0,0,0,0,0,0,0,0,0,0,0,0],"split_type":[0,0,0,0,0,0,0,0,0,0,0,0,0,0,0,0,0,0,0,0,0,0,0,0,0,0,0,0,0,0,0,0,0,0,0,0,0,0,0,0,0,0,0,0,0,0,0,0,0,0,0,0,0,0,0,0,0,0,0,0,0,0,0,0,0,0,0,0,0,0,0,0,0,0,0,0,0,0,0,0,0,0,0,0,0,0,0,0,0,0,0,0,0,0,0,0,0,0,0,0,0,0,0],"sum_hessian":[2.261E3,1.237E3,1.024E3,5.13E2,7.24E2,6.81E2,3.43E2,1.92E2,3.21E2,3.85E2,3.39E2,4.55E2,2.26E2,2.48E2,9.5E1,5.7E1,1.35E2,1.23E2,1.98E2,2.67E2,1.18E2,3.16E2,2.3E1,3.94E2,6.1E1,1.83E2,4.3E1,1.4E2,1.08E2,6.5E1,3E1,1.3E1,4.4E1,9.8E1,3.7E1,1.19E2,4E0,5.4E1,1.44E2,6.2E1,2.05E2,1.01E2,1.7E1,1.08E2,2.08E2,1.9E1,4E0,1.79E2,2.15E2,3.4E1,2.7E1,1.54E2,2.9E1,9E0,3.4E1,6.4E1,7.6E1,2.3E1,8.5E1,6E1,5E0,5E0,3.2E1,1.13E2,6E0,2.1E1,3.3E1,6E1,8.4E1,1.6E1,4.6E1,4.6E1,1.59E2,6.1E1,4E1,1.1E1,6E0,1.3E1,9.5E1,8.5E1,1.23E2,1.72E2,7E0,2.03E2,1.2E1,2.7E1,7E0,2.4E1,3E0,7.9E1,7.5E1,1.4E1,1.5E1,6E0,3E0,4E0,6E1,9E0,6.7E1,1.7E1,6E0,7.8E1,7E0],"tree_param":{"num_deleted":"0","num_feature":"16","num_nodes":"103","size_leaf_vector":"1"}},{"base_weights":[2.4960617E-2,-8.8223726E-1,1.205952E0,-1.3858225E0,-4.194869E-1,8.5553044E-1,2.6658425E0,-1.7681772E0,-1.1264609E0,-7.087957E-1,-2.0291972E-1,5.6695E-1,1.3506984E0,2.3025672E0,3.8541887E0,-2.1010876E0,-1.6519055E0,-1.3490617E0,-1.0064026E0,-8.7406355E-1,-5.76899E-1,-3.9119893E-1,-3.3118065E-2,3.846176E-1,7.6750845E-1,1.6214836E0,1.1264482E0,2.723084E0,2.046422E0,1.858999E-1,4.0677926E-1,-9.912988E-2,-2.1421063E0,-1.8166989E0,-1.4138215E0,-1.284884E0,-1.9032032E0,-9.126295E-1,-1.150393E0,-1.3311896E0,-7.221068E-1,-4.753154E-1,-8.153414E-1,-7.4316883E-1,-2.5224695E-1,5.345491E-2,-3.872393E-1,1.6767995E-1,5.9706604E-1,3.496455E-1,8.846971E-1,1.6619879E0,2.7647782E-2,1.4684973E0,7.4416184E-1,1.7124814E0,2.9469922E-1,1.8539265E0,2.6852086E0,-2.2428992E-1,-1.516709E-1,-2.9163536E-1,-1.7569363E-1,-1.4818202E-1,-7.828484E-2,-1.3927025E-1,-6.611419E-2,-1.2367566E-1,-2.7602962E-1,-1.3721107E-1,-8.523059E-2,-1.8437238E-1,-1.08935416E-1,-8.311661E-2,-1.7167623E-1,-8.529856E-2,-4.2016782E-2,-7.1202956E-2,-3.261272E-2,-5.4192472E-2,-1.3112162E-1,-3.5909858E-2,-1.1602855E-1,-8.236847E-2,-6.869986E-3,4.4575054E-2,2.0366107E-4,-6.71155E-2,-3.8113843E-3,-5.330536E-3,3.2908883E-2,3.9988976E-2,7.563519E-2,6.4735554E-2,-1.1281247E-2,1.834641E-1,8.260297E-2,7.370186E-2,1.7184518E-1,8.51186E-2,1.6705553E-1,9.377905E-2,1.9986076E-2,1.9209222E-1,8.153691E-2,1.9303209E-1,1.1490529E-1,2.9029727E-1,1.4513214E-1],"categories":[],"categories_nodes":[],"categories_segments":[],"categories_sizes":[],"default_left":[0,0,0,0,0,0,0,0,0,0,0,0,0,0,0,0,0,0,0,0,0,0,0,0,0,0,0,0,0,0,0,0,0,0,0,0,0,0,0,0,0,0,0,0,0,0,0,0,0,0,0,0,0,0,0,0,0,0,0,0,0,0,0,0,0,0,0,0,0,0,0,0,0,0,0,0,0,0,0,0,0,0,0,0,0,0,0,0,0,0,0,0,0,0,0,0,0,0,0,0,0,0,0,0,0,0,0,0,0],"id":17,"left_children":[1,3,5,7,9,11,13,15,17,19,21,23,25,27,29,31,33,35,37,39,41,43,45,47,49,51,53,55,57,-1,-1,-1,59,61,63,65,67,69,71,73,75,77,79,81,83,85,87,89,91,93,95,97,-1,99,101,103,-1,105,107,-1,-1,-1,-1,-1,-1,-1,-1,-1,-1,-1,-1,-1,-1,-1,-1,-1,-1,-1,-1,-1,-1,-1,-1,-1,-1,-1,-1,-1,-1,-1,-1,-1,-1,-1,-1,-1,-1,-1,-1,-1,-1,-1,-1,-1,-1,-1,-1,-1,-1],"loss_changes":[2.4266973E3,2.9793542E2,5.011112E2,5.879834E1,4.1772224E1,1.12836365E2,7.3147705E1,6.0514526E0,8.477112E0,5.730072E0,1.2263572E1,1.8135223E1,1.5904785E1,1.0369019E1,1.0763794E1,6.078491E-1,4.768402E0,2.035614E0,2.2312164E0,7.7216644E0,3.5363922E0,8.713594E0,6.2441382E0,1.2159309E1,1.1394226E1,6.622711E0,2.0221191E1,6.946289E0,6.8263245E0,0E0,0E0,0E0,1.9119263E-1,1.90802E0,2.3152924E0,6.880356E0,2.869461E0,3.043602E0,1.8849716E0,4.356945E0,3.4352722E0,3.8643246E0,5.6616993E0,7.753647E0,1.3788331E1,3.307165E0,3.9393063E0,4.761517E0,3.9061317E0,7.507661E0,8.850449E0,5.3141174E0,0E0,9.180328E0,8.138565E0,6.7767715E-1,0E0,1.9282837E0,1.1607666E0,0E0,0E0,0E0,0E0,0E0,0E0,0E0,0E0,0E0,0E0,0E0,0E0,0E0,0E0,0E0,0E0,0E0,0E0,0E0,0E0,0E0,0E0,0E0,0E0,0E0,0E0,0E0,0E0,0E0,0E0,0E0,0E0,0E0,0E0,0E0,0E0,0E0,0E0,0E0,0E0,0E0,0E0,0E0,0E0,0E0,0E0,0E0,0E0,0E0,0E0],"parents":[2147483647,0,0,1,1,2,2,3,3,4,4,5,5,6,6,7,7,8,8,9,9,10,10,11,11,12,12,13,13,14,14,15,15,16,16,17,17,18,18,19,19,20,20,21,21,22,22,23,23,24,24,25,25,26,26,27,27,28,28,32,32,33,33,34,34,35,35,36,36,37,37,38,38,39,39,40,40,41,41,42,42,43,43,44,44,45,45,46,46,47,47,48,48,49,49,50,50,51,51,53,53,54,54,55,55,57,57,58,58],"right_children":[2,4,6,8,10,12,14,16,18,20,22,24,26,28,30,32,34,36,38,40,42,44,46,48,50,52,54,56,58,-1,-1,-1,60,62,64,66,68,70,72,74,76,78,80,82,84,86,88,90,92,94,96,98,-1,100,102,104,-1,106,108,-1,-1,-1,-1,-1,-1,-1,-1,-1,-1,-1,-1,-1,-1,-1,-1,-1,-1,-1,-1,-1,-1,-1,-1,-1,-1,-1,-1,-1,-1,-1,-1,-1,-1,-1,-1,-1,-1,-1,-1,-1,-1,-1,-1,-1,-1,-1,-1,-1,-1],"split_conditions":[1.17E1,6.5E0,2.15E1,3.3E0,8.6E0,1.69E1,2.83E1,1.1E0,4.6E0,3.2E0,3.9E0,4.8E0,-5E-1,-7.0710677E-1,4.6E0,1E0,4.1E0,7.9E0,2.2E0,6E0,6.9E0,4.7E1,9.6E1,1.09E1,1.0131E3,2.12E1,-1.8369701E-16,1.0125E3,1.74E1,1.858999E-1,4.0677926E-1,-9.912988E-2,1.01E3,-2.4492937E-16,1.0219E3,5.7E0,6.8E1,4.5E1,5E-1,-2.4492937E-16,2.73E2,2.54E2,2.77E2,8.660254E-1,-8.660254E-1,-8.660254E-1,-2.5881904E-1,2.4E0,1.015E3,8E1,8.1E1,5.1E1,2.7647782E-2,1.012E3,1E2,1.46E1,2.9469922E-1,1.0198E3,1.019E3,-2.2428992E-1,-1.516709E-1,-2.9163536E-1,-1.7569363E-1,-1.4818202E-1,-7.828484E-2,-1.3927025E-1,-6.611419E-2,-1.2367566E-1,-2.7602962E-1,-1.3721107E-1,-8.523059E-2,-1.8437238E-1,-1.08935416E-1,-8.311661E-2,-1.7167623E-1,-8.529856E-2,-4.2016782E-2,-7.1202956E-2,-3.261272E-2,-5.4192472E-2,-1.3112162E-1,-3.5909858E-2,-1.1602855E-1,-8.236847E-2,-6.869986E-3,4.4575054E-2,2.0366107E-4,-6.71155E-2,-3.8113843E-3,-5.330536E-3,3.2908883E-2,3.9988976E-2,7.563519E-2,6.4735554E-2,-1.1281247E-2,1.834641E-1,8.260297E-2,7.370186E-2,1.7184518E-1,8.51186E-2,1.6705553E-1,9.377905E-2,1.9986076E-2,1.9209222E-1,8.153691E-2,1.9303209E-1,1.1490529E-1,2.9029727E-1,1.4513214E-1],"split_indices":[0,0,0,0,0,0,0,0,0,7,7,7,13,13,7,10,7,7,2,10,7,10,10,2,5,0,15,5,2,0,0,0,5,14,5,7,1,1,14,14,8,8,8,14,14,13,13,7,5,1,8,8,0,5,10,2,0,5,5,0,0,0,0,0,0,0,0,0,0,0,0,0,0,0,0,0,0,0,0,0,0,0,0,0,0,0,0,0,0,0,0,0,0,0,0,0,0,0,0,0,0,0,0,0,0,0,0,0,0],"split_type":[0,0,0,0,0,0,0,0,0,0,0,0,0,0,0,0,0,0,0,0,0,0,0,0,0,0,0,0,0,0,0,0,0,0,0,0,0,0,0,0,0,0,0,0,0,0,0,0,0,0,0,0,0,0,0,0,0,0,0,0,0,0,0,0,0,0,0,0,0,0,0,0,0,0,0,0,0,0,0,0,0,0,0,0,0,0,0,0,0,0,0,0,0,0,0,0,0,0,0,0,0,0,0,0,0,0,0,0,0],"sum_hessian":[2.263E3,1.28E3,9.83E2,6.12E2,6.68E2,7.94E2,1.89E2,2.45E2,3.67E2,2.85E2,3.83E2,5.03E2,2.91E2,1.47E2,4.2E1,5.9E1,1.86E2,1.25E2,2.42E2,1.24E2,1.61E2,1.81E2,2.02E2,2.65E2,2.38E2,1.29E2,1.62E2,5.2E1,9.5E1,5E0,3.7E1,3E0,5.6E1,1.06E2,8E1,1.15E2,1E1,1.51E2,9.1E1,2.9E1,9.5E1,1.15E2,4.6E1,5E1,1.31E2,1.63E2,3.9E1,1.32E2,1.33E2,5.3E1,1.85E2,1.25E2,4E0,8.4E1,7.8E1,1.1E1,4.1E1,7.6E1,1.9E1,4.6E1,1E1,3E0,1.03E2,7.1E1,9E0,9.7E1,1.8E1,7E0,3E0,1.5E1,1.36E2,5E0,8.6E1,1.4E1,1.5E1,6.5E1,3E1,4.3E1,7.2E1,3.1E1,1.5E1,2.7E1,2.3E1,3.1E1,1E2,1.8E1,1.45E2,2.1E1,1.8E1,5.6E1,7.6E1,6.1E1,7.2E1,3.2E1,2.1E1,9E0,1.76E2,8E0,1.17E2,2.2E1,6.2E1,5.7E1,2.1E1,8E0,3E0,6.7E1,9E0,1.5E1,4E0],"tree_param":{"num_deleted":"0","num_feature":"16","num_nodes":"109","size_leaf_vector":"1"}},{"base_weights":[-6.4119846E-3,-5.61651E-1,1.1744252E0,-6.9899124E-1,6.9767797E-1,2.385604E0,8.6445934E-1,-9.065406E-1,-1.24844454E-1,5.621264E-1,2.5934082E-1,2.0494647E0,3.4219005E0,1.3295991E0,6.4140433E-1,-5.6987965E-1,-1.1491089E0,1.0118217E-2,-8.779716E-1,3.3867124E-1,1.0208485E0,2.9476256E0,1.916207E0,3.9459273E-1,2.707768E-1,1.1545581E0,2.152315E0,3.5184893E-1,8.624765E-1,-9.019301E-1,-1.1201773E-1,-1.4049777E0,-8.555938E-1,9.246658E-1,-7.079456E-2,-7.7390605E-1,-1.1706622E0,9.9908215E-1,1.795789E-1,6.1274195E-1,1.3554724E0,3.3395913E-1,1.6525625E-1,1.6409543E0,2.2924197E0,5.922679E-1,1.3276811E0,1.3488326E0,2.5089565E-1,5.563869E-1,8.720398E-3,6.1919874E-1,1.0487092E0,-1.14473544E-1,-6.027208E-2,1.2003567E-1,-2.3560338E-2,-1.6309512E-1,-1.17591105E-1,-5.253437E-2,-1.0545162E-1,1.587583E-2,1.1465001E-1,8.038287E-3,-2.7582949E-2,-4.3697868E-2,-8.34945E-2,-1.3976781E-1,-7.7640876E-2,1.2434013E-1,6.6308216E-3,2.268893E-2,-7.878685E-2,1.0770328E-1,-9.853945E-3,1.4821367E-1,5.5238854E-2,1.2038038E-1,1.8308675E-1,1.1362177E-1,2.4581623E-1,-9.635313E-3,8.662387E-2,1.1251551E-1,1.704604E-1,6.618287E-2,1.609606E-1,1.2973571E-2,6.952874E-2,-2.2647439E-2,1.2351072E-2,4.1601907E-2,1.07941724E-1,1.0941787E-1,4.1184388E-2],"categories":[],"categories_nodes":[],"categories_segments":[],"categories_sizes":[],"default_left":[0,0,0,0,0,0,0,0,0,0,0,0,0,0,0,0,0,0,0,0,0,0,0,0,0,0,0,0,0,0,0,0,0,0,0,0,0,0,0,0,0,0,0,0,0,0,0,0,0,0,0,0,0,0,0,0,0,0,0,0,0,0,0,0,0,0,0,0,0,0,0,0,0,0,0,0,0,0,0,0,0,0,0,0,0,0,0,0,0,0,0,0,0,0,0],"id":18,"left_children":[1,3,5,7,9,11,13,15,17,19,-1,21,23,25,27,29,31,33,35,37,39,41,43,-1,-1,45,47,49,51,53,55,57,59,61,63,65,67,69,71,73,75,-1,-1,77,79,81,83,85,-1,87,89,91,93,-1,-1,-1,-1,-1,-1,-1,-1,-1,-1,-1,-1,-1,-1,-1,-1,-1,-1,-1,-1,-1,-1,-1,-1,-1,-1,-1,-1,-1,-1,-1,-1,-1,-1,-1,-1,-1,-1,-1,-1,-1,-1],"loss_changes":[1.5047135E3,2.7047278E2,2.7349915E2,1.676695E2,3.811544E1,4.4889526E1,5.994571E1,8.378497E1,3.8125397E1,1.4517319E1,0E0,8.115753E0,2.413208E0,2.4732758E1,2.5173569E1,6.603342E1,4.3858704E1,2.3671007E1,8.301811E-1,1.022215E1,5.5878716E0,1.0801849E0,6.904236E0,0E0,0E0,1.4594208E1,5.785614E0,1.2206957E1,9.54454E0,1.7617752E1,3.0125885E1,1.4594543E1,1.7971771E1,4.235504E0,9.135189E0,5.60606E-1,7.835388E-2,4.247549E0,3.886155E0,7.701683E0,1.7243347E0,0E0,0E0,3.0263062E0,5.0639343E0,7.441285E0,7.2424774E0,1.0845451E0,0E0,6.3693657E0,1.8098456E0,8.901642E0,3.1980896E0,0E0,0E0,0E0,0E0,0E0,0E0,0E0,0E0,0E0,0E0,0E0,0E0,0E0,0E0,0E0,0E0,0E0,0E0,0E0,0E0,0E0,0E0,0E0,0E0,0E0,0E0,0E0,0E0,0E0,0E0,0E0,0E0,0E0,0E0,0E0,0E0,0E0,0E0,0E0,0E0,0E0,0E0],"parents":[2147483647,0,0,1,1,2,2,3,3,4,4,5,5,6,6,7,7,8,8,9,9,11,11,12,12,13,13,14,14,15,15,16,16,17,17,18,18,19,19,20,20,21,21,22,22,25,25,26,26,27,27,28,28,29,29,30,30,31,31,32,32,33,33,34,34,35,35,36,36,37,37,38,38,39,39,40,40,43,43,44,44,45,45,46,46,47,47,49,49,50,50,51,51,52,52],"right_children":[2,4,6,8,10,12,14,16,18,20,-1,22,24,26,28,30,32,34,36,38,40,42,44,-1,-1,46,48,50,52,54,56,58,60,62,64,66,68,70,72,74,76,-1,-1,78,80,82,84,86,-1,88,90,92,94,-1,-1,-1,-1,-1,-1,-1,-1,-1,-1,-1,-1,-1,-1,-1,-1,-1,-1,-1,-1,-1,-1,-1,-1,-1,-1,-1,-1,-1,-1,-1,-1,-1,-1,-1,-1,-1,-1,-1,-1,-1,-1],"split_conditions":[9.8E0,3.67E2,6.4E1,5.4E0,6.43E2,7.29E2,7.7E1,6.7E1,1E-1,5.12E2,2.5934082E-1,4E1,4.8E1,1.61E1,1.31E1,-1.1E0,1.9E0,6.8E1,1E2,-2.5881904E-1,4.5E0,1.0164E3,1.47E1,3.9459273E-1,2.707768E-1,-7.0710677E-1,3.4E0,9.5E1,9.491E2,5.8E0,4.3E1,9.394E2,7.9E1,2.7E0,8.4E1,8.5E1,6.7E0,6.5E0,7.8E1,4.9E1,4.4E1,3.3395913E-1,1.6525625E-1,2.77E2,9.502E2,1.22E1,7.2E0,1.71E1,2.5089565E-1,1.015E3,8.7E1,1.04E2,1.84E1,-1.14473544E-1,-6.027208E-2,1.2003567E-1,-2.3560338E-2,-1.6309512E-1,-1.17591105E-1,-5.253437E-2,-1.0545162E-1,1.587583E-2,1.1465001E-1,8.038287E-3,-2.7582949E-2,-4.3697868E-2,-8.34945E-2,-1.3976781E-1,-7.7640876E-2,1.2434013E-1,6.6308216E-3,2.268893E-2,-7.878685E-2,1.0770328E-1,-9.853945E-3,1.4821367E-1,5.5238854E-2,1.2038038E-1,1.8308675E-1,1.1362177E-1,2.4581623E-1,-9.635313E-3,8.662387E-2,1.1251551E-1,1.704604E-1,6.618287E-2,1.609606E-1,1.2973571E-2,6.952874E-2,-2.2647439E-2,1.2351072E-2,4.1601907E-2,1.07941724E-1,1.0941787E-1,4.1184388E-2],"split_indices":[2,11,1,2,11,11,1,1,3,11,0,1,1,2,2,2,2,1,11,12,2,5,2,0,0,12,7,10,6,7,1,6,1,7,1,1,2,2,1,1,10,0,0,11,6,2,7,2,0,5,8,11,9,0,0,0,0,0,0,0,0,0,0,0,0,0,0,0,0,0,0,0,0,0,0,0,0,0,0,0,0,0,0,0,0,0,0,0,0,0,0,0,0,0,0],"split_type":[0,0,0,0,0,0,0,0,0,0,0,0,0,0,0,0,0,0,0,0,0,0,0,0,0,0,0,0,0,0,0,0,0,0,0,0,0,0,0,0,0,0,0,0,0,0,0,0,0,0,0,0,0,0,0,0,0,0,0,0,0,0,0,0,0,0,0,0,0,0,0,0,0,0,0,0,0,0,0,0,0,0,0,0,0,0,0,0,0,0,0,0,0,0,0],"sum_hessian":[2.293E3,1.56E3,7.33E2,1.407E3,1.53E2,1.48E2,5.85E2,1.033E3,3.74E2,1.44E2,9E0,1.14E2,3.4E1,1.88E2,3.97E2,4.34E2,5.99E2,3.18E2,5.6E1,9.8E1,4.6E1,1.2E1,1.02E2,1.7E1,1.7E1,1.57E2,3.1E1,1.73E2,2.24E2,2.51E2,1.83E2,3.18E2,2.81E2,2.5E1,2.93E2,4.4E1,1.2E1,1.8E1,8E1,2.2E1,2.4E1,8E0,4E0,6.2E1,4E1,3.8E1,1.19E2,1.1E1,2E1,1.08E2,6.5E1,9.9E1,1.25E2,1.37E2,1.14E2,1.5E1,1.68E2,1.57E2,1.61E2,1.07E2,1.74E2,6E0,1.9E1,1.69E2,1.24E2,8E0,3.6E1,6E0,6E0,1.4E1,4E0,7.7E1,3E0,1.3E1,9E0,2E1,4E0,2.1E1,4.1E1,6E0,3.4E1,1.1E1,2.7E1,8E1,3.9E1,4E0,7E0,2.7E1,8.1E1,2.1E1,4.4E1,7E1,2.9E1,1.16E2,9E0],